-1.116000000000000000e+03
-1.029000000000000000e+03
2.022000000000000000e+03
4.837000000000000000e+03
-1.857000000000000000e+03
-2.120000000000000000e+03
-2.200000000000000000e+01
-3.940000000000000000e+02
1.242000000000000000e+03
-1.158000000000000000e+03
2.740000000000000000e+03
3.715000000000000000e+03
-1.601000000000000000e+03
2.202000000000000000e+03
6.180000000000000000e+02
-1.356000000000000000e+03
2.284000000000000000e+03
-6.139000000000000000e+03
2.814000000000000000e+03
-2.805000000000000000e+03
-9.680000000000000000e+02
-7.920000000000000000e+02
5.092000000000000000e+03
-1.658000000000000000e+03
-1.650000000000000000e+03
-7.030000000000000000e+02
6.860000000000000000e+02
2.340000000000000000e+02
-2.758000000000000000e+03
-5.610000000000000000e+02
-2.656000000000000000e+03
-1.252000000000000000e+03
-1.146000000000000000e+03
-2.263000000000000000e+03
-7.230000000000000000e+02
-2.580000000000000000e+02
-2.600000000000000000e+02
-1.040000000000000000e+02
-1.528000000000000000e+03
-1.215000000000000000e+03
-4.260000000000000000e+02
-1.253000000000000000e+03
2.010000000000000000e+02
2.910000000000000000e+02
-7.110000000000000000e+02
1.495000000000000000e+03
5.161000000000000000e+03
4.260000000000000000e+03
-1.213000000000000000e+03
-2.040000000000000000e+03
5.950000000000000000e+02
-1.701000000000000000e+03
7.700000000000000000e+01
1.278000000000000000e+03
3.678000000000000000e+03
6.987000000000000000e+03
1.651000000000000000e+03
-3.509000000000000000e+03
-1.669000000000000000e+03
4.974000000000000000e+03
-1.950000000000000000e+03
-2.330000000000000000e+03
-8.350000000000000000e+02
-2.150000000000000000e+03
-5.241000000000000000e+03
-9.812000000000000000e+03
1.000000000000000000e+03
-2.948000000000000000e+03
-1.262000000000000000e+03
-2.116000000000000000e+03
-4.520000000000000000e+02
5.185000000000000000e+03
3.600000000000000000e+01
4.661000000000000000e+03
-4.050000000000000000e+02
8.270000000000000000e+03
2.542000000000000000e+03
-9.000000000000000000e+01
-1.946000000000000000e+03
3.380000000000000000e+02
4.305000000000000000e+03
3.189000000000000000e+03
-5.507000000000000000e+03
2.250000000000000000e+02
3.740000000000000000e+02
2.290000000000000000e+02
2.740000000000000000e+02
4.779000000000000000e+03
-6.310000000000000000e+02
-2.418000000000000000e+03
-2.060000000000000000e+03
3.057000000000000000e+03
-3.430000000000000000e+02
-2.489000000000000000e+03
-3.168000000000000000e+03
-3.182000000000000000e+03
-3.400000000000000000e+02
7.466000000000000000e+03
8.430000000000000000e+02
-6.510000000000000000e+02
-2.166000000000000000e+03
-4.199000000000000000e+03
-1.036000000000000000e+03
-2.330000000000000000e+02
-1.057000000000000000e+03
8.970000000000000000e+02
4.350000000000000000e+02
-1.739000000000000000e+03
1.000000000000000000e+03
1.120000000000000000e+02
-5.202000000000000000e+03
-1.768000000000000000e+03
-1.413000000000000000e+03
3.316000000000000000e+03
1.500000000000000000e+02
2.128000000000000000e+03
-6.670000000000000000e+02
-1.734000000000000000e+03
-9.500000000000000000e+02
1.380000000000000000e+02
-8.290000000000000000e+02
-3.020000000000000000e+02
-1.592000000000000000e+03
7.640000000000000000e+02
-7.920000000000000000e+02
-4.871000000000000000e+03
-2.032000000000000000e+03
-8.660000000000000000e+02
