1.536000000000000000e+03
-8.470000000000000000e+02
7.990000000000000000e+02
7.310000000000000000e+02
8.400000000000000000e+02
3.450000000000000000e+02
3.690000000000000000e+02
5.380000000000000000e+02
5.610000000000000000e+02
9.140000000000000000e+02
2.110000000000000000e+02
1.569000000000000000e+03
-9.850000000000000000e+02
1.020000000000000000e+03
-1.242000000000000000e+03
7.300000000000000000e+02
-1.072000000000000000e+03
-3.460000000000000000e+02
-5.990000000000000000e+02
-1.161000000000000000e+03
2.649000000000000000e+03
6.750000000000000000e+02
1.063000000000000000e+03
5.020000000000000000e+02
1.015000000000000000e+03
1.944000000000000000e+03
3.670000000000000000e+02
3.600000000000000000e+02
6.850000000000000000e+02
1.750000000000000000e+03
1.073000000000000000e+03
6.570000000000000000e+02
-1.104000000000000000e+03
9.970000000000000000e+02
2.965000000000000000e+03
-8.870000000000000000e+02
1.676000000000000000e+03
9.200000000000000000e+02
-9.040000000000000000e+02
9.110000000000000000e+02
1.720000000000000000e+02
1.234000000000000000e+03
7.770000000000000000e+02
3.098000000000000000e+03
1.947000000000000000e+03
2.095000000000000000e+03
4.650000000000000000e+02
1.594000000000000000e+03
-9.710000000000000000e+02
4.820000000000000000e+02
7.800000000000000000e+01
2.195000000000000000e+03
-2.222000000000000000e+03
3.314000000000000000e+03
7.240000000000000000e+02
2.082000000000000000e+03
1.545000000000000000e+03
1.191000000000000000e+03
-8.410000000000000000e+02
6.670000000000000000e+02
3.500000000000000000e+01
-1.440000000000000000e+02
-7.770000000000000000e+02
-5.150000000000000000e+02
2.000000000000000000e+03
9.290000000000000000e+02
1.949000000000000000e+03
-8.080000000000000000e+02
1.631000000000000000e+03
-3.160000000000000000e+02
8.450000000000000000e+02
2.159000000000000000e+03
7.610000000000000000e+02
-1.048000000000000000e+03
1.054000000000000000e+03
-3.550000000000000000e+02
5.730000000000000000e+02
-1.130000000000000000e+02
-6.700000000000000000e+02
-2.380000000000000000e+02
1.483000000000000000e+03
-2.330000000000000000e+02
9.040000000000000000e+02
-1.830000000000000000e+02
-4.310000000000000000e+02
2.061000000000000000e+03
2.713000000000000000e+03
4.130000000000000000e+02
-5.880000000000000000e+02
9.830000000000000000e+02
1.169000000000000000e+03
1.017000000000000000e+03
-3.620000000000000000e+02
1.570000000000000000e+02
2.559000000000000000e+03
-1.076000000000000000e+03
4.390000000000000000e+02
8.820000000000000000e+02
-2.640000000000000000e+02
-1.384000000000000000e+03
7.680000000000000000e+02
-3.840000000000000000e+02
1.872000000000000000e+03
1.397000000000000000e+03
2.632000000000000000e+03
-8.240000000000000000e+02
-1.730000000000000000e+02
-1.155000000000000000e+03
1.336000000000000000e+03
-1.300000000000000000e+01
4.330000000000000000e+02
1.186000000000000000e+03
4.260000000000000000e+02
-7.310000000000000000e+02
-3.740000000000000000e+02
-5.130000000000000000e+02
5.620000000000000000e+02
-1.003000000000000000e+03
-2.750000000000000000e+02
-4.770000000000000000e+02
8.380000000000000000e+02
-5.630000000000000000e+02
1.804000000000000000e+03
2.240000000000000000e+02
6.000000000000000000e+01
2.185000000000000000e+03
5.120000000000000000e+02
9.130000000000000000e+02
