1.742000000000000000e+03
1.780000000000000000e+03
-3.535000000000000000e+03
-6.034000000000000000e+03
2.136800000000000000e+04
2.441000000000000000e+03
4.930000000000000000e+03
-5.893000000000000000e+03
-1.080000000000000000e+03
5.409000000000000000e+03
2.204000000000000000e+03
-1.566000000000000000e+03
-1.770000000000000000e+02
-1.041000000000000000e+03
2.071000000000000000e+03
4.843000000000000000e+03
2.750000000000000000e+02
3.335000000000000000e+03
3.700000000000000000e+03
1.413000000000000000e+03
-1.040500000000000000e+04
-9.040000000000000000e+02
2.304000000000000000e+03
4.119000000000000000e+03
3.300000000000000000e+01
4.600000000000000000e+03
-1.225000000000000000e+03
9.750000000000000000e+03
-2.461000000000000000e+03
6.399000000000000000e+03
1.224000000000000000e+03
8.548000000000000000e+03
-4.070000000000000000e+02
6.095000000000000000e+03
4.387000000000000000e+03
-2.577000000000000000e+03
-1.466500000000000000e+04
6.695000000000000000e+03
-2.850000000000000000e+02
-5.770000000000000000e+02
2.271000000000000000e+03
-2.410000000000000000e+02
3.169000000000000000e+03
-3.875000000000000000e+03
8.966000000000000000e+03
-7.100000000000000000e+02
-2.616000000000000000e+03
-1.040000000000000000e+02
-4.260000000000000000e+02
-1.264000000000000000e+03
4.147000000000000000e+03
-6.797000000000000000e+03
2.706000000000000000e+03
-1.276100000000000000e+04
-4.565000000000000000e+03
-5.364000000000000000e+03
3.215000000000000000e+03
5.745000000000000000e+03
1.024700000000000000e+04
3.708000000000000000e+03
4.355000000000000000e+03
3.681000000000000000e+03
-8.590000000000000000e+02
1.276100000000000000e+04
-6.130000000000000000e+03
-3.024000000000000000e+03
-3.983000000000000000e+03
2.604000000000000000e+03
2.635000000000000000e+03
8.995000000000000000e+03
-3.659000000000000000e+03
-2.350000000000000000e+03
2.804000000000000000e+03
1.586000000000000000e+03
-1.435000000000000000e+03
7.138000000000000000e+03
6.100000000000000000e+01
4.285000000000000000e+03
-1.200000000000000000e+01
4.950000000000000000e+02
-9.000000000000000000e+01
-3.490000000000000000e+03
5.026000000000000000e+03
4.320000000000000000e+02
4.687000000000000000e+03
1.273200000000000000e+04
1.845100000000000000e+04
2.849000000000000000e+03
-2.104000000000000000e+03
-3.067000000000000000e+03
-1.061500000000000000e+04
3.937000000000000000e+03
-2.670000000000000000e+03
6.550000000000000000e+02
-2.852000000000000000e+03
-4.234000000000000000e+03
7.866000000000000000e+03
6.216000000000000000e+03
1.935000000000000000e+03
-8.913000000000000000e+03
-2.267000000000000000e+03
1.166000000000000000e+03
9.210000000000000000e+03
8.463000000000000000e+03
1.619100000000000000e+04
1.010400000000000000e+04
-7.754000000000000000e+03
-1.377000000000000000e+03
2.218000000000000000e+03
-2.969000000000000000e+03
4.821000000000000000e+03
-4.899000000000000000e+03
-9.550000000000000000e+02
5.023000000000000000e+03
2.128000000000000000e+03
6.680000000000000000e+02
-7.268000000000000000e+03
-1.322000000000000000e+03
2.579000000000000000e+03
-2.812000000000000000e+03
-8.090000000000000000e+02
-8.503000000000000000e+03
1.101000000000000000e+03
1.190000000000000000e+03
-3.410000000000000000e+03
-2.844000000000000000e+03
3.473000000000000000e+03
4.133000000000000000e+03
