-5.490000000000000000e+02
-1.891000000000000000e+03
7.579000000000000000e+03
2.995000000000000000e+03
1.410000000000000000e+03
-2.018000000000000000e+03
-1.018000000000000000e+03
-1.941000000000000000e+03
1.920000000000000000e+02
-4.521000000000000000e+03
-1.085000000000000000e+03
-1.813000000000000000e+03
-8.730000000000000000e+02
2.095000000000000000e+03
1.372000000000000000e+03
1.127000000000000000e+03
-1.780000000000000000e+02
-5.180000000000000000e+02
2.800000000000000000e+02
-5.660000000000000000e+02
3.510000000000000000e+02
-1.937000000000000000e+03
1.646000000000000000e+03
8.400000000000000000e+01
-9.150000000000000000e+02
-1.631000000000000000e+03
-1.140000000000000000e+03
-1.516000000000000000e+03
2.720000000000000000e+02
-1.340000000000000000e+02
2.178000000000000000e+03
-3.385000000000000000e+03
7.280000000000000000e+02
1.980000000000000000e+02
-1.899000000000000000e+03
3.502000000000000000e+03
-2.244000000000000000e+03
2.633000000000000000e+03
-4.210000000000000000e+02
-2.477000000000000000e+03
-2.151000000000000000e+03
-1.616000000000000000e+03
-3.271000000000000000e+03
-1.211000000000000000e+03
-3.400000000000000000e+02
3.070000000000000000e+02
1.914000000000000000e+03
-1.290000000000000000e+03
-3.930000000000000000e+02
-4.340000000000000000e+02
1.700000000000000000e+03
2.000000000000000000e+02
1.800000000000000000e+03
-8.620000000000000000e+02
-2.303000000000000000e+03
-5.220000000000000000e+02
-2.468000000000000000e+03
-8.770000000000000000e+02
-6.590000000000000000e+02
1.886000000000000000e+03
-6.050000000000000000e+02
2.499000000000000000e+03
2.369000000000000000e+03
5.350000000000000000e+02
-1.476000000000000000e+03
-1.501000000000000000e+03
-5.350000000000000000e+02
6.300000000000000000e+02
-2.224000000000000000e+03
6.610000000000000000e+02
1.290000000000000000e+02
1.921000000000000000e+03
-1.126000000000000000e+03
-9.000000000000000000e+00
-1.478000000000000000e+03
3.130000000000000000e+03
1.822000000000000000e+03
2.600000000000000000e+01
-9.670000000000000000e+02
-2.140000000000000000e+03
-1.597000000000000000e+03
1.957000000000000000e+03
-8.770000000000000000e+02
-1.769000000000000000e+03
-2.210000000000000000e+02
-4.758000000000000000e+03
2.014000000000000000e+03
-2.970000000000000000e+03
-1.466000000000000000e+03
-1.619000000000000000e+03
-1.508000000000000000e+03
-7.200000000000000000e+02
1.221000000000000000e+03
-1.200000000000000000e+03
-9.560000000000000000e+02
3.660000000000000000e+02
-2.548000000000000000e+03
-5.660000000000000000e+02
4.104000000000000000e+03
1.830000000000000000e+02
-3.257000000000000000e+03
-1.210000000000000000e+02
-2.747000000000000000e+03
1.604000000000000000e+03
-5.000000000000000000e+02
2.057000000000000000e+03
2.275000000000000000e+03
-2.528000000000000000e+03
-8.800000000000000000e+01
1.761000000000000000e+03
1.814000000000000000e+03
-1.754000000000000000e+03
-1.920000000000000000e+03
-3.807000000000000000e+03
-6.630000000000000000e+02
1.554000000000000000e+03
3.203000000000000000e+03
-3.486000000000000000e+03
-2.156000000000000000e+03
-1.010000000000000000e+02
1.085000000000000000e+03
-3.653000000000000000e+03
-1.205000000000000000e+03
-5.370000000000000000e+02
-1.606000000000000000e+03
-2.063000000000000000e+03
-2.800000000000000000e+02
9.610000000000000000e+02
-1.870000000000000000e+03
-3.768000000000000000e+03
3.610000000000000000e+02
-5.115000000000000000e+03
4.320000000000000000e+02
-1.388000000000000000e+03
3.220000000000000000e+02
7.090000000000000000e+02
5.890000000000000000e+02
-2.000000000000000000e+00
9.290000000000000000e+02
-1.225000000000000000e+03
-1.357000000000000000e+03
2.464000000000000000e+03
1.736000000000000000e+03
-7.280000000000000000e+02
-1.000000000000000000e+00
-2.239000000000000000e+03
2.846000000000000000e+03
-2.887000000000000000e+03
-2.784000000000000000e+03
1.860000000000000000e+02
-2.350000000000000000e+03
-1.370000000000000000e+03
-1.605000000000000000e+03
1.543000000000000000e+03
-1.870000000000000000e+02
2.780000000000000000e+02
-3.990000000000000000e+02
-1.446000000000000000e+03
-1.997000000000000000e+03
1.850000000000000000e+03
-1.369000000000000000e+03
-3.335000000000000000e+03
-2.134000000000000000e+03
-2.794000000000000000e+03
-1.269000000000000000e+03
-1.169000000000000000e+03
1.700000000000000000e+02
-1.196000000000000000e+03
-1.824000000000000000e+03
-9.100000000000000000e+02
-1.583000000000000000e+03
1.500000000000000000e+01
-2.522000000000000000e+03
1.404000000000000000e+03
9.600000000000000000e+01
-1.105000000000000000e+03
-1.430000000000000000e+02
5.910000000000000000e+02
3.049000000000000000e+03
-8.800000000000000000e+01
6.870000000000000000e+02
5.910000000000000000e+02
1.751000000000000000e+03
-5.050000000000000000e+02
-1.589000000000000000e+03
1.718000000000000000e+03
7.370000000000000000e+02
-3.988000000000000000e+03
1.624000000000000000e+03
3.080000000000000000e+02
-6.560000000000000000e+02
8.180000000000000000e+02
-1.309000000000000000e+03
-7.190000000000000000e+02
-4.045000000000000000e+03
1.590000000000000000e+02
-2.459000000000000000e+03
-1.795000000000000000e+03
-1.137000000000000000e+03
-3.400000000000000000e+02
-2.398000000000000000e+03
5.930000000000000000e+02
1.595000000000000000e+03
1.818000000000000000e+03
-1.303000000000000000e+03
-1.531000000000000000e+03
6.540000000000000000e+02
1.481000000000000000e+03
1.213000000000000000e+03
-2.478000000000000000e+03
2.758000000000000000e+03
-7.870000000000000000e+02
2.223000000000000000e+03
-1.883000000000000000e+03
-1.125000000000000000e+03
-3.160000000000000000e+03
-1.074000000000000000e+03
-2.447000000000000000e+03
1.114000000000000000e+03
-7.580000000000000000e+02
-2.120000000000000000e+03
-1.094000000000000000e+03
2.994000000000000000e+03
-1.432000000000000000e+03
-8.670000000000000000e+02
-4.977000000000000000e+03
-2.250000000000000000e+03
-1.391000000000000000e+03
-3.300000000000000000e+01
-2.184000000000000000e+03
-4.169000000000000000e+03
-5.830000000000000000e+02
1.340000000000000000e+02
-6.194000000000000000e+03
1.119000000000000000e+03
1.171000000000000000e+03
-1.545000000000000000e+03
-5.040000000000000000e+02
-3.626000000000000000e+03
-3.012000000000000000e+03
-5.420000000000000000e+02
-2.246000000000000000e+03
1.860000000000000000e+02
7.922000000000000000e+03
2.624000000000000000e+03
-8.600000000000000000e+02
-1.620000000000000000e+03
1.278000000000000000e+03
3.079000000000000000e+03
-8.850000000000000000e+02
2.800000000000000000e+01
-2.300000000000000000e+02
-1.673000000000000000e+03
1.080000000000000000e+03
-2.699000000000000000e+03
3.400000000000000000e+02
