-3.300000000000000000e+01
-5.770000000000000000e+02
8.910000000000000000e+02
3.070000000000000000e+02
8.290000000000000000e+02
-3.070000000000000000e+02
-2.990000000000000000e+02
3.300000000000000000e+02
-9.340000000000000000e+02
-6.220000000000000000e+02
-4.000000000000000000e+00
-8.400000000000000000e+01
7.850000000000000000e+02
-3.710000000000000000e+02
4.700000000000000000e+02
1.750000000000000000e+02
1.370000000000000000e+02
4.110000000000000000e+02
9.630000000000000000e+02
-1.630000000000000000e+02
-6.330000000000000000e+02
4.240000000000000000e+02
7.180000000000000000e+02
1.960000000000000000e+02
5.380000000000000000e+02
5.030000000000000000e+02
1.035000000000000000e+03
3.630000000000000000e+02
6.990000000000000000e+02
1.129000000000000000e+03
1.348000000000000000e+03
-8.200000000000000000e+01
1.386000000000000000e+03
-4.530000000000000000e+02
-1.420000000000000000e+02
6.780000000000000000e+02
-1.346000000000000000e+03
1.106000000000000000e+03
-2.140000000000000000e+02
1.440000000000000000e+02
1.139000000000000000e+03
1.390000000000000000e+02
1.076000000000000000e+03
1.031000000000000000e+03
-1.970000000000000000e+02
1.390000000000000000e+02
6.700000000000000000e+02
1.328000000000000000e+03
-2.200000000000000000e+02
2.142000000000000000e+03
-4.510000000000000000e+02
-8.290000000000000000e+02
8.500000000000000000e+01
-4.700000000000000000e+01
1.693000000000000000e+03
-8.800000000000000000e+01
3.580000000000000000e+02
-5.960000000000000000e+02
-8.770000000000000000e+02
1.451000000000000000e+03
1.813000000000000000e+03
3.040000000000000000e+02
2.680000000000000000e+02
4.010000000000000000e+02
1.040000000000000000e+02
3.260000000000000000e+02
3.990000000000000000e+02
-8.500000000000000000e+01
6.520000000000000000e+02
3.710000000000000000e+02
-8.430000000000000000e+02
4.100000000000000000e+02
-1.820000000000000000e+02
4.400000000000000000e+02
7.200000000000000000e+01
-2.830000000000000000e+02
-6.730000000000000000e+02
1.075000000000000000e+03
1.283000000000000000e+03
8.240000000000000000e+02
4.340000000000000000e+02
-2.260000000000000000e+02
3.900000000000000000e+01
1.079000000000000000e+03
-9.630000000000000000e+02
3.360000000000000000e+02
2.780000000000000000e+02
9.200000000000000000e+02
6.980000000000000000e+02
2.170000000000000000e+02
-1.400000000000000000e+02
7.020000000000000000e+02
9.900000000000000000e+01
7.180000000000000000e+02
-1.340000000000000000e+02
6.330000000000000000e+02
-4.440000000000000000e+02
5.120000000000000000e+02
8.620000000000000000e+02
2.000000000000000000e+00
-1.280000000000000000e+02
5.210000000000000000e+02
2.520000000000000000e+02
1.992000000000000000e+03
4.270000000000000000e+02
1.480000000000000000e+02
-5.600000000000000000e+02
5.160000000000000000e+02
-4.570000000000000000e+02
-9.900000000000000000e+01
1.089000000000000000e+03
7.870000000000000000e+02
9.380000000000000000e+02
-2.360000000000000000e+02
-1.400000000000000000e+01
4.240000000000000000e+02
9.930000000000000000e+02
-3.800000000000000000e+01
1.460000000000000000e+02
1.050000000000000000e+02
2.090000000000000000e+02
3.710000000000000000e+02
4.210000000000000000e+02
-1.392000000000000000e+03
-1.450000000000000000e+02
1.150000000000000000e+02
1.803000000000000000e+03
1.120000000000000000e+02
7.410000000000000000e+02
1.240000000000000000e+02
5.600000000000000000e+01
1.439000000000000000e+03
1.147000000000000000e+03
-4.260000000000000000e+02
-1.200000000000000000e+02
2.452000000000000000e+03
1.140000000000000000e+03
1.056000000000000000e+03
1.172000000000000000e+03
5.590000000000000000e+02
-7.100000000000000000e+01
8.890000000000000000e+02
-1.700000000000000000e+01
-8.970000000000000000e+02
1.669000000000000000e+03
3.601000000000000000e+03
2.430000000000000000e+02
-1.899000000000000000e+03
-8.930000000000000000e+02
-1.046000000000000000e+03
6.660000000000000000e+02
3.520000000000000000e+02
2.200000000000000000e+02
-1.480000000000000000e+02
-9.230000000000000000e+02
2.614000000000000000e+03
-6.300000000000000000e+01
4.300000000000000000e+01
9.890000000000000000e+02
-7.330000000000000000e+02
-8.790000000000000000e+02
1.139000000000000000e+03
9.940000000000000000e+02
1.581000000000000000e+03
1.560000000000000000e+02
1.114000000000000000e+03
7.770000000000000000e+02
1.660000000000000000e+02
-6.020000000000000000e+02
-7.000000000000000000e+01
9.200000000000000000e+02
1.190000000000000000e+02
-1.460000000000000000e+02
5.200000000000000000e+01
5.790000000000000000e+02
4.730000000000000000e+02
1.820000000000000000e+02
1.027000000000000000e+03
-3.360000000000000000e+02
6.120000000000000000e+02
-4.210000000000000000e+02
-1.880000000000000000e+02
-2.650000000000000000e+02
-9.400000000000000000e+01
4.540000000000000000e+02
1.502000000000000000e+03
1.742000000000000000e+03
-1.690000000000000000e+02
-8.920000000000000000e+02
8.200000000000000000e+02
-6.320000000000000000e+02
1.172000000000000000e+03
6.580000000000000000e+02
-1.247000000000000000e+03
4.110000000000000000e+02
-1.280000000000000000e+02
-3.270000000000000000e+02
8.660000000000000000e+02
1.210000000000000000e+02
4.290000000000000000e+02
3.230000000000000000e+02
9.840000000000000000e+02
-2.760000000000000000e+02
7.380000000000000000e+02
-7.210000000000000000e+02
1.600000000000000000e+01
1.164000000000000000e+03
1.312000000000000000e+03
5.170000000000000000e+02
1.605000000000000000e+03
-2.040000000000000000e+02
7.050000000000000000e+02
1.540000000000000000e+02
6.840000000000000000e+02
4.090000000000000000e+02
6.080000000000000000e+02
-1.930000000000000000e+02
-1.180000000000000000e+02
1.222000000000000000e+03
3.630000000000000000e+02
1.152000000000000000e+03
5.100000000000000000e+02
4.700000000000000000e+02
-1.300000000000000000e+01
5.170000000000000000e+02
1.404000000000000000e+03
1.059000000000000000e+03
-1.000000000000000000e+00
6.260000000000000000e+02
-5.650000000000000000e+02
5.470000000000000000e+02
2.300000000000000000e+01
-3.940000000000000000e+02
4.390000000000000000e+02
1.010000000000000000e+02
1.299000000000000000e+03
-3.750000000000000000e+02
5.370000000000000000e+02
3.320000000000000000e+02
6.670000000000000000e+02
-1.770000000000000000e+02
6.140000000000000000e+02
5.820000000000000000e+02
8.650000000000000000e+02
1.394000000000000000e+03
5.022000000000000000e+03
1.677000000000000000e+03
-7.900000000000000000e+02
-8.110000000000000000e+02
2.740000000000000000e+02
-1.320000000000000000e+02
-2.110000000000000000e+02
2.700000000000000000e+01
0.000000000000000000e+00
6.320000000000000000e+02
-5.470000000000000000e+02
