3.667000000000000000e+03
2.520000000000000000e+02
-1.039000000000000000e+03
-6.350000000000000000e+02
1.656000000000000000e+03
1.426000000000000000e+03
2.231000000000000000e+03
-2.034000000000000000e+03
-8.810000000000000000e+02
3.670000000000000000e+02
3.168000000000000000e+03
-1.036000000000000000e+03
-1.398000000000000000e+03
1.000000000000000000e+03
-5.081000000000000000e+03
3.141000000000000000e+03
4.100000000000000000e+02
-1.560000000000000000e+03
4.050000000000000000e+02
2.372000000000000000e+03
-2.909000000000000000e+03
2.079000000000000000e+03
-4.780000000000000000e+02
-2.845000000000000000e+03
-6.180000000000000000e+02
-8.550000000000000000e+02
6.229000000000000000e+03
5.000000000000000000e+02
3.027000000000000000e+03
-1.272000000000000000e+03
-1.290000000000000000e+02
7.770000000000000000e+02
6.310000000000000000e+02
2.218000000000000000e+03
-7.450000000000000000e+02
1.307000000000000000e+03
2.440000000000000000e+02
1.965000000000000000e+03
-8.150000000000000000e+02
2.506000000000000000e+03
-4.270000000000000000e+02
4.800000000000000000e+01
6.720000000000000000e+02
4.400000000000000000e+01
2.001000000000000000e+03
1.944000000000000000e+03
-6.450000000000000000e+02
-1.210000000000000000e+02
-4.775000000000000000e+03
-6.860000000000000000e+02
-9.470000000000000000e+02
-3.020000000000000000e+02
2.743000000000000000e+03
2.494000000000000000e+03
-1.462000000000000000e+03
-4.760000000000000000e+02
4.900000000000000000e+02
2.627000000000000000e+03
1.116000000000000000e+03
9.340000000000000000e+02
-1.443000000000000000e+03
7.710000000000000000e+02
1.458000000000000000e+03
1.032000000000000000e+03
1.172000000000000000e+03
3.454000000000000000e+03
-6.670000000000000000e+02
3.050000000000000000e+02
-2.618000000000000000e+03
9.510000000000000000e+02
-4.830000000000000000e+02
9.070000000000000000e+02
4.310000000000000000e+02
7.610000000000000000e+02
1.485000000000000000e+03
7.830000000000000000e+02
-2.857000000000000000e+03
5.290000000000000000e+02
2.358000000000000000e+03
1.702000000000000000e+03
2.910000000000000000e+02
2.446000000000000000e+03
-1.665000000000000000e+03
2.150000000000000000e+03
2.221000000000000000e+03
4.350000000000000000e+02
-1.374000000000000000e+03
1.673000000000000000e+03
-3.413000000000000000e+03
6.670000000000000000e+02
1.202000000000000000e+03
1.651000000000000000e+03
3.810000000000000000e+03
-5.360000000000000000e+02
1.981000000000000000e+03
4.690000000000000000e+02
4.748000000000000000e+03
2.867000000000000000e+03
1.792000000000000000e+03
3.360000000000000000e+02
2.840000000000000000e+02
2.600000000000000000e+01
-2.797000000000000000e+03
-1.146000000000000000e+03
1.374000000000000000e+03
-6.240000000000000000e+02
6.920000000000000000e+02
-6.293000000000000000e+03
6.980000000000000000e+02
6.170000000000000000e+02
1.920000000000000000e+03
1.001000000000000000e+03
1.329000000000000000e+03
-4.490000000000000000e+02
-1.219000000000000000e+03
1.221000000000000000e+03
1.236000000000000000e+03
-2.530000000000000000e+02
-2.116000000000000000e+03
-2.339000000000000000e+03
-7.190000000000000000e+02
-2.941000000000000000e+03
1.227000000000000000e+03
1.269000000000000000e+03
-7.840000000000000000e+02
5.169000000000000000e+03
-4.630000000000000000e+02
-4.791000000000000000e+03
