2.625000000000000000e+03
2.218000000000000000e+03
-1.377000000000000000e+03
2.170000000000000000e+03
3.990000000000000000e+02
-7.180000000000000000e+02
2.430000000000000000e+02
5.630000000000000000e+02
-1.856000000000000000e+03
-1.213000000000000000e+03
-2.678000000000000000e+03
-3.300000000000000000e+02
2.747000000000000000e+03
-1.856000000000000000e+03
-4.291000000000000000e+03
2.860000000000000000e+02
-1.472000000000000000e+03
2.683000000000000000e+03
4.355000000000000000e+03
4.182000000000000000e+03
-2.980000000000000000e+02
1.181000000000000000e+03
-1.122000000000000000e+03
6.190000000000000000e+02
-7.730000000000000000e+02
-1.725000000000000000e+03
2.135000000000000000e+03
-1.879000000000000000e+03
6.620000000000000000e+02
1.169000000000000000e+03
2.791000000000000000e+03
-2.040000000000000000e+03
1.000000000000000000e+01
-1.728000000000000000e+03
-3.790000000000000000e+02
-1.398000000000000000e+03
-3.900000000000000000e+01
-8.840000000000000000e+02
-8.070000000000000000e+02
-2.279000000000000000e+03
2.600000000000000000e+01
-1.805000000000000000e+03
1.942000000000000000e+03
2.899000000000000000e+03
7.300000000000000000e+01
-4.917000000000000000e+03
-1.188000000000000000e+03
2.949000000000000000e+03
4.380000000000000000e+02
3.312000000000000000e+03
-8.070000000000000000e+02
1.201000000000000000e+03
2.524000000000000000e+03
-1.126000000000000000e+03
-9.930000000000000000e+02
2.000000000000000000e+01
6.000000000000000000e+02
-1.489000000000000000e+03
-2.222000000000000000e+03
1.750000000000000000e+03
5.610000000000000000e+02
-3.117000000000000000e+03
-3.290000000000000000e+02
7.103000000000000000e+03
-5.150000000000000000e+02
-1.880000000000000000e+02
1.970000000000000000e+02
-1.982000000000000000e+03
6.090000000000000000e+02
2.616000000000000000e+03
5.630000000000000000e+02
6.810000000000000000e+02
-2.597000000000000000e+03
-2.907000000000000000e+03
-6.270000000000000000e+02
-1.334000000000000000e+03
1.116000000000000000e+03
-1.287000000000000000e+03
2.808000000000000000e+03
-6.050000000000000000e+02
1.548000000000000000e+03
3.040000000000000000e+02
3.100000000000000000e+02
-9.420000000000000000e+02
2.810000000000000000e+02
-2.660000000000000000e+02
-2.850000000000000000e+02
-6.090000000000000000e+02
-2.644000000000000000e+03
1.845000000000000000e+03
1.109000000000000000e+03
2.164000000000000000e+03
-4.100000000000000000e+02
2.463000000000000000e+03
-8.950000000000000000e+02
-5.440000000000000000e+02
7.800000000000000000e+02
-4.310000000000000000e+02
-1.228000000000000000e+03
6.140000000000000000e+02
-3.932000000000000000e+03
-1.620000000000000000e+03
-1.847000000000000000e+03
-2.320000000000000000e+03
2.530000000000000000e+02
-1.280000000000000000e+02
-9.910000000000000000e+02
1.859000000000000000e+03
3.102000000000000000e+03
-2.962000000000000000e+03
1.402000000000000000e+03
4.263000000000000000e+03
-2.720000000000000000e+03
2.270000000000000000e+02
1.770000000000000000e+02
-9.450000000000000000e+02
-6.291000000000000000e+03
2.111000000000000000e+03
1.368000000000000000e+03
6.813000000000000000e+03
-9.440000000000000000e+02
7.080000000000000000e+02
3.626000000000000000e+03
1.990000000000000000e+02
-1.942000000000000000e+03
3.790000000000000000e+02
4.520000000000000000e+02
-8.750000000000000000e+02
-4.350000000000000000e+02
-4.135000000000000000e+03
2.211000000000000000e+03
-2.038000000000000000e+03
2.227000000000000000e+03
1.184000000000000000e+03
4.130000000000000000e+02
1.994000000000000000e+03
-3.960000000000000000e+02
1.108000000000000000e+03
-2.324000000000000000e+03
2.554000000000000000e+03
-8.870000000000000000e+02
-2.106000000000000000e+03
-4.040000000000000000e+02
2.700000000000000000e+02
-6.870000000000000000e+02
-1.406000000000000000e+03
-4.070000000000000000e+02
2.950000000000000000e+02
1.058000000000000000e+03
-1.277000000000000000e+03
-1.910000000000000000e+03
3.176000000000000000e+03
-8.160000000000000000e+02
-2.636000000000000000e+03
-2.086000000000000000e+03
1.306000000000000000e+03
2.140000000000000000e+03
1.940000000000000000e+03
-1.943000000000000000e+03
1.560000000000000000e+03
-7.570000000000000000e+02
-5.174000000000000000e+03
-4.910000000000000000e+02
-1.722000000000000000e+03
3.110000000000000000e+02
-6.160000000000000000e+02
-3.304000000000000000e+03
1.230000000000000000e+03
2.220000000000000000e+02
4.235000000000000000e+03
-1.433000000000000000e+03
7.270000000000000000e+02
-1.967000000000000000e+03
-1.362000000000000000e+03
1.950000000000000000e+02
-1.318000000000000000e+03
-4.552000000000000000e+03
-2.100000000000000000e+03
-8.680000000000000000e+02
-1.581000000000000000e+03
-5.491000000000000000e+03
-4.250000000000000000e+02
-6.210000000000000000e+02
9.590000000000000000e+02
-1.100000000000000000e+02
-3.620000000000000000e+02
-3.510000000000000000e+03
-2.390000000000000000e+02
-1.444000000000000000e+03
-4.390000000000000000e+02
-3.526000000000000000e+03
6.110000000000000000e+02
4.430000000000000000e+02
-9.370000000000000000e+02
-2.440000000000000000e+03
2.220000000000000000e+02
-2.946000000000000000e+03
-4.300000000000000000e+01
-3.651000000000000000e+03
-1.090000000000000000e+02
1.519000000000000000e+03
-5.720000000000000000e+02
-7.870000000000000000e+02
4.457000000000000000e+03
1.640000000000000000e+03
9.580000000000000000e+02
1.485000000000000000e+03
-2.574000000000000000e+03
1.001000000000000000e+03
2.093000000000000000e+03
-3.110000000000000000e+02
-6.670000000000000000e+02
-3.200000000000000000e+01
-2.310000000000000000e+02
-1.569000000000000000e+03
2.720000000000000000e+03
2.640000000000000000e+02
4.770000000000000000e+02
-2.780000000000000000e+02
-6.280000000000000000e+02
1.390000000000000000e+03
-1.525000000000000000e+03
1.147000000000000000e+03
-3.699000000000000000e+03
-3.104000000000000000e+03
-1.559000000000000000e+03
-4.010000000000000000e+02
-5.310000000000000000e+02
-3.790000000000000000e+03
-7.200000000000000000e+01
-8.130000000000000000e+02
-3.257000000000000000e+03
1.820000000000000000e+03
-1.548000000000000000e+03
-2.847000000000000000e+03
-1.020000000000000000e+03
5.030000000000000000e+02
-1.027000000000000000e+03
-9.960000000000000000e+02
3.217000000000000000e+03
5.540000000000000000e+02
-6.170000000000000000e+03
1.462000000000000000e+03
-7.870000000000000000e+02
-9.700000000000000000e+02
3.790000000000000000e+02
6.400000000000000000e+02
9.540000000000000000e+02
1.555000000000000000e+03
-1.665000000000000000e+03
-1.260000000000000000e+03
1.198000000000000000e+03
2.151000000000000000e+03
-2.486000000000000000e+03
1.744000000000000000e+03
6.301000000000000000e+03
