-4.691000000000000000e+03
-8.100000000000000000e+02
1.430000000000000000e+02
-9.780000000000000000e+02
-2.646000000000000000e+03
-6.410000000000000000e+02
3.185000000000000000e+03
-1.650000000000000000e+03
-4.360000000000000000e+03
-1.760000000000000000e+02
2.460000000000000000e+02
1.567000000000000000e+03
-1.030000000000000000e+02
-8.910000000000000000e+02
2.380000000000000000e+02
2.133000000000000000e+03
1.109000000000000000e+03
-6.900000000000000000e+01
-6.600000000000000000e+01
-1.467000000000000000e+03
1.674000000000000000e+03
-6.460000000000000000e+02
-1.580000000000000000e+02
1.470000000000000000e+02
9.000000000000000000e+00
3.730000000000000000e+02
2.400000000000000000e+01
5.100000000000000000e+02
6.730000000000000000e+02
-1.416000000000000000e+03
2.700000000000000000e+01
2.957000000000000000e+03
-1.899000000000000000e+03
3.000000000000000000e+02
-2.200000000000000000e+01
1.950000000000000000e+02
-2.970000000000000000e+02
-2.610000000000000000e+02
5.520000000000000000e+02
1.720000000000000000e+02
4.700000000000000000e+01
1.231000000000000000e+03
-2.309000000000000000e+03
-9.070000000000000000e+02
5.940000000000000000e+02
3.520000000000000000e+02
1.099000000000000000e+03
-1.379000000000000000e+03
1.390000000000000000e+02
-4.240000000000000000e+02
-6.280000000000000000e+02
-8.180000000000000000e+02
-5.326000000000000000e+03
3.524000000000000000e+03
-4.480000000000000000e+02
-2.470000000000000000e+02
7.000000000000000000e+01
1.590000000000000000e+03
4.141000000000000000e+03
5.020000000000000000e+02
-6.010000000000000000e+02
1.198000000000000000e+03
-1.585000000000000000e+03
1.385000000000000000e+03
8.200000000000000000e+01
4.000000000000000000e+02
2.200000000000000000e+01
-4.500000000000000000e+02
-1.729000000000000000e+03
5.790000000000000000e+02
-2.212000000000000000e+03
-6.628000000000000000e+03
1.304000000000000000e+03
-1.451000000000000000e+03
-6.900000000000000000e+01
-1.120000000000000000e+03
-2.415000000000000000e+03
7.900000000000000000e+01
1.480000000000000000e+02
1.400000000000000000e+01
1.000000000000000000e+02
-1.270000000000000000e+03
1.384000000000000000e+03
8.630000000000000000e+02
2.015000000000000000e+03
4.940000000000000000e+02
-6.600000000000000000e+02
8.950000000000000000e+02
1.102000000000000000e+03
4.687000000000000000e+03
2.330000000000000000e+02
4.020000000000000000e+02
1.030000000000000000e+02
-6.620000000000000000e+02
-9.000000000000000000e+01
1.322000000000000000e+03
5.870000000000000000e+03
-3.424000000000000000e+03
9.400000000000000000e+01
-1.550000000000000000e+03
1.944000000000000000e+03
1.976000000000000000e+03
9.670000000000000000e+02
-9.750000000000000000e+02
4.157000000000000000e+03
-2.498000000000000000e+03
2.760000000000000000e+03
1.260000000000000000e+02
-2.120000000000000000e+02
1.323000000000000000e+03
3.750000000000000000e+02
-1.600000000000000000e+02
-1.338000000000000000e+03
-3.290000000000000000e+02
-2.971000000000000000e+03
-6.577000000000000000e+03
5.250000000000000000e+02
-3.240000000000000000e+02
-4.800000000000000000e+02
-4.500000000000000000e+01
9.010000000000000000e+02
1.267000000000000000e+03
-1.043000000000000000e+03
3.590000000000000000e+02
1.020000000000000000e+02
-1.205000000000000000e+03
3.230000000000000000e+02
-3.580000000000000000e+02
9.520000000000000000e+02
1.140000000000000000e+02
2.324000000000000000e+03
1.610000000000000000e+02
-7.800000000000000000e+01
-4.000000000000000000e+00
3.494000000000000000e+03
1.180000000000000000e+02
-2.450000000000000000e+02
-2.650000000000000000e+02
-1.179000000000000000e+03
7.560000000000000000e+02
-3.825000000000000000e+03
4.694000000000000000e+03
-9.500000000000000000e+02
6.280000000000000000e+02
-1.536000000000000000e+03
3.930000000000000000e+02
2.201000000000000000e+03
-2.530000000000000000e+02
-8.800000000000000000e+01
-3.490000000000000000e+02
8.950000000000000000e+02
-1.431000000000000000e+03
-1.470000000000000000e+03
2.990000000000000000e+03
2.345000000000000000e+03
4.930000000000000000e+02
-3.286000000000000000e+03
6.548000000000000000e+03
1.960000000000000000e+02
-1.055000000000000000e+03
-1.071000000000000000e+03
2.920000000000000000e+02
4.840000000000000000e+02
-6.570000000000000000e+02
-9.600000000000000000e+01
-3.320000000000000000e+02
2.315000000000000000e+03
1.710000000000000000e+02
2.121000000000000000e+03
-8.200000000000000000e+01
-1.310000000000000000e+02
4.620000000000000000e+02
1.050000000000000000e+02
4.390000000000000000e+02
6.600000000000000000e+01
-1.214000000000000000e+03
-7.200000000000000000e+01
-4.710000000000000000e+02
-2.228000000000000000e+03
3.800000000000000000e+01
8.000000000000000000e+01
-1.673000000000000000e+03
2.700000000000000000e+01
-9.360000000000000000e+02
6.400000000000000000e+01
3.140000000000000000e+02
4.400000000000000000e+02
2.530000000000000000e+02
-4.519000000000000000e+03
8.320000000000000000e+02
-2.085000000000000000e+03
-7.980000000000000000e+02
-1.078000000000000000e+03
1.151000000000000000e+03
1.844000000000000000e+03
-7.450000000000000000e+02
4.537000000000000000e+03
-3.092000000000000000e+03
5.020000000000000000e+02
-2.492000000000000000e+03
1.406000000000000000e+03
1.780000000000000000e+02
1.330000000000000000e+03
1.710000000000000000e+03
-3.900000000000000000e+01
1.091000000000000000e+03
-4.810000000000000000e+02
8.550000000000000000e+02
-2.820000000000000000e+02
1.622000000000000000e+03
4.968000000000000000e+03
1.355000000000000000e+03
8.000000000000000000e+00
-8.110000000000000000e+02
2.670000000000000000e+02
-7.560000000000000000e+02
4.744000000000000000e+03
-6.840000000000000000e+02
-4.800000000000000000e+01
2.092000000000000000e+03
-4.840000000000000000e+02
-1.500000000000000000e+01
-5.000000000000000000e+01
-9.800000000000000000e+01
5.650000000000000000e+02
-2.163000000000000000e+03
3.120000000000000000e+02
3.960000000000000000e+03
3.600000000000000000e+03
2.811000000000000000e+03
-4.869000000000000000e+03
2.710000000000000000e+02
2.113000000000000000e+03
1.209000000000000000e+03
-1.859000000000000000e+03
3.770000000000000000e+02
-7.970000000000000000e+02
2.960000000000000000e+02
2.960000000000000000e+02
-1.902000000000000000e+03
2.128000000000000000e+03
-7.000000000000000000e+00
2.241000000000000000e+03
1.004000000000000000e+03
7.790000000000000000e+02
5.580000000000000000e+02
1.853000000000000000e+03
2.365000000000000000e+03
1.269000000000000000e+03
3.730000000000000000e+03
1.796000000000000000e+03
2.280000000000000000e+02
-9.940000000000000000e+02
-3.410000000000000000e+02
2.750000000000000000e+02
9.160000000000000000e+02
