-1.395000000000000000e+03
-4.902000000000000000e+03
1.848000000000000000e+03
-9.397000000000000000e+03
-6.384000000000000000e+03
3.230000000000000000e+03
2.480000000000000000e+03
4.447000000000000000e+03
-2.584000000000000000e+03
1.030000000000000000e+02
-2.224000000000000000e+03
-1.670000000000000000e+03
-3.500000000000000000e+01
-1.210000000000000000e+02
-2.492000000000000000e+03
-9.510000000000000000e+02
-1.615000000000000000e+03
1.676000000000000000e+03
-7.647000000000000000e+03
-7.440000000000000000e+02
-2.404000000000000000e+03
2.260000000000000000e+02
1.509000000000000000e+03
-1.675800000000000000e+04
-6.473000000000000000e+03
-5.813000000000000000e+03
-9.520000000000000000e+02
1.550000000000000000e+02
-1.582000000000000000e+03
1.203000000000000000e+03
1.306000000000000000e+03
-1.446000000000000000e+03
2.300000000000000000e+01
-1.740000000000000000e+03
-2.900000000000000000e+03
-6.406000000000000000e+03
4.290000000000000000e+03
1.451000000000000000e+03
1.986000000000000000e+03
4.486000000000000000e+03
1.023000000000000000e+03
2.979000000000000000e+03
-2.789000000000000000e+03
-5.751000000000000000e+03
-4.477000000000000000e+03
1.059000000000000000e+03
2.804000000000000000e+03
-1.918000000000000000e+03
-2.121000000000000000e+03
-6.990000000000000000e+02
1.693000000000000000e+03
3.087000000000000000e+03
1.011000000000000000e+03
1.908000000000000000e+03
-6.155000000000000000e+03
5.680000000000000000e+03
-2.428000000000000000e+03
-1.762000000000000000e+03
8.200000000000000000e+01
1.013000000000000000e+03
-4.903000000000000000e+03
-4.341000000000000000e+03
1.794000000000000000e+03
-1.615000000000000000e+03
-2.204000000000000000e+03
-4.729000000000000000e+03
4.053000000000000000e+03
2.090000000000000000e+02
-2.612000000000000000e+03
3.872000000000000000e+03
1.532000000000000000e+03
2.910000000000000000e+03
5.602000000000000000e+03
3.569000000000000000e+03
1.361000000000000000e+03
1.840000000000000000e+02
1.071000000000000000e+03
-1.493000000000000000e+03
4.430000000000000000e+02
2.557000000000000000e+03
1.903000000000000000e+03
-4.246000000000000000e+03
-8.250000000000000000e+03
4.547000000000000000e+03
-2.733000000000000000e+03
-1.246000000000000000e+03
1.444000000000000000e+03
-3.984000000000000000e+03
-8.450000000000000000e+02
4.781000000000000000e+03
9.710000000000000000e+02
-5.180000000000000000e+02
5.335000000000000000e+03
-1.530000000000000000e+03
-4.708000000000000000e+03
9.090000000000000000e+02
-7.500000000000000000e+02
2.061000000000000000e+03
-3.203000000000000000e+03
-5.134000000000000000e+03
-6.718000000000000000e+03
-4.191000000000000000e+03
3.331000000000000000e+03
-4.789000000000000000e+03
-6.447000000000000000e+03
2.165000000000000000e+03
-3.271000000000000000e+03
-4.263000000000000000e+03
-6.520000000000000000e+02
-4.908000000000000000e+03
6.200000000000000000e+01
-3.457000000000000000e+03
-1.951000000000000000e+03
7.125000000000000000e+03
-4.053000000000000000e+03
-1.201000000000000000e+04
2.167000000000000000e+03
1.262000000000000000e+03
3.384000000000000000e+03
2.760000000000000000e+02
2.770000000000000000e+02
8.700000000000000000e+01
1.339000000000000000e+03
9.740000000000000000e+02
2.536000000000000000e+03
2.823000000000000000e+03
-6.310000000000000000e+02
1.844000000000000000e+03
