-3.400000000000000000e+01
-8.730000000000000000e+02
1.421000000000000000e+03
1.070000000000000000e+03
3.580000000000000000e+02
-2.680000000000000000e+02
-4.580000000000000000e+02
-8.230000000000000000e+02
1.651000000000000000e+03
-2.171000000000000000e+03
-6.630000000000000000e+02
-3.880000000000000000e+02
-3.191000000000000000e+03
-9.600000000000000000e+01
-6.200000000000000000e+02
-1.184000000000000000e+03
-7.600000000000000000e+01
2.020000000000000000e+03
-4.234000000000000000e+03
-1.955000000000000000e+03
-2.435000000000000000e+03
4.350000000000000000e+02
4.860000000000000000e+02
-2.857000000000000000e+03
1.523000000000000000e+03
-4.080000000000000000e+02
6.900000000000000000e+01
1.170000000000000000e+02
5.720000000000000000e+02
5.720000000000000000e+02
-4.180000000000000000e+02
6.500000000000000000e+01
3.440000000000000000e+02
4.320000000000000000e+02
-9.930000000000000000e+02
1.011000000000000000e+03
-1.409000000000000000e+03
8.330000000000000000e+02
1.000000000000000000e+02
8.390000000000000000e+02
-2.693000000000000000e+03
6.380000000000000000e+02
5.370000000000000000e+02
-3.190000000000000000e+02
3.600000000000000000e+01
-3.460000000000000000e+02
-2.405000000000000000e+03
-1.156000000000000000e+03
-6.261000000000000000e+03
-1.539000000000000000e+03
-8.140000000000000000e+02
-3.464000000000000000e+03
3.360000000000000000e+02
-6.980000000000000000e+02
1.450000000000000000e+02
-2.130000000000000000e+03
-1.589000000000000000e+03
-1.146000000000000000e+03
-4.012000000000000000e+03
4.780000000000000000e+02
2.050000000000000000e+02
-4.780000000000000000e+02
-3.138000000000000000e+03
-2.641000000000000000e+03
1.674000000000000000e+03
-2.793000000000000000e+03
-6.270000000000000000e+02
6.490000000000000000e+02
-1.118000000000000000e+03
1.510000000000000000e+02
-1.346000000000000000e+03
-8.090000000000000000e+02
6.200000000000000000e+01
1.500000000000000000e+02
-7.780000000000000000e+02
2.260000000000000000e+02
-6.600000000000000000e+02
-3.971000000000000000e+03
-4.159000000000000000e+03
-7.800000000000000000e+01
3.920000000000000000e+02
1.830000000000000000e+02
-5.840000000000000000e+02
2.840000000000000000e+02
-2.305000000000000000e+03
-7.001000000000000000e+03
4.030000000000000000e+02
-1.650000000000000000e+03
-6.580000000000000000e+02
-7.850000000000000000e+02
-2.912000000000000000e+03
-5.900000000000000000e+02
-4.500000000000000000e+01
7.620000000000000000e+02
-1.780000000000000000e+02
-5.900000000000000000e+02
6.620000000000000000e+02
1.704000000000000000e+03
-3.420000000000000000e+02
4.750000000000000000e+02
-1.270000000000000000e+02
4.440000000000000000e+02
-8.360000000000000000e+02
-9.130000000000000000e+02
-8.490000000000000000e+02
-1.747000000000000000e+03
6.550000000000000000e+02
1.150000000000000000e+03
-5.610000000000000000e+02
1.335000000000000000e+03
6.860000000000000000e+02
-6.960000000000000000e+02
-2.450000000000000000e+02
-1.012000000000000000e+03
-1.659000000000000000e+03
8.500000000000000000e+01
-2.000000000000000000e+00
9.340000000000000000e+02
-7.900000000000000000e+02
-1.188000000000000000e+03
-3.550000000000000000e+02
9.590000000000000000e+02
-1.906000000000000000e+03
-1.393000000000000000e+03
1.030000000000000000e+02
9.610000000000000000e+02
-7.560000000000000000e+02
3.200000000000000000e+01
