8.600000000000000000e+01
1.686000000000000000e+03
2.900000000000000000e+01
-2.710000000000000000e+02
-1.357000000000000000e+03
0.000000000000000000e+00
7.800000000000000000e+01
3.793000000000000000e+03
-8.740000000000000000e+02
1.686000000000000000e+03
-1.720000000000000000e+02
1.139000000000000000e+03
0.000000000000000000e+00
1.000000000000000000e+01
-1.410000000000000000e+02
-3.170000000000000000e+02
1.308000000000000000e+03
8.030000000000000000e+02
1.182000000000000000e+03
7.800000000000000000e+02
4.300000000000000000e+02
3.600000000000000000e+01
2.251000000000000000e+03
-1.070000000000000000e+02
-4.000000000000000000e+00
3.400000000000000000e+01
1.600000000000000000e+01
-9.050000000000000000e+02
1.950000000000000000e+02
7.030000000000000000e+02
1.800000000000000000e+01
-4.450000000000000000e+02
7.860000000000000000e+02
6.200000000000000000e+01
-2.000000000000000000e+00
-7.300000000000000000e+01
-7.900000000000000000e+01
7.000000000000000000e+00
2.890000000000000000e+02
9.600000000000000000e+01
3.200000000000000000e+01
2.820000000000000000e+02
2.678000000000000000e+03
-3.100000000000000000e+02
-8.340000000000000000e+02
4.300000000000000000e+01
5.110000000000000000e+02
5.900000000000000000e+01
5.100000000000000000e+01
1.100000000000000000e+02
-8.120000000000000000e+02
1.995000000000000000e+03
-2.443000000000000000e+03
1.180000000000000000e+03
1.400000000000000000e+01
1.420000000000000000e+02
-3.600000000000000000e+01
1.313000000000000000e+03
9.390000000000000000e+02
1.002000000000000000e+03
2.900000000000000000e+02
-5.580000000000000000e+02
-4.430000000000000000e+02
-3.230000000000000000e+02
5.200000000000000000e+01
-5.000000000000000000e+00
1.830000000000000000e+02
3.900000000000000000e+01
6.970000000000000000e+02
1.852000000000000000e+03
-1.273000000000000000e+03
1.747000000000000000e+03
-4.360000000000000000e+02
9.600000000000000000e+01
2.845000000000000000e+03
3.332000000000000000e+03
-9.560000000000000000e+02
-1.100000000000000000e+01
-1.000000000000000000e+00
1.750000000000000000e+02
3.050000000000000000e+02
-6.420000000000000000e+02
6.240000000000000000e+02
-3.000000000000000000e+00
5.160000000000000000e+02
2.510000000000000000e+03
-7.930000000000000000e+02
1.900000000000000000e+01
2.190000000000000000e+02
2.222000000000000000e+03
2.000000000000000000e+00
-6.600000000000000000e+01
-5.200000000000000000e+01
-3.600000000000000000e+01
4.840000000000000000e+02
1.439000000000000000e+03
-1.032000000000000000e+03
-5.120000000000000000e+02
2.130000000000000000e+02
2.490000000000000000e+02
4.400000000000000000e+01
-2.790000000000000000e+02
-5.260000000000000000e+02
-1.310000000000000000e+02
1.652000000000000000e+03
1.348000000000000000e+03
2.349000000000000000e+03
2.600000000000000000e+02
1.557000000000000000e+03
3.068000000000000000e+03
3.497000000000000000e+03
-1.450000000000000000e+02
-1.697000000000000000e+03
7.400000000000000000e+02
1.486000000000000000e+03
5.680000000000000000e+02
5.600000000000000000e+01
1.853000000000000000e+03
-2.198000000000000000e+03
3.132000000000000000e+03
7.690000000000000000e+02
-1.430000000000000000e+02
-2.770000000000000000e+02
7.400000000000000000e+01
1.230000000000000000e+02
1.003000000000000000e+03
-1.000000000000000000e+01
2.350000000000000000e+02
-9.400000000000000000e+02
-1.300000000000000000e+01
4.670000000000000000e+02
-2.150000000000000000e+02
-4.700000000000000000e+01
8.700000000000000000e+01
7.950000000000000000e+02
-5.160000000000000000e+02
-3.200000000000000000e+01
-8.350000000000000000e+02
1.195000000000000000e+03
-5.580000000000000000e+02
5.290000000000000000e+02
4.210000000000000000e+02
1.054000000000000000e+03
-5.990000000000000000e+02
3.310000000000000000e+02
9.000000000000000000e+01
-2.300000000000000000e+01
2.400000000000000000e+01
4.066000000000000000e+03
-4.090000000000000000e+02
-5.950000000000000000e+02
1.460000000000000000e+03
4.100000000000000000e+02
-2.126000000000000000e+03
1.080000000000000000e+02
2.000000000000000000e+01
-2.670000000000000000e+02
-3.666000000000000000e+03
2.040000000000000000e+02
-6.900000000000000000e+02
-5.030000000000000000e+02
1.320000000000000000e+02
1.050000000000000000e+02
-5.630000000000000000e+02
3.000000000000000000e+01
3.100000000000000000e+01
-1.112000000000000000e+03
3.900000000000000000e+02
7.960000000000000000e+02
2.000000000000000000e+00
-6.530000000000000000e+02
4.500000000000000000e+01
2.738000000000000000e+03
2.320000000000000000e+02
7.000000000000000000e+00
4.510000000000000000e+02
7.100000000000000000e+01
-2.200000000000000000e+01
2.210000000000000000e+02
4.900000000000000000e+01
1.481000000000000000e+03
-5.120000000000000000e+02
2.050000000000000000e+02
1.994000000000000000e+03
1.800000000000000000e+01
-2.830000000000000000e+02
-1.000000000000000000e+02
-1.500000000000000000e+01
3.502000000000000000e+03
7.800000000000000000e+01
-2.730000000000000000e+02
9.300000000000000000e+01
-3.810000000000000000e+02
-7.900000000000000000e+01
-4.500000000000000000e+02
1.586000000000000000e+03
1.327000000000000000e+03
-5.500000000000000000e+01
5.570000000000000000e+02
-1.384000000000000000e+03
5.100000000000000000e+02
1.630000000000000000e+02
-6.710000000000000000e+02
4.500000000000000000e+02
1.000000000000000000e+00
1.398000000000000000e+03
1.200000000000000000e+02
4.500000000000000000e+02
2.480000000000000000e+02
9.020000000000000000e+02
-6.000000000000000000e+00
-8.460000000000000000e+02
1.310000000000000000e+02
-1.760000000000000000e+03
-6.100000000000000000e+01
4.700000000000000000e+01
3.450000000000000000e+02
6.670000000000000000e+02
-6.600000000000000000e+02
1.188000000000000000e+03
4.000000000000000000e+00
6.710000000000000000e+02
3.460000000000000000e+02
-1.100000000000000000e+01
-3.920000000000000000e+02
2.550000000000000000e+02
5.400000000000000000e+01
-1.419000000000000000e+03
-1.539000000000000000e+03
-2.600000000000000000e+01
-1.063000000000000000e+03
-3.230000000000000000e+02
9.270000000000000000e+02
6.170000000000000000e+02
-3.820000000000000000e+02
-7.300000000000000000e+01
4.400000000000000000e+01
-1.820000000000000000e+02
-7.400000000000000000e+01
3.170000000000000000e+02
-4.370000000000000000e+02
-2.092000000000000000e+03
-9.200000000000000000e+01
9.550000000000000000e+02
2.800000000000000000e+01
-1.330000000000000000e+02
-2.290000000000000000e+02
-1.746000000000000000e+03
-1.480000000000000000e+02
-5.430000000000000000e+02
-2.025000000000000000e+03
1.435000000000000000e+03
-2.017000000000000000e+03
8.640000000000000000e+02
-1.570000000000000000e+02
1.692000000000000000e+03
