-9.670000000000000000e+02
-9.000000000000000000e+01
2.366000000000000000e+03
-2.078000000000000000e+03
1.919000000000000000e+03
1.390000000000000000e+02
1.611000000000000000e+03
-7.920000000000000000e+02
-1.085000000000000000e+03
-5.050000000000000000e+02
1.639000000000000000e+03
-1.370000000000000000e+02
2.947000000000000000e+03
-1.532000000000000000e+03
1.237000000000000000e+03
1.839000000000000000e+03
6.170000000000000000e+02
-1.586000000000000000e+03
2.896000000000000000e+03
3.540000000000000000e+02
-1.024000000000000000e+03
-7.090000000000000000e+02
-7.050000000000000000e+02
2.289000000000000000e+03
5.520000000000000000e+02
8.460000000000000000e+02
-2.221000000000000000e+03
-9.690000000000000000e+02
-2.782000000000000000e+03
7.300000000000000000e+02
-2.950000000000000000e+03
-3.660000000000000000e+02
2.962000000000000000e+03
1.250000000000000000e+03
1.000000000000000000e+01
-4.220000000000000000e+02
5.140000000000000000e+02
-6.500000000000000000e+02
6.010000000000000000e+02
1.306000000000000000e+03
-1.119000000000000000e+03
2.239000000000000000e+03
1.648000000000000000e+03
-3.070000000000000000e+02
-9.660000000000000000e+02
3.280000000000000000e+02
1.824000000000000000e+03
3.500000000000000000e+02
2.230000000000000000e+03
-1.051000000000000000e+03
-8.200000000000000000e+02
-1.583000000000000000e+03
-1.915000000000000000e+03
1.444000000000000000e+03
1.317000000000000000e+03
2.180000000000000000e+02
1.591000000000000000e+03
2.790000000000000000e+02
-1.485000000000000000e+03
1.404000000000000000e+03
2.933000000000000000e+03
8.760000000000000000e+02
-5.440000000000000000e+02
-1.040000000000000000e+02
1.388000000000000000e+03
2.841000000000000000e+03
1.313000000000000000e+03
-4.058000000000000000e+03
-8.260000000000000000e+02
1.278000000000000000e+03
6.460000000000000000e+02
-1.460000000000000000e+02
-9.500000000000000000e+01
1.848000000000000000e+03
8.510000000000000000e+02
-9.750000000000000000e+02
-4.210000000000000000e+02
-8.040000000000000000e+02
3.410000000000000000e+02
-8.250000000000000000e+02
-2.260000000000000000e+02
-7.060000000000000000e+02
-9.290000000000000000e+02
-1.069000000000000000e+03
1.200000000000000000e+01
8.990000000000000000e+02
-4.130000000000000000e+02
1.168000000000000000e+03
1.524000000000000000e+03
-1.296000000000000000e+03
6.580000000000000000e+02
-4.820000000000000000e+02
2.340000000000000000e+03
3.230000000000000000e+02
-7.390000000000000000e+02
-1.140000000000000000e+02
3.220000000000000000e+02
-1.126000000000000000e+03
-1.080000000000000000e+03
-1.020000000000000000e+02
6.520000000000000000e+02
-2.700000000000000000e+02
-2.330000000000000000e+02
-8.400000000000000000e+01
3.440000000000000000e+02
-1.237000000000000000e+03
1.613000000000000000e+03
-2.498000000000000000e+03
4.130000000000000000e+02
8.020000000000000000e+02
1.760000000000000000e+02
-4.120000000000000000e+02
6.820000000000000000e+02
-4.000000000000000000e+00
-1.577000000000000000e+03
-6.830000000000000000e+02
-8.760000000000000000e+02
-1.150000000000000000e+02
9.860000000000000000e+02
-1.247000000000000000e+03
-1.322000000000000000e+03
2.570000000000000000e+02
-5.090000000000000000e+02
1.935000000000000000e+03
1.846000000000000000e+03
-2.900000000000000000e+01
-9.700000000000000000e+01
2.790000000000000000e+02
-3.500000000000000000e+01
-1.887000000000000000e+03
5.530000000000000000e+02
-1.747000000000000000e+03
-8.500000000000000000e+01
8.820000000000000000e+02
-5.010000000000000000e+02
4.490000000000000000e+02
-9.980000000000000000e+02
2.966000000000000000e+03
1.105000000000000000e+03
-6.920000000000000000e+02
-1.018000000000000000e+03
2.790000000000000000e+02
4.180000000000000000e+02
-5.950000000000000000e+02
3.884000000000000000e+03
-1.592000000000000000e+03
1.690000000000000000e+03
3.070000000000000000e+02
-2.822000000000000000e+03
-2.380000000000000000e+02
-2.170000000000000000e+02
-5.390000000000000000e+02
6.770000000000000000e+02
-4.150000000000000000e+02
-7.170000000000000000e+02
-3.380000000000000000e+02
9.900000000000000000e+01
-7.710000000000000000e+02
4.360000000000000000e+02
-1.780000000000000000e+03
-1.767000000000000000e+03
-8.400000000000000000e+01
1.271000000000000000e+03
1.536000000000000000e+03
2.175000000000000000e+03
-2.253000000000000000e+03
5.320000000000000000e+02
1.692000000000000000e+03
-5.810000000000000000e+02
2.982000000000000000e+03
-2.815000000000000000e+03
1.094000000000000000e+03
-1.648000000000000000e+03
9.810000000000000000e+02
8.400000000000000000e+01
-5.490000000000000000e+02
2.105000000000000000e+03
1.707000000000000000e+03
-1.270000000000000000e+02
-4.600000000000000000e+02
4.080000000000000000e+02
-1.618000000000000000e+03
-1.300000000000000000e+03
-5.410000000000000000e+02
-4.280000000000000000e+02
2.133000000000000000e+03
4.540000000000000000e+02
9.020000000000000000e+02
-9.170000000000000000e+02
-1.143000000000000000e+03
-8.540000000000000000e+02
2.666000000000000000e+03
-6.960000000000000000e+02
-9.220000000000000000e+02
-7.280000000000000000e+02
1.438000000000000000e+03
5.300000000000000000e+02
-1.005000000000000000e+03
-9.390000000000000000e+02
-1.506000000000000000e+03
-4.500000000000000000e+02
-3.627000000000000000e+03
-5.590000000000000000e+02
-4.410000000000000000e+02
-2.410000000000000000e+02
-1.079000000000000000e+03
-4.960000000000000000e+02
8.580000000000000000e+02
3.700000000000000000e+02
-1.900000000000000000e+01
-5.030000000000000000e+02
-1.560000000000000000e+02
6.640000000000000000e+02
-1.059000000000000000e+03
3.450000000000000000e+02
-8.420000000000000000e+02
-3.230000000000000000e+02
1.134000000000000000e+03
2.035000000000000000e+03
1.099000000000000000e+03
1.040000000000000000e+02
1.721000000000000000e+03
-1.281000000000000000e+03
-1.770000000000000000e+02
1.084000000000000000e+03
-6.000000000000000000e+00
-1.200000000000000000e+01
-1.821000000000000000e+03
1.514000000000000000e+03
-2.800000000000000000e+02
8.700000000000000000e+02
4.770000000000000000e+03
-3.000000000000000000e+01
-1.920000000000000000e+02
1.847000000000000000e+03
-5.220000000000000000e+02
-8.710000000000000000e+02
-1.538000000000000000e+03
-1.612000000000000000e+03
-2.060000000000000000e+03
1.970000000000000000e+03
-1.332000000000000000e+03
1.508000000000000000e+03
-6.970000000000000000e+02
3.510000000000000000e+02
3.143000000000000000e+03
5.760000000000000000e+02
7.800000000000000000e+01
-6.050000000000000000e+02
1.973000000000000000e+03
-3.330000000000000000e+02
6.000000000000000000e+00
-1.890000000000000000e+02
6.150000000000000000e+02
1.022000000000000000e+03
-2.850000000000000000e+02
