-2.004000000000000000e+03
-4.670000000000000000e+02
1.424000000000000000e+03
-1.591000000000000000e+03
-4.430000000000000000e+03
-1.167000000000000000e+03
-1.634000000000000000e+03
-3.760000000000000000e+02
-3.158000000000000000e+03
-2.417000000000000000e+03
3.560000000000000000e+02
-2.350000000000000000e+02
-1.629000000000000000e+03
-3.289000000000000000e+03
-4.770000000000000000e+02
-2.178000000000000000e+03
-1.338000000000000000e+03
8.000000000000000000e+00
-4.312000000000000000e+03
3.700000000000000000e+02
-2.059000000000000000e+03
-1.039000000000000000e+03
7.150000000000000000e+02
-1.356000000000000000e+03
-2.037000000000000000e+03
-4.350000000000000000e+02
-1.570000000000000000e+02
1.093000000000000000e+03
-8.140000000000000000e+02
1.661000000000000000e+03
-1.593000000000000000e+03
-2.561000000000000000e+03
1.515000000000000000e+03
-7.510000000000000000e+02
-1.076000000000000000e+03
2.030000000000000000e+02
-1.123000000000000000e+03
-9.110000000000000000e+02
-1.596000000000000000e+03
-8.380000000000000000e+02
-1.244000000000000000e+03
3.210000000000000000e+02
-2.048000000000000000e+03
2.541000000000000000e+03
1.740000000000000000e+02
-2.347000000000000000e+03
-1.989000000000000000e+03
-3.709000000000000000e+03
-1.802000000000000000e+03
-2.357000000000000000e+03
-9.150000000000000000e+02
-3.944000000000000000e+03
-3.036000000000000000e+03
2.096000000000000000e+03
1.932000000000000000e+03
-1.602000000000000000e+03
-8.990000000000000000e+02
1.421000000000000000e+03
-2.392000000000000000e+03
-1.714000000000000000e+03
-2.580000000000000000e+03
-1.360000000000000000e+02
-2.322000000000000000e+03
5.840000000000000000e+02
9.950000000000000000e+02
-5.680000000000000000e+02
-2.550000000000000000e+02
-1.454000000000000000e+03
-7.580000000000000000e+02
-2.451000000000000000e+03
-6.930000000000000000e+02
-3.346000000000000000e+03
-3.168000000000000000e+03
-1.857000000000000000e+03
-1.779000000000000000e+03
-7.670000000000000000e+02
-2.352000000000000000e+03
4.520000000000000000e+02
-3.565000000000000000e+03
-1.246000000000000000e+03
-1.791000000000000000e+03
-4.200000000000000000e+02
-1.192000000000000000e+03
1.869000000000000000e+03
-4.960000000000000000e+02
2.650000000000000000e+02
-1.072000000000000000e+03
8.400000000000000000e+01
-3.882000000000000000e+03
-3.075000000000000000e+03
-4.200000000000000000e+01
-4.600000000000000000e+01
1.470000000000000000e+02
-1.170000000000000000e+03
-9.390000000000000000e+02
5.950000000000000000e+02
-2.347000000000000000e+03
-1.922000000000000000e+03
-5.320000000000000000e+02
-1.640000000000000000e+02
-3.176000000000000000e+03
-3.588000000000000000e+03
3.870000000000000000e+02
-3.312000000000000000e+03
8.740000000000000000e+02
1.460000000000000000e+02
-3.822000000000000000e+03
-4.059000000000000000e+03
-2.177000000000000000e+03
-3.300000000000000000e+01
-1.031000000000000000e+03
-1.120000000000000000e+03
-2.204000000000000000e+03
-1.640000000000000000e+02
-3.311000000000000000e+03
-2.900000000000000000e+02
-1.095600000000000000e+04
-4.250000000000000000e+02
-1.700000000000000000e+03
-1.946000000000000000e+03
-1.059000000000000000e+03
7.120000000000000000e+02
-2.440000000000000000e+02
-6.700000000000000000e+01
-2.649000000000000000e+03
-1.040000000000000000e+02
-2.170000000000000000e+02
2.310000000000000000e+03
