-2.050000000000000000e+02
1.551000000000000000e+03
-3.074000000000000000e+03
-7.380000000000000000e+02
-1.488000000000000000e+03
3.177000000000000000e+03
1.208000000000000000e+03
-6.420000000000000000e+02
7.130000000000000000e+02
1.152000000000000000e+03
8.400000000000000000e+01
-9.810000000000000000e+02
5.690000000000000000e+02
1.008000000000000000e+03
-2.750000000000000000e+02
1.101000000000000000e+03
4.220000000000000000e+02
1.460000000000000000e+02
1.055000000000000000e+03
1.386000000000000000e+03
-6.850000000000000000e+02
-2.400000000000000000e+02
-1.123000000000000000e+03
4.240000000000000000e+02
1.330000000000000000e+03
8.700000000000000000e+02
5.300000000000000000e+02
6.140000000000000000e+02
4.430000000000000000e+02
1.783000000000000000e+03
8.660000000000000000e+02
-2.201000000000000000e+03
1.550000000000000000e+02
1.872000000000000000e+03
4.230000000000000000e+02
7.400000000000000000e+01
1.086000000000000000e+03
1.045000000000000000e+03
5.600000000000000000e+01
2.800000000000000000e+01
6.090000000000000000e+02
-2.080000000000000000e+02
-5.330000000000000000e+02
1.420000000000000000e+03
3.150000000000000000e+02
-5.330000000000000000e+02
-2.430000000000000000e+02
8.320000000000000000e+02
-8.410000000000000000e+02
9.920000000000000000e+02
1.010000000000000000e+02
3.170000000000000000e+02
4.410000000000000000e+02
7.110000000000000000e+02
1.003000000000000000e+03
1.730000000000000000e+02
9.600000000000000000e+01
5.540000000000000000e+02
3.200000000000000000e+02
8.530000000000000000e+02
1.026000000000000000e+03
-2.570000000000000000e+02
1.446000000000000000e+03
-6.080000000000000000e+02
5.450000000000000000e+02
-1.400000000000000000e+02
9.830000000000000000e+02
-1.569000000000000000e+03
2.530000000000000000e+02
-8.000000000000000000e+02
2.231000000000000000e+03
1.610000000000000000e+02
2.600000000000000000e+02
1.022000000000000000e+03
5.190000000000000000e+02
-5.040000000000000000e+02
4.060000000000000000e+02
1.917000000000000000e+03
6.150000000000000000e+02
-2.030000000000000000e+02
9.000000000000000000e+01
-6.500000000000000000e+02
1.510000000000000000e+03
-1.090000000000000000e+02
7.220000000000000000e+02
1.000000000000000000e+01
1.113000000000000000e+03
6.900000000000000000e+01
4.150000000000000000e+02
1.167000000000000000e+03
-8.660000000000000000e+02
6.720000000000000000e+02
5.230000000000000000e+02
1.300000000000000000e+01
-4.040000000000000000e+02
6.050000000000000000e+02
6.790000000000000000e+02
-2.620000000000000000e+02
1.821000000000000000e+03
1.695000000000000000e+03
-3.720000000000000000e+02
7.020000000000000000e+02
-9.810000000000000000e+02
5.350000000000000000e+02
-2.139000000000000000e+03
4.620000000000000000e+02
5.410000000000000000e+02
-4.020000000000000000e+02
1.012000000000000000e+03
2.959000000000000000e+03
-7.180000000000000000e+02
-6.150000000000000000e+02
1.219000000000000000e+03
1.877000000000000000e+03
-1.330000000000000000e+02
-6.650000000000000000e+02
-1.700000000000000000e+01
9.000000000000000000e+00
-2.940000000000000000e+02
4.590000000000000000e+02
1.069000000000000000e+03
2.780000000000000000e+02
-3.110000000000000000e+02
1.450000000000000000e+02
-3.870000000000000000e+02
1.449000000000000000e+03
1.280000000000000000e+03
1.067000000000000000e+03
-1.594000000000000000e+03
-2.420000000000000000e+02
-1.335000000000000000e+03
9.230000000000000000e+02
1.112000000000000000e+03
-7.630000000000000000e+02
5.090000000000000000e+02
4.090000000000000000e+02
1.680000000000000000e+02
-2.200000000000000000e+02
9.910000000000000000e+02
1.265000000000000000e+03
-7.540000000000000000e+02
-1.969000000000000000e+03
2.737000000000000000e+03
-2.670000000000000000e+02
1.480000000000000000e+02
8.280000000000000000e+02
-8.440000000000000000e+02
-2.930000000000000000e+02
-2.400000000000000000e+02
-4.132000000000000000e+03
2.097000000000000000e+03
-2.649000000000000000e+03
8.660000000000000000e+02
-6.420000000000000000e+02
-2.685000000000000000e+03
-1.459000000000000000e+03
-9.430000000000000000e+02
1.008000000000000000e+03
-5.090000000000000000e+02
6.290000000000000000e+02
1.352000000000000000e+03
9.350000000000000000e+02
1.001000000000000000e+03
3.220000000000000000e+02
-7.260000000000000000e+02
-1.178000000000000000e+03
3.200000000000000000e+02
5.720000000000000000e+02
-8.040000000000000000e+02
-1.770000000000000000e+02
-1.337000000000000000e+03
-1.300000000000000000e+02
-8.770000000000000000e+02
-7.600000000000000000e+02
5.030000000000000000e+02
1.696000000000000000e+03
4.590000000000000000e+02
-1.570000000000000000e+03
2.460000000000000000e+03
1.197000000000000000e+03
-1.112000000000000000e+03
-7.710000000000000000e+02
-4.340000000000000000e+02
-3.780000000000000000e+02
1.771000000000000000e+03
3.360000000000000000e+02
1.557000000000000000e+03
-4.050000000000000000e+02
1.537000000000000000e+03
2.536000000000000000e+03
-1.921000000000000000e+03
4.270000000000000000e+02
-3.090000000000000000e+02
-1.126000000000000000e+03
7.100000000000000000e+01
1.160000000000000000e+03
1.065000000000000000e+03
3.334000000000000000e+03
-1.349000000000000000e+03
-7.940000000000000000e+02
4.410000000000000000e+02
-3.314000000000000000e+03
-1.870000000000000000e+02
1.356000000000000000e+03
-1.100000000000000000e+03
1.264000000000000000e+03
7.710000000000000000e+02
1.980000000000000000e+03
-3.100000000000000000e+02
1.082000000000000000e+03
-4.259000000000000000e+03
3.090000000000000000e+02
2.710000000000000000e+02
2.530000000000000000e+02
1.391000000000000000e+03
-7.110000000000000000e+02
1.095000000000000000e+03
1.493000000000000000e+03
2.093000000000000000e+03
-7.380000000000000000e+02
-1.540000000000000000e+02
1.159000000000000000e+03
-1.600000000000000000e+02
-2.930000000000000000e+02
1.273000000000000000e+03
1.872000000000000000e+03
1.482000000000000000e+03
-1.210000000000000000e+02
-5.550000000000000000e+02
2.910000000000000000e+02
-7.310000000000000000e+02
1.620000000000000000e+03
-1.950000000000000000e+02
9.060000000000000000e+02
-6.110000000000000000e+02
-1.110000000000000000e+02
5.270000000000000000e+02
1.688000000000000000e+03
1.663000000000000000e+03
-7.020000000000000000e+02
5.760000000000000000e+02
1.605000000000000000e+03
1.788000000000000000e+03
1.050000000000000000e+02
5.750000000000000000e+02
1.331000000000000000e+03
7.080000000000000000e+02
3.400000000000000000e+01
-6.230000000000000000e+02
1.640000000000000000e+02
1.255000000000000000e+03
-3.000000000000000000e+00
2.107000000000000000e+03
1.298000000000000000e+03
8.590000000000000000e+02
2.810000000000000000e+02
