8.500000000000000000e+02
8.400000000000000000e+01
-1.601000000000000000e+03
7.650000000000000000e+02
4.050000000000000000e+02
-3.000000000000000000e+02
-3.430000000000000000e+02
-1.310000000000000000e+02
1.105000000000000000e+03
-1.000000000000000000e+02
5.670000000000000000e+02
1.830000000000000000e+02
1.463000000000000000e+03
6.900000000000000000e+01
5.450000000000000000e+02
9.000000000000000000e+02
6.920000000000000000e+02
-2.200000000000000000e+01
4.600000000000000000e+01
1.160000000000000000e+02
-8.790000000000000000e+02
3.900000000000000000e+01
-3.780000000000000000e+02
1.419000000000000000e+03
8.920000000000000000e+02
1.340000000000000000e+03
-7.800000000000000000e+01
4.830000000000000000e+02
-3.660000000000000000e+02
-1.046000000000000000e+03
3.360000000000000000e+02
-3.740000000000000000e+02
-1.040000000000000000e+03
1.149000000000000000e+03
1.400000000000000000e+01
4.800000000000000000e+02
3.710000000000000000e+02
1.793000000000000000e+03
1.042000000000000000e+03
2.950000000000000000e+02
2.900000000000000000e+01
9.800000000000000000e+01
-1.400000000000000000e+01
-2.520000000000000000e+02
1.863000000000000000e+03
-3.860000000000000000e+02
-2.450000000000000000e+02
1.688000000000000000e+03
8.120000000000000000e+02
1.128000000000000000e+03
-8.490000000000000000e+02
2.350000000000000000e+02
-1.326000000000000000e+03
1.112000000000000000e+03
-8.040000000000000000e+02
-6.770000000000000000e+02
-1.096000000000000000e+03
4.300000000000000000e+01
2.500000000000000000e+02
1.834000000000000000e+03
1.319000000000000000e+03
6.460000000000000000e+02
1.500000000000000000e+01
4.740000000000000000e+02
1.408000000000000000e+03
1.810000000000000000e+02
1.760000000000000000e+02
1.096000000000000000e+03
-3.920000000000000000e+02
2.320000000000000000e+02
-7.540000000000000000e+02
-1.700000000000000000e+01
5.000000000000000000e+00
3.740000000000000000e+02
3.780000000000000000e+02
1.007000000000000000e+03
9.180000000000000000e+02
9.310000000000000000e+02
3.350000000000000000e+02
1.044000000000000000e+03
-2.850000000000000000e+02
6.930000000000000000e+02
3.100000000000000000e+02
-2.340000000000000000e+02
1.620000000000000000e+02
1.445000000000000000e+03
1.335000000000000000e+03
6.650000000000000000e+02
7.090000000000000000e+02
1.484000000000000000e+03
7.430000000000000000e+02
-2.033000000000000000e+03
9.050000000000000000e+02
-7.430000000000000000e+02
-3.040000000000000000e+02
2.320000000000000000e+02
-2.900000000000000000e+01
9.090000000000000000e+02
4.200000000000000000e+02
3.890000000000000000e+02
6.940000000000000000e+02
3.780000000000000000e+02
-1.293000000000000000e+03
1.019000000000000000e+03
3.770000000000000000e+02
1.019000000000000000e+03
1.260000000000000000e+02
1.910000000000000000e+02
5.770000000000000000e+02
8.060000000000000000e+02
-8.494000000000000000e+03
4.050000000000000000e+02
-2.820000000000000000e+02
2.210000000000000000e+02
-6.450000000000000000e+02
9.040000000000000000e+02
6.920000000000000000e+02
-5.460000000000000000e+02
1.618000000000000000e+03
2.770000000000000000e+02
1.116000000000000000e+03
3.880000000000000000e+02
8.160000000000000000e+02
4.290000000000000000e+02
8.960000000000000000e+02
9.350000000000000000e+02
7.600000000000000000e+01
7.090000000000000000e+02
-3.510000000000000000e+02
5.810000000000000000e+02
-3.920000000000000000e+02
1.492000000000000000e+03
1.489000000000000000e+03
-2.180000000000000000e+02
-4.740000000000000000e+02
5.030000000000000000e+02
-5.640000000000000000e+02
-2.361000000000000000e+03
-5.000000000000000000e+00
1.800000000000000000e+02
-9.010000000000000000e+02
8.060000000000000000e+02
2.570000000000000000e+02
-1.090000000000000000e+02
-2.200000000000000000e+01
5.720000000000000000e+02
8.450000000000000000e+02
5.280000000000000000e+02
-7.700000000000000000e+01
1.071000000000000000e+03
1.120000000000000000e+02
-1.140000000000000000e+02
1.430000000000000000e+02
-1.220000000000000000e+02
-2.890000000000000000e+02
-2.510000000000000000e+02
-4.000000000000000000e+01
9.280000000000000000e+02
2.750000000000000000e+02
1.370000000000000000e+03
3.980000000000000000e+02
1.040000000000000000e+03
-6.250000000000000000e+02
-5.950000000000000000e+02
-8.530000000000000000e+02
1.329000000000000000e+03
2.470000000000000000e+02
9.000000000000000000e+02
6.820000000000000000e+02
-1.570000000000000000e+02
1.129000000000000000e+03
-2.340000000000000000e+02
4.700000000000000000e+01
1.459000000000000000e+03
1.081000000000000000e+03
6.690000000000000000e+02
8.140000000000000000e+02
1.080000000000000000e+02
1.856000000000000000e+03
4.198000000000000000e+03
4.800000000000000000e+02
4.250000000000000000e+02
6.280000000000000000e+02
-5.650000000000000000e+02
1.400000000000000000e+01
1.312000000000000000e+03
9.160000000000000000e+02
1.294000000000000000e+03
-2.530000000000000000e+02
-1.311000000000000000e+03
-9.260000000000000000e+02
4.420000000000000000e+02
8.150000000000000000e+02
7.890000000000000000e+02
-1.642000000000000000e+03
-4.170000000000000000e+02
9.080000000000000000e+02
-9.740000000000000000e+02
-3.230000000000000000e+02
3.330000000000000000e+02
8.660000000000000000e+02
-3.090000000000000000e+02
1.407000000000000000e+03
5.650000000000000000e+02
4.240000000000000000e+02
1.329000000000000000e+03
1.143000000000000000e+03
-1.056000000000000000e+03
4.000000000000000000e+02
3.320000000000000000e+02
-9.500000000000000000e+01
3.070000000000000000e+02
1.086000000000000000e+03
-1.490000000000000000e+03
5.000000000000000000e+02
2.710000000000000000e+02
5.710000000000000000e+02
4.370000000000000000e+02
7.020000000000000000e+02
8.470000000000000000e+02
-4.670000000000000000e+02
-2.560000000000000000e+02
-2.340000000000000000e+02
-7.940000000000000000e+02
5.040000000000000000e+02
3.920000000000000000e+02
4.880000000000000000e+02
1.890000000000000000e+02
1.006000000000000000e+03
-3.940000000000000000e+02
1.033000000000000000e+03
-5.700000000000000000e+02
-1.131000000000000000e+03
-2.240000000000000000e+02
1.020000000000000000e+03
7.160000000000000000e+02
6.650000000000000000e+02
3.330000000000000000e+02
-8.130000000000000000e+02
-1.695000000000000000e+03
3.600000000000000000e+02
1.880000000000000000e+02
5.420000000000000000e+02
1.052000000000000000e+03
-2.200000000000000000e+02
7.800000000000000000e+02
-2.160000000000000000e+02
1.700000000000000000e+01
6.850000000000000000e+02
1.069000000000000000e+03
-6.290000000000000000e+02
1.138000000000000000e+03
4.980000000000000000e+02
-3.400000000000000000e+01
1.046000000000000000e+03
1.550000000000000000e+02
-2.380000000000000000e+02
8.040000000000000000e+02
-5.020000000000000000e+02
4.610000000000000000e+02
4.300000000000000000e+01
9.200000000000000000e+01
-5.180000000000000000e+02
-1.400000000000000000e+01
1.166000000000000000e+03
-3.030000000000000000e+02
5.630000000000000000e+02
5.560000000000000000e+02
-2.477000000000000000e+03
1.899000000000000000e+03
-1.773000000000000000e+03
7.130000000000000000e+02
-2.980000000000000000e+02
5.400000000000000000e+01
-1.790000000000000000e+02
8.820000000000000000e+02
-5.800000000000000000e+01
7.550000000000000000e+02
-5.530000000000000000e+02
4.260000000000000000e+02
1.564000000000000000e+03
2.480000000000000000e+02
-1.380000000000000000e+02
-3.500000000000000000e+02
3.920000000000000000e+02
5.410000000000000000e+02
1.700000000000000000e+01
7.800000000000000000e+01
-3.060000000000000000e+02
-2.300000000000000000e+01
-8.820000000000000000e+02
8.320000000000000000e+02
-2.840000000000000000e+02
1.457000000000000000e+03
1.025000000000000000e+03
-9.110000000000000000e+02
-6.940000000000000000e+02
5.300000000000000000e+01
7.900000000000000000e+01
5.970000000000000000e+02
-1.360000000000000000e+02
6.200000000000000000e+01
-1.490000000000000000e+02
-9.740000000000000000e+02
-1.130000000000000000e+02
6.400000000000000000e+02
2.350000000000000000e+02
-1.210000000000000000e+02
3.940000000000000000e+02
8.490000000000000000e+02
-3.060000000000000000e+02
2.660000000000000000e+02
-6.690000000000000000e+02
1.035000000000000000e+03
2.360000000000000000e+02
-2.690000000000000000e+03
-2.970000000000000000e+02
1.620000000000000000e+02
2.026000000000000000e+03
-3.800000000000000000e+02
1.708000000000000000e+03
1.066000000000000000e+03
5.800000000000000000e+01
1.681000000000000000e+03
6.660000000000000000e+02
1.628000000000000000e+03
1.285000000000000000e+03
3.970000000000000000e+02
-8.970000000000000000e+02
3.610000000000000000e+02
6.190000000000000000e+02
7.800000000000000000e+02
5.480000000000000000e+02
8.790000000000000000e+02
-1.567000000000000000e+03
3.130000000000000000e+02
4.090000000000000000e+02
9.220000000000000000e+02
-3.110000000000000000e+02
7.690000000000000000e+02
1.180000000000000000e+03
-2.030000000000000000e+02
9.240000000000000000e+02
-3.130000000000000000e+02
1.086000000000000000e+03
1.310000000000000000e+02
1.320000000000000000e+02
9.230000000000000000e+02
6.140000000000000000e+02
2.220000000000000000e+02
7.020000000000000000e+02
-1.551000000000000000e+03
2.620000000000000000e+02
-3.300000000000000000e+02
-1.779000000000000000e+03
-1.132000000000000000e+03
1.541000000000000000e+03
-4.940000000000000000e+02
5.200000000000000000e+02
-1.834000000000000000e+03
-1.230000000000000000e+02
-1.020000000000000000e+02
7.550000000000000000e+02
4.200000000000000000e+02
-1.420000000000000000e+02
4.700000000000000000e+01
1.703000000000000000e+03
5.650000000000000000e+02
-1.272000000000000000e+03
-1.770000000000000000e+02
-7.700000000000000000e+01
-7.170000000000000000e+02
5.680000000000000000e+02
3.880000000000000000e+02
7.270000000000000000e+02
8.160000000000000000e+02
-7.660000000000000000e+02
6.480000000000000000e+02
-9.020000000000000000e+02
-7.660000000000000000e+02
5.470000000000000000e+02
-4.110000000000000000e+02
1.114000000000000000e+03
6.400000000000000000e+01
-4.000000000000000000e+01
1.106000000000000000e+03
6.430000000000000000e+02
1.910000000000000000e+02
6.210000000000000000e+02
6.800000000000000000e+02
1.125000000000000000e+03
3.004000000000000000e+03
-8.480000000000000000e+02
-6.520000000000000000e+02
-1.500000000000000000e+01
4.640000000000000000e+02
-3.650000000000000000e+02
8.060000000000000000e+02
-7.340000000000000000e+02
-2.180000000000000000e+02
1.920000000000000000e+02
1.290000000000000000e+02
7.700000000000000000e+01
4.570000000000000000e+02
1.010000000000000000e+02
5.310000000000000000e+02
9.590000000000000000e+02
-1.690000000000000000e+02
1.154000000000000000e+03
4.730000000000000000e+02
4.290000000000000000e+02
-4.530000000000000000e+02
1.116000000000000000e+03
-2.140000000000000000e+02
5.500000000000000000e+01
-4.310000000000000000e+02
-4.350000000000000000e+02
1.300000000000000000e+03
2.940000000000000000e+02
8.780000000000000000e+02
-6.000000000000000000e+00
8.460000000000000000e+02
4.870000000000000000e+02
3.100000000000000000e+01
8.500000000000000000e+01
-2.620000000000000000e+02
-4.330000000000000000e+02
4.800000000000000000e+02
-8.100000000000000000e+01
-6.230000000000000000e+02
-4.860000000000000000e+02
-3.200000000000000000e+01
7.570000000000000000e+02
1.330000000000000000e+02
2.047000000000000000e+03
6.490000000000000000e+02
6.390000000000000000e+02
1.986000000000000000e+03
-5.800000000000000000e+02
-7.000000000000000000e+00
7.800000000000000000e+02
8.470000000000000000e+02
3.950000000000000000e+02
-8.320000000000000000e+02
7.000000000000000000e+00
-5.680000000000000000e+02
1.860000000000000000e+02
4.610000000000000000e+02
1.105000000000000000e+03
-7.670000000000000000e+02
-1.660000000000000000e+02
3.110000000000000000e+02
1.116000000000000000e+03
2.290000000000000000e+02
3.930000000000000000e+02
-2.313000000000000000e+03
-3.040000000000000000e+02
2.500000000000000000e+02
-4.660000000000000000e+02
3.330000000000000000e+02
4.620000000000000000e+02
1.140000000000000000e+02
-1.570000000000000000e+02
5.000000000000000000e+01
-9.840000000000000000e+02
3.730000000000000000e+02
1.347000000000000000e+03
7.860000000000000000e+02
4.510000000000000000e+02
-4.040000000000000000e+02
5.430000000000000000e+02
7.850000000000000000e+02
-5.620000000000000000e+02
-1.007000000000000000e+03
4.370000000000000000e+02
-6.860000000000000000e+02
6.320000000000000000e+02
2.110000000000000000e+02
5.410000000000000000e+02
1.413000000000000000e+03
-4.510000000000000000e+02
1.500000000000000000e+01
2.700000000000000000e+01
2.600000000000000000e+02
3.300000000000000000e+01
1.049000000000000000e+03
-4.100000000000000000e+01
8.900000000000000000e+01
7.310000000000000000e+02
4.030000000000000000e+02
2.560000000000000000e+02
-2.170000000000000000e+02
8.640000000000000000e+02
7.730000000000000000e+02
1.890000000000000000e+02
2.700000000000000000e+01
1.268000000000000000e+03
-6.500000000000000000e+01
5.030000000000000000e+02
-2.180000000000000000e+02
-8.210000000000000000e+02
-4.980000000000000000e+02
-1.190000000000000000e+02
4.260000000000000000e+02
8.550000000000000000e+02
5.010000000000000000e+02
-5.660000000000000000e+02
1.050000000000000000e+02
-1.056000000000000000e+03
7.400000000000000000e+01
4.730000000000000000e+02
1.012000000000000000e+03
