1.314000000000000000e+03
-2.074000000000000000e+03
1.797000000000000000e+03
4.266000000000000000e+03
-2.681000000000000000e+03
-2.629000000000000000e+03
5.806000000000000000e+03
2.304000000000000000e+03
-1.065000000000000000e+03
-2.735000000000000000e+03
1.673400000000000000e+04
-5.700000000000000000e+01
7.284000000000000000e+03
3.184000000000000000e+03
7.979000000000000000e+03
-2.272000000000000000e+03
1.822000000000000000e+03
3.108000000000000000e+03
7.465000000000000000e+03
5.285000000000000000e+03
3.203000000000000000e+03
-3.960000000000000000e+03
9.746000000000000000e+03
6.620000000000000000e+02
-4.074000000000000000e+03
4.323000000000000000e+03
1.395100000000000000e+04
3.870000000000000000e+02
-3.716000000000000000e+03
5.223000000000000000e+03
3.452000000000000000e+03
-7.100000000000000000e+01
-2.135000000000000000e+03
5.424000000000000000e+03
-6.959000000000000000e+03
1.938000000000000000e+03
7.960000000000000000e+02
1.720000000000000000e+03
-5.190000000000000000e+02
-6.930000000000000000e+02
-4.107000000000000000e+03
3.232000000000000000e+03
4.170000000000000000e+02
4.921000000000000000e+03
5.286000000000000000e+03
7.481000000000000000e+03
-2.162000000000000000e+03
-2.531000000000000000e+03
4.331000000000000000e+03
8.697000000000000000e+03
1.339000000000000000e+03
-1.460000000000000000e+02
-2.854000000000000000e+03
4.678000000000000000e+03
-2.357000000000000000e+03
-5.239000000000000000e+03
3.029000000000000000e+03
3.701000000000000000e+03
-2.490000000000000000e+02
-2.634000000000000000e+03
-3.490000000000000000e+03
3.814000000000000000e+03
-3.129000000000000000e+03
3.364000000000000000e+03
-2.821000000000000000e+03
1.324800000000000000e+04
2.678000000000000000e+03
3.961000000000000000e+03
-4.320000000000000000e+02
1.214000000000000000e+03
4.753000000000000000e+03
2.376000000000000000e+03
2.419000000000000000e+03
-7.130000000000000000e+02
-1.697000000000000000e+03
-1.300000000000000000e+03
-3.180000000000000000e+02
-1.685000000000000000e+03
1.042000000000000000e+03
-9.520000000000000000e+02
-6.740000000000000000e+02
-7.060000000000000000e+02
-2.862000000000000000e+03
5.203000000000000000e+03
-4.247000000000000000e+03
1.370000000000000000e+02
4.759000000000000000e+03
3.715000000000000000e+03
-1.227000000000000000e+03
5.259000000000000000e+03
1.210000000000000000e+02
-2.065000000000000000e+03
-3.196000000000000000e+03
-2.123000000000000000e+03
5.430000000000000000e+03
-1.271000000000000000e+03
-1.100000000000000000e+03
1.820000000000000000e+02
2.914000000000000000e+03
7.500000000000000000e+02
-8.498000000000000000e+03
6.747000000000000000e+03
3.955000000000000000e+03
-2.671000000000000000e+03
3.804000000000000000e+03
2.096000000000000000e+03
1.615000000000000000e+03
-2.890000000000000000e+02
1.990700000000000000e+04
-5.346000000000000000e+03
4.529000000000000000e+03
-1.053000000000000000e+03
-6.535000000000000000e+03
-4.537000000000000000e+03
3.273000000000000000e+03
-1.886000000000000000e+03
-8.134000000000000000e+03
7.960000000000000000e+02
-9.350000000000000000e+02
5.516000000000000000e+03
7.712000000000000000e+03
-6.785000000000000000e+03
-5.943000000000000000e+03
-3.900000000000000000e+02
-7.130000000000000000e+02
7.390000000000000000e+02
6.927000000000000000e+03
3.171000000000000000e+03
1.819000000000000000e+03
2.762000000000000000e+03
-1.860000000000000000e+02
-1.390000000000000000e+02
-3.784000000000000000e+03
-1.623000000000000000e+03
4.139000000000000000e+03
6.910000000000000000e+03
3.193000000000000000e+03
-8.080000000000000000e+02
1.429000000000000000e+03
6.189000000000000000e+03
1.192000000000000000e+03
-3.308000000000000000e+03
5.543000000000000000e+03
-5.733000000000000000e+03
1.001900000000000000e+04
3.236000000000000000e+03
-4.326000000000000000e+03
2.686000000000000000e+03
-4.379000000000000000e+03
9.010000000000000000e+02
-1.167000000000000000e+03
-3.257000000000000000e+03
4.181000000000000000e+03
-1.258000000000000000e+03
1.242000000000000000e+03
-3.244000000000000000e+03
-6.800000000000000000e+02
6.060000000000000000e+02
-5.083000000000000000e+03
-3.988000000000000000e+03
1.565000000000000000e+03
6.353000000000000000e+03
3.693000000000000000e+03
3.771000000000000000e+03
4.159000000000000000e+03
2.343000000000000000e+03
-1.589000000000000000e+03
2.990000000000000000e+02
-1.015000000000000000e+03
-5.670000000000000000e+02
-5.770000000000000000e+02
5.111000000000000000e+03
-1.648000000000000000e+03
-3.176000000000000000e+03
-2.826000000000000000e+03
-2.444000000000000000e+03
-6.985000000000000000e+03
4.087000000000000000e+03
2.913000000000000000e+03
-2.872000000000000000e+03
6.247000000000000000e+03
-1.400000000000000000e+03
2.102000000000000000e+03
-2.060000000000000000e+02
-2.623000000000000000e+03
-3.749000000000000000e+03
2.414000000000000000e+03
-9.281000000000000000e+03
-2.817000000000000000e+03
-1.731000000000000000e+03
4.536000000000000000e+03
5.976000000000000000e+03
2.569000000000000000e+03
1.364900000000000000e+04
-3.720000000000000000e+02
4.232000000000000000e+03
-1.507800000000000000e+04
2.431000000000000000e+03
-1.126000000000000000e+03
8.590000000000000000e+02
-1.570000000000000000e+02
-1.559000000000000000e+03
2.797000000000000000e+03
8.830000000000000000e+03
-3.588000000000000000e+03
-5.953000000000000000e+03
3.947000000000000000e+03
-1.718000000000000000e+03
1.189200000000000000e+04
3.058000000000000000e+03
-4.910000000000000000e+02
3.090000000000000000e+02
4.539000000000000000e+03
4.040000000000000000e+03
2.264000000000000000e+03
8.160000000000000000e+02
-4.840000000000000000e+03
7.492000000000000000e+03
-7.190000000000000000e+02
-1.055000000000000000e+03
1.692000000000000000e+03
-2.032000000000000000e+03
-3.000000000000000000e+00
3.113000000000000000e+03
-4.851000000000000000e+03
-1.759000000000000000e+03
4.702000000000000000e+03
2.080000000000000000e+04
-2.261000000000000000e+03
3.550000000000000000e+03
-1.729000000000000000e+03
-2.096000000000000000e+04
-4.584000000000000000e+03
-5.330000000000000000e+02
8.210000000000000000e+02
-7.000000000000000000e+01
-1.535000000000000000e+03
-6.370000000000000000e+02
2.386000000000000000e+03
-9.530000000000000000e+02
-4.170000000000000000e+02
-1.809000000000000000e+03
-1.367000000000000000e+03
-1.683000000000000000e+03
-2.198000000000000000e+03
1.159000000000000000e+03
1.190500000000000000e+04
3.480000000000000000e+02
-5.830000000000000000e+02
1.030000000000000000e+03
-3.585000000000000000e+03
8.000000000000000000e+00
2.126000000000000000e+03
7.585000000000000000e+03
1.533000000000000000e+03
-6.870000000000000000e+02
