-1.898000000000000000e+03
6.390000000000000000e+02
-7.780000000000000000e+02
7.230000000000000000e+02
1.090000000000000000e+02
-1.518000000000000000e+03
2.563000000000000000e+03
-4.419000000000000000e+03
-1.595000000000000000e+03
-3.980000000000000000e+02
-1.050000000000000000e+03
3.840000000000000000e+02
1.900000000000000000e+01
-7.400000000000000000e+01
-2.088000000000000000e+03
-1.750000000000000000e+02
3.600000000000000000e+01
1.807000000000000000e+03
5.030000000000000000e+02
-2.070000000000000000e+03
2.019000000000000000e+03
-3.116000000000000000e+03
3.710000000000000000e+02
-7.750000000000000000e+02
-1.520000000000000000e+02
-5.840000000000000000e+02
-1.194000000000000000e+03
4.620000000000000000e+02
-4.358000000000000000e+03
-1.282000000000000000e+03
-1.000000000000000000e+02
1.547000000000000000e+03
1.993000000000000000e+03
1.265000000000000000e+03
1.009000000000000000e+03
3.602000000000000000e+03
-1.058000000000000000e+03
-8.070000000000000000e+02
2.596000000000000000e+03
1.511000000000000000e+03
1.175000000000000000e+03
9.230000000000000000e+02
-8.730000000000000000e+02
1.042000000000000000e+03
-2.748000000000000000e+03
7.040000000000000000e+02
3.264000000000000000e+03
8.230000000000000000e+02
6.440000000000000000e+02
1.673000000000000000e+03
-2.920000000000000000e+02
-1.080000000000000000e+03
-1.072000000000000000e+03
-2.360000000000000000e+02
-1.457000000000000000e+03
3.810000000000000000e+02
1.750000000000000000e+02
9.720000000000000000e+02
9.800000000000000000e+01
1.134000000000000000e+03
2.630000000000000000e+02
6.520000000000000000e+02
1.266000000000000000e+03
-7.090000000000000000e+02
9.500000000000000000e+01
7.830000000000000000e+02
2.703000000000000000e+03
-4.872000000000000000e+03
1.218000000000000000e+03
-1.581000000000000000e+03
-2.710000000000000000e+02
9.100000000000000000e+02
-1.474000000000000000e+03
1.303000000000000000e+03
3.480000000000000000e+02
2.620000000000000000e+02
2.535000000000000000e+03
1.070000000000000000e+03
-1.298000000000000000e+03
-3.150000000000000000e+02
-5.320000000000000000e+03
1.126000000000000000e+03
1.363000000000000000e+03
1.058000000000000000e+03
3.155000000000000000e+03
1.130000000000000000e+02
1.978000000000000000e+03
-2.448000000000000000e+03
7.600000000000000000e+01
1.196000000000000000e+03
-2.970000000000000000e+03
-7.840000000000000000e+02
6.050000000000000000e+02
3.800000000000000000e+02
-1.498000000000000000e+03
1.207000000000000000e+03
1.048000000000000000e+03
1.228000000000000000e+03
-5.950000000000000000e+02
-3.062000000000000000e+03
-1.590000000000000000e+02
-7.550000000000000000e+02
6.760000000000000000e+02
-8.709000000000000000e+03
-4.500000000000000000e+02
4.458000000000000000e+03
-8.700000000000000000e+01
2.087000000000000000e+03
2.495000000000000000e+03
3.990000000000000000e+02
-6.016000000000000000e+03
1.150000000000000000e+02
-9.820000000000000000e+02
1.656000000000000000e+03
1.092000000000000000e+03
5.660000000000000000e+02
-1.000000000000000000e+01
-8.330000000000000000e+02
8.230000000000000000e+02
1.230000000000000000e+02
1.230000000000000000e+02
7.570000000000000000e+02
1.250000000000000000e+02
3.410000000000000000e+02
1.471000000000000000e+03
9.000000000000000000e+02
2.898000000000000000e+03
-1.100000000000000000e+01
2.890000000000000000e+02
7.590000000000000000e+02
-2.241000000000000000e+03
1.530000000000000000e+02
-9.600000000000000000e+01
1.242000000000000000e+03
-1.284000000000000000e+03
-2.440000000000000000e+02
-1.724000000000000000e+03
4.670000000000000000e+02
2.680000000000000000e+03
3.890000000000000000e+02
1.127000000000000000e+03
1.544000000000000000e+03
-2.250000000000000000e+03
-2.346000000000000000e+03
-6.610000000000000000e+02
-5.458000000000000000e+03
-2.417000000000000000e+03
1.946000000000000000e+03
9.570000000000000000e+02
2.968000000000000000e+03
-1.790000000000000000e+02
-4.005000000000000000e+03
1.812000000000000000e+03
-8.460000000000000000e+02
-1.042000000000000000e+04
-6.560000000000000000e+02
1.267000000000000000e+03
1.512000000000000000e+03
2.015000000000000000e+03
8.560000000000000000e+02
2.890000000000000000e+02
1.190000000000000000e+02
1.333000000000000000e+03
1.466000000000000000e+03
-5.032000000000000000e+03
3.410000000000000000e+02
9.780000000000000000e+02
-3.170000000000000000e+02
-2.430000000000000000e+03
4.310000000000000000e+02
-2.790000000000000000e+02
1.054000000000000000e+03
-1.908000000000000000e+03
-7.398000000000000000e+03
9.840000000000000000e+02
7.730000000000000000e+02
-1.488000000000000000e+03
-3.534000000000000000e+03
1.908000000000000000e+03
2.730000000000000000e+02
8.350000000000000000e+02
1.430000000000000000e+03
-2.109000000000000000e+03
-3.000000000000000000e+03
-6.120000000000000000e+02
-6.539000000000000000e+03
9.980000000000000000e+02
4.770000000000000000e+02
-1.476000000000000000e+03
1.256000000000000000e+03
-7.400000000000000000e+01
-1.720000000000000000e+02
1.844000000000000000e+03
1.425000000000000000e+03
-2.944000000000000000e+03
4.381000000000000000e+03
1.686000000000000000e+03
4.920000000000000000e+02
2.181000000000000000e+03
-8.140000000000000000e+02
5.200000000000000000e+01
-1.626000000000000000e+03
-2.091000000000000000e+03
-2.037000000000000000e+03
1.226000000000000000e+03
1.348000000000000000e+03
8.340000000000000000e+02
6.790000000000000000e+02
-2.708000000000000000e+03
-3.254000000000000000e+03
-2.750000000000000000e+02
2.397000000000000000e+03
-2.180000000000000000e+02
-4.654000000000000000e+03
-2.218000000000000000e+03
3.020000000000000000e+02
-2.206000000000000000e+03
-3.800000000000000000e+01
1.397000000000000000e+03
-3.390000000000000000e+02
-1.920000000000000000e+02
2.349000000000000000e+03
1.929000000000000000e+03
1.014000000000000000e+03
4.430000000000000000e+02
1.900000000000000000e+02
2.185000000000000000e+03
4.470000000000000000e+02
-1.273000000000000000e+03
8.690000000000000000e+02
-2.655000000000000000e+03
-2.221000000000000000e+03
-3.820000000000000000e+02
5.960000000000000000e+02
-2.190000000000000000e+03
-6.700000000000000000e+02
-4.570000000000000000e+02
-5.090000000000000000e+02
-2.590000000000000000e+02
-1.368000000000000000e+03
-1.634000000000000000e+03
-1.448000000000000000e+03
1.273000000000000000e+03
8.670000000000000000e+02
-2.078000000000000000e+03
1.111000000000000000e+03
1.566000000000000000e+03
-1.900000000000000000e+01
3.700000000000000000e+02
5.770000000000000000e+02
2.519000000000000000e+03
7.020000000000000000e+02
1.372000000000000000e+03
1.769000000000000000e+03
-1.592000000000000000e+03
3.660000000000000000e+02
