9.270000000000000000e+02
1.870000000000000000e+03
-6.310000000000000000e+02
1.700000000000000000e+02
3.800000000000000000e+01
6.740000000000000000e+02
1.584000000000000000e+03
-3.650000000000000000e+02
3.712000000000000000e+03
9.750000000000000000e+02
1.497000000000000000e+03
1.500000000000000000e+02
2.210000000000000000e+02
4.000000000000000000e+00
1.020000000000000000e+02
3.400000000000000000e+02
2.190000000000000000e+02
6.270000000000000000e+02
1.000000000000000000e+01
5.060000000000000000e+02
5.170000000000000000e+02
3.160000000000000000e+02
1.280000000000000000e+03
4.270000000000000000e+02
4.910000000000000000e+02
-8.300000000000000000e+01
8.060000000000000000e+02
-6.740000000000000000e+02
3.380000000000000000e+02
-1.230000000000000000e+02
1.200000000000000000e+01
5.880000000000000000e+02
0.000000000000000000e+00
-4.810000000000000000e+02
1.364000000000000000e+03
1.672000000000000000e+03
-3.220000000000000000e+02
3.305000000000000000e+03
-2.600000000000000000e+01
2.000000000000000000e+00
-4.110000000000000000e+02
1.680000000000000000e+03
6.760000000000000000e+02
-7.000000000000000000e+01
3.110000000000000000e+02
5.450000000000000000e+02
-1.635000000000000000e+03
1.552000000000000000e+03
-7.050000000000000000e+02
2.806000000000000000e+03
1.460000000000000000e+02
3.620000000000000000e+02
5.700000000000000000e+01
3.000000000000000000e+00
9.000000000000000000e+00
2.049000000000000000e+03
2.900000000000000000e+01
1.527000000000000000e+03
5.730000000000000000e+02
-1.770000000000000000e+02
1.532000000000000000e+03
-3.840000000000000000e+02
9.600000000000000000e+01
1.490000000000000000e+02
2.127000000000000000e+03
9.890000000000000000e+02
-9.870000000000000000e+02
1.763000000000000000e+03
-1.500000000000000000e+02
-3.180000000000000000e+02
1.941000000000000000e+03
6.430000000000000000e+02
-1.520000000000000000e+02
-2.890000000000000000e+02
-3.730000000000000000e+02
-3.623000000000000000e+03
-4.180000000000000000e+02
3.330000000000000000e+02
5.000000000000000000e+00
1.260000000000000000e+03
6.640000000000000000e+02
2.060000000000000000e+03
7.300000000000000000e+02
1.880000000000000000e+02
1.325000000000000000e+03
-5.850000000000000000e+02
4.000000000000000000e+01
1.760000000000000000e+03
-2.700000000000000000e+01
-4.180000000000000000e+02
1.067000000000000000e+03
-1.706000000000000000e+03
-8.480000000000000000e+02
8.730000000000000000e+02
-1.895000000000000000e+03
-9.700000000000000000e+01
1.127000000000000000e+03
8.900000000000000000e+01
1.059000000000000000e+03
-1.040000000000000000e+02
4.027000000000000000e+03
1.025000000000000000e+03
-1.339000000000000000e+03
8.020000000000000000e+02
-2.050000000000000000e+02
-6.200000000000000000e+01
-2.251000000000000000e+03
-2.410000000000000000e+02
-2.150000000000000000e+02
2.340000000000000000e+02
-1.941000000000000000e+03
4.030000000000000000e+02
1.550000000000000000e+02
5.300000000000000000e+01
3.400000000000000000e+01
3.320000000000000000e+02
3.940000000000000000e+02
1.420000000000000000e+02
5.000000000000000000e+00
4.930000000000000000e+02
-6.580000000000000000e+02
6.030000000000000000e+02
8.600000000000000000e+01
-1.049000000000000000e+03
1.767000000000000000e+03
-4.200000000000000000e+02
1.121000000000000000e+03
4.930000000000000000e+02
3.250000000000000000e+02
8.500000000000000000e+01
8.580000000000000000e+02
-5.700000000000000000e+02
2.145000000000000000e+03
-3.690000000000000000e+02
7.170000000000000000e+02
1.129000000000000000e+03
-6.060000000000000000e+02
2.200000000000000000e+01
1.570000000000000000e+02
3.020000000000000000e+02
4.880000000000000000e+02
1.100000000000000000e+01
-6.380000000000000000e+02
-2.503000000000000000e+03
-1.486000000000000000e+03
-2.420000000000000000e+02
1.178000000000000000e+03
1.930000000000000000e+02
6.460000000000000000e+02
-9.850000000000000000e+02
5.440000000000000000e+02
1.537000000000000000e+03
1.637000000000000000e+03
5.680000000000000000e+02
7.090000000000000000e+02
3.470000000000000000e+02
6.310000000000000000e+02
1.000000000000000000e+00
1.207000000000000000e+03
9.640000000000000000e+02
1.039000000000000000e+03
-1.778000000000000000e+03
1.000000000000000000e+02
-1.830000000000000000e+02
5.060000000000000000e+02
3.080000000000000000e+02
-9.900000000000000000e+01
-5.700000000000000000e+02
-2.510000000000000000e+02
8.300000000000000000e+01
3.500000000000000000e+02
-6.770000000000000000e+02
1.035000000000000000e+03
1.487000000000000000e+03
1.988000000000000000e+03
8.380000000000000000e+02
-7.160000000000000000e+02
9.000000000000000000e+00
3.190000000000000000e+02
8.890000000000000000e+02
2.450000000000000000e+02
-3.700000000000000000e+01
-2.317000000000000000e+03
-4.190000000000000000e+02
5.810000000000000000e+02
-1.269000000000000000e+03
-8.630000000000000000e+02
-1.744000000000000000e+03
-7.740000000000000000e+02
1.200000000000000000e+01
3.700000000000000000e+01
3.877000000000000000e+03
1.252000000000000000e+03
1.402000000000000000e+03
1.035000000000000000e+03
3.540000000000000000e+02
-9.000000000000000000e+02
1.569000000000000000e+03
1.258000000000000000e+03
1.173000000000000000e+03
-6.400000000000000000e+01
1.159000000000000000e+03
1.700000000000000000e+01
-5.720000000000000000e+02
2.090000000000000000e+02
1.030000000000000000e+03
6.590000000000000000e+02
1.000000000000000000e+01
-8.050000000000000000e+02
9.550000000000000000e+02
1.139000000000000000e+03
-4.550000000000000000e+02
1.734000000000000000e+03
1.273000000000000000e+03
-4.780000000000000000e+02
1.095000000000000000e+03
-1.800000000000000000e+01
-9.920000000000000000e+02
4.420000000000000000e+02
9.510000000000000000e+02
3.440000000000000000e+02
3.030000000000000000e+02
1.450000000000000000e+03
9.220000000000000000e+02
2.910000000000000000e+02
7.080000000000000000e+02
-4.200000000000000000e+01
4.830000000000000000e+02
-2.895000000000000000e+03
-2.824000000000000000e+03
-1.113000000000000000e+03
-1.448000000000000000e+03
7.990000000000000000e+02
1.560000000000000000e+02
-1.245000000000000000e+03
5.820000000000000000e+02
1.547000000000000000e+03
4.660000000000000000e+02
2.130000000000000000e+02
1.611000000000000000e+03
-3.980000000000000000e+02
4.720000000000000000e+02
1.375000000000000000e+03
1.681000000000000000e+03
-2.902000000000000000e+03
5.200000000000000000e+01
1.740000000000000000e+02
3.960000000000000000e+02
4.440000000000000000e+02
4.140000000000000000e+02
5.950000000000000000e+02
2.410000000000000000e+02
1.570000000000000000e+02
3.800000000000000000e+01
1.222000000000000000e+03
8.500000000000000000e+01
8.210000000000000000e+02
2.872000000000000000e+03
1.897000000000000000e+03
2.699000000000000000e+03
4.000000000000000000e+00
-8.200000000000000000e+02
1.545000000000000000e+03
5.800000000000000000e+02
-8.500000000000000000e+02
1.440000000000000000e+03
1.221000000000000000e+03
-1.220000000000000000e+02
-3.280000000000000000e+02
-2.093000000000000000e+03
-8.660000000000000000e+02
3.562000000000000000e+03
1.810000000000000000e+02
-2.556000000000000000e+03
-9.530000000000000000e+02
1.024000000000000000e+03
-7.180000000000000000e+02
9.840000000000000000e+02
8.600000000000000000e+01
9.500000000000000000e+01
-9.100000000000000000e+01
3.862000000000000000e+03
-2.590000000000000000e+02
1.192000000000000000e+03
1.908000000000000000e+03
1.490000000000000000e+02
1.646000000000000000e+03
-7.800000000000000000e+01
-8.900000000000000000e+01
2.300000000000000000e+01
3.370000000000000000e+02
1.460000000000000000e+02
6.220000000000000000e+02
1.800000000000000000e+01
-1.687000000000000000e+03
4.160000000000000000e+02
2.100000000000000000e+01
-1.616000000000000000e+03
1.256000000000000000e+03
-6.550000000000000000e+02
1.109000000000000000e+03
-1.847000000000000000e+03
7.780000000000000000e+02
3.500000000000000000e+01
-1.050000000000000000e+03
1.580000000000000000e+02
3.670000000000000000e+02
-4.560000000000000000e+02
9.960000000000000000e+02
1.410000000000000000e+03
-2.480000000000000000e+02
-1.155000000000000000e+03
-9.200000000000000000e+02
-4.300000000000000000e+02
1.016000000000000000e+03
-6.830000000000000000e+02
8.070000000000000000e+02
5.750000000000000000e+02
-5.440000000000000000e+02
1.490000000000000000e+02
-3.190000000000000000e+02
1.058000000000000000e+03
2.020000000000000000e+02
-1.880000000000000000e+02
9.020000000000000000e+02
-8.500000000000000000e+01
6.290000000000000000e+02
-1.341000000000000000e+03
6.580000000000000000e+02
1.552000000000000000e+03
-6.200000000000000000e+02
1.746000000000000000e+03
1.454000000000000000e+03
-1.236000000000000000e+03
1.171000000000000000e+03
3.710000000000000000e+02
3.190000000000000000e+02
2.660000000000000000e+02
-8.540000000000000000e+02
-7.920000000000000000e+02
-3.500000000000000000e+01
2.175000000000000000e+03
3.930000000000000000e+02
2.389000000000000000e+03
7.280000000000000000e+02
-7.170000000000000000e+02
-5.800000000000000000e+01
9.560000000000000000e+02
-2.040000000000000000e+02
-2.500000000000000000e+01
4.480000000000000000e+02
5.700000000000000000e+01
-2.198000000000000000e+03
8.400000000000000000e+01
9.000000000000000000e+00
-3.140000000000000000e+02
1.920000000000000000e+02
-3.270000000000000000e+02
-2.700000000000000000e+01
-6.940000000000000000e+02
-2.980000000000000000e+02
-1.721000000000000000e+03
1.586000000000000000e+03
-4.100000000000000000e+02
1.665000000000000000e+03
-1.428000000000000000e+03
1.990000000000000000e+02
1.328000000000000000e+03
-2.016000000000000000e+03
-5.650000000000000000e+02
4.800000000000000000e+02
1.487000000000000000e+03
1.730000000000000000e+03
5.140000000000000000e+02
-5.950000000000000000e+02
-3.530000000000000000e+02
2.352000000000000000e+03
5.480000000000000000e+02
2.530000000000000000e+02
-9.800000000000000000e+02
1.250000000000000000e+03
-4.040000000000000000e+02
1.159000000000000000e+03
1.315000000000000000e+03
1.288000000000000000e+03
4.000000000000000000e+00
1.800000000000000000e+01
-8.230000000000000000e+02
1.870000000000000000e+02
-2.210000000000000000e+02
1.640000000000000000e+02
-1.020000000000000000e+03
-9.100000000000000000e+02
1.651000000000000000e+03
3.000000000000000000e+00
1.610000000000000000e+02
4.200000000000000000e+02
4.140000000000000000e+02
1.717000000000000000e+03
1.319000000000000000e+03
-1.272000000000000000e+03
3.880000000000000000e+02
-3.700000000000000000e+01
-1.133000000000000000e+03
1.218000000000000000e+03
4.260000000000000000e+02
2.900000000000000000e+01
1.160000000000000000e+02
-1.439000000000000000e+03
1.167000000000000000e+03
1.224000000000000000e+03
1.877000000000000000e+03
2.930000000000000000e+02
3.310000000000000000e+02
5.550000000000000000e+02
1.610000000000000000e+02
-1.622000000000000000e+03
5.190000000000000000e+02
-1.317000000000000000e+03
6.300000000000000000e+02
3.320000000000000000e+02
8.700000000000000000e+02
-6.840000000000000000e+02
1.080000000000000000e+03
1.860000000000000000e+02
7.000000000000000000e+01
2.772000000000000000e+03
-1.120000000000000000e+02
2.930000000000000000e+02
4.900000000000000000e+01
1.900000000000000000e+01
1.700000000000000000e+01
-1.521000000000000000e+03
2.459000000000000000e+03
1.700000000000000000e+02
2.830000000000000000e+02
-2.500000000000000000e+01
1.935000000000000000e+03
5.850000000000000000e+02
1.893000000000000000e+03
8.410000000000000000e+02
5.600000000000000000e+02
1.000000000000000000e+00
4.110000000000000000e+02
2.116000000000000000e+03
1.240000000000000000e+02
-9.790000000000000000e+02
2.310000000000000000e+02
1.530000000000000000e+02
9.920000000000000000e+02
1.685000000000000000e+03
-6.310000000000000000e+02
9.940000000000000000e+02
7.980000000000000000e+02
8.680000000000000000e+02
2.284000000000000000e+03
6.900000000000000000e+01
2.020000000000000000e+02
4.900000000000000000e+01
3.140000000000000000e+02
2.337000000000000000e+03
4.110000000000000000e+02
1.330000000000000000e+02
7.580000000000000000e+02
-5.620000000000000000e+02
-6.190000000000000000e+02
1.970000000000000000e+02
-3.280000000000000000e+02
9.600000000000000000e+02
-3.060000000000000000e+02
1.370000000000000000e+02
1.956000000000000000e+03
-6.170000000000000000e+02
-3.110000000000000000e+02
2.850000000000000000e+02
1.174000000000000000e+03
9.570000000000000000e+02
1.630000000000000000e+02
-3.290000000000000000e+02
-1.500000000000000000e+02
2.310000000000000000e+02
-5.880000000000000000e+02
6.000000000000000000e+00
5.990000000000000000e+02
1.312000000000000000e+03
8.470000000000000000e+02
2.808000000000000000e+03
-2.833000000000000000e+03
8.210000000000000000e+02
-3.300000000000000000e+01
6.290000000000000000e+02
-3.800000000000000000e+01
5.380000000000000000e+02
1.032000000000000000e+03
5.830000000000000000e+02
-2.940000000000000000e+02
4.000000000000000000e+00
-3.580000000000000000e+02
8.010000000000000000e+02
-3.000000000000000000e+01
8.900000000000000000e+01
9.700000000000000000e+01
8.210000000000000000e+02
-1.796000000000000000e+03
3.190000000000000000e+02
-4.050000000000000000e+02
7.100000000000000000e+01
-1.000000000000000000e+01
8.360000000000000000e+02
1.910000000000000000e+02
4.000000000000000000e+01
-1.310000000000000000e+02
