1.109000000000000000e+03
-8.640000000000000000e+02
-3.140000000000000000e+03
-1.612000000000000000e+03
-2.060000000000000000e+02
1.337000000000000000e+03
4.000000000000000000e+01
-8.080000000000000000e+02
-1.142000000000000000e+03
1.164000000000000000e+03
6.100000000000000000e+01
1.298000000000000000e+03
-6.930000000000000000e+02
-4.210000000000000000e+02
-1.193000000000000000e+03
1.110000000000000000e+03
-1.249000000000000000e+03
1.470000000000000000e+02
-1.021000000000000000e+03
1.950000000000000000e+03
-1.616000000000000000e+03
6.950000000000000000e+02
2.483000000000000000e+03
3.760000000000000000e+02
-6.020000000000000000e+02
-1.750000000000000000e+02
3.342000000000000000e+03
-5.010000000000000000e+02
2.734000000000000000e+03
-3.680000000000000000e+02
2.470000000000000000e+02
6.970000000000000000e+02
1.121000000000000000e+03
2.002000000000000000e+03
-1.968000000000000000e+03
6.840000000000000000e+02
-2.060000000000000000e+02
6.080000000000000000e+02
3.332000000000000000e+03
-1.142000000000000000e+03
2.700000000000000000e+02
1.733000000000000000e+03
-2.378000000000000000e+03
-1.589000000000000000e+03
7.110000000000000000e+02
1.193000000000000000e+03
7.810000000000000000e+02
9.550000000000000000e+02
2.952000000000000000e+03
4.123000000000000000e+03
1.148000000000000000e+03
9.290000000000000000e+02
-1.121000000000000000e+03
-4.533000000000000000e+03
9.020000000000000000e+02
-1.720000000000000000e+03
-4.120000000000000000e+02
-1.148000000000000000e+03
2.260000000000000000e+03
2.186000000000000000e+03
-1.354000000000000000e+03
1.661000000000000000e+03
1.074000000000000000e+03
-2.103000000000000000e+03
9.970000000000000000e+02
-8.910000000000000000e+02
-4.065000000000000000e+03
-7.160000000000000000e+02
8.100000000000000000e+01
1.325000000000000000e+03
-1.124000000000000000e+03
7.740000000000000000e+02
1.250000000000000000e+02
1.720000000000000000e+02
-1.433000000000000000e+03
1.180000000000000000e+03
-1.850000000000000000e+03
2.520000000000000000e+02
-2.082000000000000000e+03
-5.400000000000000000e+02
2.276000000000000000e+03
1.354000000000000000e+03
4.740000000000000000e+02
1.621000000000000000e+03
8.370000000000000000e+02
-3.330000000000000000e+03
-6.850000000000000000e+02
-1.190000000000000000e+02
4.106000000000000000e+03
9.270000000000000000e+02
-2.870000000000000000e+02
1.426000000000000000e+03
-4.480000000000000000e+02
-3.371000000000000000e+03
-2.057000000000000000e+03
3.560000000000000000e+02
3.300000000000000000e+02
-4.700000000000000000e+02
-6.480000000000000000e+02
-5.600000000000000000e+02
-1.365000000000000000e+03
1.286000000000000000e+03
-1.762000000000000000e+03
1.718000000000000000e+03
-1.653000000000000000e+03
3.050000000000000000e+02
3.170000000000000000e+02
1.207000000000000000e+03
-1.872000000000000000e+03
3.710000000000000000e+02
-3.660000000000000000e+02
9.090000000000000000e+02
-1.263000000000000000e+03
-2.150000000000000000e+02
-7.400000000000000000e+02
8.820000000000000000e+02
-1.664000000000000000e+03
-2.760000000000000000e+02
-3.990000000000000000e+02
-3.260000000000000000e+02
9.360000000000000000e+02
-2.380000000000000000e+02
2.950000000000000000e+02
1.403000000000000000e+03
1.269000000000000000e+03
8.150000000000000000e+02
2.711000000000000000e+03
2.700000000000000000e+02
-4.820000000000000000e+02
6.840000000000000000e+02
-2.380000000000000000e+02
8.350000000000000000e+02
1.101000000000000000e+03
-4.570000000000000000e+02
-1.083000000000000000e+03
1.705000000000000000e+03
-4.120000000000000000e+02
2.359000000000000000e+03
2.300000000000000000e+02
-8.800000000000000000e+02
-1.292000000000000000e+03
-3.050000000000000000e+02
-3.740000000000000000e+02
7.900000000000000000e+01
-1.000000000000000000e+01
2.655000000000000000e+03
2.290000000000000000e+02
2.342000000000000000e+03
-3.230000000000000000e+02
-1.376000000000000000e+03
8.680000000000000000e+02
2.173000000000000000e+03
2.060000000000000000e+02
8.070000000000000000e+02
-2.965000000000000000e+03
-1.680000000000000000e+02
-1.547000000000000000e+03
1.669000000000000000e+03
-3.520000000000000000e+02
5.720000000000000000e+02
6.560000000000000000e+02
-9.000000000000000000e+00
-1.460000000000000000e+02
2.825000000000000000e+03
-4.400000000000000000e+01
2.299000000000000000e+03
-1.206000000000000000e+03
-3.100000000000000000e+02
-2.100000000000000000e+02
9.370000000000000000e+02
-1.176000000000000000e+03
8.080000000000000000e+02
-1.701000000000000000e+03
1.290000000000000000e+02
2.450000000000000000e+02
-5.270000000000000000e+02
1.310000000000000000e+02
1.614000000000000000e+03
-1.122000000000000000e+03
-6.570000000000000000e+02
7.810000000000000000e+02
-7.500000000000000000e+01
-1.580000000000000000e+02
-1.144000000000000000e+03
-1.162000000000000000e+03
-7.900000000000000000e+02
4.300000000000000000e+01
-5.000000000000000000e+01
-3.706000000000000000e+03
1.053000000000000000e+03
2.504000000000000000e+03
3.303000000000000000e+03
1.527000000000000000e+03
-1.113000000000000000e+03
-3.086000000000000000e+03
1.246000000000000000e+03
-4.300000000000000000e+01
-1.181000000000000000e+03
4.980000000000000000e+02
-4.000000000000000000e+01
4.100000000000000000e+01
-6.000000000000000000e+01
-1.684000000000000000e+03
-1.430000000000000000e+03
4.977000000000000000e+03
-8.480000000000000000e+02
3.440000000000000000e+02
2.628000000000000000e+03
0.000000000000000000e+00
2.030000000000000000e+02
-1.148000000000000000e+03
2.397000000000000000e+03
1.580000000000000000e+02
-7.940000000000000000e+02
-2.720000000000000000e+02
-3.112000000000000000e+03
-5.480000000000000000e+02
-5.110000000000000000e+02
1.488000000000000000e+03
1.035000000000000000e+03
2.139000000000000000e+03
-1.555000000000000000e+03
2.440000000000000000e+02
-1.049000000000000000e+03
-2.280000000000000000e+02
-2.750000000000000000e+02
2.873000000000000000e+03
-9.670000000000000000e+02
-1.790000000000000000e+02
2.370000000000000000e+02
-1.393000000000000000e+03
1.060000000000000000e+02
-3.400000000000000000e+02
1.454000000000000000e+03
-3.950000000000000000e+02
-5.000000000000000000e+02
4.230000000000000000e+02
7.270000000000000000e+02
3.380000000000000000e+02
-1.059000000000000000e+03
3.083000000000000000e+03
-2.670000000000000000e+03
3.283000000000000000e+03
-3.220000000000000000e+02
-8.510000000000000000e+02
-4.600000000000000000e+01
4.630000000000000000e+03
-4.580000000000000000e+02
-7.530000000000000000e+02
1.331000000000000000e+03
5.460000000000000000e+02
-2.749000000000000000e+03
1.001000000000000000e+03
-9.520000000000000000e+02
-3.430000000000000000e+02
-2.256000000000000000e+03
-7.250000000000000000e+02
1.294000000000000000e+03
2.130000000000000000e+03
-1.067000000000000000e+03
-7.940000000000000000e+02
-9.960000000000000000e+02
4.178000000000000000e+03
8.400000000000000000e+02
1.870000000000000000e+03
-3.517000000000000000e+03
8.570000000000000000e+02
7.320000000000000000e+02
-1.216000000000000000e+03
7.380000000000000000e+02
1.415000000000000000e+03
-9.800000000000000000e+01
8.900000000000000000e+01
2.290000000000000000e+02
-8.920000000000000000e+02
3.560000000000000000e+02
5.040000000000000000e+02
-6.930000000000000000e+02
1.690000000000000000e+02
2.348000000000000000e+03
-1.500000000000000000e+02
-3.410000000000000000e+02
2.027000000000000000e+03
1.472000000000000000e+03
3.130000000000000000e+03
7.350000000000000000e+02
-5.060000000000000000e+02
-1.463000000000000000e+03
-9.340000000000000000e+02
3.000000000000000000e+01
4.930000000000000000e+02
-1.140000000000000000e+02
-3.970000000000000000e+02
-2.292000000000000000e+03
1.753000000000000000e+03
-7.650000000000000000e+02
1.799000000000000000e+03
-2.393000000000000000e+03
9.340000000000000000e+02
-1.299000000000000000e+03
-1.243000000000000000e+03
3.590000000000000000e+02
-8.330000000000000000e+02
6.300000000000000000e+01
2.460000000000000000e+03
4.450000000000000000e+02
-2.651000000000000000e+03
-5.420000000000000000e+02
2.060000000000000000e+02
-1.290000000000000000e+02
-2.600000000000000000e+01
-2.254000000000000000e+03
-7.870000000000000000e+02
-6.770000000000000000e+02
-7.760000000000000000e+02
7.390000000000000000e+02
8.690000000000000000e+02
-6.100000000000000000e+02
-2.030000000000000000e+02
-1.517000000000000000e+03
-8.050000000000000000e+02
1.870000000000000000e+02
-5.890000000000000000e+02
5.150000000000000000e+02
-1.289000000000000000e+03
-1.186000000000000000e+03
-1.304000000000000000e+03
2.573000000000000000e+03
6.090000000000000000e+02
1.132000000000000000e+03
-1.389000000000000000e+03
1.023000000000000000e+03
-8.190000000000000000e+02
-1.144000000000000000e+03
4.270000000000000000e+02
-6.200000000000000000e+01
-5.470000000000000000e+02
-1.005000000000000000e+03
-6.280000000000000000e+02
2.700000000000000000e+02
8.200000000000000000e+01
3.560000000000000000e+03
-3.400000000000000000e+01
5.452000000000000000e+03
1.540000000000000000e+02
-6.110000000000000000e+02
-7.830000000000000000e+02
8.580000000000000000e+02
4.880000000000000000e+02
-1.171000000000000000e+03
8.930000000000000000e+02
1.460000000000000000e+02
-5.960000000000000000e+02
-7.710000000000000000e+02
-5.080000000000000000e+02
4.410000000000000000e+02
-1.700000000000000000e+01
-1.384000000000000000e+03
1.208000000000000000e+03
7.720000000000000000e+02
2.010000000000000000e+02
-3.036000000000000000e+03
-2.648000000000000000e+03
4.820000000000000000e+02
-3.270000000000000000e+02
-2.665000000000000000e+03
-1.740000000000000000e+02
-1.544000000000000000e+03
-6.700000000000000000e+02
-3.210000000000000000e+02
-8.560000000000000000e+02
-5.210000000000000000e+02
-2.051000000000000000e+03
-8.800000000000000000e+02
1.220000000000000000e+02
1.882000000000000000e+03
1.510000000000000000e+02
2.240000000000000000e+03
-1.938000000000000000e+03
-4.670000000000000000e+02
2.653000000000000000e+03
-1.049000000000000000e+03
7.390000000000000000e+02
4.349000000000000000e+03
-4.010000000000000000e+02
7.300000000000000000e+01
-3.980000000000000000e+02
-3.490000000000000000e+02
-4.199000000000000000e+03
2.214000000000000000e+03
-5.730000000000000000e+02
1.622000000000000000e+03
1.044000000000000000e+03
-5.010000000000000000e+02
7.980000000000000000e+02
1.575000000000000000e+03
-3.110000000000000000e+02
-8.550000000000000000e+02
1.264000000000000000e+03
4.330000000000000000e+02
-4.200000000000000000e+01
2.377000000000000000e+03
-1.598000000000000000e+03
-3.770000000000000000e+02
-5.350000000000000000e+02
-5.730000000000000000e+02
-1.648000000000000000e+03
-3.210000000000000000e+02
4.240000000000000000e+02
1.067000000000000000e+03
-2.373000000000000000e+03
2.979000000000000000e+03
1.353000000000000000e+03
2.660000000000000000e+02
8.830000000000000000e+02
8.430000000000000000e+02
-6.640000000000000000e+02
-2.573000000000000000e+03
-9.910000000000000000e+02
-5.200000000000000000e+01
-4.712000000000000000e+03
7.840000000000000000e+02
-6.270000000000000000e+02
-1.055000000000000000e+03
1.789000000000000000e+03
4.180000000000000000e+02
-1.120000000000000000e+03
-6.700000000000000000e+02
-6.500000000000000000e+01
-6.750000000000000000e+02
-1.861000000000000000e+03
-1.153000000000000000e+03
-5.730000000000000000e+02
3.040000000000000000e+02
2.332000000000000000e+03
9.720000000000000000e+02
1.446000000000000000e+03
-4.240000000000000000e+02
9.500000000000000000e+01
3.056000000000000000e+03
-1.860000000000000000e+02
9.500000000000000000e+01
-7.690000000000000000e+02
-8.300000000000000000e+01
5.810000000000000000e+02
9.050000000000000000e+02
7.200000000000000000e+01
1.728000000000000000e+03
1.790000000000000000e+02
5.160000000000000000e+02
-5.320000000000000000e+02
1.393000000000000000e+03
-4.390000000000000000e+02
-6.900000000000000000e+02
-2.510000000000000000e+02
-5.570000000000000000e+02
-4.800000000000000000e+01
1.516000000000000000e+03
3.620000000000000000e+02
3.065000000000000000e+03
9.890000000000000000e+02
1.056000000000000000e+03
3.050000000000000000e+02
-1.392000000000000000e+03
1.261000000000000000e+03
-1.540000000000000000e+02
2.428000000000000000e+03
7.170000000000000000e+02
1.666000000000000000e+03
1.478000000000000000e+03
-1.236000000000000000e+03
-3.200000000000000000e+02
1.467000000000000000e+03
-1.325000000000000000e+03
-8.330000000000000000e+02
7.240000000000000000e+02
1.525000000000000000e+03
2.093000000000000000e+03
-4.610000000000000000e+02
-1.311000000000000000e+03
2.930000000000000000e+02
2.693000000000000000e+03
-5.050000000000000000e+02
-1.950000000000000000e+02
1.049000000000000000e+03
9.160000000000000000e+02
2.406000000000000000e+03
-3.347000000000000000e+03
1.080000000000000000e+02
-4.120000000000000000e+03
2.190000000000000000e+02
6.200000000000000000e+01
-3.363000000000000000e+03
-9.580000000000000000e+02
1.125000000000000000e+03
2.290000000000000000e+02
-2.780000000000000000e+02
1.215000000000000000e+03
3.410000000000000000e+02
-1.218000000000000000e+03
2.810000000000000000e+03
1.000000000000000000e+02
1.038000000000000000e+03
2.167000000000000000e+03
-7.970000000000000000e+02
-1.120000000000000000e+03
-9.440000000000000000e+02
2.740000000000000000e+02
-1.140000000000000000e+02
-1.998000000000000000e+03
1.094000000000000000e+03
-1.870000000000000000e+02
-1.969000000000000000e+03
-2.792000000000000000e+03
-2.440000000000000000e+03
1.480000000000000000e+02
-1.144000000000000000e+03
8.300000000000000000e+01
3.890000000000000000e+02
-2.920000000000000000e+02
-9.950000000000000000e+02
-9.320000000000000000e+02
1.270000000000000000e+02
4.030000000000000000e+02
-1.541000000000000000e+03
-4.280000000000000000e+02
-6.540000000000000000e+02
-1.970000000000000000e+02
-1.386000000000000000e+03
-1.032000000000000000e+03
2.327000000000000000e+03
2.046000000000000000e+03
1.942000000000000000e+03
-7.340000000000000000e+02
5.820000000000000000e+02
1.488000000000000000e+03
2.990000000000000000e+02
-1.410000000000000000e+02
1.777000000000000000e+03
-2.260000000000000000e+02
1.469000000000000000e+03
2.428000000000000000e+03
1.447000000000000000e+03
-1.944000000000000000e+03
9.230000000000000000e+02
5.353000000000000000e+03
-4.260000000000000000e+02
-1.923000000000000000e+03
-7.200000000000000000e+01
-3.990000000000000000e+02
-5.360000000000000000e+02
1.910000000000000000e+02
2.850000000000000000e+02
9.120000000000000000e+02
5.770000000000000000e+02
1.346000000000000000e+03
-9.320000000000000000e+02
-3.158000000000000000e+03
4.540000000000000000e+02
3.347000000000000000e+03
8.000000000000000000e+00
8.960000000000000000e+02
3.980000000000000000e+02
1.460000000000000000e+02
9.800000000000000000e+02
-1.119000000000000000e+03
1.620000000000000000e+02
-1.116000000000000000e+03
2.305000000000000000e+03
2.152000000000000000e+03
-2.041000000000000000e+03
-1.048000000000000000e+03
-3.534000000000000000e+03
-1.343000000000000000e+03
5.240000000000000000e+02
-3.800000000000000000e+01
2.640000000000000000e+02
-1.800000000000000000e+01
-3.200000000000000000e+01
-1.640000000000000000e+02
-1.698000000000000000e+03
-2.279000000000000000e+03
-5.290000000000000000e+02
8.400000000000000000e+02
4.850000000000000000e+02
3.500000000000000000e+02
8.650000000000000000e+02
1.705000000000000000e+03
7.000000000000000000e+02
2.428000000000000000e+03
-1.670000000000000000e+03
3.420000000000000000e+02
-6.680000000000000000e+02
5.330000000000000000e+02
3.360000000000000000e+02
1.187000000000000000e+03
7.570000000000000000e+02
1.100000000000000000e+02
-1.360000000000000000e+02
-7.100000000000000000e+02
-1.010000000000000000e+02
4.700000000000000000e+01
-2.643000000000000000e+03
2.543000000000000000e+03
5.720000000000000000e+02
-9.880000000000000000e+02
1.489000000000000000e+03
4.500000000000000000e+02
-1.921000000000000000e+03
-1.730000000000000000e+02
1.424000000000000000e+03
1.148000000000000000e+03
6.430000000000000000e+02
1.327000000000000000e+03
-1.500000000000000000e+01
-2.420000000000000000e+02
-5.400000000000000000e+01
-1.732000000000000000e+03
-2.980000000000000000e+02
-1.015000000000000000e+03
1.541000000000000000e+03
-3.340000000000000000e+02
2.410000000000000000e+02
5.710000000000000000e+02
-5.110000000000000000e+02
-1.290000000000000000e+02
-4.246000000000000000e+03
1.351000000000000000e+03
1.057000000000000000e+03
-1.010000000000000000e+02
-2.330000000000000000e+02
1.720000000000000000e+02
-1.307000000000000000e+03
4.580000000000000000e+02
-1.586000000000000000e+03
-2.182000000000000000e+03
-2.480000000000000000e+02
-2.580000000000000000e+02
-7.000000000000000000e+02
4.162000000000000000e+03
6.500000000000000000e+02
-1.600000000000000000e+01
-1.928000000000000000e+03
1.598000000000000000e+03
1.114000000000000000e+03
4.130000000000000000e+02
-4.440000000000000000e+02
-1.199000000000000000e+03
-7.140000000000000000e+02
4.410000000000000000e+02
7.030000000000000000e+02
-1.092000000000000000e+03
9.730000000000000000e+02
2.522000000000000000e+03
-3.900000000000000000e+01
1.833000000000000000e+03
-3.780000000000000000e+02
7.350000000000000000e+02
4.271000000000000000e+03
-8.970000000000000000e+02
3.894000000000000000e+03
-7.910000000000000000e+02
6.820000000000000000e+02
-8.800000000000000000e+02
-2.660000000000000000e+03
7.600000000000000000e+01
9.780000000000000000e+02
-3.850000000000000000e+02
-5.190000000000000000e+02
-3.130000000000000000e+02
-1.640000000000000000e+02
9.400000000000000000e+01
-9.190000000000000000e+02
-2.890000000000000000e+02
-2.563000000000000000e+03
-5.590000000000000000e+02
6.410000000000000000e+02
9.370000000000000000e+02
-4.290000000000000000e+02
1.149000000000000000e+03
-1.720000000000000000e+03
-8.030000000000000000e+02
2.780000000000000000e+02
7.300000000000000000e+01
-4.030000000000000000e+02
-6.280000000000000000e+02
2.313000000000000000e+03
2.731000000000000000e+03
-1.544000000000000000e+03
-1.096000000000000000e+03
1.870000000000000000e+03
-2.674000000000000000e+03
-2.594000000000000000e+03
-2.800000000000000000e+01
1.748000000000000000e+03
-2.222000000000000000e+03
-1.768000000000000000e+03
-8.340000000000000000e+02
2.840000000000000000e+02
1.318000000000000000e+03
1.302000000000000000e+03
2.049000000000000000e+03
-7.780000000000000000e+02
-5.350000000000000000e+02
1.143000000000000000e+03
3.900000000000000000e+01
-2.581000000000000000e+03
-1.261000000000000000e+03
8.890000000000000000e+02
-7.510000000000000000e+02
7.820000000000000000e+02
-2.474000000000000000e+03
3.223000000000000000e+03
-1.262000000000000000e+03
-1.792000000000000000e+03
1.206000000000000000e+03
-8.200000000000000000e+01
2.499000000000000000e+03
-1.590000000000000000e+02
6.900000000000000000e+01
2.180000000000000000e+02
-7.310000000000000000e+02
1.713000000000000000e+03
-1.016000000000000000e+03
1.960000000000000000e+02
-7.050000000000000000e+02
-3.770000000000000000e+02
2.333000000000000000e+03
-7.500000000000000000e+01
2.090000000000000000e+03
1.706000000000000000e+03
-1.830000000000000000e+02
-1.386000000000000000e+03
1.240000000000000000e+02
2.527000000000000000e+03
2.010000000000000000e+02
1.185000000000000000e+03
-1.138000000000000000e+03
-1.085000000000000000e+03
1.232000000000000000e+03
-7.200000000000000000e+01
1.980000000000000000e+02
-4.480000000000000000e+02
1.831000000000000000e+03
-8.490000000000000000e+02
7.960000000000000000e+02
5.520000000000000000e+02
2.164000000000000000e+03
-3.800000000000000000e+01
-1.402000000000000000e+03
2.021000000000000000e+03
-1.631000000000000000e+03
9.100000000000000000e+02
-9.150000000000000000e+02
2.019000000000000000e+03
-2.477000000000000000e+03
5.350000000000000000e+02
6.390000000000000000e+02
4.699000000000000000e+03
3.210000000000000000e+02
8.520000000000000000e+02
6.960000000000000000e+02
-1.046000000000000000e+03
9.840000000000000000e+02
-3.371000000000000000e+03
-1.155000000000000000e+03
1.960000000000000000e+02
6.120000000000000000e+02
9.690000000000000000e+02
2.980000000000000000e+02
7.080000000000000000e+02
-1.207000000000000000e+03
-2.970000000000000000e+02
2.908000000000000000e+03
1.626000000000000000e+03
2.400000000000000000e+01
1.939000000000000000e+03
-7.610000000000000000e+02
-7.100000000000000000e+01
1.895000000000000000e+03
2.185000000000000000e+03
1.115000000000000000e+03
9.710000000000000000e+02
-1.268000000000000000e+03
2.780000000000000000e+02
1.710000000000000000e+03
-1.294000000000000000e+03
1.690000000000000000e+02
5.390000000000000000e+02
-8.620000000000000000e+02
-2.850000000000000000e+02
8.360000000000000000e+02
1.904000000000000000e+03
-1.143000000000000000e+03
-6.570000000000000000e+02
-1.079000000000000000e+03
-4.560000000000000000e+02
-6.000000000000000000e+02
1.900000000000000000e+01
2.475000000000000000e+03
6.500000000000000000e+02
-7.410000000000000000e+02
2.510000000000000000e+02
1.546000000000000000e+03
8.340000000000000000e+02
2.760000000000000000e+02
6.170000000000000000e+02
-1.800000000000000000e+02
8.310000000000000000e+02
-4.910000000000000000e+02
-2.590000000000000000e+02
-1.824000000000000000e+03
1.820000000000000000e+02
4.740000000000000000e+02
1.124000000000000000e+03
-9.270000000000000000e+02
3.567000000000000000e+03
1.583000000000000000e+03
-1.087000000000000000e+03
2.134000000000000000e+03
6.650000000000000000e+02
6.870000000000000000e+02
2.055000000000000000e+03
-1.247000000000000000e+03
2.010000000000000000e+02
-9.490000000000000000e+02
2.264000000000000000e+03
-5.060000000000000000e+02
9.710000000000000000e+02
-2.860000000000000000e+02
-8.240000000000000000e+02
-8.300000000000000000e+01
-2.720000000000000000e+03
-4.690000000000000000e+03
1.078000000000000000e+03
-3.644000000000000000e+03
-2.860000000000000000e+02
-9.620000000000000000e+02
2.410000000000000000e+02
4.730000000000000000e+02
-3.292000000000000000e+03
2.583000000000000000e+03
-1.521000000000000000e+03
2.150000000000000000e+02
-3.240000000000000000e+02
2.990000000000000000e+02
6.510000000000000000e+02
1.648000000000000000e+03
-2.720000000000000000e+02
-2.860000000000000000e+02
-3.700000000000000000e+01
-4.030000000000000000e+02
7.810000000000000000e+02
3.309000000000000000e+03
6.090000000000000000e+02
5.480000000000000000e+02
3.610000000000000000e+02
-5.630000000000000000e+02
5.560000000000000000e+02
-9.960000000000000000e+02
3.180000000000000000e+03
3.708000000000000000e+03
-2.290000000000000000e+02
-5.690000000000000000e+02
-8.530000000000000000e+02
5.480000000000000000e+02
1.831000000000000000e+03
-2.580000000000000000e+02
1.901000000000000000e+03
3.660000000000000000e+02
-1.510000000000000000e+02
9.020000000000000000e+02
1.053000000000000000e+03
6.600000000000000000e+01
2.600000000000000000e+01
1.880000000000000000e+02
-1.412000000000000000e+03
2.160000000000000000e+02
-9.330000000000000000e+02
2.568000000000000000e+03
-1.280000000000000000e+03
-1.270000000000000000e+02
2.777000000000000000e+03
5.680000000000000000e+02
-2.076000000000000000e+03
-3.129000000000000000e+03
-7.440000000000000000e+02
-2.902000000000000000e+03
-1.540000000000000000e+02
-3.339000000000000000e+03
1.359000000000000000e+03
-4.550000000000000000e+02
-9.230000000000000000e+02
-4.990000000000000000e+02
-6.720000000000000000e+02
-7.930000000000000000e+02
1.824000000000000000e+03
-3.530000000000000000e+02
2.781000000000000000e+03
-5.700000000000000000e+01
-3.560000000000000000e+02
-1.367000000000000000e+03
-1.153000000000000000e+03
1.082000000000000000e+03
-8.060000000000000000e+02
-5.380000000000000000e+02
-1.438000000000000000e+03
-9.760000000000000000e+02
1.851000000000000000e+03
2.331000000000000000e+03
3.968000000000000000e+03
8.050000000000000000e+02
9.280000000000000000e+02
3.880000000000000000e+02
7.070000000000000000e+02
2.670000000000000000e+02
4.450000000000000000e+02
2.313000000000000000e+03
-4.350000000000000000e+02
-1.394000000000000000e+03
-1.850000000000000000e+02
8.170000000000000000e+02
1.645000000000000000e+03
1.303000000000000000e+03
-3.141000000000000000e+03
-5.560000000000000000e+02
1.181000000000000000e+03
1.621000000000000000e+03
-5.750000000000000000e+02
-6.260000000000000000e+02
5.480000000000000000e+02
2.569000000000000000e+03
2.660000000000000000e+02
-1.595000000000000000e+03
-2.400000000000000000e+03
4.570000000000000000e+02
5.280000000000000000e+02
-1.805000000000000000e+03
-7.390000000000000000e+02
-4.770000000000000000e+02
-7.640000000000000000e+02
-1.838000000000000000e+03
-4.130000000000000000e+02
-1.197000000000000000e+03
-2.410000000000000000e+02
-3.320000000000000000e+02
1.394000000000000000e+03
3.420000000000000000e+02
-1.138000000000000000e+03
-1.305000000000000000e+03
-6.880000000000000000e+02
8.110000000000000000e+02
-2.589000000000000000e+03
-1.480000000000000000e+02
3.420000000000000000e+02
-3.376000000000000000e+03
9.800000000000000000e+02
6.360000000000000000e+02
3.780000000000000000e+02
-1.412000000000000000e+03
-6.750000000000000000e+02
-4.530000000000000000e+02
-7.240000000000000000e+02
3.030000000000000000e+02
5.570000000000000000e+02
4.090000000000000000e+02
4.630000000000000000e+02
-1.325000000000000000e+03
-3.527000000000000000e+03
-3.100000000000000000e+02
-1.010000000000000000e+02
1.636000000000000000e+03
1.888000000000000000e+03
5.050000000000000000e+02
-2.007000000000000000e+03
-6.760000000000000000e+02
1.255000000000000000e+03
2.892000000000000000e+03
2.430000000000000000e+03
4.280000000000000000e+02
-2.190000000000000000e+02
2.531000000000000000e+03
-8.540000000000000000e+02
-5.250000000000000000e+02
-1.916000000000000000e+03
-5.820000000000000000e+02
-1.444000000000000000e+03
4.970000000000000000e+02
1.011000000000000000e+03
-1.357000000000000000e+03
-1.150000000000000000e+03
3.503000000000000000e+03
1.584000000000000000e+03
1.278000000000000000e+03
-2.500000000000000000e+01
9.310000000000000000e+02
-2.288000000000000000e+03
6.920000000000000000e+02
-6.030000000000000000e+02
-1.480000000000000000e+02
-1.630000000000000000e+02
7.940000000000000000e+02
1.065000000000000000e+03
-1.352000000000000000e+03
1.821000000000000000e+03
5.280000000000000000e+02
-2.890000000000000000e+02
1.310000000000000000e+02
8.270000000000000000e+02
2.360000000000000000e+02
-1.245000000000000000e+03
1.759000000000000000e+03
-3.300000000000000000e+01
1.652000000000000000e+03
8.110000000000000000e+02
1.026000000000000000e+03
1.990000000000000000e+02
1.900000000000000000e+02
4.000000000000000000e+01
4.400000000000000000e+01
-1.320000000000000000e+03
2.602000000000000000e+03
-1.367000000000000000e+03
5.640000000000000000e+02
