2.291000000000000000e+03
2.288000000000000000e+03
1.310000000000000000e+03
-2.835000000000000000e+03
3.679000000000000000e+03
-1.972000000000000000e+03
1.630000000000000000e+03
2.707000000000000000e+03
1.480000000000000000e+03
-1.552000000000000000e+03
-2.890000000000000000e+02
-2.319000000000000000e+03
-3.810000000000000000e+02
2.624000000000000000e+03
-1.676000000000000000e+03
1.916000000000000000e+03
1.525000000000000000e+03
-9.900000000000000000e+01
2.349000000000000000e+03
9.690000000000000000e+02
-1.379000000000000000e+03
1.537000000000000000e+03
9.330000000000000000e+02
-5.360000000000000000e+02
2.567000000000000000e+03
1.174000000000000000e+03
1.828000000000000000e+03
1.714000000000000000e+03
2.108000000000000000e+03
2.875000000000000000e+03
2.553000000000000000e+03
-5.940000000000000000e+02
1.940000000000000000e+03
2.345000000000000000e+03
1.490000000000000000e+03
4.510000000000000000e+02
1.707000000000000000e+03
-3.570000000000000000e+02
1.485000000000000000e+03
2.236000000000000000e+03
2.266000000000000000e+03
1.593000000000000000e+03
-3.710000000000000000e+02
-2.108000000000000000e+03
2.423000000000000000e+03
2.112000000000000000e+03
1.513000000000000000e+03
-1.320000000000000000e+02
2.194000000000000000e+03
1.410000000000000000e+03
-1.379000000000000000e+03
1.669000000000000000e+03
1.544000000000000000e+03
2.021000000000000000e+03
2.961000000000000000e+03
-1.197000000000000000e+03
-7.310000000000000000e+02
-7.750000000000000000e+02
1.929000000000000000e+03
1.825000000000000000e+03
3.111000000000000000e+03
1.830000000000000000e+03
2.868000000000000000e+03
-1.423000000000000000e+03
