6.140000000000000000e+02
8.050000000000000000e+02
1.002000000000000000e+03
5.460000000000000000e+02
1.629000000000000000e+03
-1.334000000000000000e+03
7.738000000000000000e+03
-7.360000000000000000e+02
-2.558000000000000000e+03
1.800000000000000000e+02
-1.771000000000000000e+03
3.081000000000000000e+03
-2.153000000000000000e+03
4.289000000000000000e+03
-8.290000000000000000e+02
-3.035000000000000000e+03
-1.945000000000000000e+03
3.389000000000000000e+03
7.550000000000000000e+02
-2.300000000000000000e+01
3.530000000000000000e+02
-7.210000000000000000e+02
-1.180000000000000000e+03
-7.620000000000000000e+02
-1.579000000000000000e+03
1.235000000000000000e+03
-2.659000000000000000e+03
-4.644000000000000000e+03
1.159000000000000000e+03
1.739000000000000000e+03
1.579000000000000000e+03
1.182000000000000000e+03
-4.700000000000000000e+02
1.346000000000000000e+03
1.091000000000000000e+03
-2.950000000000000000e+02
1.930000000000000000e+03
-5.050000000000000000e+02
-2.774000000000000000e+03
-1.409000000000000000e+03
-3.640000000000000000e+02
9.940000000000000000e+02
-4.700000000000000000e+02
1.708000000000000000e+03
1.300000000000000000e+02
1.880000000000000000e+03
2.096000000000000000e+03
1.722000000000000000e+03
-1.912000000000000000e+03
9.600000000000000000e+01
7.700000000000000000e+02
-1.073000000000000000e+03
-4.520000000000000000e+02
-3.237000000000000000e+03
2.380000000000000000e+02
5.250000000000000000e+02
1.217000000000000000e+03
4.260000000000000000e+02
1.635000000000000000e+03
-1.320000000000000000e+02
1.360000000000000000e+02
-1.683000000000000000e+03
1.256000000000000000e+03
-1.973000000000000000e+03
