1.446000000000000000e+03
2.148000000000000000e+03
-6.177000000000000000e+03
1.930000000000000000e+03
1.584000000000000000e+03
-3.810000000000000000e+02
2.000000000000000000e+03
1.556000000000000000e+03
1.829000000000000000e+03
-2.104000000000000000e+03
1.204000000000000000e+03
-3.779000000000000000e+03
1.398000000000000000e+03
2.178000000000000000e+03
-7.780000000000000000e+02
-2.821000000000000000e+03
1.382000000000000000e+03
-2.603000000000000000e+03
1.027000000000000000e+03
2.510000000000000000e+02
-1.220000000000000000e+03
-1.408000000000000000e+03
1.745000000000000000e+03
1.520000000000000000e+02
1.130000000000000000e+02
2.143000000000000000e+03
-7.070000000000000000e+02
1.993000000000000000e+03
4.400000000000000000e+01
1.070000000000000000e+03
3.830000000000000000e+02
-2.540000000000000000e+02
-6.090000000000000000e+02
4.780000000000000000e+02
-2.230000000000000000e+02
5.500000000000000000e+02
1.868000000000000000e+03
1.690000000000000000e+02
-2.250000000000000000e+02
9.560000000000000000e+02
-7.300000000000000000e+01
-1.250000000000000000e+03
8.320000000000000000e+02
6.390000000000000000e+02
-4.260000000000000000e+02
2.673000000000000000e+03
2.106000000000000000e+03
2.623000000000000000e+03
1.117000000000000000e+03
8.810000000000000000e+02
-1.015000000000000000e+03
-5.590000000000000000e+02
-3.758000000000000000e+03
7.200000000000000000e+01
5.100000000000000000e+02
2.160000000000000000e+02
2.575000000000000000e+03
1.653000000000000000e+03
2.380000000000000000e+02
-2.130000000000000000e+03
-7.280000000000000000e+02
1.707000000000000000e+03
-1.683000000000000000e+03
3.325000000000000000e+03
-1.210000000000000000e+02
3.015000000000000000e+03
-1.560000000000000000e+02
8.400000000000000000e+02
-8.360000000000000000e+02
-3.240000000000000000e+02
-1.689000000000000000e+03
2.992000000000000000e+03
1.654000000000000000e+03
-1.547000000000000000e+03
5.720000000000000000e+02
1.639000000000000000e+03
1.470000000000000000e+02
-1.000000000000000000e+00
2.149000000000000000e+03
-1.200000000000000000e+02
1.476000000000000000e+03
9.180000000000000000e+02
1.489000000000000000e+03
-2.980000000000000000e+02
3.820000000000000000e+02
1.634000000000000000e+03
-3.530000000000000000e+02
4.830000000000000000e+02
-1.593000000000000000e+03
4.700000000000000000e+02
-2.163000000000000000e+03
-1.840000000000000000e+02
7.490000000000000000e+02
-2.311000000000000000e+03
1.825000000000000000e+03
4.630000000000000000e+02
2.325000000000000000e+03
6.800000000000000000e+02
-2.361000000000000000e+03
1.488000000000000000e+03
-5.412000000000000000e+03
1.839000000000000000e+03
-1.030000000000000000e+02
2.472000000000000000e+03
1.080000000000000000e+03
-2.437000000000000000e+03
-5.640000000000000000e+02
-1.137000000000000000e+03
-5.400000000000000000e+02
1.092000000000000000e+03
-1.620000000000000000e+02
-2.584000000000000000e+03
1.454000000000000000e+03
3.140000000000000000e+02
1.240000000000000000e+03
8.130000000000000000e+02
1.528000000000000000e+03
1.201000000000000000e+03
-3.410000000000000000e+02
-1.094000000000000000e+03
2.967000000000000000e+03
-5.200000000000000000e+02
1.253000000000000000e+03
9.360000000000000000e+02
5.210000000000000000e+02
1.102000000000000000e+03
-6.000000000000000000e+02
-4.800000000000000000e+02
-1.048000000000000000e+03
8.690000000000000000e+02
1.240000000000000000e+02
3.530000000000000000e+02
6.910000000000000000e+02
1.743000000000000000e+03
8.970000000000000000e+02
-3.214000000000000000e+03
2.100000000000000000e+02
2.039000000000000000e+03
-8.780000000000000000e+03
-2.080000000000000000e+02
2.589000000000000000e+03
-5.400000000000000000e+02
4.940000000000000000e+02
2.300000000000000000e+02
3.660000000000000000e+02
2.690000000000000000e+02
5.830000000000000000e+02
-3.780000000000000000e+02
9.710000000000000000e+02
6.480000000000000000e+02
1.739000000000000000e+03
9.650000000000000000e+02
1.419000000000000000e+03
1.650000000000000000e+02
1.947000000000000000e+03
-2.119000000000000000e+03
1.409000000000000000e+03
1.752000000000000000e+03
1.611000000000000000e+03
-1.561000000000000000e+03
1.180000000000000000e+02
-8.840000000000000000e+02
-9.700000000000000000e+01
-6.090000000000000000e+02
7.910000000000000000e+02
9.030000000000000000e+02
9.040000000000000000e+02
2.640000000000000000e+03
8.610000000000000000e+02
-1.250000000000000000e+02
7.100000000000000000e+02
1.210000000000000000e+02
2.200000000000000000e+02
-8.950000000000000000e+02
-1.491000000000000000e+03
5.740000000000000000e+02
3.700000000000000000e+01
1.247000000000000000e+03
4.150000000000000000e+02
1.175000000000000000e+03
9.630000000000000000e+02
2.100000000000000000e+01
-2.320000000000000000e+02
9.470000000000000000e+02
6.300000000000000000e+02
3.579000000000000000e+03
2.769000000000000000e+03
2.875000000000000000e+03
-2.271000000000000000e+03
-1.640000000000000000e+02
1.094000000000000000e+03
2.077000000000000000e+03
2.820000000000000000e+02
7.410000000000000000e+02
2.909000000000000000e+03
1.930000000000000000e+02
7.790000000000000000e+02
-4.370000000000000000e+02
4.830000000000000000e+02
-1.270000000000000000e+02
1.928000000000000000e+03
6.130000000000000000e+02
4.810000000000000000e+02
-2.560000000000000000e+02
1.728000000000000000e+03
-3.720000000000000000e+02
-8.400000000000000000e+01
1.354000000000000000e+03
1.631000000000000000e+03
-1.899000000000000000e+03
-2.414000000000000000e+03
1.083000000000000000e+03
1.061000000000000000e+03
9.990000000000000000e+02
-4.780000000000000000e+02
-6.200000000000000000e+01
2.420000000000000000e+02
-5.756000000000000000e+03
5.500000000000000000e+01
-9.350000000000000000e+02
-5.410000000000000000e+02
2.266000000000000000e+03
1.400000000000000000e+01
9.270000000000000000e+02
2.889000000000000000e+03
-5.520000000000000000e+02
5.770000000000000000e+02
2.402000000000000000e+03
1.007000000000000000e+03
-1.874000000000000000e+03
-1.638000000000000000e+03
2.688000000000000000e+03
6.650000000000000000e+02
7.360000000000000000e+02
-8.790000000000000000e+02
1.776000000000000000e+03
1.249000000000000000e+03
9.100000000000000000e+01
1.215000000000000000e+03
2.864000000000000000e+03
-5.351000000000000000e+03
1.630000000000000000e+03
-2.071000000000000000e+03
-5.200000000000000000e+02
-2.055000000000000000e+03
-9.200000000000000000e+01
1.500000000000000000e+01
1.719000000000000000e+03
-1.428000000000000000e+03
4.520000000000000000e+02
-6.388000000000000000e+03
1.575000000000000000e+03
1.445000000000000000e+03
1.619000000000000000e+03
2.747000000000000000e+03
1.405000000000000000e+03
