-1.323000000000000000e+03
-4.840000000000000000e+02
-6.980000000000000000e+02
-7.600000000000000000e+02
-2.840000000000000000e+02
-1.670000000000000000e+02
4.360000000000000000e+02
-3.230000000000000000e+02
-1.356000000000000000e+03
-1.000000000000000000e+00
-5.260000000000000000e+02
1.814000000000000000e+03
1.910000000000000000e+02
-2.150000000000000000e+02
2.777000000000000000e+03
-2.175000000000000000e+03
-1.500000000000000000e+03
-9.440000000000000000e+02
-8.120000000000000000e+02
-5.060000000000000000e+02
-9.600000000000000000e+02
-8.940000000000000000e+02
-7.010000000000000000e+02
1.600000000000000000e+01
3.200000000000000000e+01
-7.010000000000000000e+02
-5.530000000000000000e+02
-4.960000000000000000e+02
-6.390000000000000000e+02
-1.004000000000000000e+03
2.298000000000000000e+03
7.000000000000000000e+00
-1.600000000000000000e+02
-7.920000000000000000e+02
1.925000000000000000e+03
-4.660000000000000000e+02
-9.970000000000000000e+02
-1.846000000000000000e+03
-8.520000000000000000e+02
-1.015000000000000000e+03
-1.131000000000000000e+03
1.456000000000000000e+03
-4.030000000000000000e+02
-5.360000000000000000e+02
1.910000000000000000e+02
-2.490000000000000000e+02
-5.500000000000000000e+02
-8.750000000000000000e+02
2.140000000000000000e+02
-1.320000000000000000e+03
2.130000000000000000e+02
-2.520000000000000000e+02
1.300000000000000000e+01
7.620000000000000000e+02
1.800000000000000000e+02
-8.480000000000000000e+02
-1.093000000000000000e+03
3.490000000000000000e+02
4.050000000000000000e+02
-5.850000000000000000e+02
-2.100000000000000000e+03
4.950000000000000000e+02
-6.310000000000000000e+02
5.050000000000000000e+02
-1.450000000000000000e+02
-5.720000000000000000e+02
-1.932000000000000000e+03
-7.360000000000000000e+02
-8.280000000000000000e+02
-1.273000000000000000e+03
1.236000000000000000e+03
3.420000000000000000e+02
-6.370000000000000000e+02
-1.204000000000000000e+03
4.860000000000000000e+02
-1.307000000000000000e+03
1.100000000000000000e+01
-7.600000000000000000e+01
-6.890000000000000000e+02
-1.362000000000000000e+03
4.710000000000000000e+02
-6.800000000000000000e+01
-7.970000000000000000e+02
-2.570000000000000000e+02
-6.920000000000000000e+02
-1.172000000000000000e+03
2.160000000000000000e+02
-1.672000000000000000e+03
4.600000000000000000e+02
-9.420000000000000000e+02
-5.100000000000000000e+01
2.130000000000000000e+02
-6.680000000000000000e+02
-1.881000000000000000e+03
1.440000000000000000e+02
-3.858000000000000000e+03
-3.865000000000000000e+03
5.500000000000000000e+01
1.275000000000000000e+03
-2.760000000000000000e+02
-5.900000000000000000e+02
9.620000000000000000e+02
-5.330000000000000000e+02
-5.550000000000000000e+02
-1.064000000000000000e+03
2.030000000000000000e+02
9.340000000000000000e+02
-1.579000000000000000e+03
-9.900000000000000000e+01
1.046000000000000000e+03
9.090000000000000000e+02
-7.470000000000000000e+02
-2.472000000000000000e+03
-7.510000000000000000e+02
-1.420000000000000000e+02
-9.170000000000000000e+02
-1.455000000000000000e+03
-1.507000000000000000e+03
-6.400000000000000000e+01
1.070000000000000000e+02
-1.223000000000000000e+03
-4.900000000000000000e+02
4.290000000000000000e+02
-9.090000000000000000e+02
-1.502000000000000000e+03
-1.327000000000000000e+03
-6.440000000000000000e+02
7.430000000000000000e+02
