5.950000000000000000e+02
3.810000000000000000e+02
1.179000000000000000e+03
-6.660000000000000000e+02
1.532000000000000000e+03
-2.682000000000000000e+03
1.071000000000000000e+03
6.590000000000000000e+02
-1.945000000000000000e+03
1.512000000000000000e+03
2.670000000000000000e+03
-7.320000000000000000e+02
7.620000000000000000e+02
9.320000000000000000e+02
2.343000000000000000e+03
1.771000000000000000e+03
1.437000000000000000e+03
1.008000000000000000e+03
2.700000000000000000e+02
2.650000000000000000e+02
-3.420000000000000000e+02
1.520000000000000000e+03
-2.160000000000000000e+02
1.796000000000000000e+03
1.135000000000000000e+03
9.740000000000000000e+02
1.600000000000000000e+02
2.091000000000000000e+03
9.760000000000000000e+02
1.692000000000000000e+03
7.080000000000000000e+02
-2.927000000000000000e+03
1.463000000000000000e+03
5.590000000000000000e+02
2.529000000000000000e+03
1.370000000000000000e+02
-2.128000000000000000e+03
1.352000000000000000e+03
1.097000000000000000e+03
1.574000000000000000e+03
1.018000000000000000e+03
3.860000000000000000e+02
3.710000000000000000e+02
-2.200000000000000000e+01
-2.402000000000000000e+03
6.220000000000000000e+02
9.110000000000000000e+02
1.490000000000000000e+03
1.207000000000000000e+03
-7.439000000000000000e+03
1.216000000000000000e+03
1.170000000000000000e+03
1.326000000000000000e+03
3.070000000000000000e+03
1.541000000000000000e+03
2.431000000000000000e+03
1.161000000000000000e+03
-9.900000000000000000e+01
9.600000000000000000e+01
2.595000000000000000e+03
5.260000000000000000e+02
1.025000000000000000e+03
3.610000000000000000e+02
1.981000000000000000e+03
1.322000000000000000e+03
4.010000000000000000e+02
-7.500000000000000000e+01
-1.446000000000000000e+03
7.920000000000000000e+02
-2.659000000000000000e+03
1.226000000000000000e+03
1.090000000000000000e+02
1.299000000000000000e+03
-9.500000000000000000e+02
6.550000000000000000e+02
7.860000000000000000e+02
-7.290000000000000000e+02
9.370000000000000000e+02
1.169000000000000000e+03
2.027000000000000000e+03
-1.685000000000000000e+03
2.175000000000000000e+03
-1.053000000000000000e+03
-1.258000000000000000e+03
-2.320000000000000000e+02
-4.760000000000000000e+02
1.732000000000000000e+03
2.047000000000000000e+03
-2.873000000000000000e+03
-6.110000000000000000e+02
0.000000000000000000e+00
-6.000000000000000000e+00
-2.238000000000000000e+03
-3.786000000000000000e+03
1.262000000000000000e+03
-1.341000000000000000e+03
2.831000000000000000e+03
1.807000000000000000e+03
-3.940000000000000000e+02
-6.250000000000000000e+02
-6.280000000000000000e+02
2.430000000000000000e+03
1.600000000000000000e+03
1.830000000000000000e+03
-9.400000000000000000e+01
2.298000000000000000e+03
5.790000000000000000e+02
2.109000000000000000e+03
1.401000000000000000e+03
1.191000000000000000e+03
4.470000000000000000e+02
1.744000000000000000e+03
2.095000000000000000e+03
4.490000000000000000e+02
-1.644000000000000000e+03
5.890000000000000000e+02
7.020000000000000000e+02
-2.880000000000000000e+02
-2.813000000000000000e+03
1.881000000000000000e+03
1.097000000000000000e+03
1.218000000000000000e+03
1.370000000000000000e+02
1.338000000000000000e+03
3.223000000000000000e+03
-3.076000000000000000e+03
5.060000000000000000e+02
1.971000000000000000e+03
2.167000000000000000e+03
2.900000000000000000e+01
-1.625000000000000000e+03
2.974000000000000000e+03
1.244000000000000000e+03
-1.622000000000000000e+03
2.126000000000000000e+03
1.212000000000000000e+03
-4.220000000000000000e+02
1.689000000000000000e+03
4.140000000000000000e+02
2.075000000000000000e+03
-7.630000000000000000e+02
1.186000000000000000e+03
1.441000000000000000e+03
5.210000000000000000e+02
5.800000000000000000e+01
1.052000000000000000e+03
2.663000000000000000e+03
1.135000000000000000e+03
-3.010000000000000000e+02
1.767000000000000000e+03
-1.083000000000000000e+03
-1.655000000000000000e+03
7.000000000000000000e+02
-6.393000000000000000e+03
1.269000000000000000e+03
6.000000000000000000e+00
2.278000000000000000e+03
7.520000000000000000e+02
1.778000000000000000e+03
4.270000000000000000e+02
1.371000000000000000e+03
1.952000000000000000e+03
1.022000000000000000e+03
7.310000000000000000e+02
-6.300000000000000000e+01
2.344000000000000000e+03
4.290000000000000000e+02
-2.440000000000000000e+02
9.730000000000000000e+02
2.236000000000000000e+03
1.603000000000000000e+03
7.900000000000000000e+02
2.104000000000000000e+03
2.399000000000000000e+03
1.161000000000000000e+03
-9.850000000000000000e+02
1.340000000000000000e+03
-7.800000000000000000e+01
1.790000000000000000e+02
4.900000000000000000e+01
1.410000000000000000e+02
1.234000000000000000e+03
2.057000000000000000e+03
1.269000000000000000e+03
2.793000000000000000e+03
1.592000000000000000e+03
9.050000000000000000e+02
2.033000000000000000e+03
1.458000000000000000e+03
5.270000000000000000e+02
1.333000000000000000e+03
-1.026000000000000000e+03
-1.988000000000000000e+03
-6.440000000000000000e+02
2.440000000000000000e+03
-2.400000000000000000e+01
6.990000000000000000e+02
2.040000000000000000e+02
1.959000000000000000e+03
4.650000000000000000e+02
1.396000000000000000e+03
-3.150000000000000000e+02
-2.930000000000000000e+02
1.097000000000000000e+03
2.369000000000000000e+03
-2.535000000000000000e+03
-8.000000000000000000e+01
-1.110000000000000000e+03
-1.893000000000000000e+03
3.510000000000000000e+02
-8.050000000000000000e+02
1.150000000000000000e+03
-1.770000000000000000e+02
-3.490000000000000000e+02
1.379000000000000000e+03
1.549000000000000000e+03
1.583000000000000000e+03
9.790000000000000000e+02
-1.278000000000000000e+03
2.600000000000000000e+02
-5.155000000000000000e+03
6.800000000000000000e+02
-3.130000000000000000e+02
3.249000000000000000e+03
1.013000000000000000e+03
4.640000000000000000e+02
-1.306000000000000000e+03
5.264000000000000000e+03
1.041000000000000000e+03
1.727000000000000000e+03
3.117000000000000000e+03
-8.190000000000000000e+02
-3.041000000000000000e+03
1.969000000000000000e+03
7.300000000000000000e+02
-1.288000000000000000e+03
5.960000000000000000e+02
1.600000000000000000e+03
4.000000000000000000e+02
2.427000000000000000e+03
1.254000000000000000e+03
-1.971000000000000000e+03
1.520000000000000000e+02
-6.560000000000000000e+02
6.700000000000000000e+02
1.225000000000000000e+03
2.030000000000000000e+03
1.000000000000000000e+01
4.740000000000000000e+02
2.290000000000000000e+03
2.132000000000000000e+03
-1.139000000000000000e+03
4.710000000000000000e+02
-5.324000000000000000e+03
1.487000000000000000e+03
9.650000000000000000e+02
7.100000000000000000e+02
-1.637000000000000000e+03
2.340000000000000000e+02
-4.680000000000000000e+02
5.860000000000000000e+02
5.230000000000000000e+02
1.432000000000000000e+03
-1.643000000000000000e+03
1.053000000000000000e+03
1.680000000000000000e+02
5.500000000000000000e+01
2.210000000000000000e+02
-1.608000000000000000e+03
2.909000000000000000e+03
1.128000000000000000e+03
2.498000000000000000e+03
3.460000000000000000e+02
1.001000000000000000e+03
8.290000000000000000e+02
2.614000000000000000e+03
2.861000000000000000e+03
1.990000000000000000e+03
-5.800000000000000000e+01
2.656000000000000000e+03
-7.000000000000000000e+00
-2.340000000000000000e+02
8.340000000000000000e+02
4.540000000000000000e+02
1.003000000000000000e+03
1.635000000000000000e+03
3.600000000000000000e+02
2.140000000000000000e+02
1.033000000000000000e+03
4.510000000000000000e+02
1.353000000000000000e+03
2.072000000000000000e+03
8.540000000000000000e+02
8.850000000000000000e+02
-5.700000000000000000e+02
1.840000000000000000e+02
6.050000000000000000e+02
8.410000000000000000e+02
1.024000000000000000e+03
-1.900000000000000000e+01
1.650000000000000000e+03
1.024000000000000000e+03
1.814000000000000000e+03
5.400000000000000000e+01
-7.460000000000000000e+02
-5.090000000000000000e+02
1.145000000000000000e+03
-1.006000000000000000e+03
2.430000000000000000e+02
9.500000000000000000e+01
1.030000000000000000e+03
1.688000000000000000e+03
1.804000000000000000e+03
4.830000000000000000e+02
2.071000000000000000e+03
1.946000000000000000e+03
1.060000000000000000e+02
-8.770000000000000000e+02
3.050000000000000000e+02
8.500000000000000000e+02
1.499000000000000000e+03
1.931000000000000000e+03
3.550000000000000000e+02
9.880000000000000000e+02
2.249000000000000000e+03
-2.180000000000000000e+02
1.157000000000000000e+03
-4.075000000000000000e+03
1.602000000000000000e+03
5.800000000000000000e+01
2.760000000000000000e+02
4.370000000000000000e+02
1.597000000000000000e+03
1.853000000000000000e+03
6.230000000000000000e+02
-2.630000000000000000e+03
1.130000000000000000e+02
9.800000000000000000e+01
1.043000000000000000e+03
-6.510000000000000000e+02
-2.610000000000000000e+02
1.070000000000000000e+02
2.397000000000000000e+03
1.828000000000000000e+03
-3.894000000000000000e+03
2.075000000000000000e+03
1.297000000000000000e+03
-2.300000000000000000e+01
1.583000000000000000e+03
-1.040000000000000000e+03
4.600000000000000000e+01
3.470000000000000000e+02
1.015000000000000000e+03
3.700000000000000000e+02
1.664000000000000000e+03
-9.370000000000000000e+02
6.690000000000000000e+02
1.117000000000000000e+03
6.300000000000000000e+02
7.020000000000000000e+02
2.816000000000000000e+03
6.810000000000000000e+02
-4.630000000000000000e+02
1.034000000000000000e+03
1.113000000000000000e+03
2.020000000000000000e+03
2.346000000000000000e+03
-2.058000000000000000e+03
1.497000000000000000e+03
2.384000000000000000e+03
-2.390000000000000000e+02
-9.256000000000000000e+03
1.630000000000000000e+02
-3.180000000000000000e+02
2.485000000000000000e+03
9.600000000000000000e+01
4.490000000000000000e+02
1.506000000000000000e+03
2.634000000000000000e+03
4.180000000000000000e+02
2.242000000000000000e+03
2.048000000000000000e+03
-2.446000000000000000e+03
8.730000000000000000e+02
3.790000000000000000e+02
6.470000000000000000e+02
6.310000000000000000e+02
4.730000000000000000e+02
-9.150000000000000000e+02
2.860000000000000000e+03
1.859000000000000000e+03
-5.920000000000000000e+02
1.065000000000000000e+03
2.558000000000000000e+03
1.210000000000000000e+02
1.463000000000000000e+03
2.683000000000000000e+03
2.163000000000000000e+03
2.692000000000000000e+03
4.740000000000000000e+02
4.590000000000000000e+02
3.190000000000000000e+02
1.965000000000000000e+03
2.440000000000000000e+02
3.390000000000000000e+02
1.994000000000000000e+03
2.115000000000000000e+03
3.070000000000000000e+02
-2.362000000000000000e+03
2.247000000000000000e+03
2.647000000000000000e+03
-2.683000000000000000e+03
-1.950000000000000000e+02
1.607000000000000000e+03
2.024000000000000000e+03
1.497000000000000000e+03
9.390000000000000000e+02
1.124000000000000000e+03
-3.140000000000000000e+02
4.480000000000000000e+02
4.560000000000000000e+02
2.136000000000000000e+03
1.323000000000000000e+03
-8.800000000000000000e+01
-1.980000000000000000e+02
7.870000000000000000e+02
7.280000000000000000e+02
2.751000000000000000e+03
5.080000000000000000e+02
-3.892000000000000000e+03
-1.610000000000000000e+03
2.101000000000000000e+03
1.340000000000000000e+02
-7.240000000000000000e+02
1.558000000000000000e+03
2.445000000000000000e+03
1.460000000000000000e+02
2.329000000000000000e+03
2.084000000000000000e+03
2.396000000000000000e+03
2.107000000000000000e+03
1.850000000000000000e+03
-2.910000000000000000e+02
1.864000000000000000e+03
2.344000000000000000e+03
2.015000000000000000e+03
7.770000000000000000e+02
2.785000000000000000e+03
2.727000000000000000e+03
1.496000000000000000e+03
1.089000000000000000e+03
7.600000000000000000e+01
-5.029000000000000000e+03
1.047000000000000000e+03
8.150000000000000000e+02
2.201000000000000000e+03
1.920000000000000000e+03
1.602000000000000000e+03
-6.490000000000000000e+02
1.644000000000000000e+03
1.768000000000000000e+03
-2.999000000000000000e+03
2.940000000000000000e+02
2.190000000000000000e+03
5.360000000000000000e+02
1.041000000000000000e+03
1.252000000000000000e+03
2.806000000000000000e+03
1.601000000000000000e+03
1.532000000000000000e+03
-4.760000000000000000e+02
8.670000000000000000e+02
-5.630000000000000000e+02
-7.100000000000000000e+02
2.850000000000000000e+02
8.100000000000000000e+01
-1.180000000000000000e+02
1.390000000000000000e+02
8.060000000000000000e+02
2.810000000000000000e+02
9.000000000000000000e+00
1.370000000000000000e+03
9.000000000000000000e+01
1.437000000000000000e+03
1.029000000000000000e+03
1.180000000000000000e+02
1.110000000000000000e+03
1.694000000000000000e+03
-7.100000000000000000e+01
2.101000000000000000e+03
-2.272000000000000000e+03
6.800000000000000000e+02
1.521000000000000000e+03
-4.748000000000000000e+03
7.160000000000000000e+02
8.460000000000000000e+02
-3.032000000000000000e+03
-8.760000000000000000e+02
5.250000000000000000e+02
1.598000000000000000e+03
6.730000000000000000e+02
1.515000000000000000e+03
-2.800000000000000000e+01
-1.843000000000000000e+03
2.629000000000000000e+03
2.138000000000000000e+03
5.040000000000000000e+02
-1.320000000000000000e+03
3.000000000000000000e+02
6.240000000000000000e+02
-1.780000000000000000e+02
1.531000000000000000e+03
