6.822000000000000000e+03
-5.096000000000000000e+03
-4.842000000000000000e+03
-8.765000000000000000e+03
6.136000000000000000e+03
9.530000000000000000e+03
-5.180000000000000000e+03
-4.505000000000000000e+03
-1.229700000000000000e+04
8.257000000000000000e+03
7.971000000000000000e+03
8.360000000000000000e+03
9.165000000000000000e+03
2.422400000000000000e+04
6.822000000000000000e+03
1.552900000000000000e+04
1.341200000000000000e+04
3.259000000000000000e+03
1.182100000000000000e+04
3.060000000000000000e+03
7.656000000000000000e+03
7.492000000000000000e+03
2.501300000000000000e+04
-7.196000000000000000e+03
1.156900000000000000e+04
3.306000000000000000e+03
-8.525000000000000000e+03
-4.266000000000000000e+03
8.052000000000000000e+03
-6.341000000000000000e+03
1.457200000000000000e+04
-5.386000000000000000e+03
8.195000000000000000e+03
-1.822000000000000000e+03
1.061100000000000000e+04
-6.493000000000000000e+03
7.349000000000000000e+03
-9.412000000000000000e+03
1.136900000000000000e+04
1.339100000000000000e+04
1.427600000000000000e+04
-4.773000000000000000e+03
7.408000000000000000e+03
-1.928000000000000000e+03
7.498000000000000000e+03
2.916300000000000000e+04
6.235000000000000000e+03
9.909000000000000000e+03
-4.729000000000000000e+03
7.063000000000000000e+03
-6.380000000000000000e+02
1.673500000000000000e+04
4.430000000000000000e+02
5.678000000000000000e+03
-6.206000000000000000e+03
7.875000000000000000e+03
-5.967000000000000000e+03
7.673000000000000000e+03
3.512000000000000000e+03
9.962000000000000000e+03
9.939000000000000000e+03
-4.689000000000000000e+03
4.457000000000000000e+03
9.262000000000000000e+03
