-8.160000000000000000e+02
-1.033000000000000000e+03
2.650000000000000000e+02
1.030000000000000000e+03
1.776000000000000000e+03
4.680000000000000000e+02
5.800000000000000000e+01
1.539000000000000000e+03
7.230000000000000000e+02
-2.344000000000000000e+03
8.350000000000000000e+02
-4.150000000000000000e+02
-9.320000000000000000e+02
4.890000000000000000e+02
-6.200000000000000000e+02
2.120000000000000000e+02
6.900000000000000000e+01
2.310000000000000000e+02
-4.500000000000000000e+01
-9.310000000000000000e+02
-9.200000000000000000e+02
9.170000000000000000e+02
-3.930000000000000000e+02
5.220000000000000000e+02
-3.900000000000000000e+01
-4.600000000000000000e+02
-1.060000000000000000e+03
-4.360000000000000000e+02
-2.185000000000000000e+03
3.688000000000000000e+03
1.301000000000000000e+03
-9.070000000000000000e+02
-6.380000000000000000e+02
-5.460000000000000000e+02
-2.437000000000000000e+03
1.290000000000000000e+03
-3.180000000000000000e+02
5.520000000000000000e+02
-2.376000000000000000e+03
3.610000000000000000e+02
3.680000000000000000e+02
3.410000000000000000e+02
2.690000000000000000e+02
-7.270000000000000000e+02
-9.140000000000000000e+02
1.740000000000000000e+02
-2.101000000000000000e+03
-8.770000000000000000e+02
4.400000000000000000e+01
-1.320000000000000000e+02
5.680000000000000000e+02
-1.880000000000000000e+02
-1.262000000000000000e+03
-8.200000000000000000e+02
5.000000000000000000e+01
-1.519000000000000000e+03
5.480000000000000000e+02
2.740000000000000000e+02
-6.320000000000000000e+02
-1.862000000000000000e+03
-1.290000000000000000e+02
-1.420000000000000000e+02
1.175000000000000000e+03
4.800000000000000000e+01
1.073000000000000000e+03
1.148000000000000000e+03
-1.040000000000000000e+02
-2.949000000000000000e+03
1.279000000000000000e+03
-6.330000000000000000e+02
9.000000000000000000e+01
1.461000000000000000e+03
1.917000000000000000e+03
-7.860000000000000000e+02
9.400000000000000000e+01
9.300000000000000000e+02
-1.107000000000000000e+03
6.150000000000000000e+02
-1.524000000000000000e+03
2.670000000000000000e+02
4.100000000000000000e+02
1.347000000000000000e+03
1.429000000000000000e+03
-3.370000000000000000e+02
1.129000000000000000e+03
1.360000000000000000e+03
-3.180000000000000000e+02
-3.820000000000000000e+02
-8.460000000000000000e+02
-2.340000000000000000e+02
1.733000000000000000e+03
-1.017000000000000000e+03
-1.513000000000000000e+03
1.070000000000000000e+02
-1.180000000000000000e+02
4.010000000000000000e+02
7.930000000000000000e+02
-9.400000000000000000e+02
1.878000000000000000e+03
2.900000000000000000e+01
-7.630000000000000000e+02
-7.000000000000000000e+01
-8.200000000000000000e+02
-8.800000000000000000e+01
6.300000000000000000e+01
1.650000000000000000e+02
-2.143000000000000000e+03
-1.518000000000000000e+03
4.750000000000000000e+02
-3.580000000000000000e+02
-6.320000000000000000e+02
1.940000000000000000e+03
-2.600000000000000000e+01
3.810000000000000000e+02
1.864000000000000000e+03
3.190000000000000000e+02
-1.170000000000000000e+02
2.820000000000000000e+02
1.730000000000000000e+02
-7.310000000000000000e+02
-4.400000000000000000e+01
3.810000000000000000e+02
-2.070000000000000000e+02
3.670000000000000000e+02
9.800000000000000000e+01
8.720000000000000000e+02
-1.465000000000000000e+03
8.000000000000000000e+02
-1.701000000000000000e+03
2.081000000000000000e+03
5.450000000000000000e+02
-2.230000000000000000e+02
8.220000000000000000e+02
1.532000000000000000e+03
3.260000000000000000e+02
5.890000000000000000e+02
3.600000000000000000e+01
-1.306000000000000000e+03
1.334000000000000000e+03
3.630000000000000000e+02
-1.755000000000000000e+03
-1.339000000000000000e+03
1.320000000000000000e+02
9.400000000000000000e+01
-1.381000000000000000e+03
-1.093000000000000000e+03
4.890000000000000000e+02
-7.620000000000000000e+02
-2.080000000000000000e+02
-7.230000000000000000e+02
-1.080000000000000000e+02
-1.333000000000000000e+03
2.190000000000000000e+02
-2.530000000000000000e+02
-1.120000000000000000e+03
-6.650000000000000000e+02
-2.590000000000000000e+02
1.060000000000000000e+03
1.420000000000000000e+02
-8.630000000000000000e+02
-6.210000000000000000e+02
-9.500000000000000000e+02
-1.212000000000000000e+03
-6.860000000000000000e+02
4.740000000000000000e+02
-9.910000000000000000e+02
-6.370000000000000000e+02
2.760000000000000000e+02
1.120000000000000000e+03
-1.550000000000000000e+03
-1.510000000000000000e+02
4.969000000000000000e+03
6.910000000000000000e+02
2.700000000000000000e+01
-3.220000000000000000e+02
-7.700000000000000000e+02
-2.406000000000000000e+03
-7.260000000000000000e+02
-2.540000000000000000e+03
-3.450000000000000000e+02
-1.432000000000000000e+03
-1.584000000000000000e+03
-1.026000000000000000e+03
-1.161000000000000000e+03
-3.390000000000000000e+02
8.050000000000000000e+02
-4.980000000000000000e+02
-6.700000000000000000e+01
2.715000000000000000e+03
-1.683000000000000000e+03
-7.720000000000000000e+02
1.670000000000000000e+02
-1.409000000000000000e+03
4.240000000000000000e+02
5.110000000000000000e+02
-1.756000000000000000e+03
-1.560000000000000000e+02
2.430000000000000000e+02
-6.600000000000000000e+02
-2.247000000000000000e+03
1.943000000000000000e+03
-2.850000000000000000e+02
4.510000000000000000e+02
2.400000000000000000e+02
-8.410000000000000000e+02
-7.190000000000000000e+02
1.072000000000000000e+03
-1.885000000000000000e+03
5.950000000000000000e+02
-1.210000000000000000e+02
-8.660000000000000000e+02
2.300000000000000000e+01
8.610000000000000000e+02
-2.466000000000000000e+03
-6.500000000000000000e+02
-1.836000000000000000e+03
1.492000000000000000e+03
-1.253000000000000000e+03
-1.182000000000000000e+03
2.010000000000000000e+02
-8.020000000000000000e+02
9.750000000000000000e+02
1.324000000000000000e+03
3.690000000000000000e+02
1.087000000000000000e+03
-5.290000000000000000e+02
7.390000000000000000e+02
1.200000000000000000e+01
-2.630000000000000000e+02
2.080000000000000000e+02
4.460000000000000000e+02
1.580000000000000000e+02
7.300000000000000000e+01
-3.570000000000000000e+02
1.238000000000000000e+03
4.769000000000000000e+03
8.750000000000000000e+02
1.193000000000000000e+03
1.390000000000000000e+02
-5.200000000000000000e+01
5.450000000000000000e+02
-4.550000000000000000e+02
-2.414000000000000000e+03
-1.046000000000000000e+03
-3.140000000000000000e+02
-9.280000000000000000e+02
-3.470000000000000000e+02
7.500000000000000000e+02
8.200000000000000000e+02
-3.410000000000000000e+02
1.171000000000000000e+03
2.180000000000000000e+02
-1.300000000000000000e+02
-1.760000000000000000e+03
-5.370000000000000000e+02
-4.260000000000000000e+02
5.670000000000000000e+02
7.070000000000000000e+02
-5.700000000000000000e+02
-1.590000000000000000e+02
5.290000000000000000e+02
-3.990000000000000000e+02
-1.150000000000000000e+03
3.000000000000000000e+00
2.769000000000000000e+03
-2.137000000000000000e+03
-6.670000000000000000e+02
2.390000000000000000e+02
-1.495000000000000000e+03
3.300000000000000000e+01
-2.058000000000000000e+03
7.070000000000000000e+02
3.690000000000000000e+02
2.650000000000000000e+02
-7.590000000000000000e+02
3.112000000000000000e+03
1.542000000000000000e+03
-5.960000000000000000e+02
-5.570000000000000000e+02
-4.140000000000000000e+02
-1.900000000000000000e+01
-8.270000000000000000e+02
-2.120000000000000000e+02
-1.913000000000000000e+03
-2.246000000000000000e+03
3.200000000000000000e+01
3.930000000000000000e+02
-2.171000000000000000e+03
1.610000000000000000e+02
8.600000000000000000e+02
8.250000000000000000e+02
-1.440000000000000000e+02
2.820000000000000000e+02
-2.179000000000000000e+03
-7.410000000000000000e+02
8.750000000000000000e+02
-1.209000000000000000e+03
-8.670000000000000000e+02
1.717000000000000000e+03
-1.710000000000000000e+02
-1.639000000000000000e+03
5.270000000000000000e+02
-1.070000000000000000e+02
-9.130000000000000000e+02
1.278000000000000000e+03
-8.720000000000000000e+02
-4.480000000000000000e+02
1.256000000000000000e+03
4.550000000000000000e+03
-3.650000000000000000e+02
-1.312000000000000000e+03
-4.080000000000000000e+02
-1.000000000000000000e+02
-5.800000000000000000e+02
-5.180000000000000000e+02
-2.360000000000000000e+03
6.000000000000000000e+00
1.080000000000000000e+02
2.625000000000000000e+03
-1.117000000000000000e+03
7.320000000000000000e+02
7.900000000000000000e+02
-6.290000000000000000e+02
-6.030000000000000000e+02
1.574000000000000000e+03
9.850000000000000000e+02
8.650000000000000000e+02
-4.140000000000000000e+02
-8.630000000000000000e+02
5.640000000000000000e+02
2.290000000000000000e+02
-2.200000000000000000e+01
5.240000000000000000e+02
-1.340000000000000000e+02
1.490000000000000000e+02
-1.324000000000000000e+03
-1.180000000000000000e+03
-1.652000000000000000e+03
-1.258000000000000000e+03
1.334000000000000000e+03
1.850000000000000000e+03
-3.100000000000000000e+01
5.300000000000000000e+01
-1.717000000000000000e+03
-8.450000000000000000e+02
1.940000000000000000e+02
-6.540000000000000000e+02
4.120000000000000000e+02
-3.100000000000000000e+02
1.590000000000000000e+02
8.030000000000000000e+02
-3.020000000000000000e+02
-1.153000000000000000e+03
-4.120000000000000000e+02
-1.000000000000000000e+00
3.360000000000000000e+02
-1.511000000000000000e+03
-1.202000000000000000e+03
-1.006000000000000000e+03
2.014000000000000000e+03
-3.930000000000000000e+02
-1.618000000000000000e+03
-9.000000000000000000e+02
-2.620000000000000000e+02
1.269000000000000000e+03
-4.600000000000000000e+01
-3.220000000000000000e+02
4.280000000000000000e+02
4.668000000000000000e+03
-1.800000000000000000e+02
5.270000000000000000e+02
-8.800000000000000000e+01
-1.480000000000000000e+03
3.230000000000000000e+02
-1.260000000000000000e+03
-2.074000000000000000e+03
-9.980000000000000000e+02
-9.730000000000000000e+02
-4.200000000000000000e+02
1.142000000000000000e+03
-6.700000000000000000e+01
-1.336000000000000000e+03
-6.340000000000000000e+02
-3.120000000000000000e+02
-1.350000000000000000e+03
-7.390000000000000000e+02
9.180000000000000000e+02
4.830000000000000000e+02
-1.046000000000000000e+03
3.040000000000000000e+02
3.470000000000000000e+02
2.210000000000000000e+02
-3.400000000000000000e+01
4.920000000000000000e+02
2.365000000000000000e+03
-6.640000000000000000e+02
5.770000000000000000e+02
-1.160000000000000000e+02
1.410000000000000000e+02
5.310000000000000000e+02
-1.700000000000000000e+01
-1.098000000000000000e+03
8.080000000000000000e+02
1.510000000000000000e+02
-6.530000000000000000e+02
-5.590000000000000000e+02
8.000000000000000000e+00
1.343000000000000000e+03
-5.910000000000000000e+02
1.480000000000000000e+02
-1.548000000000000000e+03
-1.221000000000000000e+03
-2.260000000000000000e+02
1.220000000000000000e+03
-9.870000000000000000e+02
-7.880000000000000000e+02
-3.070000000000000000e+02
-1.673000000000000000e+03
-5.900000000000000000e+01
-1.560000000000000000e+02
-1.175000000000000000e+03
8.690000000000000000e+02
-6.100000000000000000e+01
7.380000000000000000e+02
-1.001000000000000000e+03
-7.030000000000000000e+02
-1.490000000000000000e+02
1.278000000000000000e+03
-1.136000000000000000e+03
-9.250000000000000000e+02
-4.600000000000000000e+01
1.570000000000000000e+02
1.197000000000000000e+03
1.280000000000000000e+02
-1.237000000000000000e+03
1.000000000000000000e+02
-2.060000000000000000e+02
5.560000000000000000e+02
-6.730000000000000000e+02
-4.880000000000000000e+02
2.690000000000000000e+02
-5.000000000000000000e+02
-6.570000000000000000e+02
1.416000000000000000e+03
-8.090000000000000000e+02
5.950000000000000000e+02
-2.140000000000000000e+02
-1.955000000000000000e+03
-1.283000000000000000e+03
1.973000000000000000e+03
-9.510000000000000000e+02
6.670000000000000000e+02
9.010000000000000000e+02
1.456000000000000000e+03
4.440000000000000000e+02
-2.721000000000000000e+03
-1.212000000000000000e+03
3.430000000000000000e+02
-2.170000000000000000e+02
-3.930000000000000000e+02
-1.561000000000000000e+03
1.600000000000000000e+01
-1.500000000000000000e+02
-8.980000000000000000e+02
-4.000000000000000000e+00
5.500000000000000000e+01
-3.036000000000000000e+03
2.620000000000000000e+02
1.340000000000000000e+02
-8.450000000000000000e+02
-6.910000000000000000e+02
9.370000000000000000e+02
-4.870000000000000000e+02
9.300000000000000000e+01
3.520000000000000000e+02
-3.040000000000000000e+02
1.046000000000000000e+03
-4.060000000000000000e+02
-6.600000000000000000e+02
0.000000000000000000e+00
8.130000000000000000e+02
2.910000000000000000e+02
-9.340000000000000000e+02
7.470000000000000000e+02
1.990000000000000000e+02
-5.880000000000000000e+02
2.110000000000000000e+02
-5.960000000000000000e+02
-1.440000000000000000e+02
-5.080000000000000000e+02
-4.100000000000000000e+01
1.400000000000000000e+03
-8.900000000000000000e+01
2.640000000000000000e+02
1.094000000000000000e+03
7.100000000000000000e+01
8.100000000000000000e+01
-9.210000000000000000e+02
1.245000000000000000e+03
7.020000000000000000e+02
-1.349000000000000000e+03
1.188000000000000000e+03
5.770000000000000000e+02
-2.480000000000000000e+02
1.169000000000000000e+03
-1.170000000000000000e+02
-3.380000000000000000e+02
1.970000000000000000e+02
5.300000000000000000e+01
-6.670000000000000000e+02
-1.280000000000000000e+03
-7.900000000000000000e+01
2.093000000000000000e+03
-6.610000000000000000e+02
-1.378000000000000000e+03
-7.930000000000000000e+02
-2.330000000000000000e+02
5.750000000000000000e+02
1.217000000000000000e+03
-1.200000000000000000e+02
-1.026000000000000000e+03
7.800000000000000000e+02
-6.320000000000000000e+02
6.980000000000000000e+02
-5.770000000000000000e+02
-3.950000000000000000e+02
-5.510000000000000000e+02
2.600000000000000000e+03
-4.560000000000000000e+02
-4.100000000000000000e+02
4.090000000000000000e+02
-5.500000000000000000e+02
2.550000000000000000e+02
1.570000000000000000e+02
-1.510000000000000000e+02
2.080000000000000000e+02
1.259000000000000000e+03
1.772000000000000000e+03
8.100000000000000000e+01
-1.165000000000000000e+03
-6.910000000000000000e+02
-1.400000000000000000e+02
-3.770000000000000000e+02
-9.360000000000000000e+02
-2.970000000000000000e+02
7.340000000000000000e+02
1.571000000000000000e+03
-1.019000000000000000e+03
1.076000000000000000e+03
6.740000000000000000e+02
1.790000000000000000e+02
-9.440000000000000000e+02
1.301000000000000000e+03
-1.247000000000000000e+03
-4.640000000000000000e+02
-2.700000000000000000e+01
-9.330000000000000000e+02
-1.100000000000000000e+02
-5.980000000000000000e+02
-2.900000000000000000e+02
1.678000000000000000e+03
-3.500000000000000000e+01
-2.229000000000000000e+03
7.900000000000000000e+01
1.931000000000000000e+03
-1.458000000000000000e+03
-5.420000000000000000e+02
-1.479000000000000000e+03
-1.010000000000000000e+02
-6.210000000000000000e+02
-2.470000000000000000e+02
-8.130000000000000000e+02
-1.029000000000000000e+03
5.540000000000000000e+02
6.640000000000000000e+02
7.330000000000000000e+02
1.459000000000000000e+03
1.571000000000000000e+03
1.990000000000000000e+02
5.890000000000000000e+02
4.880000000000000000e+02
-1.302000000000000000e+03
2.520000000000000000e+02
-6.260000000000000000e+02
-8.720000000000000000e+02
2.410000000000000000e+02
3.910000000000000000e+02
-6.800000000000000000e+02
-6.310000000000000000e+02
-2.370000000000000000e+02
-3.090000000000000000e+02
-1.900000000000000000e+01
-3.050000000000000000e+02
-7.960000000000000000e+02
2.380000000000000000e+02
9.110000000000000000e+02
2.980000000000000000e+02
-2.280000000000000000e+02
-1.411000000000000000e+03
4.580000000000000000e+02
1.210000000000000000e+03
-7.590000000000000000e+02
9.490000000000000000e+02
9.200000000000000000e+01
-2.700000000000000000e+02
-7.300000000000000000e+01
-6.260000000000000000e+02
-3.190000000000000000e+02
1.680000000000000000e+02
8.020000000000000000e+02
-1.860000000000000000e+02
9.600000000000000000e+02
-7.410000000000000000e+02
-6.250000000000000000e+02
5.370000000000000000e+02
-4.350000000000000000e+02
1.134000000000000000e+03
-1.290000000000000000e+02
9.720000000000000000e+02
1.597000000000000000e+03
7.920000000000000000e+02
-5.290000000000000000e+02
7.610000000000000000e+02
-5.100000000000000000e+01
-5.950000000000000000e+02
-1.614000000000000000e+03
-9.440000000000000000e+02
2.490000000000000000e+02
-4.890000000000000000e+02
-3.870000000000000000e+02
-1.291000000000000000e+03
-8.000000000000000000e+00
7.260000000000000000e+02
3.998000000000000000e+03
-6.600000000000000000e+01
8.200000000000000000e+02
-9.000000000000000000e+01
-2.440000000000000000e+02
-9.380000000000000000e+02
4.140000000000000000e+02
1.191000000000000000e+03
1.023000000000000000e+03
1.397000000000000000e+03
-1.895000000000000000e+03
-1.087000000000000000e+03
1.330000000000000000e+02
-1.027000000000000000e+03
-8.770000000000000000e+02
1.236000000000000000e+03
-4.950000000000000000e+02
1.240000000000000000e+02
2.330000000000000000e+02
2.582000000000000000e+03
-1.111000000000000000e+03
6.920000000000000000e+02
-2.500000000000000000e+02
5.870000000000000000e+02
-2.763000000000000000e+03
-4.110000000000000000e+02
-1.311000000000000000e+03
-1.144000000000000000e+03
-2.110000000000000000e+02
1.941000000000000000e+03
1.349000000000000000e+03
-1.577000000000000000e+03
-1.322000000000000000e+03
1.203000000000000000e+03
9.060000000000000000e+02
-2.980000000000000000e+02
3.514000000000000000e+03
1.725000000000000000e+03
-2.040000000000000000e+02
-9.720000000000000000e+02
-2.113000000000000000e+03
-6.290000000000000000e+02
-1.120000000000000000e+02
1.331000000000000000e+03
-2.050000000000000000e+02
2.790000000000000000e+02
-1.306000000000000000e+03
-2.238000000000000000e+03
-7.100000000000000000e+01
-1.698000000000000000e+03
-8.690000000000000000e+02
2.470000000000000000e+02
6.700000000000000000e+01
1.244000000000000000e+03
5.650000000000000000e+02
-8.230000000000000000e+02
1.064000000000000000e+03
-1.356000000000000000e+03
4.660000000000000000e+02
-4.980000000000000000e+02
-5.270000000000000000e+02
-1.229000000000000000e+03
-1.360000000000000000e+03
-1.710000000000000000e+02
-2.070000000000000000e+02
1.003000000000000000e+03
-2.016000000000000000e+03
-9.050000000000000000e+02
-1.447000000000000000e+03
-4.400000000000000000e+01
-5.100000000000000000e+02
8.740000000000000000e+02
2.817000000000000000e+03
3.040000000000000000e+02
-5.890000000000000000e+02
-1.208000000000000000e+03
1.287000000000000000e+03
-1.529000000000000000e+03
-3.490000000000000000e+02
-4.500000000000000000e+02
8.770000000000000000e+02
-1.938000000000000000e+03
-1.040000000000000000e+02
-1.530000000000000000e+02
-2.980000000000000000e+02
3.260000000000000000e+02
-4.950000000000000000e+02
1.539000000000000000e+03
-5.010000000000000000e+02
1.770000000000000000e+03
-7.480000000000000000e+02
-1.820000000000000000e+02
1.570000000000000000e+02
-6.080000000000000000e+02
2.340000000000000000e+02
5.760000000000000000e+02
-1.870000000000000000e+02
-7.390000000000000000e+02
-3.410000000000000000e+02
-9.300000000000000000e+01
-1.071000000000000000e+03
-4.350000000000000000e+02
-9.590000000000000000e+02
-1.034000000000000000e+03
-7.410000000000000000e+02
-3.420000000000000000e+02
-1.023000000000000000e+03
-4.800000000000000000e+01
3.038000000000000000e+03
-1.043000000000000000e+03
1.680000000000000000e+02
-1.540000000000000000e+02
7.000000000000000000e+02
-8.790000000000000000e+02
-2.012000000000000000e+03
4.300000000000000000e+01
2.650000000000000000e+02
-5.210000000000000000e+02
-8.830000000000000000e+02
-4.890000000000000000e+02
-2.088000000000000000e+03
5.200000000000000000e+01
-5.000000000000000000e+02
-1.621000000000000000e+03
-9.600000000000000000e+02
-5.500000000000000000e+02
6.320000000000000000e+02
7.750000000000000000e+02
1.650000000000000000e+02
2.770000000000000000e+02
1.413000000000000000e+03
3.180000000000000000e+02
-2.400000000000000000e+01
9.220000000000000000e+02
-7.800000000000000000e+01
-1.660000000000000000e+02
5.800000000000000000e+01
-1.710000000000000000e+02
-1.209000000000000000e+03
6.890000000000000000e+02
-4.540000000000000000e+02
-4.900000000000000000e+01
-1.166000000000000000e+03
-3.290000000000000000e+02
1.100000000000000000e+03
1.930000000000000000e+02
3.800000000000000000e+02
-5.180000000000000000e+02
1.398000000000000000e+03
-5.500000000000000000e+02
3.790000000000000000e+02
1.262000000000000000e+03
4.700000000000000000e+01
-2.030000000000000000e+02
1.500000000000000000e+01
-2.600000000000000000e+01
-2.030000000000000000e+02
-2.291000000000000000e+03
2.760000000000000000e+02
8.530000000000000000e+02
-1.424000000000000000e+03
1.290000000000000000e+02
-1.184000000000000000e+03
-5.010000000000000000e+02
1.540000000000000000e+02
-1.999000000000000000e+03
-1.190000000000000000e+02
8.780000000000000000e+02
3.150000000000000000e+02
-9.610000000000000000e+02
-1.740000000000000000e+02
6.740000000000000000e+02
-1.370000000000000000e+02
-5.710000000000000000e+02
-1.170000000000000000e+03
-1.780000000000000000e+02
-9.780000000000000000e+02
-1.461000000000000000e+03
7.840000000000000000e+02
-1.447000000000000000e+03
1.070000000000000000e+02
2.940000000000000000e+02
-1.216000000000000000e+03
4.660000000000000000e+02
1.890000000000000000e+02
1.220000000000000000e+03
-1.558000000000000000e+03
2.844000000000000000e+03
2.200000000000000000e+02
6.730000000000000000e+02
-7.900000000000000000e+02
8.740000000000000000e+02
-1.175000000000000000e+03
1.910000000000000000e+02
1.700000000000000000e+03
-1.910000000000000000e+02
-6.660000000000000000e+02
1.270000000000000000e+02
1.722000000000000000e+03
5.020000000000000000e+02
-1.044000000000000000e+03
3.298000000000000000e+03
-1.200000000000000000e+02
9.490000000000000000e+02
2.313000000000000000e+03
2.590000000000000000e+02
-1.766000000000000000e+03
-4.390000000000000000e+02
-1.352000000000000000e+03
-2.800000000000000000e+02
-1.670000000000000000e+02
-4.570000000000000000e+02
-8.900000000000000000e+01
-7.090000000000000000e+02
2.653000000000000000e+03
-1.179000000000000000e+03
8.940000000000000000e+02
-7.370000000000000000e+02
-2.830000000000000000e+02
-3.910000000000000000e+02
-7.600000000000000000e+01
1.041000000000000000e+03
2.380000000000000000e+02
1.617000000000000000e+03
1.000000000000000000e+02
2.750000000000000000e+03
-1.259000000000000000e+03
-2.220000000000000000e+02
7.240000000000000000e+02
5.790000000000000000e+02
9.700000000000000000e+02
8.490000000000000000e+02
1.030000000000000000e+03
-7.200000000000000000e+01
-6.810000000000000000e+02
2.150000000000000000e+02
1.653000000000000000e+03
-6.880000000000000000e+02
8.050000000000000000e+02
1.814000000000000000e+03
2.970000000000000000e+02
1.663000000000000000e+03
1.298000000000000000e+03
7.830000000000000000e+02
-1.013000000000000000e+03
-3.350000000000000000e+02
1.140000000000000000e+02
-6.200000000000000000e+02
7.500000000000000000e+01
-7.540000000000000000e+02
5.830000000000000000e+02
-3.300000000000000000e+01
-5.960000000000000000e+02
-3.540000000000000000e+02
1.440000000000000000e+02
8.400000000000000000e+02
-9.550000000000000000e+02
-1.154000000000000000e+03
2.210000000000000000e+02
-3.640000000000000000e+02
-2.013000000000000000e+03
9.590000000000000000e+02
-1.067000000000000000e+03
-1.470000000000000000e+02
5.510000000000000000e+02
-8.940000000000000000e+02
-1.750000000000000000e+02
9.280000000000000000e+02
-7.860000000000000000e+02
-8.920000000000000000e+02
-3.930000000000000000e+02
6.880000000000000000e+02
1.768000000000000000e+03
-2.170000000000000000e+02
6.970000000000000000e+02
-1.480000000000000000e+03
-8.140000000000000000e+02
-3.710000000000000000e+02
-3.870000000000000000e+02
7.800000000000000000e+02
-2.500000000000000000e+02
-2.040000000000000000e+02
-7.150000000000000000e+02
-1.770000000000000000e+02
-1.100000000000000000e+02
-1.200000000000000000e+02
-1.525000000000000000e+03
2.660000000000000000e+02
-4.650000000000000000e+02
-1.290000000000000000e+02
-4.820000000000000000e+02
-2.061000000000000000e+03
-3.550000000000000000e+02
-1.625000000000000000e+03
-2.654000000000000000e+03
5.510000000000000000e+02
9.240000000000000000e+02
-4.310000000000000000e+02
-1.910000000000000000e+02
-5.570000000000000000e+02
-7.020000000000000000e+02
2.880000000000000000e+02
-2.320000000000000000e+02
-1.009000000000000000e+03
-3.210000000000000000e+02
-4.860000000000000000e+02
-1.703000000000000000e+03
-5.820000000000000000e+02
-9.470000000000000000e+02
-1.058000000000000000e+03
-8.460000000000000000e+02
-9.490000000000000000e+02
6.670000000000000000e+02
-8.100000000000000000e+02
3.540000000000000000e+02
-1.340000000000000000e+03
2.090000000000000000e+02
4.710000000000000000e+02
-1.163000000000000000e+03
-6.960000000000000000e+02
4.000000000000000000e+01
-1.253000000000000000e+03
-4.640000000000000000e+02
1.469000000000000000e+03
1.102000000000000000e+03
-2.310000000000000000e+02
-3.220000000000000000e+02
8.670000000000000000e+02
1.249000000000000000e+03
-4.150000000000000000e+02
3.860000000000000000e+02
-9.660000000000000000e+02
-9.440000000000000000e+02
1.900000000000000000e+02
-3.310000000000000000e+02
-1.150000000000000000e+03
-1.145000000000000000e+03
-4.160000000000000000e+02
-6.900000000000000000e+02
3.410000000000000000e+02
1.000000000000000000e+02
5.490000000000000000e+02
1.650000000000000000e+02
2.740000000000000000e+02
1.781000000000000000e+03
-7.450000000000000000e+02
-1.188000000000000000e+03
1.830000000000000000e+02
-1.230000000000000000e+02
4.380000000000000000e+02
4.280000000000000000e+02
-1.102000000000000000e+03
-1.020000000000000000e+02
-9.300000000000000000e+01
2.425000000000000000e+03
-1.077000000000000000e+03
-1.190000000000000000e+02
-3.630000000000000000e+02
-9.120000000000000000e+02
-1.530000000000000000e+02
4.420000000000000000e+02
2.823000000000000000e+03
2.740000000000000000e+02
-4.160000000000000000e+02
-3.510000000000000000e+02
7.000000000000000000e+00
-2.540000000000000000e+02
-1.780000000000000000e+02
1.771000000000000000e+03
6.320000000000000000e+02
-1.351000000000000000e+03
1.655000000000000000e+03
6.260000000000000000e+02
5.940000000000000000e+02
-1.786000000000000000e+03
7.250000000000000000e+02
3.140000000000000000e+02
1.620000000000000000e+02
-1.050000000000000000e+03
2.000000000000000000e+01
-7.170000000000000000e+02
1.633000000000000000e+03
-9.830000000000000000e+02
1.900000000000000000e+02
1.990000000000000000e+02
-2.040000000000000000e+02
1.225000000000000000e+03
-5.890000000000000000e+02
-6.100000000000000000e+02
1.548000000000000000e+03
1.009000000000000000e+03
