-5.410000000000000000e+02
-4.230000000000000000e+02
-1.615000000000000000e+03
-2.000000000000000000e+00
1.219000000000000000e+03
8.180000000000000000e+02
7.390000000000000000e+02
9.360000000000000000e+02
1.261000000000000000e+03
5.300000000000000000e+02
-3.290000000000000000e+02
-1.144000000000000000e+03
-1.043000000000000000e+03
-1.753000000000000000e+03
-1.200000000000000000e+02
-1.145000000000000000e+03
-9.430000000000000000e+02
7.240000000000000000e+02
-2.500000000000000000e+02
2.500000000000000000e+01
-6.540000000000000000e+02
-1.446000000000000000e+03
-5.050000000000000000e+02
7.510000000000000000e+02
-5.300000000000000000e+02
-2.098000000000000000e+03
-1.494000000000000000e+03
-2.955000000000000000e+03
1.941000000000000000e+03
3.560000000000000000e+02
-2.540000000000000000e+02
6.100000000000000000e+01
-2.480000000000000000e+02
3.230000000000000000e+02
-8.800000000000000000e+02
6.810000000000000000e+02
3.220000000000000000e+02
-1.360000000000000000e+02
-1.729000000000000000e+03
-1.153000000000000000e+03
-9.740000000000000000e+02
4.530000000000000000e+02
2.410000000000000000e+02
9.280000000000000000e+02
1.049000000000000000e+03
-1.790000000000000000e+03
6.230000000000000000e+02
-1.146000000000000000e+03
-1.652000000000000000e+03
-3.950000000000000000e+02
-1.564000000000000000e+03
9.210000000000000000e+02
5.180000000000000000e+02
1.414000000000000000e+03
6.440000000000000000e+02
-2.762000000000000000e+03
-1.134000000000000000e+03
-1.140000000000000000e+02
-5.610000000000000000e+02
2.910000000000000000e+02
6.210000000000000000e+02
2.580000000000000000e+02
2.290000000000000000e+02
-5.260000000000000000e+02
-1.880000000000000000e+02
2.010000000000000000e+02
4.720000000000000000e+02
-1.282000000000000000e+03
-2.580000000000000000e+03
8.720000000000000000e+02
-9.980000000000000000e+02
-2.466000000000000000e+03
-1.200000000000000000e+01
1.319000000000000000e+03
1.740000000000000000e+02
1.640000000000000000e+02
3.960000000000000000e+02
-6.560000000000000000e+02
5.070000000000000000e+02
3.930000000000000000e+02
-1.033000000000000000e+03
-1.638000000000000000e+03
-1.750000000000000000e+03
2.400000000000000000e+01
1.650000000000000000e+02
-3.090000000000000000e+02
1.032000000000000000e+03
6.060000000000000000e+02
-3.480000000000000000e+02
-1.257000000000000000e+03
1.441000000000000000e+03
-5.100000000000000000e+01
-1.052000000000000000e+03
0.000000000000000000e+00
-8.860000000000000000e+02
-9.140000000000000000e+02
-2.230000000000000000e+02
-5.500000000000000000e+01
2.940000000000000000e+02
-6.080000000000000000e+02
-2.000000000000000000e+01
-5.930000000000000000e+02
-2.100000000000000000e+01
-2.670000000000000000e+02
-8.940000000000000000e+02
-5.330000000000000000e+02
6.180000000000000000e+02
-2.349000000000000000e+03
2.387000000000000000e+03
-3.020000000000000000e+02
9.170000000000000000e+02
2.440000000000000000e+03
-2.220000000000000000e+03
4.340000000000000000e+02
-4.190000000000000000e+02
1.370000000000000000e+02
-1.530000000000000000e+02
-7.900000000000000000e+02
-1.250000000000000000e+02
1.419000000000000000e+03
2.310000000000000000e+02
1.330000000000000000e+02
-4.130000000000000000e+02
1.654000000000000000e+03
5.590000000000000000e+02
8.300000000000000000e+01
-2.680000000000000000e+02
-1.413000000000000000e+03
-2.070000000000000000e+02
2.570000000000000000e+02
-1.407000000000000000e+03
-1.301000000000000000e+03
1.673000000000000000e+03
-1.054000000000000000e+03
-3.270000000000000000e+02
-3.900000000000000000e+02
-9.870000000000000000e+02
4.010000000000000000e+02
-4.010000000000000000e+02
8.250000000000000000e+02
3.900000000000000000e+02
-1.202000000000000000e+03
1.231000000000000000e+03
6.040000000000000000e+02
-4.980000000000000000e+02
5.630000000000000000e+02
-8.960000000000000000e+02
2.970000000000000000e+02
5.430000000000000000e+02
-1.221000000000000000e+03
1.590000000000000000e+02
5.880000000000000000e+02
-8.890000000000000000e+02
7.600000000000000000e+01
-9.200000000000000000e+01
-1.303000000000000000e+03
-4.000000000000000000e+01
-6.250000000000000000e+02
-1.563000000000000000e+03
-5.370000000000000000e+02
2.104000000000000000e+03
-1.284000000000000000e+03
4.120000000000000000e+02
1.335000000000000000e+03
3.330000000000000000e+02
-7.670000000000000000e+02
3.500000000000000000e+02
4.540000000000000000e+02
-7.810000000000000000e+02
-1.701000000000000000e+03
4.410000000000000000e+02
-6.420000000000000000e+02
4.960000000000000000e+02
1.301000000000000000e+03
-5.290000000000000000e+02
8.200000000000000000e+01
-3.270000000000000000e+02
-9.840000000000000000e+02
7.040000000000000000e+02
1.978000000000000000e+03
-1.046000000000000000e+03
-8.200000000000000000e+02
-2.284000000000000000e+03
-1.705000000000000000e+03
9.860000000000000000e+02
-7.170000000000000000e+02
-1.079000000000000000e+03
3.850000000000000000e+02
1.363000000000000000e+03
2.163000000000000000e+03
3.360000000000000000e+02
1.200000000000000000e+01
-6.500000000000000000e+02
1.610000000000000000e+02
-3.360000000000000000e+02
-9.160000000000000000e+02
-5.120000000000000000e+02
-6.170000000000000000e+02
1.176000000000000000e+03
-9.300000000000000000e+01
6.190000000000000000e+02
-3.300000000000000000e+02
-4.950000000000000000e+02
5.000000000000000000e+00
-1.210000000000000000e+02
1.480000000000000000e+03
-7.840000000000000000e+02
8.390000000000000000e+02
-6.460000000000000000e+02
-1.640000000000000000e+03
-8.500000000000000000e+02
-5.740000000000000000e+02
-2.243000000000000000e+03
1.018000000000000000e+03
-5.040000000000000000e+02
1.210000000000000000e+02
3.360000000000000000e+02
2.873000000000000000e+03
-9.100000000000000000e+02
1.709000000000000000e+03
-5.510000000000000000e+02
-9.440000000000000000e+02
-1.304000000000000000e+03
-1.013000000000000000e+03
-3.990000000000000000e+02
-7.950000000000000000e+02
4.560000000000000000e+02
6.460000000000000000e+02
2.760000000000000000e+02
-1.688000000000000000e+03
3.122000000000000000e+03
1.832000000000000000e+03
-4.410000000000000000e+02
-6.760000000000000000e+02
5.450000000000000000e+02
2.770000000000000000e+02
-1.098000000000000000e+03
5.340000000000000000e+02
1.920000000000000000e+02
1.255000000000000000e+03
9.530000000000000000e+02
-1.300000000000000000e+02
-9.830000000000000000e+02
-1.630000000000000000e+03
-1.162000000000000000e+03
3.750000000000000000e+02
-1.948000000000000000e+03
5.600000000000000000e+02
-6.150000000000000000e+02
-2.380000000000000000e+02
9.440000000000000000e+02
-7.730000000000000000e+02
-1.257000000000000000e+03
-1.083000000000000000e+03
-3.074000000000000000e+03
-2.100000000000000000e+01
-1.035000000000000000e+03
6.750000000000000000e+02
-6.900000000000000000e+02
-8.200000000000000000e+02
3.640000000000000000e+02
-8.300000000000000000e+01
8.580000000000000000e+02
2.000000000000000000e+02
-6.760000000000000000e+02
5.400000000000000000e+02
1.580000000000000000e+02
-9.110000000000000000e+02
-1.804000000000000000e+03
7.890000000000000000e+02
-3.880000000000000000e+02
-5.700000000000000000e+02
1.216000000000000000e+03
4.220000000000000000e+02
-7.020000000000000000e+02
1.000000000000000000e+02
-7.710000000000000000e+02
1.199000000000000000e+03
-4.020000000000000000e+02
-7.730000000000000000e+02
-4.260000000000000000e+02
-4.950000000000000000e+02
6.720000000000000000e+02
-1.367000000000000000e+03
-6.820000000000000000e+02
3.340000000000000000e+02
5.400000000000000000e+01
-1.381000000000000000e+03
-1.501000000000000000e+03
3.006000000000000000e+03
-8.520000000000000000e+02
-1.860000000000000000e+02
-8.050000000000000000e+02
5.570000000000000000e+02
5.720000000000000000e+02
1.578000000000000000e+03
9.480000000000000000e+02
-1.058000000000000000e+03
-8.330000000000000000e+02
1.116000000000000000e+03
-1.110000000000000000e+02
-6.150000000000000000e+02
-9.420000000000000000e+02
6.520000000000000000e+02
2.600000000000000000e+01
-1.970000000000000000e+02
9.090000000000000000e+02
5.100000000000000000e+02
-1.700000000000000000e+02
5.800000000000000000e+02
4.730000000000000000e+02
-9.900000000000000000e+02
1.040000000000000000e+02
-6.850000000000000000e+02
-4.940000000000000000e+02
1.208000000000000000e+03
-1.800000000000000000e+02
-2.800000000000000000e+01
1.100000000000000000e+01
-3.700000000000000000e+01
1.461000000000000000e+03
1.713000000000000000e+03
-6.950000000000000000e+02
1.480000000000000000e+03
-1.160000000000000000e+02
-1.450000000000000000e+02
-8.300000000000000000e+01
3.010000000000000000e+02
-1.396000000000000000e+03
-6.190000000000000000e+02
3.900000000000000000e+01
9.300000000000000000e+02
1.362000000000000000e+03
-8.310000000000000000e+02
1.090000000000000000e+02
1.520000000000000000e+02
-1.650000000000000000e+02
-9.450000000000000000e+02
-4.274000000000000000e+03
1.927000000000000000e+03
-5.680000000000000000e+02
8.540000000000000000e+02
-1.342000000000000000e+03
-1.301000000000000000e+03
-9.940000000000000000e+02
8.430000000000000000e+02
-4.600000000000000000e+02
-6.770000000000000000e+02
4.730000000000000000e+02
8.320000000000000000e+02
-1.168000000000000000e+03
-6.670000000000000000e+02
-7.960000000000000000e+02
8.880000000000000000e+02
2.340000000000000000e+02
-9.690000000000000000e+02
-2.566000000000000000e+03
6.900000000000000000e+01
-6.590000000000000000e+02
1.970000000000000000e+02
-1.070000000000000000e+03
2.460000000000000000e+02
-5.300000000000000000e+02
3.310000000000000000e+02
5.530000000000000000e+02
2.980000000000000000e+02
-2.670000000000000000e+02
-3.880000000000000000e+02
-3.250000000000000000e+02
-1.046000000000000000e+03
-1.180000000000000000e+03
1.162000000000000000e+03
-6.280000000000000000e+02
-1.741000000000000000e+03
-1.929000000000000000e+03
-3.060000000000000000e+02
-7.870000000000000000e+02
4.450000000000000000e+02
8.700000000000000000e+01
1.594000000000000000e+03
3.270000000000000000e+02
-9.750000000000000000e+02
-7.890000000000000000e+02
-6.860000000000000000e+02
9.630000000000000000e+02
-4.600000000000000000e+01
3.300000000000000000e+01
-2.518000000000000000e+03
-8.320000000000000000e+02
5.300000000000000000e+02
2.170000000000000000e+02
-5.150000000000000000e+02
7.000000000000000000e+01
-4.140000000000000000e+02
1.262000000000000000e+03
-6.630000000000000000e+02
-1.641000000000000000e+03
-9.880000000000000000e+02
5.060000000000000000e+02
4.000000000000000000e+00
9.860000000000000000e+02
-4.000000000000000000e+01
-3.340000000000000000e+02
-3.750000000000000000e+02
-5.020000000000000000e+02
-5.830000000000000000e+02
3.280000000000000000e+02
1.036000000000000000e+03
-6.190000000000000000e+02
-1.807000000000000000e+03
-7.790000000000000000e+02
-9.200000000000000000e+02
-2.000000000000000000e+00
-3.000000000000000000e+01
-6.760000000000000000e+02
3.560000000000000000e+02
-1.519000000000000000e+03
-2.500000000000000000e+02
-1.344000000000000000e+03
-1.251000000000000000e+03
7.280000000000000000e+02
-4.340000000000000000e+02
1.086000000000000000e+03
5.790000000000000000e+02
1.660000000000000000e+02
6.900000000000000000e+01
1.110000000000000000e+02
-6.410000000000000000e+02
2.000000000000000000e+00
9.900000000000000000e+02
-1.334000000000000000e+03
7.440000000000000000e+02
-1.418000000000000000e+03
-5.580000000000000000e+02
1.430000000000000000e+03
3.110000000000000000e+02
-3.056000000000000000e+03
-1.700000000000000000e+01
-5.860000000000000000e+02
1.252000000000000000e+03
-5.800000000000000000e+02
9.800000000000000000e+02
1.586000000000000000e+03
1.229000000000000000e+03
-1.409000000000000000e+03
-7.080000000000000000e+02
-7.580000000000000000e+02
5.100000000000000000e+01
-8.470000000000000000e+02
7.490000000000000000e+02
-1.656000000000000000e+03
-2.866000000000000000e+03
3.860000000000000000e+02
-4.750000000000000000e+02
-2.800000000000000000e+01
-3.330000000000000000e+02
1.977000000000000000e+03
-1.067000000000000000e+03
2.340000000000000000e+02
-9.000000000000000000e+00
-2.870000000000000000e+02
-1.310000000000000000e+02
-4.340000000000000000e+02
-3.710000000000000000e+02
-6.150000000000000000e+02
3.930000000000000000e+02
-1.463000000000000000e+03
6.220000000000000000e+02
7.120000000000000000e+02
-1.268000000000000000e+03
1.356000000000000000e+03
-9.360000000000000000e+02
-1.885000000000000000e+03
2.670000000000000000e+02
4.080000000000000000e+02
-6.740000000000000000e+02
-1.958000000000000000e+03
-1.264000000000000000e+03
1.130000000000000000e+03
-4.830000000000000000e+02
-1.718000000000000000e+03
-4.090000000000000000e+02
1.503000000000000000e+03
9.970000000000000000e+02
-1.852000000000000000e+03
-2.609000000000000000e+03
-2.629000000000000000e+03
6.340000000000000000e+02
8.400000000000000000e+01
1.810000000000000000e+02
1.512000000000000000e+03
-7.210000000000000000e+02
-2.413000000000000000e+03
-1.804000000000000000e+03
2.065000000000000000e+03
1.200000000000000000e+03
6.080000000000000000e+02
7.260000000000000000e+02
-1.228000000000000000e+03
-1.283000000000000000e+03
-5.240000000000000000e+02
1.955000000000000000e+03
1.060000000000000000e+02
-9.590000000000000000e+02
-9.800000000000000000e+02
3.850000000000000000e+02
6.530000000000000000e+02
1.430000000000000000e+02
2.238000000000000000e+03
2.227000000000000000e+03
3.500000000000000000e+02
-1.555000000000000000e+03
