-7.600000000000000000e+01
7.910000000000000000e+02
-1.470000000000000000e+02
9.810000000000000000e+02
9.660000000000000000e+02
-6.040000000000000000e+02
1.458000000000000000e+03
-7.000000000000000000e+02
1.314000000000000000e+03
2.240000000000000000e+03
-2.590000000000000000e+02
3.160000000000000000e+02
6.330000000000000000e+02
6.300000000000000000e+02
3.680000000000000000e+02
-3.620000000000000000e+02
-3.095000000000000000e+03
5.650000000000000000e+02
5.740000000000000000e+02
6.990000000000000000e+02
1.345000000000000000e+03
-6.300000000000000000e+01
5.500000000000000000e+01
8.280000000000000000e+02
-2.900000000000000000e+02
1.962000000000000000e+03
-1.021000000000000000e+03
2.200000000000000000e+01
6.420000000000000000e+02
-3.500000000000000000e+02
7.460000000000000000e+02
-1.045000000000000000e+03
3.320000000000000000e+02
-3.110000000000000000e+02
2.675000000000000000e+03
-1.710000000000000000e+02
2.644000000000000000e+03
7.050000000000000000e+02
9.180000000000000000e+02
-1.303000000000000000e+03
-7.290000000000000000e+02
-1.210000000000000000e+02
1.542000000000000000e+03
8.670000000000000000e+02
2.010000000000000000e+02
2.564000000000000000e+03
-1.365000000000000000e+03
-6.800000000000000000e+02
8.600000000000000000e+02
3.470000000000000000e+02
-5.800000000000000000e+01
3.447000000000000000e+03
1.051000000000000000e+03
2.480000000000000000e+02
3.610000000000000000e+02
7.140000000000000000e+02
3.930000000000000000e+02
-5.240000000000000000e+02
3.480000000000000000e+02
-6.600000000000000000e+01
1.872000000000000000e+03
-3.930000000000000000e+02
2.780000000000000000e+02
-2.900000000000000000e+01
7.500000000000000000e+01
-4.380000000000000000e+02
-9.710000000000000000e+02
-9.930000000000000000e+02
8.190000000000000000e+02
-7.700000000000000000e+01
-1.300000000000000000e+02
-8.510000000000000000e+02
1.235000000000000000e+03
7.510000000000000000e+02
-3.890000000000000000e+02
-7.600000000000000000e+02
-1.296000000000000000e+03
3.087000000000000000e+03
1.251000000000000000e+03
5.870000000000000000e+02
1.299000000000000000e+03
-2.810000000000000000e+02
-3.680000000000000000e+02
1.110000000000000000e+02
-2.200000000000000000e+01
-1.705000000000000000e+03
1.484000000000000000e+03
-2.808000000000000000e+03
-6.660000000000000000e+02
2.630000000000000000e+02
-1.300000000000000000e+02
-3.580000000000000000e+02
9.090000000000000000e+02
1.930000000000000000e+03
-3.970000000000000000e+02
-6.170000000000000000e+02
1.998000000000000000e+03
1.427000000000000000e+03
5.960000000000000000e+02
-1.383000000000000000e+03
-3.610000000000000000e+02
1.254000000000000000e+03
3.980000000000000000e+02
5.240000000000000000e+02
-2.130000000000000000e+02
-1.433000000000000000e+03
-5.180000000000000000e+02
1.272000000000000000e+03
9.940000000000000000e+02
3.670000000000000000e+02
2.800000000000000000e+02
6.680000000000000000e+02
3.480000000000000000e+02
2.550000000000000000e+02
2.577000000000000000e+03
1.962000000000000000e+03
-3.450000000000000000e+02
-1.150000000000000000e+02
1.054000000000000000e+03
-8.110000000000000000e+02
-3.890000000000000000e+02
1.083000000000000000e+03
1.274000000000000000e+03
5.940000000000000000e+02
1.237000000000000000e+03
3.120000000000000000e+02
-8.400000000000000000e+02
6.740000000000000000e+02
-1.540000000000000000e+02
3.600000000000000000e+02
8.760000000000000000e+02
-4.160000000000000000e+02
3.578000000000000000e+03
1.173000000000000000e+03
3.897000000000000000e+03
-1.430000000000000000e+03
-1.340000000000000000e+02
1.630000000000000000e+03
5.890000000000000000e+02
1.452000000000000000e+03
-8.720000000000000000e+02
-2.580000000000000000e+02
1.614000000000000000e+03
-1.292000000000000000e+03
-1.097000000000000000e+03
8.690000000000000000e+02
1.675000000000000000e+03
-1.840000000000000000e+02
-6.700000000000000000e+01
-3.885000000000000000e+03
2.128000000000000000e+03
3.970000000000000000e+02
2.280000000000000000e+02
3.400000000000000000e+01
4.930000000000000000e+02
4.700000000000000000e+01
8.750000000000000000e+02
4.970000000000000000e+02
1.180000000000000000e+03
7.700000000000000000e+01
-2.761000000000000000e+03
1.125000000000000000e+03
1.864000000000000000e+03
-3.620000000000000000e+02
8.440000000000000000e+02
5.460000000000000000e+02
-7.100000000000000000e+02
9.360000000000000000e+02
3.200000000000000000e+01
7.090000000000000000e+02
-1.560000000000000000e+02
-9.200000000000000000e+01
3.930000000000000000e+02
1.460000000000000000e+02
9.480000000000000000e+02
-4.040000000000000000e+02
1.676000000000000000e+03
-5.140000000000000000e+02
-1.140000000000000000e+03
-8.400000000000000000e+01
1.116000000000000000e+03
-9.690000000000000000e+02
1.111000000000000000e+03
1.616000000000000000e+03
-4.210000000000000000e+02
6.220000000000000000e+02
4.050000000000000000e+02
9.290000000000000000e+02
3.380000000000000000e+02
1.124000000000000000e+03
3.150000000000000000e+02
1.948000000000000000e+03
-5.260000000000000000e+02
2.349000000000000000e+03
5.800000000000000000e+02
8.500000000000000000e+02
-1.302000000000000000e+03
-1.080000000000000000e+02
1.470000000000000000e+02
7.230000000000000000e+02
2.770000000000000000e+02
-9.050000000000000000e+02
2.430000000000000000e+02
2.583000000000000000e+03
-6.620000000000000000e+02
2.690000000000000000e+02
3.207000000000000000e+03
-2.796000000000000000e+03
-5.090000000000000000e+02
-2.270000000000000000e+02
-9.710000000000000000e+02
9.440000000000000000e+02
-1.400000000000000000e+01
1.165000000000000000e+03
8.880000000000000000e+02
5.400000000000000000e+02
-1.544000000000000000e+03
-4.420000000000000000e+02
-3.300000000000000000e+03
-6.780000000000000000e+02
1.237000000000000000e+03
-1.399000000000000000e+03
-1.120000000000000000e+03
4.130000000000000000e+02
8.460000000000000000e+02
-3.330000000000000000e+02
-2.600000000000000000e+01
1.020000000000000000e+02
6.110000000000000000e+02
2.700000000000000000e+02
-5.800000000000000000e+02
4.570000000000000000e+02
-9.260000000000000000e+02
-1.040000000000000000e+03
4.640000000000000000e+02
7.440000000000000000e+02
2.570000000000000000e+02
2.633000000000000000e+03
-3.650000000000000000e+02
2.290000000000000000e+02
2.430000000000000000e+02
-8.880000000000000000e+02
2.117000000000000000e+03
5.400000000000000000e+01
-4.100000000000000000e+01
-3.450000000000000000e+02
1.450000000000000000e+02
5.520000000000000000e+02
-3.960000000000000000e+02
-1.323000000000000000e+03
-5.930000000000000000e+02
-1.293000000000000000e+03
1.075000000000000000e+03
2.160000000000000000e+02
-7.500000000000000000e+01
-8.290000000000000000e+02
-1.209000000000000000e+03
-1.863000000000000000e+03
1.960000000000000000e+02
-9.000000000000000000e+02
5.070000000000000000e+02
-4.700000000000000000e+02
9.880000000000000000e+02
2.440000000000000000e+03
-1.437000000000000000e+03
6.770000000000000000e+02
-2.183000000000000000e+03
1.361000000000000000e+03
1.160000000000000000e+02
5.610000000000000000e+02
-5.570000000000000000e+02
-1.230000000000000000e+02
1.458000000000000000e+03
7.460000000000000000e+02
7.100000000000000000e+02
-7.450000000000000000e+02
-9.410000000000000000e+02
2.497000000000000000e+03
5.700000000000000000e+01
8.990000000000000000e+02
9.300000000000000000e+02
-6.540000000000000000e+02
-2.650000000000000000e+02
8.310000000000000000e+02
1.009000000000000000e+03
-5.410000000000000000e+02
3.530000000000000000e+02
1.007000000000000000e+03
1.605000000000000000e+03
4.110000000000000000e+02
-4.960000000000000000e+02
1.040000000000000000e+02
8.550000000000000000e+02
-1.540000000000000000e+02
-6.700000000000000000e+01
4.890000000000000000e+02
-1.132000000000000000e+03
-2.010000000000000000e+03
2.289000000000000000e+03
-3.710000000000000000e+02
3.930000000000000000e+02
-7.550000000000000000e+02
1.700000000000000000e+03
-6.430000000000000000e+02
1.929000000000000000e+03
1.239000000000000000e+03
3.290000000000000000e+02
6.700000000000000000e+01
7.710000000000000000e+02
-1.123000000000000000e+03
2.548000000000000000e+03
-1.701000000000000000e+03
6.050000000000000000e+02
1.125000000000000000e+03
7.920000000000000000e+02
9.500000000000000000e+02
1.278000000000000000e+03
4.300000000000000000e+02
1.839000000000000000e+03
-4.260000000000000000e+02
2.161000000000000000e+03
-1.570000000000000000e+02
-1.469000000000000000e+03
4.490000000000000000e+02
8.030000000000000000e+02
3.128000000000000000e+03
-6.340000000000000000e+02
7.410000000000000000e+02
-9.470000000000000000e+02
2.426000000000000000e+03
4.740000000000000000e+02
-2.710000000000000000e+02
-1.538000000000000000e+03
-1.400000000000000000e+01
5.070000000000000000e+02
-1.313000000000000000e+03
1.240000000000000000e+03
1.963000000000000000e+03
-4.000000000000000000e+00
3.660000000000000000e+02
4.531000000000000000e+03
-7.120000000000000000e+02
-5.130000000000000000e+02
8.850000000000000000e+02
4.330000000000000000e+02
-7.400000000000000000e+02
-3.110000000000000000e+02
2.090000000000000000e+02
-1.487000000000000000e+03
-5.210000000000000000e+02
-4.120000000000000000e+02
-4.940000000000000000e+02
1.146000000000000000e+03
1.255000000000000000e+03
6.740000000000000000e+02
-1.113000000000000000e+03
-1.180000000000000000e+02
5.310000000000000000e+02
8.650000000000000000e+02
3.030000000000000000e+02
7.680000000000000000e+02
-2.020000000000000000e+02
-3.100000000000000000e+01
-2.610000000000000000e+02
-1.408000000000000000e+03
-6.090000000000000000e+02
-1.476000000000000000e+03
-1.279000000000000000e+03
-7.510000000000000000e+02
-6.080000000000000000e+02
5.700000000000000000e+01
1.483000000000000000e+03
-1.370000000000000000e+02
-1.370000000000000000e+03
1.051000000000000000e+03
9.640000000000000000e+02
-8.680000000000000000e+02
1.563000000000000000e+03
8.910000000000000000e+02
3.290000000000000000e+02
-1.050000000000000000e+02
-9.000000000000000000e+01
1.323000000000000000e+03
5.910000000000000000e+02
8.890000000000000000e+02
1.325000000000000000e+03
1.253000000000000000e+03
-1.109000000000000000e+03
1.520000000000000000e+02
1.650000000000000000e+02
-1.167000000000000000e+03
-2.426000000000000000e+03
-1.025000000000000000e+03
1.290000000000000000e+02
-6.900000000000000000e+01
2.560000000000000000e+02
6.060000000000000000e+02
7.220000000000000000e+02
-3.600000000000000000e+01
6.870000000000000000e+02
7.850000000000000000e+02
7.640000000000000000e+02
-1.207000000000000000e+03
-3.890000000000000000e+02
1.168000000000000000e+03
3.500000000000000000e+02
2.900000000000000000e+02
3.120000000000000000e+02
-1.616000000000000000e+03
1.061000000000000000e+03
-5.940000000000000000e+02
-1.570000000000000000e+03
-8.570000000000000000e+02
-2.450000000000000000e+02
1.082000000000000000e+03
-4.630000000000000000e+02
-5.322000000000000000e+03
-6.510000000000000000e+02
6.700000000000000000e+02
2.720000000000000000e+02
2.628000000000000000e+03
8.800000000000000000e+01
6.290000000000000000e+02
3.340000000000000000e+02
1.579000000000000000e+03
-5.520000000000000000e+02
8.870000000000000000e+02
1.794000000000000000e+03
-7.860000000000000000e+02
2.850000000000000000e+02
-4.400000000000000000e+02
8.500000000000000000e+02
8.450000000000000000e+02
-7.220000000000000000e+02
1.380000000000000000e+02
1.703000000000000000e+03
1.709000000000000000e+03
3.430000000000000000e+02
2.078000000000000000e+03
1.075000000000000000e+03
9.000000000000000000e+00
2.480000000000000000e+02
2.446000000000000000e+03
2.860000000000000000e+02
-5.390000000000000000e+02
-4.470000000000000000e+02
2.117000000000000000e+03
-9.180000000000000000e+02
-1.700000000000000000e+01
-4.460000000000000000e+02
4.529000000000000000e+03
-2.783000000000000000e+03
8.490000000000000000e+02
-2.570000000000000000e+03
-3.750000000000000000e+02
1.257000000000000000e+03
6.470000000000000000e+02
-3.630000000000000000e+02
-2.850000000000000000e+02
7.510000000000000000e+02
1.080000000000000000e+02
-3.770000000000000000e+02
-1.813000000000000000e+03
8.320000000000000000e+02
-1.457000000000000000e+03
-1.831000000000000000e+03
3.150000000000000000e+02
-2.013000000000000000e+03
-5.200000000000000000e+01
-9.550000000000000000e+02
-3.980000000000000000e+02
5.500000000000000000e+02
-7.650000000000000000e+02
8.210000000000000000e+02
1.910000000000000000e+02
1.445000000000000000e+03
-1.060000000000000000e+03
-2.050000000000000000e+02
-7.570000000000000000e+02
3.580000000000000000e+02
1.230000000000000000e+02
7.570000000000000000e+02
5.300000000000000000e+02
-5.560000000000000000e+02
7.120000000000000000e+02
2.027000000000000000e+03
2.493000000000000000e+03
-5.290000000000000000e+02
-2.889000000000000000e+03
6.100000000000000000e+01
9.400000000000000000e+01
-8.580000000000000000e+02
4.320000000000000000e+02
-1.790000000000000000e+02
-6.560000000000000000e+02
2.255000000000000000e+03
6.110000000000000000e+02
1.695000000000000000e+03
-2.890000000000000000e+02
1.350000000000000000e+02
1.403000000000000000e+03
3.100000000000000000e+01
2.214000000000000000e+03
3.340000000000000000e+02
-4.200000000000000000e+01
1.429000000000000000e+03
-2.190000000000000000e+03
7.400000000000000000e+02
-4.300000000000000000e+02
1.290000000000000000e+02
7.040000000000000000e+02
2.332000000000000000e+03
