9.460000000000000000e+02
-5.380000000000000000e+02
5.580000000000000000e+02
1.756000000000000000e+03
2.840000000000000000e+02
-2.730000000000000000e+02
1.602000000000000000e+03
4.476000000000000000e+03
9.260000000000000000e+02
-2.180000000000000000e+02
2.300000000000000000e+02
2.611000000000000000e+03
2.690000000000000000e+02
-2.600000000000000000e+02
6.680000000000000000e+02
9.800000000000000000e+02
6.910000000000000000e+02
-5.000000000000000000e+00
1.660000000000000000e+02
1.415000000000000000e+03
-7.310000000000000000e+02
2.890000000000000000e+03
1.365000000000000000e+03
1.930000000000000000e+03
4.370000000000000000e+02
4.970000000000000000e+02
-6.250000000000000000e+02
-6.600000000000000000e+02
9.470000000000000000e+02
-6.580000000000000000e+02
-1.010000000000000000e+03
5.280000000000000000e+02
3.330000000000000000e+02
-1.293000000000000000e+03
8.920000000000000000e+02
7.660000000000000000e+02
7.960000000000000000e+02
1.543000000000000000e+03
-1.330000000000000000e+02
1.160000000000000000e+02
-1.023000000000000000e+03
-7.880000000000000000e+02
2.467000000000000000e+03
2.230000000000000000e+03
1.050000000000000000e+02
2.430000000000000000e+02
-2.573000000000000000e+03
4.240000000000000000e+02
-8.760000000000000000e+02
5.100000000000000000e+02
-2.858000000000000000e+03
2.400000000000000000e+01
1.355000000000000000e+03
-9.900000000000000000e+01
-1.400000000000000000e+01
-6.800000000000000000e+02
-1.490000000000000000e+02
-3.040000000000000000e+02
-5.040000000000000000e+02
4.840000000000000000e+02
1.513000000000000000e+03
1.653000000000000000e+03
5.230000000000000000e+02
4.460000000000000000e+02
1.740000000000000000e+02
-2.021000000000000000e+03
-7.460000000000000000e+02
-3.460000000000000000e+02
-2.188000000000000000e+03
-9.440000000000000000e+02
-9.700000000000000000e+01
7.200000000000000000e+02
6.320000000000000000e+02
3.243000000000000000e+03
1.387000000000000000e+03
-2.390000000000000000e+02
6.230000000000000000e+02
3.820000000000000000e+02
7.120000000000000000e+02
1.984000000000000000e+03
5.680000000000000000e+02
6.700000000000000000e+01
1.289000000000000000e+03
1.087000000000000000e+03
-7.130000000000000000e+02
-3.120000000000000000e+02
2.800000000000000000e+01
1.000000000000000000e+02
-5.420000000000000000e+02
5.080000000000000000e+02
-1.914000000000000000e+03
1.678000000000000000e+03
-1.903000000000000000e+03
-4.440000000000000000e+02
-1.294000000000000000e+03
-5.400000000000000000e+02
-1.143000000000000000e+03
7.820000000000000000e+02
-7.340000000000000000e+02
-1.550000000000000000e+03
-9.000000000000000000e+01
-3.180000000000000000e+02
1.182000000000000000e+03
5.100000000000000000e+01
3.830000000000000000e+02
-8.410000000000000000e+02
-1.836000000000000000e+03
1.384000000000000000e+03
1.023000000000000000e+03
1.233000000000000000e+03
-9.500000000000000000e+01
-1.182000000000000000e+03
7.100000000000000000e+01
1.649000000000000000e+03
-5.600000000000000000e+02
1.296000000000000000e+03
1.600000000000000000e+01
-2.250000000000000000e+02
1.838000000000000000e+03
1.990000000000000000e+02
-2.342000000000000000e+03
-9.430000000000000000e+02
-2.420000000000000000e+02
2.571000000000000000e+03
-9.120000000000000000e+02
2.790000000000000000e+02
-8.720000000000000000e+02
-4.000000000000000000e+02
1.562000000000000000e+03
1.023000000000000000e+03
1.079000000000000000e+03
4.410000000000000000e+02
1.261000000000000000e+03
-1.131000000000000000e+03
-9.000000000000000000e+00
-1.033000000000000000e+03
3.575000000000000000e+03
1.147000000000000000e+03
-1.381000000000000000e+03
-2.560000000000000000e+02
3.530000000000000000e+02
-1.206000000000000000e+03
-3.830000000000000000e+02
6.340000000000000000e+02
8.500000000000000000e+02
9.600000000000000000e+02
8.490000000000000000e+02
6.510000000000000000e+02
6.470000000000000000e+02
-7.110000000000000000e+02
1.427000000000000000e+03
4.300000000000000000e+02
6.055000000000000000e+03
5.900000000000000000e+02
4.460000000000000000e+02
1.574000000000000000e+03
-6.250000000000000000e+02
-1.182000000000000000e+03
-1.770000000000000000e+02
1.787000000000000000e+03
-2.059000000000000000e+03
-9.910000000000000000e+02
1.810000000000000000e+02
-8.970000000000000000e+02
1.513000000000000000e+03
-1.004000000000000000e+03
-1.340000000000000000e+02
-6.000000000000000000e+00
4.900000000000000000e+02
-9.000000000000000000e+00
-1.100000000000000000e+02
8.680000000000000000e+02
-1.198000000000000000e+03
1.813000000000000000e+03
6.710000000000000000e+02
9.500000000000000000e+01
2.453000000000000000e+03
1.071000000000000000e+03
-2.150000000000000000e+02
-8.300000000000000000e+01
2.439000000000000000e+03
-3.090000000000000000e+02
1.587000000000000000e+03
8.000000000000000000e+01
7.060000000000000000e+02
4.850000000000000000e+02
-5.240000000000000000e+02
1.240000000000000000e+03
-5.900000000000000000e+01
3.910000000000000000e+02
-7.500000000000000000e+01
4.000000000000000000e+01
1.220000000000000000e+03
3.630000000000000000e+02
-3.480000000000000000e+02
3.100000000000000000e+01
-3.570000000000000000e+02
1.770000000000000000e+03
8.870000000000000000e+02
2.830000000000000000e+02
1.061000000000000000e+03
3.800000000000000000e+01
6.770000000000000000e+02
-1.396000000000000000e+03
1.161000000000000000e+03
-6.640000000000000000e+02
1.516000000000000000e+03
-1.002000000000000000e+03
-6.560000000000000000e+02
-4.470000000000000000e+02
-5.400000000000000000e+01
1.226000000000000000e+03
1.790000000000000000e+02
9.310000000000000000e+02
5.840000000000000000e+02
1.670000000000000000e+02
6.270000000000000000e+02
1.880000000000000000e+02
-1.644000000000000000e+03
4.680000000000000000e+02
-1.258000000000000000e+03
-2.650000000000000000e+02
-1.780000000000000000e+02
1.315000000000000000e+03
-3.050000000000000000e+02
8.180000000000000000e+02
9.100000000000000000e+01
-5.260000000000000000e+02
6.870000000000000000e+02
-5.800000000000000000e+01
1.545000000000000000e+03
-2.174000000000000000e+03
6.400000000000000000e+02
-4.300000000000000000e+01
1.073000000000000000e+03
-9.260000000000000000e+02
1.337000000000000000e+03
4.200000000000000000e+01
1.015000000000000000e+03
3.300000000000000000e+02
-1.021000000000000000e+03
4.770000000000000000e+02
2.497000000000000000e+03
9.880000000000000000e+02
4.270000000000000000e+02
-9.800000000000000000e+01
7.920000000000000000e+02
-1.926000000000000000e+03
-6.740000000000000000e+02
-6.620000000000000000e+02
-2.610000000000000000e+02
-4.660000000000000000e+02
-2.156000000000000000e+03
1.165000000000000000e+03
6.000000000000000000e+01
1.565000000000000000e+03
0.000000000000000000e+00
1.069000000000000000e+03
9.120000000000000000e+02
-3.845000000000000000e+03
1.060000000000000000e+03
9.800000000000000000e+01
-5.930000000000000000e+02
1.057000000000000000e+03
-9.770000000000000000e+02
2.082000000000000000e+03
4.240000000000000000e+02
-3.530000000000000000e+02
-3.680000000000000000e+02
-1.220000000000000000e+03
4.710000000000000000e+02
-7.800000000000000000e+01
-8.200000000000000000e+01
6.090000000000000000e+02
7.290000000000000000e+02
1.379000000000000000e+03
-2.540000000000000000e+02
-4.770000000000000000e+02
-3.220000000000000000e+02
6.110000000000000000e+02
7.800000000000000000e+01
3.740000000000000000e+02
-5.350000000000000000e+02
1.229000000000000000e+03
1.100000000000000000e+03
-1.191000000000000000e+03
1.740000000000000000e+02
-2.050000000000000000e+02
5.500000000000000000e+02
9.870000000000000000e+02
-1.550000000000000000e+02
-1.373000000000000000e+03
1.500000000000000000e+01
1.900000000000000000e+01
5.060000000000000000e+02
8.170000000000000000e+02
-1.126000000000000000e+03
1.943000000000000000e+03
1.210000000000000000e+02
8.820000000000000000e+02
3.800000000000000000e+01
-3.310000000000000000e+02
5.750000000000000000e+02
-7.220000000000000000e+02
2.014000000000000000e+03
1.954000000000000000e+03
1.029000000000000000e+03
1.380000000000000000e+02
-6.500000000000000000e+01
-1.590000000000000000e+02
-1.070000000000000000e+03
-2.000000000000000000e+00
-5.300000000000000000e+01
1.244000000000000000e+03
-2.930000000000000000e+02
1.281000000000000000e+03
-9.600000000000000000e+01
4.470000000000000000e+02
-7.400000000000000000e+01
-9.320000000000000000e+02
1.679000000000000000e+03
1.813000000000000000e+03
-2.390000000000000000e+02
1.520000000000000000e+02
-7.660000000000000000e+02
1.015000000000000000e+03
5.230000000000000000e+02
-6.630000000000000000e+02
-4.260000000000000000e+02
9.160000000000000000e+02
1.882000000000000000e+03
2.700000000000000000e+02
-1.134000000000000000e+03
-1.540000000000000000e+02
2.580000000000000000e+02
6.790000000000000000e+02
-8.830000000000000000e+02
7.240000000000000000e+02
1.061000000000000000e+03
1.604000000000000000e+03
1.630000000000000000e+02
-8.080000000000000000e+02
1.720000000000000000e+02
-4.500000000000000000e+02
2.276000000000000000e+03
5.240000000000000000e+02
1.708000000000000000e+03
-3.660000000000000000e+03
-3.490000000000000000e+02
-1.864000000000000000e+03
-1.960000000000000000e+02
-1.740000000000000000e+03
1.010000000000000000e+03
1.480000000000000000e+02
6.120000000000000000e+02
6.830000000000000000e+02
-1.000000000000000000e+01
-1.170000000000000000e+02
4.240000000000000000e+02
-5.890000000000000000e+02
-2.040000000000000000e+02
1.675000000000000000e+03
6.120000000000000000e+02
-5.000000000000000000e+00
-3.460000000000000000e+02
-7.060000000000000000e+02
1.350000000000000000e+02
-4.700000000000000000e+02
5.300000000000000000e+02
2.196000000000000000e+03
1.097000000000000000e+03
-6.860000000000000000e+02
3.900000000000000000e+01
-7.830000000000000000e+02
1.009000000000000000e+03
-7.490000000000000000e+02
2.543000000000000000e+03
-9.900000000000000000e+02
8.500000000000000000e+02
1.289000000000000000e+03
1.880000000000000000e+02
1.814000000000000000e+03
1.608000000000000000e+03
-1.010000000000000000e+02
2.330000000000000000e+02
2.616000000000000000e+03
-6.630000000000000000e+02
5.330000000000000000e+02
-1.900000000000000000e+02
5.350000000000000000e+02
9.630000000000000000e+02
2.212000000000000000e+03
1.775000000000000000e+03
1.081000000000000000e+03
2.704000000000000000e+03
1.700000000000000000e+02
3.200000000000000000e+03
-2.070000000000000000e+02
-3.070000000000000000e+02
1.210000000000000000e+03
1.670000000000000000e+02
1.447000000000000000e+03
1.706000000000000000e+03
2.837000000000000000e+03
2.669000000000000000e+03
2.391000000000000000e+03
2.500000000000000000e+02
1.162000000000000000e+03
2.910000000000000000e+02
-2.106000000000000000e+03
-7.200000000000000000e+02
-1.443000000000000000e+03
3.640000000000000000e+02
6.700000000000000000e+01
4.690000000000000000e+02
-1.855000000000000000e+03
-1.460000000000000000e+02
-5.520000000000000000e+02
-2.784000000000000000e+03
6.060000000000000000e+02
0.000000000000000000e+00
9.410000000000000000e+02
-4.000000000000000000e+02
5.310000000000000000e+02
1.960000000000000000e+02
-1.070000000000000000e+02
9.150000000000000000e+02
1.415000000000000000e+03
-2.700000000000000000e+02
-1.290000000000000000e+02
1.073000000000000000e+03
1.387000000000000000e+03
-3.640000000000000000e+02
9.770000000000000000e+02
-3.930000000000000000e+02
9.590000000000000000e+02
-1.140000000000000000e+02
-4.380000000000000000e+02
2.565000000000000000e+03
7.620000000000000000e+02
2.048000000000000000e+03
1.434000000000000000e+03
-1.799000000000000000e+03
3.800000000000000000e+02
-6.130000000000000000e+02
-1.380000000000000000e+02
1.193000000000000000e+03
-4.700000000000000000e+02
5.570000000000000000e+02
-8.000000000000000000e+00
5.930000000000000000e+02
9.940000000000000000e+02
6.900000000000000000e+02
5.900000000000000000e+01
-4.330000000000000000e+02
2.892000000000000000e+03
1.256000000000000000e+03
2.920000000000000000e+02
2.444000000000000000e+03
-9.000000000000000000e+01
8.010000000000000000e+02
-5.510000000000000000e+02
6.990000000000000000e+02
-1.240000000000000000e+02
-3.370000000000000000e+02
-2.540000000000000000e+02
1.946000000000000000e+03
-1.498000000000000000e+03
2.788000000000000000e+03
5.180000000000000000e+02
-5.110000000000000000e+02
1.910000000000000000e+02
-9.540000000000000000e+02
-1.880000000000000000e+02
8.270000000000000000e+02
5.010000000000000000e+02
7.990000000000000000e+02
8.920000000000000000e+02
2.780000000000000000e+02
1.800000000000000000e+03
1.830000000000000000e+02
3.450000000000000000e+02
1.000000000000000000e+03
4.030000000000000000e+02
2.120000000000000000e+03
3.400000000000000000e+02
-1.047000000000000000e+03
7.510000000000000000e+02
-3.750000000000000000e+02
1.320000000000000000e+03
-7.000000000000000000e+02
8.770000000000000000e+02
-5.720000000000000000e+02
-2.690000000000000000e+02
-1.475000000000000000e+03
5.150000000000000000e+02
1.025000000000000000e+03
5.180000000000000000e+02
-3.630000000000000000e+02
3.540000000000000000e+02
1.542000000000000000e+03
-1.162000000000000000e+03
2.319000000000000000e+03
2.500000000000000000e+01
-2.570000000000000000e+02
9.830000000000000000e+02
-3.100000000000000000e+01
1.544000000000000000e+03
1.320000000000000000e+02
-4.770000000000000000e+02
-1.300000000000000000e+01
8.490000000000000000e+02
