-8.159000000000000000e+03
2.042000000000000000e+03
9.880000000000000000e+02
1.713900000000000000e+04
-9.041000000000000000e+03
3.232000000000000000e+03
-2.002000000000000000e+03
7.507000000000000000e+03
-9.730000000000000000e+02
2.403000000000000000e+03
-4.131000000000000000e+03
1.147800000000000000e+04
2.175000000000000000e+03
1.077600000000000000e+04
-7.406000000000000000e+03
8.139000000000000000e+03
1.041000000000000000e+03
-1.646000000000000000e+03
-2.910000000000000000e+02
-4.836000000000000000e+03
2.177800000000000000e+04
-8.185000000000000000e+03
7.593000000000000000e+03
-8.759000000000000000e+03
1.424400000000000000e+04
1.571800000000000000e+04
3.904000000000000000e+03
-9.570000000000000000e+02
2.459000000000000000e+03
5.835000000000000000e+03
3.658000000000000000e+03
8.339000000000000000e+03
8.217000000000000000e+03
-6.183000000000000000e+03
-1.014900000000000000e+04
-5.095000000000000000e+03
-1.102000000000000000e+03
5.800000000000000000e+01
-1.058000000000000000e+03
-7.327000000000000000e+03
-4.846000000000000000e+03
-1.127000000000000000e+03
1.970000000000000000e+02
-3.884000000000000000e+03
9.730000000000000000e+03
-3.138000000000000000e+03
1.388000000000000000e+03
-2.560000000000000000e+03
-9.950000000000000000e+02
2.043000000000000000e+03
8.684000000000000000e+03
6.113000000000000000e+03
4.632000000000000000e+03
1.394200000000000000e+04
1.806000000000000000e+04
-1.238000000000000000e+03
2.382000000000000000e+03
6.350000000000000000e+03
3.732000000000000000e+03
-5.620000000000000000e+02
-8.543000000000000000e+03
9.700000000000000000e+01
4.447000000000000000e+03
9.770000000000000000e+02
