9.180000000000000000e+02
-2.732000000000000000e+03
1.768000000000000000e+03
1.603000000000000000e+03
-5.270000000000000000e+02
-1.832000000000000000e+03
-1.089000000000000000e+03
-1.081000000000000000e+03
-1.580000000000000000e+03
-5.970000000000000000e+02
9.320000000000000000e+02
8.680000000000000000e+02
-4.376000000000000000e+03
1.162000000000000000e+03
-6.620000000000000000e+02
-5.744000000000000000e+03
-1.469000000000000000e+03
-3.710000000000000000e+02
-1.431000000000000000e+03
1.847000000000000000e+03
2.385000000000000000e+03
-6.830000000000000000e+02
4.100000000000000000e+01
-2.120000000000000000e+02
1.035000000000000000e+03
-1.451000000000000000e+03
2.342000000000000000e+03
1.152000000000000000e+03
3.288000000000000000e+03
1.492000000000000000e+03
-4.200000000000000000e+01
1.684000000000000000e+03
2.460000000000000000e+02
2.353000000000000000e+03
-1.700000000000000000e+01
-5.890000000000000000e+02
2.135000000000000000e+03
-1.316000000000000000e+03
-2.950000000000000000e+02
1.765000000000000000e+03
-4.377000000000000000e+03
5.300000000000000000e+02
2.173000000000000000e+03
-2.585000000000000000e+03
1.375000000000000000e+03
1.024000000000000000e+03
1.054000000000000000e+03
3.710000000000000000e+02
-2.003000000000000000e+03
9.130000000000000000e+02
8.850000000000000000e+02
1.190000000000000000e+02
1.235000000000000000e+03
-4.200000000000000000e+01
1.082000000000000000e+03
4.320000000000000000e+02
-6.180000000000000000e+02
-8.630000000000000000e+02
3.800000000000000000e+02
2.794000000000000000e+03
-1.048000000000000000e+03
1.120000000000000000e+02
1.265000000000000000e+03
6.460000000000000000e+02
5.460000000000000000e+02
-5.030000000000000000e+03
1.202000000000000000e+03
-9.490000000000000000e+02
-5.690000000000000000e+02
-1.020000000000000000e+02
1.114000000000000000e+03
-1.355000000000000000e+03
1.041000000000000000e+03
-2.130000000000000000e+02
7.180000000000000000e+02
1.328000000000000000e+03
6.360000000000000000e+02
-1.790000000000000000e+02
-2.113000000000000000e+03
-7.000000000000000000e+02
-2.590000000000000000e+02
-7.500000000000000000e+02
-1.550000000000000000e+03
-3.090000000000000000e+02
-8.900000000000000000e+02
-2.203000000000000000e+03
2.722000000000000000e+03
-1.603000000000000000e+03
-3.660000000000000000e+02
-7.610000000000000000e+02
-3.400000000000000000e+01
1.467000000000000000e+03
-2.380000000000000000e+02
5.530000000000000000e+02
1.040000000000000000e+02
-1.191000000000000000e+03
6.000000000000000000e+02
1.112000000000000000e+03
7.780000000000000000e+02
-1.228000000000000000e+03
-3.110000000000000000e+02
-5.220000000000000000e+02
1.069000000000000000e+03
6.700000000000000000e+01
5.100000000000000000e+02
-4.770000000000000000e+02
3.840000000000000000e+02
2.315000000000000000e+03
7.970000000000000000e+02
-9.990000000000000000e+02
-1.341000000000000000e+03
3.880000000000000000e+03
-1.164000000000000000e+03
-2.640000000000000000e+02
1.910000000000000000e+02
1.895000000000000000e+03
-7.300000000000000000e+02
-6.690000000000000000e+02
1.201000000000000000e+03
6.790000000000000000e+02
-1.005000000000000000e+03
1.800000000000000000e+02
-3.082000000000000000e+03
1.989000000000000000e+03
-7.210000000000000000e+02
1.434000000000000000e+03
1.792000000000000000e+03
8.860000000000000000e+02
1.321000000000000000e+03
-1.266000000000000000e+03
-4.190000000000000000e+02
1.564000000000000000e+03
1.796000000000000000e+03
7.700000000000000000e+01
5.730000000000000000e+02
1.232000000000000000e+03
2.017000000000000000e+03
-4.840000000000000000e+02
-2.620000000000000000e+02
-1.112000000000000000e+03
1.054000000000000000e+03
4.640000000000000000e+02
1.226000000000000000e+03
-1.516000000000000000e+03
1.070000000000000000e+03
-3.463000000000000000e+03
-9.260000000000000000e+02
-7.270000000000000000e+02
-5.590000000000000000e+02
-3.379000000000000000e+03
1.087000000000000000e+03
-4.630000000000000000e+02
-7.500000000000000000e+01
8.060000000000000000e+02
-8.700000000000000000e+01
-3.600000000000000000e+02
4.060000000000000000e+02
1.176000000000000000e+03
-3.620000000000000000e+02
-5.590000000000000000e+02
-8.210000000000000000e+02
1.500000000000000000e+01
1.500000000000000000e+01
4.400000000000000000e+02
-3.691000000000000000e+03
-2.300000000000000000e+01
1.201000000000000000e+03
-3.039000000000000000e+03
2.292000000000000000e+03
2.250000000000000000e+02
-1.277000000000000000e+03
-8.150000000000000000e+02
1.360000000000000000e+02
2.143000000000000000e+03
1.760000000000000000e+02
6.660000000000000000e+02
-7.100000000000000000e+01
1.317000000000000000e+03
8.890000000000000000e+02
7.240000000000000000e+02
7.640000000000000000e+02
8.000000000000000000e+01
-5.350000000000000000e+02
-2.310000000000000000e+02
-2.860000000000000000e+02
5.820000000000000000e+02
-6.390000000000000000e+02
-4.250000000000000000e+02
2.760000000000000000e+02
-1.673000000000000000e+03
1.344000000000000000e+03
1.474000000000000000e+03
7.500000000000000000e+02
4.980000000000000000e+02
6.350000000000000000e+02
2.941000000000000000e+03
-6.640000000000000000e+02
1.640000000000000000e+03
1.320000000000000000e+03
3.055000000000000000e+03
-1.290000000000000000e+02
-7.240000000000000000e+02
-7.320000000000000000e+02
1.649000000000000000e+03
-8.590000000000000000e+02
1.106000000000000000e+03
2.000000000000000000e+03
6.890000000000000000e+02
-6.230000000000000000e+02
-1.022000000000000000e+03
4.200000000000000000e+02
-4.740000000000000000e+02
-1.109000000000000000e+03
-2.500000000000000000e+02
-2.900000000000000000e+01
-1.679000000000000000e+03
1.460000000000000000e+02
-3.460000000000000000e+02
2.232000000000000000e+03
1.429000000000000000e+03
1.524000000000000000e+03
1.702000000000000000e+03
-5.000000000000000000e+02
-3.490000000000000000e+02
6.340000000000000000e+02
-9.480000000000000000e+02
4.870000000000000000e+02
-6.410000000000000000e+02
1.092000000000000000e+03
-9.330000000000000000e+02
-5.850000000000000000e+02
-8.520000000000000000e+02
1.752000000000000000e+03
1.190000000000000000e+03
3.470000000000000000e+02
8.820000000000000000e+02
1.370000000000000000e+03
2.068000000000000000e+03
1.670000000000000000e+03
1.270000000000000000e+03
-9.700000000000000000e+01
1.295000000000000000e+03
2.153000000000000000e+03
-6.820000000000000000e+02
-1.633000000000000000e+03
7.440000000000000000e+02
-3.490000000000000000e+02
1.871000000000000000e+03
-5.030000000000000000e+02
1.509000000000000000e+03
8.800000000000000000e+01
-1.015000000000000000e+03
2.980000000000000000e+02
5.620000000000000000e+02
-8.590000000000000000e+02
-1.170000000000000000e+02
