7.990000000000000000e+02
8.560000000000000000e+02
-4.970000000000000000e+02
-2.091000000000000000e+03
-2.057000000000000000e+03
-5.036000000000000000e+03
-1.022000000000000000e+03
-1.155000000000000000e+03
-7.670000000000000000e+02
-6.810000000000000000e+02
6.190000000000000000e+02
8.140000000000000000e+02
1.117000000000000000e+03
9.300000000000000000e+01
-4.207000000000000000e+03
-1.593000000000000000e+03
6.040000000000000000e+02
-2.331000000000000000e+03
-3.127000000000000000e+03
-3.695000000000000000e+03
1.841000000000000000e+03
1.748000000000000000e+03
-1.458000000000000000e+03
-1.893000000000000000e+03
-1.569000000000000000e+03
5.230000000000000000e+02
-8.280000000000000000e+02
1.649000000000000000e+03
-7.504000000000000000e+03
-1.068000000000000000e+03
-9.900000000000000000e+01
-1.005000000000000000e+03
-1.006000000000000000e+03
-1.046000000000000000e+03
-7.140000000000000000e+02
1.060000000000000000e+02
-1.140000000000000000e+03
-1.135000000000000000e+03
-2.466000000000000000e+03
5.580000000000000000e+02
-2.967000000000000000e+03
3.520000000000000000e+02
-2.683000000000000000e+03
-1.325000000000000000e+03
-1.746000000000000000e+03
-3.735000000000000000e+03
-4.840000000000000000e+03
4.440000000000000000e+02
-1.045000000000000000e+03
-1.106000000000000000e+03
-4.678000000000000000e+03
-3.692000000000000000e+03
1.859000000000000000e+03
8.710000000000000000e+02
-3.031000000000000000e+03
-1.727000000000000000e+03
-3.504000000000000000e+03
-9.360000000000000000e+02
-3.275000000000000000e+03
-1.835000000000000000e+03
-4.560000000000000000e+03
-6.730000000000000000e+02
1.810000000000000000e+02
-7.880000000000000000e+02
-1.187000000000000000e+03
-2.070000000000000000e+03
-2.183000000000000000e+03
-1.259000000000000000e+03
-8.280000000000000000e+02
-1.647000000000000000e+03
-6.600000000000000000e+01
-8.208000000000000000e+03
-3.535000000000000000e+03
-1.155000000000000000e+03
9.520000000000000000e+02
-3.840000000000000000e+02
-1.221000000000000000e+03
-1.347000000000000000e+03
-1.000000000000000000e+02
-4.560000000000000000e+03
4.960000000000000000e+02
-2.262000000000000000e+03
-4.150000000000000000e+03
-8.600000000000000000e+02
1.198000000000000000e+03
7.880000000000000000e+02
-2.080000000000000000e+03
-1.027000000000000000e+03
-3.398000000000000000e+03
-3.594000000000000000e+03
2.340000000000000000e+02
-3.440000000000000000e+03
-7.130000000000000000e+02
5.500000000000000000e+01
-7.000000000000000000e+02
6.010000000000000000e+02
-1.380000000000000000e+02
-2.700000000000000000e+03
-2.150000000000000000e+02
-2.685000000000000000e+03
-2.542000000000000000e+03
-2.778000000000000000e+03
-2.849000000000000000e+03
2.261000000000000000e+03
-1.913000000000000000e+03
1.869000000000000000e+03
-1.149000000000000000e+03
-2.395000000000000000e+03
-1.810000000000000000e+02
-2.074000000000000000e+03
-1.619000000000000000e+03
-1.715000000000000000e+03
3.790000000000000000e+02
-4.408000000000000000e+03
-3.960000000000000000e+02
1.945000000000000000e+03
8.580000000000000000e+02
1.093000000000000000e+03
-1.721000000000000000e+03
-6.420000000000000000e+02
-1.367000000000000000e+03
1.189000000000000000e+03
-1.047000000000000000e+03
-2.504000000000000000e+03
1.754000000000000000e+03
3.593000000000000000e+03
4.140000000000000000e+02
-3.215000000000000000e+03
1.762000000000000000e+03
-2.758000000000000000e+03
-1.628000000000000000e+03
-4.670000000000000000e+02
-2.566000000000000000e+03
-3.163000000000000000e+03
1.200000000000000000e+01
-3.436000000000000000e+03
-2.366000000000000000e+03
-8.550000000000000000e+02
-8.920000000000000000e+02
-2.372000000000000000e+03
-2.965000000000000000e+03
-1.839000000000000000e+03
-1.708000000000000000e+03
2.092000000000000000e+03
-1.296000000000000000e+03
4.980000000000000000e+02
-1.706000000000000000e+03
-1.245000000000000000e+03
-1.492000000000000000e+03
-1.378000000000000000e+03
-1.549000000000000000e+03
-7.350000000000000000e+02
-1.329000000000000000e+03
-1.580000000000000000e+03
-4.160000000000000000e+02
-9.710000000000000000e+02
-1.358000000000000000e+03
-2.480000000000000000e+03
-2.322000000000000000e+03
-6.230000000000000000e+02
7.800000000000000000e+01
-1.540000000000000000e+03
1.401000000000000000e+03
-1.443000000000000000e+03
-8.000000000000000000e+02
-1.948000000000000000e+03
-3.209000000000000000e+03
-1.347000000000000000e+03
1.018000000000000000e+03
-1.424000000000000000e+03
-2.469000000000000000e+03
-3.330000000000000000e+02
-2.423000000000000000e+03
1.470000000000000000e+03
-7.150000000000000000e+02
-1.946000000000000000e+03
1.100000000000000000e+01
-5.090000000000000000e+02
9.860000000000000000e+02
-6.710000000000000000e+02
7.650000000000000000e+02
-3.737000000000000000e+03
-3.404000000000000000e+03
-2.646000000000000000e+03
-3.690000000000000000e+03
-2.508000000000000000e+03
-1.073000000000000000e+03
-5.140000000000000000e+02
3.730000000000000000e+02
3.480000000000000000e+02
6.960000000000000000e+02
1.418000000000000000e+03
-2.410000000000000000e+02
-2.050000000000000000e+03
-1.163000000000000000e+03
-3.640000000000000000e+02
-2.546000000000000000e+03
-1.563000000000000000e+03
-2.304000000000000000e+03
3.433000000000000000e+03
-1.228000000000000000e+03
-5.337000000000000000e+03
-3.362000000000000000e+03
2.504000000000000000e+03
-1.634000000000000000e+03
9.180000000000000000e+02
-7.900000000000000000e+02
-1.324000000000000000e+03
-2.113000000000000000e+03
2.329000000000000000e+03
-1.695000000000000000e+03
-9.110000000000000000e+02
7.200000000000000000e+01
-3.150000000000000000e+02
1.940000000000000000e+03
-4.086000000000000000e+03
3.930000000000000000e+02
2.532000000000000000e+03
-7.390000000000000000e+02
-1.733000000000000000e+03
-3.482000000000000000e+03
1.784000000000000000e+03
-8.190000000000000000e+02
-9.790000000000000000e+02
-2.084000000000000000e+03
-8.500000000000000000e+01
-4.893000000000000000e+03
-2.271000000000000000e+03
-1.600000000000000000e+02
4.440000000000000000e+02
-9.250000000000000000e+02
-5.340000000000000000e+02
5.300000000000000000e+01
-1.521000000000000000e+03
-2.519000000000000000e+03
6.990000000000000000e+02
1.558000000000000000e+03
-1.660000000000000000e+03
-2.678000000000000000e+03
-5.590000000000000000e+02
3.130000000000000000e+02
-6.470000000000000000e+02
-1.615000000000000000e+03
4.550000000000000000e+02
-1.167000000000000000e+03
-7.760000000000000000e+02
-5.033000000000000000e+03
-1.159000000000000000e+03
-1.291000000000000000e+03
4.550000000000000000e+02
-9.130000000000000000e+02
-2.780000000000000000e+02
-2.308000000000000000e+03
-7.220000000000000000e+02
5.380000000000000000e+02
-1.919000000000000000e+03
