-8.430000000000000000e+02
7.770000000000000000e+02
6.510000000000000000e+02
-1.450000000000000000e+03
-1.226000000000000000e+03
-8.250000000000000000e+02
1.290000000000000000e+02
7.150000000000000000e+02
5.950000000000000000e+02
-1.260000000000000000e+03
1.390000000000000000e+02
-1.940000000000000000e+02
-2.448000000000000000e+03
-2.990000000000000000e+03
-1.791000000000000000e+03
-2.381000000000000000e+03
2.137000000000000000e+03
3.300000000000000000e+01
-1.208000000000000000e+03
1.340000000000000000e+02
4.110000000000000000e+02
3.480000000000000000e+02
-4.410000000000000000e+02
-1.918000000000000000e+03
-9.640000000000000000e+02
-1.326000000000000000e+03
-9.220000000000000000e+02
-3.310000000000000000e+02
-1.620000000000000000e+02
4.410000000000000000e+02
1.103000000000000000e+03
-1.588000000000000000e+03
1.212000000000000000e+03
-8.200000000000000000e+01
1.760000000000000000e+03
-1.060000000000000000e+03
1.193000000000000000e+03
-3.804000000000000000e+03
9.350000000000000000e+02
8.240000000000000000e+02
1.670000000000000000e+02
2.630000000000000000e+03
-1.190000000000000000e+03
-7.400000000000000000e+02
-4.167000000000000000e+03
9.760000000000000000e+02
-2.700000000000000000e+03
-1.059000000000000000e+03
-5.900000000000000000e+01
-1.663000000000000000e+03
-7.280000000000000000e+02
-7.320000000000000000e+02
2.120000000000000000e+02
-1.451000000000000000e+03
-7.690000000000000000e+02
-6.130000000000000000e+02
-1.737000000000000000e+03
-1.849000000000000000e+03
-4.550000000000000000e+02
-2.630000000000000000e+02
-1.336000000000000000e+03
-1.228000000000000000e+03
-1.290000000000000000e+02
-1.239000000000000000e+03
-2.470000000000000000e+02
-1.495000000000000000e+03
-1.059000000000000000e+03
-2.043000000000000000e+03
1.777000000000000000e+03
1.580000000000000000e+02
-9.880000000000000000e+02
-2.570000000000000000e+02
1.167000000000000000e+03
-6.040000000000000000e+02
-1.323000000000000000e+03
1.442000000000000000e+03
-3.403000000000000000e+03
-7.170000000000000000e+02
-1.645000000000000000e+03
-2.010000000000000000e+02
-1.048000000000000000e+03
-2.123000000000000000e+03
-1.130000000000000000e+02
-8.430000000000000000e+02
-1.066000000000000000e+03
-4.450000000000000000e+02
-5.800000000000000000e+02
-2.787000000000000000e+03
-2.686000000000000000e+03
-3.720000000000000000e+03
-1.262000000000000000e+03
-1.077000000000000000e+03
-3.280000000000000000e+03
-1.387000000000000000e+03
-2.583000000000000000e+03
-1.476000000000000000e+03
-1.089000000000000000e+03
-1.282000000000000000e+03
2.489000000000000000e+03
-2.080000000000000000e+02
-2.038000000000000000e+03
9.750000000000000000e+02
1.275000000000000000e+03
-1.915000000000000000e+03
1.040000000000000000e+03
-1.399000000000000000e+03
-7.100000000000000000e+02
-4.630000000000000000e+02
-2.505000000000000000e+03
4.410000000000000000e+02
-8.330000000000000000e+02
-2.489000000000000000e+03
-1.433000000000000000e+03
-8.310000000000000000e+02
-1.980000000000000000e+02
5.730000000000000000e+02
-2.170000000000000000e+03
-2.255000000000000000e+03
-1.505000000000000000e+03
-1.121000000000000000e+03
-2.081000000000000000e+03
-1.012000000000000000e+03
1.903000000000000000e+03
-1.437000000000000000e+03
-2.167000000000000000e+03
-3.680000000000000000e+02
-7.680000000000000000e+02
-1.923000000000000000e+03
-4.024000000000000000e+03
2.930000000000000000e+02
-3.640000000000000000e+02
5.950000000000000000e+02
-1.510000000000000000e+03
-1.076000000000000000e+03
-3.250000000000000000e+02
-1.586000000000000000e+03
-3.122000000000000000e+03
2.990000000000000000e+02
-1.103000000000000000e+03
9.090000000000000000e+02
-3.150000000000000000e+02
-2.029000000000000000e+03
1.060000000000000000e+03
-1.541000000000000000e+03
-3.990000000000000000e+02
-1.642000000000000000e+03
-2.630000000000000000e+02
-2.067000000000000000e+03
1.040000000000000000e+03
6.380000000000000000e+02
-7.580000000000000000e+02
-1.102000000000000000e+03
-4.460000000000000000e+02
-3.225000000000000000e+03
1.127000000000000000e+03
8.930000000000000000e+02
8.520000000000000000e+02
-1.206000000000000000e+03
-1.302000000000000000e+03
4.680000000000000000e+02
-2.130000000000000000e+03
-6.520000000000000000e+02
-1.578000000000000000e+03
1.250000000000000000e+02
-1.826000000000000000e+03
2.408000000000000000e+03
-1.600000000000000000e+01
8.700000000000000000e+01
-2.190000000000000000e+02
-6.800000000000000000e+01
-5.284000000000000000e+03
1.283000000000000000e+03
4.930000000000000000e+02
3.500000000000000000e+01
-2.477000000000000000e+03
-5.000000000000000000e+00
-7.310000000000000000e+02
-1.582000000000000000e+03
1.700000000000000000e+01
-9.080000000000000000e+02
8.590000000000000000e+02
-1.556000000000000000e+03
1.215000000000000000e+03
-1.202000000000000000e+03
-7.850000000000000000e+02
5.080000000000000000e+02
-1.289000000000000000e+03
4.930000000000000000e+02
-1.959000000000000000e+03
-1.188000000000000000e+03
-1.160000000000000000e+02
-1.439000000000000000e+03
4.800000000000000000e+01
1.440000000000000000e+02
-1.222000000000000000e+03
-2.580000000000000000e+02
1.326000000000000000e+03
-6.100000000000000000e+02
-3.540000000000000000e+02
-5.320000000000000000e+02
-1.357000000000000000e+03
-1.398000000000000000e+03
2.230000000000000000e+02
-3.640000000000000000e+02
-2.470000000000000000e+02
-1.160000000000000000e+03
-2.200000000000000000e+01
-6.460000000000000000e+02
-2.293000000000000000e+03
3.480000000000000000e+02
-1.464000000000000000e+03
3.120000000000000000e+02
-4.370000000000000000e+02
-2.405000000000000000e+03
-1.516000000000000000e+03
1.413000000000000000e+03
5.910000000000000000e+02
-8.250000000000000000e+02
-6.230000000000000000e+02
-1.827000000000000000e+03
-1.530000000000000000e+02
-9.910000000000000000e+02
1.020000000000000000e+02
1.890000000000000000e+02
-5.070000000000000000e+02
8.600000000000000000e+02
-5.480000000000000000e+02
1.510000000000000000e+02
2.790000000000000000e+02
1.500000000000000000e+01
-3.586000000000000000e+03
1.460000000000000000e+03
2.090000000000000000e+02
-1.179000000000000000e+03
9.160000000000000000e+02
-2.447000000000000000e+03
-1.825000000000000000e+03
-7.080000000000000000e+02
1.994000000000000000e+03
-2.005000000000000000e+03
2.570000000000000000e+02
-1.409000000000000000e+03
-2.546000000000000000e+03
1.940000000000000000e+02
4.430000000000000000e+02
-6.370000000000000000e+02
2.586000000000000000e+03
-8.920000000000000000e+02
4.950000000000000000e+02
-2.452000000000000000e+03
2.880000000000000000e+02
-1.650000000000000000e+02
-1.540000000000000000e+02
-1.043000000000000000e+03
-7.990000000000000000e+02
-3.790000000000000000e+02
