1.546000000000000000e+03
7.840000000000000000e+02
1.142000000000000000e+03
8.710000000000000000e+02
3.058000000000000000e+03
1.655000000000000000e+03
-1.780000000000000000e+02
-3.980000000000000000e+02
2.569000000000000000e+03
-9.260000000000000000e+02
1.803000000000000000e+03
2.860000000000000000e+02
-1.450000000000000000e+02
3.930000000000000000e+02
1.000000000000000000e+00
-3.620000000000000000e+02
1.447000000000000000e+03
-9.580000000000000000e+02
-8.810000000000000000e+02
2.438000000000000000e+03
-2.089000000000000000e+03
-1.610000000000000000e+02
1.694000000000000000e+03
-4.040000000000000000e+02
8.050000000000000000e+02
7.730000000000000000e+02
8.190000000000000000e+02
7.952000000000000000e+03
-5.890000000000000000e+02
1.705000000000000000e+03
1.226000000000000000e+03
1.750000000000000000e+02
-2.590000000000000000e+02
-2.180000000000000000e+02
2.458000000000000000e+03
-4.790000000000000000e+02
-7.980000000000000000e+02
-3.240000000000000000e+02
-1.274000000000000000e+03
2.828000000000000000e+03
-6.380000000000000000e+02
1.898000000000000000e+03
-1.830000000000000000e+02
-2.633000000000000000e+03
-1.270000000000000000e+02
-9.870000000000000000e+02
1.476000000000000000e+03
-1.105000000000000000e+03
-5.480000000000000000e+02
2.477000000000000000e+03
1.776000000000000000e+03
1.758000000000000000e+03
3.820000000000000000e+02
2.077000000000000000e+03
2.459000000000000000e+03
1.139000000000000000e+03
1.518000000000000000e+03
5.320000000000000000e+02
4.810000000000000000e+02
1.753000000000000000e+03
-2.366000000000000000e+03
1.268000000000000000e+03
2.980000000000000000e+02
-3.577000000000000000e+03
1.279000000000000000e+03
8.200000000000000000e+02
1.170000000000000000e+03
-1.760000000000000000e+03
-3.023000000000000000e+03
1.104000000000000000e+03
-1.362000000000000000e+03
1.701000000000000000e+03
-8.110000000000000000e+02
-2.030000000000000000e+02
8.750000000000000000e+02
1.002000000000000000e+03
-3.138000000000000000e+03
3.100000000000000000e+02
2.750000000000000000e+02
1.172000000000000000e+03
6.630000000000000000e+02
-9.440000000000000000e+02
-1.340000000000000000e+03
2.660000000000000000e+02
-1.186000000000000000e+03
7.360000000000000000e+02
-2.310000000000000000e+03
7.230000000000000000e+02
-1.984000000000000000e+03
3.261000000000000000e+03
1.959000000000000000e+03
-8.552000000000000000e+03
-3.732000000000000000e+03
3.330000000000000000e+02
4.090000000000000000e+02
6.140000000000000000e+02
-2.585000000000000000e+03
1.810000000000000000e+02
-2.680000000000000000e+03
6.610000000000000000e+02
-1.150000000000000000e+02
-5.310000000000000000e+02
-3.813000000000000000e+03
6.650000000000000000e+02
-1.805000000000000000e+03
2.845000000000000000e+03
1.603000000000000000e+03
1.847000000000000000e+03
3.350000000000000000e+02
1.657000000000000000e+03
1.788000000000000000e+03
-1.498000000000000000e+03
2.280000000000000000e+02
7.430000000000000000e+02
-8.400000000000000000e+01
-1.613000000000000000e+03
1.041000000000000000e+03
-2.373000000000000000e+03
2.122000000000000000e+03
9.680000000000000000e+02
6.790000000000000000e+02
4.020000000000000000e+02
-5.580000000000000000e+02
2.200000000000000000e+03
1.454000000000000000e+03
-7.185000000000000000e+03
1.814000000000000000e+03
-1.368000000000000000e+03
1.610000000000000000e+03
1.632000000000000000e+03
1.800000000000000000e+03
-2.553000000000000000e+03
1.300000000000000000e+03
1.707000000000000000e+03
2.271000000000000000e+03
-1.870000000000000000e+02
9.810000000000000000e+02
7.800000000000000000e+01
5.100000000000000000e+01
-2.687000000000000000e+03
2.570000000000000000e+02
-1.951000000000000000e+03
2.453000000000000000e+03
-8.960000000000000000e+02
1.130000000000000000e+02
1.697000000000000000e+03
4.493000000000000000e+03
1.262000000000000000e+03
-1.393000000000000000e+03
-2.814000000000000000e+03
-6.848000000000000000e+03
1.564000000000000000e+03
-1.740000000000000000e+02
1.939000000000000000e+03
-1.838000000000000000e+03
-1.712000000000000000e+03
-8.300000000000000000e+02
2.240000000000000000e+03
-7.750000000000000000e+02
-2.228000000000000000e+03
4.510000000000000000e+02
-4.900000000000000000e+01
4.470000000000000000e+02
-1.577000000000000000e+03
5.980000000000000000e+02
-5.404000000000000000e+03
8.240000000000000000e+02
1.303000000000000000e+03
1.203000000000000000e+03
-1.671000000000000000e+03
2.360000000000000000e+02
2.144000000000000000e+03
1.409000000000000000e+03
2.025000000000000000e+03
1.836000000000000000e+03
-2.712000000000000000e+03
-1.435000000000000000e+03
7.340000000000000000e+02
-1.900000000000000000e+01
-4.456000000000000000e+03
2.990000000000000000e+02
3.491000000000000000e+03
1.974000000000000000e+03
1.604000000000000000e+03
1.881000000000000000e+03
7.820000000000000000e+02
1.868000000000000000e+03
-1.910000000000000000e+02
4.210000000000000000e+02
1.231000000000000000e+03
1.548000000000000000e+03
2.314000000000000000e+03
3.210000000000000000e+02
-4.540000000000000000e+02
8.200000000000000000e+01
3.600000000000000000e+02
1.180000000000000000e+03
-4.410000000000000000e+02
-9.960000000000000000e+02
-1.769000000000000000e+03
3.390000000000000000e+03
-2.615000000000000000e+03
1.333000000000000000e+03
2.788000000000000000e+03
2.006000000000000000e+03
9.350000000000000000e+02
6.840000000000000000e+02
1.127000000000000000e+03
-3.990000000000000000e+02
1.213000000000000000e+03
1.511000000000000000e+03
1.018000000000000000e+03
1.413000000000000000e+03
7.610000000000000000e+02
1.260000000000000000e+03
3.470000000000000000e+02
2.470000000000000000e+02
-3.700000000000000000e+01
-1.229000000000000000e+03
6.200000000000000000e+01
-2.234000000000000000e+03
1.370000000000000000e+02
8.590000000000000000e+02
2.260000000000000000e+02
1.094000000000000000e+03
1.158000000000000000e+03
-3.134000000000000000e+03
-2.146000000000000000e+03
1.230000000000000000e+02
-2.015000000000000000e+03
4.740000000000000000e+02
-3.204000000000000000e+03
-1.277000000000000000e+03
2.395000000000000000e+03
-3.840000000000000000e+02
4.491000000000000000e+03
3.292000000000000000e+03
6.000000000000000000e+02
-6.520000000000000000e+02
5.870000000000000000e+02
1.097000000000000000e+03
-4.050000000000000000e+02
2.300000000000000000e+01
5.570000000000000000e+02
7.420000000000000000e+02
-9.350000000000000000e+02
7.511000000000000000e+03
-2.664000000000000000e+03
-3.092000000000000000e+03
3.350000000000000000e+03
-1.217000000000000000e+03
1.210000000000000000e+02
-4.000000000000000000e+03
1.134000000000000000e+03
2.008000000000000000e+03
-2.264000000000000000e+03
2.650000000000000000e+02
-2.829000000000000000e+03
2.350000000000000000e+02
1.522000000000000000e+03
-4.000000000000000000e+00
-5.230000000000000000e+02
-2.431000000000000000e+03
2.292000000000000000e+03
-9.920000000000000000e+02
1.124000000000000000e+03
-2.488000000000000000e+03
1.986000000000000000e+03
-3.219000000000000000e+03
1.669000000000000000e+03
2.330000000000000000e+02
-4.600000000000000000e+02
-3.083000000000000000e+03
1.226000000000000000e+03
-5.900000000000000000e+01
1.429000000000000000e+03
-1.502000000000000000e+03
-2.267000000000000000e+03
-1.145000000000000000e+03
-9.970000000000000000e+02
1.916000000000000000e+03
-9.090000000000000000e+02
2.030000000000000000e+03
1.782000000000000000e+03
4.202000000000000000e+03
-2.813000000000000000e+03
-5.000000000000000000e+02
2.542000000000000000e+03
1.937000000000000000e+03
-1.135000000000000000e+03
-3.280000000000000000e+02
-4.170000000000000000e+02
2.301000000000000000e+03
1.767000000000000000e+03
5.600000000000000000e+02
-1.750000000000000000e+02
1.330000000000000000e+02
-8.210000000000000000e+02
4.200000000000000000e+01
-7.630000000000000000e+02
1.410000000000000000e+03
2.977000000000000000e+03
3.535000000000000000e+03
-1.480000000000000000e+02
7.700000000000000000e+02
2.550000000000000000e+02
1.189000000000000000e+03
8.600000000000000000e+01
-2.866000000000000000e+03
1.724000000000000000e+03
-2.777000000000000000e+03
1.858000000000000000e+03
3.257000000000000000e+03
1.790000000000000000e+03
-9.550000000000000000e+02
-3.698000000000000000e+03
-6.250000000000000000e+02
2.106000000000000000e+03
-2.576000000000000000e+03
3.000000000000000000e+00
-6.700000000000000000e+02
4.200000000000000000e+02
1.367000000000000000e+03
-1.943000000000000000e+03
1.281000000000000000e+03
1.185000000000000000e+03
9.010000000000000000e+02
2.001000000000000000e+03
2.290000000000000000e+03
1.113000000000000000e+03
-1.675000000000000000e+03
-3.966000000000000000e+03
1.261000000000000000e+03
-1.420000000000000000e+03
3.662000000000000000e+03
2.465000000000000000e+03
1.680000000000000000e+02
-1.007000000000000000e+03
2.073000000000000000e+03
-7.900000000000000000e+01
-3.432000000000000000e+03
1.059000000000000000e+03
1.411000000000000000e+03
7.410000000000000000e+02
-5.540000000000000000e+02
1.286000000000000000e+03
7.620000000000000000e+02
2.070000000000000000e+03
-1.316000000000000000e+03
-1.427000000000000000e+03
1.223000000000000000e+03
-4.830000000000000000e+02
2.142000000000000000e+03
1.340000000000000000e+03
-1.771000000000000000e+03
5.000000000000000000e+00
3.050000000000000000e+03
2.457000000000000000e+03
2.073000000000000000e+03
-7.198000000000000000e+03
1.152000000000000000e+03
-2.908000000000000000e+03
1.108000000000000000e+03
2.555000000000000000e+03
9.800000000000000000e+01
7.980000000000000000e+02
7.650000000000000000e+02
1.026000000000000000e+03
-9.330000000000000000e+02
-1.190000000000000000e+02
1.000000000000000000e+03
-1.280000000000000000e+03
1.964000000000000000e+03
7.330000000000000000e+02
9.450000000000000000e+02
-1.019000000000000000e+03
-3.378000000000000000e+03
-6.980000000000000000e+02
-3.400000000000000000e+01
-1.662000000000000000e+03
-2.840000000000000000e+02
1.092000000000000000e+03
-1.541000000000000000e+03
-8.810000000000000000e+02
-1.352000000000000000e+03
2.003000000000000000e+03
-2.726000000000000000e+03
7.850000000000000000e+02
-1.351000000000000000e+03
1.851000000000000000e+03
8.350000000000000000e+02
-7.420000000000000000e+02
4.261000000000000000e+03
7.260000000000000000e+02
-7.070000000000000000e+02
-5.560000000000000000e+02
2.357000000000000000e+03
1.320000000000000000e+02
2.291000000000000000e+03
-2.846000000000000000e+03
-2.179000000000000000e+03
3.238000000000000000e+03
-1.047000000000000000e+03
7.240000000000000000e+02
2.811000000000000000e+03
2.281000000000000000e+03
-4.116000000000000000e+03
2.820000000000000000e+02
-1.535000000000000000e+03
-1.690000000000000000e+02
2.239000000000000000e+03
1.129000000000000000e+03
3.854000000000000000e+03
2.322000000000000000e+03
-1.070000000000000000e+02
2.126000000000000000e+03
2.155000000000000000e+03
-1.897000000000000000e+03
-2.900000000000000000e+01
-8.810000000000000000e+02
3.930000000000000000e+02
1.038000000000000000e+03
-2.342000000000000000e+03
9.290000000000000000e+02
1.902000000000000000e+03
1.177000000000000000e+03
-6.430000000000000000e+02
2.452000000000000000e+03
-2.744000000000000000e+03
6.560000000000000000e+02
-7.820000000000000000e+02
-1.650000000000000000e+03
3.610000000000000000e+02
-6.220000000000000000e+02
-1.511000000000000000e+03
1.383000000000000000e+03
-6.350000000000000000e+02
-3.441000000000000000e+03
-1.127000000000000000e+03
1.110000000000000000e+03
5.120000000000000000e+02
-4.440000000000000000e+02
6.670000000000000000e+02
-9.940000000000000000e+02
6.300000000000000000e+01
-1.174000000000000000e+03
-1.896000000000000000e+03
-4.099000000000000000e+03
1.940000000000000000e+03
-2.500000000000000000e+02
1.779000000000000000e+03
1.338000000000000000e+03
2.063000000000000000e+03
1.530000000000000000e+03
-3.290000000000000000e+02
2.450000000000000000e+02
-5.300000000000000000e+01
-9.070000000000000000e+02
1.340000000000000000e+02
6.460000000000000000e+02
1.638000000000000000e+03
6.900000000000000000e+01
5.070000000000000000e+02
1.486000000000000000e+03
1.867000000000000000e+03
-3.062000000000000000e+03
9.598000000000000000e+03
6.400000000000000000e+01
2.253000000000000000e+03
-8.600000000000000000e+02
3.890000000000000000e+02
-1.935000000000000000e+03
-6.590000000000000000e+02
2.583000000000000000e+03
-4.760000000000000000e+02
-1.205000000000000000e+03
3.035000000000000000e+03
1.316000000000000000e+03
1.852000000000000000e+03
7.510000000000000000e+02
2.705000000000000000e+03
4.830000000000000000e+02
-1.793000000000000000e+03
2.557000000000000000e+03
2.793000000000000000e+03
-6.570000000000000000e+02
-1.220000000000000000e+02
1.604000000000000000e+03
2.336000000000000000e+03
-1.050000000000000000e+03
8.610000000000000000e+02
1.641000000000000000e+03
-4.978000000000000000e+03
3.190000000000000000e+02
3.910000000000000000e+02
-3.146000000000000000e+03
-1.178000000000000000e+03
2.351000000000000000e+03
3.035000000000000000e+03
5.310000000000000000e+02
1.496000000000000000e+03
8.210000000000000000e+02
1.278000000000000000e+03
1.148000000000000000e+03
3.212000000000000000e+03
-2.100000000000000000e+02
4.710000000000000000e+02
-2.729000000000000000e+03
3.882000000000000000e+03
-1.042000000000000000e+03
1.120000000000000000e+03
-8.620000000000000000e+02
