-1.172000000000000000e+03
-1.081000000000000000e+03
2.124000000000000000e+03
5.080000000000000000e+03
-1.951000000000000000e+03
-2.227000000000000000e+03
-2.300000000000000000e+01
-4.140000000000000000e+02
1.304000000000000000e+03
-1.217000000000000000e+03
2.878000000000000000e+03
3.902000000000000000e+03
-1.681000000000000000e+03
2.313000000000000000e+03
6.490000000000000000e+02
-1.424000000000000000e+03
2.399000000000000000e+03
-6.448000000000000000e+03
2.955000000000000000e+03
-2.946000000000000000e+03
-1.017000000000000000e+03
-8.310000000000000000e+02
5.348000000000000000e+03
-1.741000000000000000e+03
-1.733000000000000000e+03
-7.380000000000000000e+02
7.210000000000000000e+02
2.450000000000000000e+02
-2.897000000000000000e+03
-5.890000000000000000e+02
-2.789000000000000000e+03
-1.315000000000000000e+03
-1.203000000000000000e+03
-2.377000000000000000e+03
-7.590000000000000000e+02
-2.710000000000000000e+02
-2.740000000000000000e+02
-1.100000000000000000e+02
-1.605000000000000000e+03
-1.276000000000000000e+03
-4.470000000000000000e+02
-1.316000000000000000e+03
2.110000000000000000e+02
3.050000000000000000e+02
-7.470000000000000000e+02
1.571000000000000000e+03
5.420000000000000000e+03
4.474000000000000000e+03
-1.274000000000000000e+03
-2.143000000000000000e+03
6.250000000000000000e+02
-1.787000000000000000e+03
8.100000000000000000e+01
1.343000000000000000e+03
3.863000000000000000e+03
7.339000000000000000e+03
1.734000000000000000e+03
-3.686000000000000000e+03
-1.753000000000000000e+03
5.224000000000000000e+03
-2.048000000000000000e+03
-2.448000000000000000e+03
-8.770000000000000000e+02
-2.258000000000000000e+03
-5.504000000000000000e+03
-1.030600000000000000e+04
1.050000000000000000e+03
-3.096000000000000000e+03
-1.325000000000000000e+03
-2.222000000000000000e+03
-4.750000000000000000e+02
5.446000000000000000e+03
3.800000000000000000e+01
4.896000000000000000e+03
-4.250000000000000000e+02
8.686000000000000000e+03
2.670000000000000000e+03
-9.500000000000000000e+01
-2.044000000000000000e+03
3.550000000000000000e+02
4.522000000000000000e+03
3.349000000000000000e+03
-5.784000000000000000e+03
2.360000000000000000e+02
3.930000000000000000e+02
2.410000000000000000e+02
2.880000000000000000e+02
5.020000000000000000e+03
-6.630000000000000000e+02
-2.540000000000000000e+03
-2.163000000000000000e+03
3.211000000000000000e+03
-3.600000000000000000e+02
-2.615000000000000000e+03
-3.327000000000000000e+03
-3.343000000000000000e+03
-3.570000000000000000e+02
7.842000000000000000e+03
8.860000000000000000e+02
-6.830000000000000000e+02
-2.275000000000000000e+03
-4.410000000000000000e+03
-1.088000000000000000e+03
-2.450000000000000000e+02
-1.111000000000000000e+03
9.420000000000000000e+02
4.570000000000000000e+02
-1.826000000000000000e+03
1.050000000000000000e+03
1.180000000000000000e+02
-5.464000000000000000e+03
-1.857000000000000000e+03
-1.485000000000000000e+03
3.483000000000000000e+03
1.580000000000000000e+02
2.235000000000000000e+03
-7.000000000000000000e+02
-1.822000000000000000e+03
-9.980000000000000000e+02
1.450000000000000000e+02
-8.710000000000000000e+02
-3.170000000000000000e+02
-1.673000000000000000e+03
8.020000000000000000e+02
-8.320000000000000000e+02
-5.116000000000000000e+03
-2.135000000000000000e+03
-9.090000000000000000e+02
