-4.940000000000000000e+02
-3.870000000000000000e+02
-1.477000000000000000e+03
-2.000000000000000000e+00
1.115000000000000000e+03
7.480000000000000000e+02
6.750000000000000000e+02
8.560000000000000000e+02
1.153000000000000000e+03
4.850000000000000000e+02
-3.010000000000000000e+02
-1.046000000000000000e+03
-9.540000000000000000e+02
-1.603000000000000000e+03
-1.100000000000000000e+02
-1.047000000000000000e+03
-8.630000000000000000e+02
6.620000000000000000e+02
-2.290000000000000000e+02
2.300000000000000000e+01
-5.980000000000000000e+02
-1.322000000000000000e+03
-4.620000000000000000e+02
6.870000000000000000e+02
-4.840000000000000000e+02
-1.918000000000000000e+03
-1.366000000000000000e+03
-2.702000000000000000e+03
1.775000000000000000e+03
3.250000000000000000e+02
-2.320000000000000000e+02
5.500000000000000000e+01
-2.270000000000000000e+02
2.950000000000000000e+02
-8.040000000000000000e+02
6.220000000000000000e+02
2.940000000000000000e+02
-1.240000000000000000e+02
-1.581000000000000000e+03
-1.054000000000000000e+03
-8.910000000000000000e+02
4.140000000000000000e+02
2.200000000000000000e+02
8.480000000000000000e+02
9.590000000000000000e+02
-1.637000000000000000e+03
5.690000000000000000e+02
-1.048000000000000000e+03
-1.511000000000000000e+03
-3.620000000000000000e+02
-1.430000000000000000e+03
8.420000000000000000e+02
4.740000000000000000e+02
1.293000000000000000e+03
5.890000000000000000e+02
-2.526000000000000000e+03
-1.037000000000000000e+03
-1.040000000000000000e+02
-5.130000000000000000e+02
2.660000000000000000e+02
5.680000000000000000e+02
2.360000000000000000e+02
2.100000000000000000e+02
-4.810000000000000000e+02
-1.710000000000000000e+02
1.830000000000000000e+02
4.320000000000000000e+02
-1.173000000000000000e+03
-2.359000000000000000e+03
7.970000000000000000e+02
-9.120000000000000000e+02
-2.255000000000000000e+03
-1.100000000000000000e+01
1.206000000000000000e+03
1.590000000000000000e+02
1.500000000000000000e+02
3.620000000000000000e+02
-6.000000000000000000e+02
4.640000000000000000e+02
3.590000000000000000e+02
-9.440000000000000000e+02
-1.498000000000000000e+03
-1.600000000000000000e+03
2.200000000000000000e+01
1.510000000000000000e+02
-2.820000000000000000e+02
9.440000000000000000e+02
5.540000000000000000e+02
-3.190000000000000000e+02
-1.150000000000000000e+03
1.318000000000000000e+03
-4.700000000000000000e+01
-9.620000000000000000e+02
0.000000000000000000e+00
-8.100000000000000000e+02
-8.360000000000000000e+02
-2.040000000000000000e+02
-5.000000000000000000e+01
2.690000000000000000e+02
-5.560000000000000000e+02
-1.900000000000000000e+01
-5.430000000000000000e+02
-1.900000000000000000e+01
-2.440000000000000000e+02
-8.180000000000000000e+02
-4.880000000000000000e+02
5.650000000000000000e+02
-2.148000000000000000e+03
2.182000000000000000e+03
-2.760000000000000000e+02
8.380000000000000000e+02
2.231000000000000000e+03
-2.030000000000000000e+03
3.970000000000000000e+02
-3.830000000000000000e+02
1.260000000000000000e+02
-1.400000000000000000e+02
-7.220000000000000000e+02
-1.140000000000000000e+02
1.297000000000000000e+03
2.110000000000000000e+02
1.220000000000000000e+02
-3.780000000000000000e+02
1.513000000000000000e+03
5.110000000000000000e+02
7.600000000000000000e+01
-2.450000000000000000e+02
-1.292000000000000000e+03
-1.890000000000000000e+02
2.350000000000000000e+02
-1.287000000000000000e+03
-1.190000000000000000e+03
1.530000000000000000e+03
-9.630000000000000000e+02
-2.990000000000000000e+02
-3.570000000000000000e+02
-9.030000000000000000e+02
3.670000000000000000e+02
-3.670000000000000000e+02
7.550000000000000000e+02
3.560000000000000000e+02
-1.099000000000000000e+03
1.125000000000000000e+03
5.520000000000000000e+02
-4.550000000000000000e+02
5.150000000000000000e+02
-8.200000000000000000e+02
2.720000000000000000e+02
4.960000000000000000e+02
-1.117000000000000000e+03
1.450000000000000000e+02
5.380000000000000000e+02
-8.130000000000000000e+02
6.900000000000000000e+01
-8.400000000000000000e+01
-1.192000000000000000e+03
-3.600000000000000000e+01
-5.710000000000000000e+02
-1.429000000000000000e+03
-4.910000000000000000e+02
1.924000000000000000e+03
-1.174000000000000000e+03
3.770000000000000000e+02
1.221000000000000000e+03
3.050000000000000000e+02
-7.020000000000000000e+02
3.200000000000000000e+02
4.150000000000000000e+02
-7.140000000000000000e+02
-1.555000000000000000e+03
4.030000000000000000e+02
-5.870000000000000000e+02
4.540000000000000000e+02
1.189000000000000000e+03
-4.840000000000000000e+02
7.500000000000000000e+01
-2.990000000000000000e+02
-9.000000000000000000e+02
6.440000000000000000e+02
1.808000000000000000e+03
-9.560000000000000000e+02
-7.500000000000000000e+02
-2.088000000000000000e+03
-1.559000000000000000e+03
9.010000000000000000e+02
-6.560000000000000000e+02
-9.860000000000000000e+02
3.520000000000000000e+02
1.246000000000000000e+03
1.978000000000000000e+03
3.070000000000000000e+02
1.100000000000000000e+01
-5.940000000000000000e+02
1.470000000000000000e+02
-3.070000000000000000e+02
-8.380000000000000000e+02
-4.680000000000000000e+02
-5.640000000000000000e+02
1.075000000000000000e+03
-8.500000000000000000e+01
5.660000000000000000e+02
-3.010000000000000000e+02
-4.530000000000000000e+02
5.000000000000000000e+00
-1.100000000000000000e+02
1.353000000000000000e+03
-7.170000000000000000e+02
7.670000000000000000e+02
-5.900000000000000000e+02
-1.500000000000000000e+03
-7.770000000000000000e+02
-5.250000000000000000e+02
-2.051000000000000000e+03
9.310000000000000000e+02
-4.610000000000000000e+02
1.100000000000000000e+02
3.070000000000000000e+02
2.627000000000000000e+03
-8.330000000000000000e+02
1.562000000000000000e+03
-5.030000000000000000e+02
-8.640000000000000000e+02
-1.192000000000000000e+03
-9.260000000000000000e+02
-3.650000000000000000e+02
-7.270000000000000000e+02
4.170000000000000000e+02
5.900000000000000000e+02
2.520000000000000000e+02
-1.543000000000000000e+03
2.855000000000000000e+03
1.675000000000000000e+03
-4.030000000000000000e+02
-6.180000000000000000e+02
4.980000000000000000e+02
2.530000000000000000e+02
-1.004000000000000000e+03
4.880000000000000000e+02
1.760000000000000000e+02
1.147000000000000000e+03
8.710000000000000000e+02
-1.190000000000000000e+02
-8.990000000000000000e+02
-1.490000000000000000e+03
-1.062000000000000000e+03
3.430000000000000000e+02
-1.781000000000000000e+03
5.120000000000000000e+02
-5.620000000000000000e+02
-2.180000000000000000e+02
8.630000000000000000e+02
-7.070000000000000000e+02
-1.149000000000000000e+03
-9.910000000000000000e+02
-2.811000000000000000e+03
-1.900000000000000000e+01
-9.460000000000000000e+02
6.170000000000000000e+02
-6.310000000000000000e+02
-7.490000000000000000e+02
3.320000000000000000e+02
-7.600000000000000000e+01
7.840000000000000000e+02
1.830000000000000000e+02
-6.190000000000000000e+02
4.940000000000000000e+02
1.440000000000000000e+02
-8.330000000000000000e+02
-1.650000000000000000e+03
7.210000000000000000e+02
-3.550000000000000000e+02
-5.210000000000000000e+02
1.112000000000000000e+03
3.860000000000000000e+02
-6.420000000000000000e+02
9.100000000000000000e+01
-7.050000000000000000e+02
1.097000000000000000e+03
-3.670000000000000000e+02
-7.070000000000000000e+02
-3.890000000000000000e+02
-4.520000000000000000e+02
6.140000000000000000e+02
-1.250000000000000000e+03
-6.240000000000000000e+02
3.050000000000000000e+02
4.900000000000000000e+01
-1.263000000000000000e+03
-1.372000000000000000e+03
2.749000000000000000e+03
-7.790000000000000000e+02
-1.700000000000000000e+02
-7.360000000000000000e+02
5.100000000000000000e+02
5.230000000000000000e+02
1.443000000000000000e+03
8.670000000000000000e+02
-9.670000000000000000e+02
-7.620000000000000000e+02
1.021000000000000000e+03
-1.020000000000000000e+02
-5.630000000000000000e+02
-8.610000000000000000e+02
5.960000000000000000e+02
2.400000000000000000e+01
-1.800000000000000000e+02
8.310000000000000000e+02
4.660000000000000000e+02
-1.550000000000000000e+02
5.300000000000000000e+02
4.330000000000000000e+02
-9.060000000000000000e+02
9.500000000000000000e+01
-6.260000000000000000e+02
-4.520000000000000000e+02
1.104000000000000000e+03
-1.650000000000000000e+02
-2.600000000000000000e+01
1.000000000000000000e+01
-3.400000000000000000e+01
1.336000000000000000e+03
1.567000000000000000e+03
-6.360000000000000000e+02
1.353000000000000000e+03
-1.060000000000000000e+02
-1.320000000000000000e+02
-7.600000000000000000e+01
2.750000000000000000e+02
-1.276000000000000000e+03
-5.660000000000000000e+02
3.600000000000000000e+01
8.500000000000000000e+02
1.246000000000000000e+03
-7.600000000000000000e+02
1.000000000000000000e+02
1.390000000000000000e+02
-1.510000000000000000e+02
-8.640000000000000000e+02
-3.908000000000000000e+03
1.762000000000000000e+03
-5.200000000000000000e+02
7.810000000000000000e+02
-1.227000000000000000e+03
-1.190000000000000000e+03
-9.090000000000000000e+02
7.710000000000000000e+02
-4.200000000000000000e+02
-6.190000000000000000e+02
4.330000000000000000e+02
7.610000000000000000e+02
-1.068000000000000000e+03
-6.100000000000000000e+02
-7.280000000000000000e+02
8.120000000000000000e+02
2.140000000000000000e+02
-8.860000000000000000e+02
-2.346000000000000000e+03
6.300000000000000000e+01
-6.020000000000000000e+02
1.810000000000000000e+02
-9.780000000000000000e+02
2.250000000000000000e+02
-4.850000000000000000e+02
3.030000000000000000e+02
5.060000000000000000e+02
2.720000000000000000e+02
-2.440000000000000000e+02
-3.550000000000000000e+02
-2.970000000000000000e+02
-9.560000000000000000e+02
-1.079000000000000000e+03
1.063000000000000000e+03
-5.740000000000000000e+02
-1.592000000000000000e+03
-1.764000000000000000e+03
-2.800000000000000000e+02
-7.200000000000000000e+02
4.070000000000000000e+02
8.000000000000000000e+01
1.458000000000000000e+03
2.990000000000000000e+02
-8.920000000000000000e+02
-7.220000000000000000e+02
-6.270000000000000000e+02
8.810000000000000000e+02
-4.200000000000000000e+01
3.000000000000000000e+01
-2.302000000000000000e+03
-7.610000000000000000e+02
4.850000000000000000e+02
1.980000000000000000e+02
-4.710000000000000000e+02
6.400000000000000000e+01
-3.780000000000000000e+02
1.154000000000000000e+03
-6.060000000000000000e+02
-1.501000000000000000e+03
-9.040000000000000000e+02
4.620000000000000000e+02
4.000000000000000000e+00
9.010000000000000000e+02
-3.600000000000000000e+01
-3.050000000000000000e+02
-3.430000000000000000e+02
-4.590000000000000000e+02
-5.330000000000000000e+02
3.000000000000000000e+02
9.470000000000000000e+02
-5.660000000000000000e+02
-1.652000000000000000e+03
-7.120000000000000000e+02
-8.410000000000000000e+02
-2.000000000000000000e+00
-2.800000000000000000e+01
-6.180000000000000000e+02
3.260000000000000000e+02
-1.389000000000000000e+03
-2.280000000000000000e+02
-1.229000000000000000e+03
-1.143000000000000000e+03
6.650000000000000000e+02
-3.970000000000000000e+02
9.930000000000000000e+02
5.290000000000000000e+02
1.520000000000000000e+02
6.300000000000000000e+01
1.010000000000000000e+02
-5.860000000000000000e+02
2.000000000000000000e+00
9.060000000000000000e+02
-1.219000000000000000e+03
6.810000000000000000e+02
-1.296000000000000000e+03
-5.100000000000000000e+02
1.308000000000000000e+03
2.840000000000000000e+02
-2.794000000000000000e+03
-1.500000000000000000e+01
-5.350000000000000000e+02
1.145000000000000000e+03
-5.310000000000000000e+02
8.960000000000000000e+02
1.450000000000000000e+03
1.123000000000000000e+03
-1.288000000000000000e+03
-6.470000000000000000e+02
-6.930000000000000000e+02
4.600000000000000000e+01
-7.740000000000000000e+02
6.850000000000000000e+02
-1.514000000000000000e+03
-2.621000000000000000e+03
3.530000000000000000e+02
-4.350000000000000000e+02
-2.500000000000000000e+01
-3.040000000000000000e+02
1.808000000000000000e+03
-9.750000000000000000e+02
2.140000000000000000e+02
-8.000000000000000000e+00
-2.630000000000000000e+02
-1.200000000000000000e+02
-3.970000000000000000e+02
-3.390000000000000000e+02
-5.620000000000000000e+02
3.590000000000000000e+02
-1.338000000000000000e+03
5.690000000000000000e+02
6.510000000000000000e+02
-1.159000000000000000e+03
1.240000000000000000e+03
-8.560000000000000000e+02
-1.724000000000000000e+03
2.440000000000000000e+02
3.730000000000000000e+02
-6.160000000000000000e+02
-1.790000000000000000e+03
-1.156000000000000000e+03
1.033000000000000000e+03
-4.420000000000000000e+02
-1.570000000000000000e+03
-3.740000000000000000e+02
1.375000000000000000e+03
9.110000000000000000e+02
-1.693000000000000000e+03
-2.385000000000000000e+03
-2.404000000000000000e+03
5.800000000000000000e+02
7.700000000000000000e+01
1.650000000000000000e+02
1.383000000000000000e+03
-6.590000000000000000e+02
-2.207000000000000000e+03
-1.650000000000000000e+03
1.888000000000000000e+03
1.098000000000000000e+03
5.560000000000000000e+02
6.640000000000000000e+02
-1.123000000000000000e+03
-1.173000000000000000e+03
-4.790000000000000000e+02
1.787000000000000000e+03
9.700000000000000000e+01
-8.770000000000000000e+02
-8.960000000000000000e+02
3.520000000000000000e+02
5.970000000000000000e+02
1.310000000000000000e+02
2.047000000000000000e+03
2.036000000000000000e+03
3.200000000000000000e+02
-1.422000000000000000e+03
