-7.040000000000000000e+02
-1.640000000000000000e+02
5.000000000000000000e+02
-5.590000000000000000e+02
-1.557000000000000000e+03
-4.100000000000000000e+02
-5.740000000000000000e+02
-1.320000000000000000e+02
-1.110000000000000000e+03
-8.500000000000000000e+02
1.250000000000000000e+02
-8.300000000000000000e+01
-5.720000000000000000e+02
-1.156000000000000000e+03
-1.680000000000000000e+02
-7.650000000000000000e+02
-4.700000000000000000e+02
3.000000000000000000e+00
-1.515000000000000000e+03
1.300000000000000000e+02
-7.240000000000000000e+02
-3.650000000000000000e+02
2.510000000000000000e+02
-4.760000000000000000e+02
-7.160000000000000000e+02
-1.530000000000000000e+02
-5.500000000000000000e+01
3.840000000000000000e+02
-2.860000000000000000e+02
5.840000000000000000e+02
-5.600000000000000000e+02
-9.000000000000000000e+02
5.330000000000000000e+02
-2.640000000000000000e+02
-3.780000000000000000e+02
7.100000000000000000e+01
-3.950000000000000000e+02
-3.200000000000000000e+02
-5.610000000000000000e+02
-2.940000000000000000e+02
-4.370000000000000000e+02
1.130000000000000000e+02
-7.200000000000000000e+02
8.930000000000000000e+02
6.100000000000000000e+01
-8.250000000000000000e+02
-6.990000000000000000e+02
-1.304000000000000000e+03
-6.330000000000000000e+02
-8.280000000000000000e+02
-3.220000000000000000e+02
-1.386000000000000000e+03
-1.067000000000000000e+03
7.370000000000000000e+02
6.790000000000000000e+02
-5.630000000000000000e+02
-3.160000000000000000e+02
4.990000000000000000e+02
-8.410000000000000000e+02
-6.020000000000000000e+02
-9.070000000000000000e+02
-4.800000000000000000e+01
-8.160000000000000000e+02
2.050000000000000000e+02
3.500000000000000000e+02
-2.000000000000000000e+02
-9.000000000000000000e+01
-5.110000000000000000e+02
-2.660000000000000000e+02
-8.610000000000000000e+02
-2.440000000000000000e+02
-1.176000000000000000e+03
-1.113000000000000000e+03
-6.530000000000000000e+02
-6.250000000000000000e+02
-2.700000000000000000e+02
-8.260000000000000000e+02
1.590000000000000000e+02
-1.253000000000000000e+03
-4.380000000000000000e+02
-6.290000000000000000e+02
-1.470000000000000000e+02
-4.190000000000000000e+02
6.570000000000000000e+02
-1.740000000000000000e+02
9.300000000000000000e+01
-3.770000000000000000e+02
3.000000000000000000e+01
-1.364000000000000000e+03
-1.081000000000000000e+03
-1.500000000000000000e+01
-1.600000000000000000e+01
5.200000000000000000e+01
-4.110000000000000000e+02
-3.300000000000000000e+02
2.090000000000000000e+02
-8.250000000000000000e+02
-6.750000000000000000e+02
-1.870000000000000000e+02
-5.800000000000000000e+01
-1.116000000000000000e+03
-1.261000000000000000e+03
1.360000000000000000e+02
-1.164000000000000000e+03
3.070000000000000000e+02
5.100000000000000000e+01
-1.343000000000000000e+03
-1.427000000000000000e+03
-7.650000000000000000e+02
-1.200000000000000000e+01
-3.620000000000000000e+02
-3.930000000000000000e+02
-7.740000000000000000e+02
-5.800000000000000000e+01
-1.164000000000000000e+03
-1.020000000000000000e+02
-3.850000000000000000e+03
-1.490000000000000000e+02
-5.970000000000000000e+02
-6.840000000000000000e+02
-3.720000000000000000e+02
2.500000000000000000e+02
-8.600000000000000000e+01
-2.400000000000000000e+01
-9.310000000000000000e+02
-3.700000000000000000e+01
-7.600000000000000000e+01
8.120000000000000000e+02
