7.260000000000000000e+02
1.466000000000000000e+03
-4.950000000000000000e+02
1.340000000000000000e+02
3.000000000000000000e+01
5.280000000000000000e+02
1.242000000000000000e+03
-2.860000000000000000e+02
2.909000000000000000e+03
7.640000000000000000e+02
1.173000000000000000e+03
1.180000000000000000e+02
1.740000000000000000e+02
3.000000000000000000e+00
8.000000000000000000e+01
2.670000000000000000e+02
1.720000000000000000e+02
4.910000000000000000e+02
8.000000000000000000e+00
3.970000000000000000e+02
4.050000000000000000e+02
2.470000000000000000e+02
1.003000000000000000e+03
3.350000000000000000e+02
3.850000000000000000e+02
-6.500000000000000000e+01
6.320000000000000000e+02
-5.280000000000000000e+02
2.650000000000000000e+02
-9.700000000000000000e+01
9.000000000000000000e+00
4.610000000000000000e+02
0.000000000000000000e+00
-3.770000000000000000e+02
1.069000000000000000e+03
1.311000000000000000e+03
-2.520000000000000000e+02
2.590000000000000000e+03
-2.000000000000000000e+01
2.000000000000000000e+00
-3.220000000000000000e+02
1.317000000000000000e+03
5.300000000000000000e+02
-5.500000000000000000e+01
2.440000000000000000e+02
4.270000000000000000e+02
-1.282000000000000000e+03
1.217000000000000000e+03
-5.520000000000000000e+02
2.199000000000000000e+03
1.150000000000000000e+02
2.840000000000000000e+02
4.500000000000000000e+01
2.000000000000000000e+00
7.000000000000000000e+00
1.606000000000000000e+03
2.200000000000000000e+01
1.197000000000000000e+03
4.490000000000000000e+02
-1.380000000000000000e+02
1.201000000000000000e+03
-3.010000000000000000e+02
7.500000000000000000e+01
1.160000000000000000e+02
1.667000000000000000e+03
7.750000000000000000e+02
-7.740000000000000000e+02
1.382000000000000000e+03
-1.170000000000000000e+02
-2.490000000000000000e+02
1.521000000000000000e+03
5.040000000000000000e+02
-1.190000000000000000e+02
-2.260000000000000000e+02
-2.920000000000000000e+02
-2.840000000000000000e+03
-3.270000000000000000e+02
2.610000000000000000e+02
4.000000000000000000e+00
9.880000000000000000e+02
5.210000000000000000e+02
1.614000000000000000e+03
5.720000000000000000e+02
1.470000000000000000e+02
1.039000000000000000e+03
-4.580000000000000000e+02
3.200000000000000000e+01
1.379000000000000000e+03
-2.100000000000000000e+01
-3.280000000000000000e+02
8.360000000000000000e+02
-1.337000000000000000e+03
-6.650000000000000000e+02
6.840000000000000000e+02
-1.485000000000000000e+03
-7.600000000000000000e+01
8.840000000000000000e+02
6.900000000000000000e+01
8.300000000000000000e+02
-8.100000000000000000e+01
3.156000000000000000e+03
8.030000000000000000e+02
-1.049000000000000000e+03
6.290000000000000000e+02
-1.610000000000000000e+02
-4.800000000000000000e+01
-1.764000000000000000e+03
-1.890000000000000000e+02
-1.690000000000000000e+02
1.840000000000000000e+02
-1.521000000000000000e+03
3.160000000000000000e+02
1.210000000000000000e+02
4.200000000000000000e+01
2.700000000000000000e+01
2.600000000000000000e+02
3.090000000000000000e+02
1.110000000000000000e+02
4.000000000000000000e+00
3.870000000000000000e+02
-5.160000000000000000e+02
4.720000000000000000e+02
6.800000000000000000e+01
-8.220000000000000000e+02
1.385000000000000000e+03
-3.290000000000000000e+02
8.790000000000000000e+02
3.860000000000000000e+02
2.550000000000000000e+02
6.700000000000000000e+01
6.730000000000000000e+02
-4.470000000000000000e+02
1.681000000000000000e+03
-2.890000000000000000e+02
5.620000000000000000e+02
8.850000000000000000e+02
-4.750000000000000000e+02
1.700000000000000000e+01
1.230000000000000000e+02
2.370000000000000000e+02
3.820000000000000000e+02
8.000000000000000000e+00
-5.000000000000000000e+02
-1.962000000000000000e+03
-1.165000000000000000e+03
-1.900000000000000000e+02
9.230000000000000000e+02
1.520000000000000000e+02
5.060000000000000000e+02
-7.720000000000000000e+02
4.260000000000000000e+02
1.205000000000000000e+03
1.283000000000000000e+03
4.450000000000000000e+02
5.560000000000000000e+02
2.720000000000000000e+02
4.950000000000000000e+02
1.000000000000000000e+00
9.460000000000000000e+02
7.550000000000000000e+02
8.150000000000000000e+02
-1.393000000000000000e+03
7.800000000000000000e+01
-1.430000000000000000e+02
3.970000000000000000e+02
2.420000000000000000e+02
-7.800000000000000000e+01
-4.470000000000000000e+02
-1.970000000000000000e+02
6.500000000000000000e+01
2.740000000000000000e+02
-5.300000000000000000e+02
8.120000000000000000e+02
1.166000000000000000e+03
1.558000000000000000e+03
6.570000000000000000e+02
-5.610000000000000000e+02
7.000000000000000000e+00
2.500000000000000000e+02
6.970000000000000000e+02
1.920000000000000000e+02
-2.900000000000000000e+01
-1.816000000000000000e+03
-3.280000000000000000e+02
4.560000000000000000e+02
-9.950000000000000000e+02
-6.760000000000000000e+02
-1.367000000000000000e+03
-6.070000000000000000e+02
9.000000000000000000e+00
2.900000000000000000e+01
3.039000000000000000e+03
9.810000000000000000e+02
1.099000000000000000e+03
8.110000000000000000e+02
2.780000000000000000e+02
-7.060000000000000000e+02
1.230000000000000000e+03
9.860000000000000000e+02
9.200000000000000000e+02
-5.000000000000000000e+01
9.080000000000000000e+02
1.300000000000000000e+01
-4.480000000000000000e+02
1.640000000000000000e+02
8.070000000000000000e+02
5.170000000000000000e+02
8.000000000000000000e+00
-6.310000000000000000e+02
7.480000000000000000e+02
8.930000000000000000e+02
-3.560000000000000000e+02
1.359000000000000000e+03
9.980000000000000000e+02
-3.740000000000000000e+02
8.580000000000000000e+02
-1.400000000000000000e+01
-7.780000000000000000e+02
3.460000000000000000e+02
7.450000000000000000e+02
2.700000000000000000e+02
2.380000000000000000e+02
1.136000000000000000e+03
7.230000000000000000e+02
2.280000000000000000e+02
5.550000000000000000e+02
-3.300000000000000000e+01
3.780000000000000000e+02
-2.269000000000000000e+03
-2.213000000000000000e+03
-8.730000000000000000e+02
-1.135000000000000000e+03
6.270000000000000000e+02
1.220000000000000000e+02
-9.760000000000000000e+02
4.560000000000000000e+02
1.212000000000000000e+03
3.650000000000000000e+02
1.670000000000000000e+02
1.263000000000000000e+03
-3.120000000000000000e+02
3.700000000000000000e+02
1.078000000000000000e+03
1.317000000000000000e+03
-2.275000000000000000e+03
4.100000000000000000e+01
1.370000000000000000e+02
3.100000000000000000e+02
3.480000000000000000e+02
3.240000000000000000e+02
4.660000000000000000e+02
1.890000000000000000e+02
1.230000000000000000e+02
2.900000000000000000e+01
9.580000000000000000e+02
6.700000000000000000e+01
6.430000000000000000e+02
2.251000000000000000e+03
1.487000000000000000e+03
2.115000000000000000e+03
3.000000000000000000e+00
-6.430000000000000000e+02
1.211000000000000000e+03
4.550000000000000000e+02
-6.670000000000000000e+02
1.129000000000000000e+03
9.570000000000000000e+02
-9.600000000000000000e+01
-2.570000000000000000e+02
-1.641000000000000000e+03
-6.780000000000000000e+02
2.792000000000000000e+03
1.420000000000000000e+02
-2.003000000000000000e+03
-7.470000000000000000e+02
8.030000000000000000e+02
-5.630000000000000000e+02
7.710000000000000000e+02
6.800000000000000000e+01
7.400000000000000000e+01
-7.100000000000000000e+01
3.027000000000000000e+03
-2.030000000000000000e+02
9.350000000000000000e+02
1.496000000000000000e+03
1.160000000000000000e+02
1.290000000000000000e+03
-6.100000000000000000e+01
-7.000000000000000000e+01
1.800000000000000000e+01
2.640000000000000000e+02
1.140000000000000000e+02
4.880000000000000000e+02
1.400000000000000000e+01
-1.322000000000000000e+03
3.260000000000000000e+02
1.700000000000000000e+01
-1.267000000000000000e+03
9.840000000000000000e+02
-5.130000000000000000e+02
8.690000000000000000e+02
-1.448000000000000000e+03
6.100000000000000000e+02
2.700000000000000000e+01
-8.230000000000000000e+02
1.240000000000000000e+02
2.880000000000000000e+02
-3.580000000000000000e+02
7.810000000000000000e+02
1.105000000000000000e+03
-1.940000000000000000e+02
-9.060000000000000000e+02
-7.210000000000000000e+02
-3.370000000000000000e+02
7.960000000000000000e+02
-5.350000000000000000e+02
6.320000000000000000e+02
4.500000000000000000e+02
-4.260000000000000000e+02
1.160000000000000000e+02
-2.500000000000000000e+02
8.290000000000000000e+02
1.590000000000000000e+02
-1.470000000000000000e+02
7.070000000000000000e+02
-6.600000000000000000e+01
4.930000000000000000e+02
-1.051000000000000000e+03
5.160000000000000000e+02
1.216000000000000000e+03
-4.860000000000000000e+02
1.368000000000000000e+03
1.140000000000000000e+03
-9.690000000000000000e+02
9.180000000000000000e+02
2.900000000000000000e+02
2.500000000000000000e+02
2.080000000000000000e+02
-6.690000000000000000e+02
-6.200000000000000000e+02
-2.700000000000000000e+01
1.705000000000000000e+03
3.080000000000000000e+02
1.873000000000000000e+03
5.710000000000000000e+02
-5.620000000000000000e+02
-4.500000000000000000e+01
7.500000000000000000e+02
-1.600000000000000000e+02
-1.900000000000000000e+01
3.510000000000000000e+02
4.500000000000000000e+01
-1.723000000000000000e+03
6.600000000000000000e+01
7.000000000000000000e+00
-2.460000000000000000e+02
1.500000000000000000e+02
-2.570000000000000000e+02
-2.100000000000000000e+01
-5.440000000000000000e+02
-2.340000000000000000e+02
-1.349000000000000000e+03
1.243000000000000000e+03
-3.220000000000000000e+02
1.305000000000000000e+03
-1.120000000000000000e+03
1.560000000000000000e+02
1.041000000000000000e+03
-1.580000000000000000e+03
-4.430000000000000000e+02
3.760000000000000000e+02
1.165000000000000000e+03
1.356000000000000000e+03
4.030000000000000000e+02
-4.670000000000000000e+02
-2.770000000000000000e+02
1.844000000000000000e+03
4.300000000000000000e+02
1.980000000000000000e+02
-7.680000000000000000e+02
9.800000000000000000e+02
-3.160000000000000000e+02
9.090000000000000000e+02
1.030000000000000000e+03
1.009000000000000000e+03
4.000000000000000000e+00
1.400000000000000000e+01
-6.450000000000000000e+02
1.470000000000000000e+02
-1.730000000000000000e+02
1.290000000000000000e+02
-7.990000000000000000e+02
-7.130000000000000000e+02
1.294000000000000000e+03
3.000000000000000000e+00
1.260000000000000000e+02
3.290000000000000000e+02
3.240000000000000000e+02
1.346000000000000000e+03
1.034000000000000000e+03
-9.970000000000000000e+02
3.040000000000000000e+02
-2.900000000000000000e+01
-8.880000000000000000e+02
9.550000000000000000e+02
3.340000000000000000e+02
2.300000000000000000e+01
9.100000000000000000e+01
-1.128000000000000000e+03
9.140000000000000000e+02
9.590000000000000000e+02
1.471000000000000000e+03
2.290000000000000000e+02
2.590000000000000000e+02
4.350000000000000000e+02
1.260000000000000000e+02
-1.272000000000000000e+03
4.070000000000000000e+02
-1.032000000000000000e+03
4.930000000000000000e+02
2.600000000000000000e+02
6.820000000000000000e+02
-5.360000000000000000e+02
8.470000000000000000e+02
1.460000000000000000e+02
5.500000000000000000e+01
2.173000000000000000e+03
-8.800000000000000000e+01
2.300000000000000000e+02
3.900000000000000000e+01
1.500000000000000000e+01
1.300000000000000000e+01
-1.192000000000000000e+03
1.928000000000000000e+03
1.330000000000000000e+02
2.220000000000000000e+02
-2.000000000000000000e+01
1.516000000000000000e+03
4.580000000000000000e+02
1.484000000000000000e+03
6.590000000000000000e+02
4.390000000000000000e+02
1.000000000000000000e+00
3.220000000000000000e+02
1.658000000000000000e+03
9.800000000000000000e+01
-7.670000000000000000e+02
1.810000000000000000e+02
1.200000000000000000e+02
7.780000000000000000e+02
1.321000000000000000e+03
-4.940000000000000000e+02
7.790000000000000000e+02
6.260000000000000000e+02
6.800000000000000000e+02
1.790000000000000000e+03
5.400000000000000000e+01
1.580000000000000000e+02
3.800000000000000000e+01
2.460000000000000000e+02
1.832000000000000000e+03
3.220000000000000000e+02
1.040000000000000000e+02
5.940000000000000000e+02
-4.400000000000000000e+02
-4.850000000000000000e+02
1.540000000000000000e+02
-2.570000000000000000e+02
7.520000000000000000e+02
-2.400000000000000000e+02
1.070000000000000000e+02
1.533000000000000000e+03
-4.830000000000000000e+02
-2.440000000000000000e+02
2.230000000000000000e+02
9.200000000000000000e+02
7.500000000000000000e+02
1.280000000000000000e+02
-2.580000000000000000e+02
-1.170000000000000000e+02
1.810000000000000000e+02
-4.610000000000000000e+02
5.000000000000000000e+00
4.690000000000000000e+02
1.028000000000000000e+03
6.640000000000000000e+02
2.201000000000000000e+03
-2.220000000000000000e+03
6.440000000000000000e+02
-2.600000000000000000e+01
4.930000000000000000e+02
-2.900000000000000000e+01
4.220000000000000000e+02
8.090000000000000000e+02
4.570000000000000000e+02
-2.300000000000000000e+02
3.000000000000000000e+00
-2.810000000000000000e+02
6.280000000000000000e+02
-2.300000000000000000e+01
7.000000000000000000e+01
7.600000000000000000e+01
6.430000000000000000e+02
-1.408000000000000000e+03
2.500000000000000000e+02
-3.180000000000000000e+02
5.600000000000000000e+01
-8.000000000000000000e+00
6.550000000000000000e+02
1.490000000000000000e+02
3.100000000000000000e+01
-1.030000000000000000e+02
