-8.380000000000000000e+02
2.820000000000000000e+02
-3.430000000000000000e+02
3.190000000000000000e+02
4.800000000000000000e+01
-6.700000000000000000e+02
1.131000000000000000e+03
-1.950000000000000000e+03
-7.040000000000000000e+02
-1.760000000000000000e+02
-4.630000000000000000e+02
1.700000000000000000e+02
8.000000000000000000e+00
-3.300000000000000000e+01
-9.210000000000000000e+02
-7.700000000000000000e+01
1.600000000000000000e+01
7.970000000000000000e+02
2.220000000000000000e+02
-9.130000000000000000e+02
8.910000000000000000e+02
-1.375000000000000000e+03
1.640000000000000000e+02
-3.420000000000000000e+02
-6.700000000000000000e+01
-2.580000000000000000e+02
-5.270000000000000000e+02
2.040000000000000000e+02
-1.923000000000000000e+03
-5.660000000000000000e+02
-4.400000000000000000e+01
6.830000000000000000e+02
8.790000000000000000e+02
5.580000000000000000e+02
4.450000000000000000e+02
1.589000000000000000e+03
-4.670000000000000000e+02
-3.560000000000000000e+02
1.146000000000000000e+03
6.670000000000000000e+02
5.180000000000000000e+02
4.070000000000000000e+02
-3.850000000000000000e+02
4.600000000000000000e+02
-1.212000000000000000e+03
3.110000000000000000e+02
1.440000000000000000e+03
3.630000000000000000e+02
2.840000000000000000e+02
7.380000000000000000e+02
-1.290000000000000000e+02
-4.760000000000000000e+02
-4.730000000000000000e+02
-1.040000000000000000e+02
-6.430000000000000000e+02
1.680000000000000000e+02
7.700000000000000000e+01
4.290000000000000000e+02
4.300000000000000000e+01
5.000000000000000000e+02
1.160000000000000000e+02
2.880000000000000000e+02
5.590000000000000000e+02
-3.130000000000000000e+02
4.200000000000000000e+01
3.460000000000000000e+02
1.193000000000000000e+03
-2.150000000000000000e+03
5.380000000000000000e+02
-6.980000000000000000e+02
-1.200000000000000000e+02
4.010000000000000000e+02
-6.500000000000000000e+02
5.750000000000000000e+02
1.540000000000000000e+02
1.150000000000000000e+02
1.119000000000000000e+03
4.720000000000000000e+02
-5.730000000000000000e+02
-1.390000000000000000e+02
-2.347000000000000000e+03
4.970000000000000000e+02
6.010000000000000000e+02
4.670000000000000000e+02
1.392000000000000000e+03
5.000000000000000000e+01
8.730000000000000000e+02
-1.080000000000000000e+03
3.400000000000000000e+01
5.280000000000000000e+02
-1.310000000000000000e+03
-3.460000000000000000e+02
2.670000000000000000e+02
1.680000000000000000e+02
-6.610000000000000000e+02
5.330000000000000000e+02
4.630000000000000000e+02
5.420000000000000000e+02
-2.620000000000000000e+02
-1.351000000000000000e+03
-7.000000000000000000e+01
-3.330000000000000000e+02
2.980000000000000000e+02
-3.843000000000000000e+03
-1.990000000000000000e+02
1.967000000000000000e+03
-3.800000000000000000e+01
9.210000000000000000e+02
1.101000000000000000e+03
1.760000000000000000e+02
-2.655000000000000000e+03
5.100000000000000000e+01
-4.330000000000000000e+02
7.310000000000000000e+02
4.820000000000000000e+02
2.500000000000000000e+02
-4.000000000000000000e+00
-3.670000000000000000e+02
3.630000000000000000e+02
5.400000000000000000e+01
5.400000000000000000e+01
3.340000000000000000e+02
5.500000000000000000e+01
1.510000000000000000e+02
6.490000000000000000e+02
3.970000000000000000e+02
1.279000000000000000e+03
-5.000000000000000000e+00
1.270000000000000000e+02
3.350000000000000000e+02
-9.890000000000000000e+02
6.800000000000000000e+01
-4.200000000000000000e+01
5.480000000000000000e+02
-5.670000000000000000e+02
-1.080000000000000000e+02
-7.610000000000000000e+02
2.060000000000000000e+02
1.183000000000000000e+03
1.720000000000000000e+02
4.970000000000000000e+02
6.810000000000000000e+02
-9.930000000000000000e+02
-1.035000000000000000e+03
-2.920000000000000000e+02
-2.408000000000000000e+03
-1.066000000000000000e+03
8.590000000000000000e+02
4.220000000000000000e+02
1.310000000000000000e+03
-7.900000000000000000e+01
-1.767000000000000000e+03
7.990000000000000000e+02
-3.730000000000000000e+02
-4.598000000000000000e+03
-2.900000000000000000e+02
5.590000000000000000e+02
6.670000000000000000e+02
8.890000000000000000e+02
3.780000000000000000e+02
1.280000000000000000e+02
5.300000000000000000e+01
5.880000000000000000e+02
6.470000000000000000e+02
-2.220000000000000000e+03
1.500000000000000000e+02
4.320000000000000000e+02
-1.400000000000000000e+02
-1.072000000000000000e+03
1.900000000000000000e+02
-1.230000000000000000e+02
4.650000000000000000e+02
-8.420000000000000000e+02
-3.264000000000000000e+03
4.340000000000000000e+02
3.410000000000000000e+02
-6.570000000000000000e+02
-1.560000000000000000e+03
8.420000000000000000e+02
1.200000000000000000e+02
3.690000000000000000e+02
6.310000000000000000e+02
-9.300000000000000000e+02
-1.324000000000000000e+03
-2.700000000000000000e+02
-2.885000000000000000e+03
4.400000000000000000e+02
2.100000000000000000e+02
-6.510000000000000000e+02
5.540000000000000000e+02
-3.300000000000000000e+01
-7.600000000000000000e+01
8.140000000000000000e+02
6.290000000000000000e+02
-1.299000000000000000e+03
1.933000000000000000e+03
7.440000000000000000e+02
2.170000000000000000e+02
9.620000000000000000e+02
-3.590000000000000000e+02
2.300000000000000000e+01
-7.170000000000000000e+02
-9.230000000000000000e+02
-8.990000000000000000e+02
5.410000000000000000e+02
5.950000000000000000e+02
3.680000000000000000e+02
3.000000000000000000e+02
-1.195000000000000000e+03
-1.436000000000000000e+03
-1.210000000000000000e+02
1.058000000000000000e+03
-9.600000000000000000e+01
-2.054000000000000000e+03
-9.790000000000000000e+02
1.330000000000000000e+02
-9.730000000000000000e+02
-1.700000000000000000e+01
6.160000000000000000e+02
-1.500000000000000000e+02
-8.500000000000000000e+01
1.036000000000000000e+03
8.510000000000000000e+02
4.470000000000000000e+02
1.960000000000000000e+02
8.400000000000000000e+01
9.640000000000000000e+02
1.970000000000000000e+02
-5.620000000000000000e+02
3.830000000000000000e+02
-1.172000000000000000e+03
-9.800000000000000000e+02
-1.680000000000000000e+02
2.630000000000000000e+02
-9.660000000000000000e+02
-2.950000000000000000e+02
-2.020000000000000000e+02
-2.250000000000000000e+02
-1.140000000000000000e+02
-6.040000000000000000e+02
-7.210000000000000000e+02
-6.390000000000000000e+02
5.620000000000000000e+02
3.820000000000000000e+02
-9.170000000000000000e+02
4.900000000000000000e+02
6.910000000000000000e+02
-8.000000000000000000e+00
1.630000000000000000e+02
2.540000000000000000e+02
1.112000000000000000e+03
3.100000000000000000e+02
6.060000000000000000e+02
7.800000000000000000e+02
-7.020000000000000000e+02
1.610000000000000000e+02
