1.611000000000000000e+03
1.609000000000000000e+03
9.210000000000000000e+02
-1.994000000000000000e+03
2.588000000000000000e+03
-1.387000000000000000e+03
1.147000000000000000e+03
1.904000000000000000e+03
1.041000000000000000e+03
-1.092000000000000000e+03
-2.030000000000000000e+02
-1.631000000000000000e+03
-2.680000000000000000e+02
1.845000000000000000e+03
-1.179000000000000000e+03
1.348000000000000000e+03
1.073000000000000000e+03
-6.900000000000000000e+01
1.652000000000000000e+03
6.820000000000000000e+02
-9.700000000000000000e+02
1.081000000000000000e+03
6.560000000000000000e+02
-3.770000000000000000e+02
1.806000000000000000e+03
8.260000000000000000e+02
1.286000000000000000e+03
1.206000000000000000e+03
1.483000000000000000e+03
2.022000000000000000e+03
1.796000000000000000e+03
-4.180000000000000000e+02
1.365000000000000000e+03
1.649000000000000000e+03
1.048000000000000000e+03
3.170000000000000000e+02
1.201000000000000000e+03
-2.510000000000000000e+02
1.044000000000000000e+03
1.573000000000000000e+03
1.594000000000000000e+03
1.120000000000000000e+03
-2.610000000000000000e+02
-1.483000000000000000e+03
1.704000000000000000e+03
1.486000000000000000e+03
1.065000000000000000e+03
-9.300000000000000000e+01
1.543000000000000000e+03
9.920000000000000000e+02
-9.700000000000000000e+02
1.174000000000000000e+03
1.086000000000000000e+03
1.421000000000000000e+03
2.083000000000000000e+03
-8.420000000000000000e+02
-5.150000000000000000e+02
-5.450000000000000000e+02
1.357000000000000000e+03
1.284000000000000000e+03
2.188000000000000000e+03
1.287000000000000000e+03
2.017000000000000000e+03
-1.001000000000000000e+03
