-2.300000000000000000e+01
-4.060000000000000000e+02
6.270000000000000000e+02
2.160000000000000000e+02
5.830000000000000000e+02
-2.160000000000000000e+02
-2.100000000000000000e+02
2.320000000000000000e+02
-6.570000000000000000e+02
-4.370000000000000000e+02
-3.000000000000000000e+00
-5.900000000000000000e+01
5.520000000000000000e+02
-2.610000000000000000e+02
3.310000000000000000e+02
1.230000000000000000e+02
9.600000000000000000e+01
2.890000000000000000e+02
6.780000000000000000e+02
-1.140000000000000000e+02
-4.450000000000000000e+02
2.980000000000000000e+02
5.050000000000000000e+02
1.380000000000000000e+02
3.790000000000000000e+02
3.540000000000000000e+02
7.280000000000000000e+02
2.550000000000000000e+02
4.920000000000000000e+02
7.940000000000000000e+02
9.480000000000000000e+02
-5.800000000000000000e+01
9.750000000000000000e+02
-3.180000000000000000e+02
-1.000000000000000000e+02
4.770000000000000000e+02
-9.470000000000000000e+02
7.780000000000000000e+02
-1.500000000000000000e+02
1.010000000000000000e+02
8.010000000000000000e+02
9.800000000000000000e+01
7.570000000000000000e+02
7.250000000000000000e+02
-1.380000000000000000e+02
9.800000000000000000e+01
4.710000000000000000e+02
9.340000000000000000e+02
-1.550000000000000000e+02
1.507000000000000000e+03
-3.170000000000000000e+02
-5.830000000000000000e+02
6.000000000000000000e+01
-3.300000000000000000e+01
1.191000000000000000e+03
-6.200000000000000000e+01
2.520000000000000000e+02
-4.190000000000000000e+02
-6.170000000000000000e+02
1.020000000000000000e+03
1.276000000000000000e+03
2.140000000000000000e+02
1.880000000000000000e+02
2.820000000000000000e+02
7.300000000000000000e+01
2.290000000000000000e+02
2.810000000000000000e+02
-6.000000000000000000e+01
4.590000000000000000e+02
2.610000000000000000e+02
-5.930000000000000000e+02
2.880000000000000000e+02
-1.280000000000000000e+02
3.090000000000000000e+02
5.100000000000000000e+01
-1.990000000000000000e+02
-4.730000000000000000e+02
7.560000000000000000e+02
9.030000000000000000e+02
5.800000000000000000e+02
3.050000000000000000e+02
-1.590000000000000000e+02
2.700000000000000000e+01
7.590000000000000000e+02
-6.770000000000000000e+02
2.360000000000000000e+02
1.960000000000000000e+02
6.470000000000000000e+02
4.910000000000000000e+02
1.530000000000000000e+02
-9.800000000000000000e+01
4.940000000000000000e+02
7.000000000000000000e+01
5.050000000000000000e+02
-9.400000000000000000e+01
4.450000000000000000e+02
-3.120000000000000000e+02
3.600000000000000000e+02
6.060000000000000000e+02
1.000000000000000000e+00
-9.000000000000000000e+01
3.660000000000000000e+02
1.770000000000000000e+02
1.401000000000000000e+03
3.000000000000000000e+02
1.040000000000000000e+02
-3.940000000000000000e+02
3.630000000000000000e+02
-3.210000000000000000e+02
-7.000000000000000000e+01
7.660000000000000000e+02
5.540000000000000000e+02
6.590000000000000000e+02
-1.660000000000000000e+02
-1.000000000000000000e+01
2.980000000000000000e+02
6.990000000000000000e+02
-2.700000000000000000e+01
1.020000000000000000e+02
7.400000000000000000e+01
1.470000000000000000e+02
2.610000000000000000e+02
2.960000000000000000e+02
-9.790000000000000000e+02
-1.020000000000000000e+02
8.100000000000000000e+01
1.268000000000000000e+03
7.900000000000000000e+01
5.210000000000000000e+02
8.700000000000000000e+01
3.900000000000000000e+01
1.012000000000000000e+03
8.070000000000000000e+02
-3.000000000000000000e+02
-8.500000000000000000e+01
1.725000000000000000e+03
8.020000000000000000e+02
7.430000000000000000e+02
8.250000000000000000e+02
3.930000000000000000e+02
-5.000000000000000000e+01
6.260000000000000000e+02
-1.200000000000000000e+01
-6.310000000000000000e+02
1.174000000000000000e+03
2.533000000000000000e+03
1.710000000000000000e+02
-1.336000000000000000e+03
-6.280000000000000000e+02
-7.360000000000000000e+02
4.680000000000000000e+02
2.470000000000000000e+02
1.550000000000000000e+02
-1.040000000000000000e+02
-6.490000000000000000e+02
1.839000000000000000e+03
-4.400000000000000000e+01
3.000000000000000000e+01
6.950000000000000000e+02
-5.160000000000000000e+02
-6.180000000000000000e+02
8.010000000000000000e+02
6.990000000000000000e+02
1.112000000000000000e+03
1.100000000000000000e+02
7.830000000000000000e+02
5.460000000000000000e+02
1.170000000000000000e+02
-4.230000000000000000e+02
-5.000000000000000000e+01
6.470000000000000000e+02
8.300000000000000000e+01
-1.030000000000000000e+02
3.600000000000000000e+01
4.070000000000000000e+02
3.330000000000000000e+02
1.280000000000000000e+02
7.230000000000000000e+02
-2.360000000000000000e+02
4.300000000000000000e+02
-2.960000000000000000e+02
-1.320000000000000000e+02
-1.860000000000000000e+02
-6.600000000000000000e+01
3.190000000000000000e+02
1.057000000000000000e+03
1.225000000000000000e+03
-1.190000000000000000e+02
-6.280000000000000000e+02
5.770000000000000000e+02
-4.440000000000000000e+02
8.240000000000000000e+02
4.630000000000000000e+02
-8.770000000000000000e+02
2.890000000000000000e+02
-9.000000000000000000e+01
-2.300000000000000000e+02
6.090000000000000000e+02
8.500000000000000000e+01
3.020000000000000000e+02
2.270000000000000000e+02
6.920000000000000000e+02
-1.940000000000000000e+02
5.190000000000000000e+02
-5.070000000000000000e+02
1.100000000000000000e+01
8.190000000000000000e+02
9.230000000000000000e+02
3.640000000000000000e+02
1.129000000000000000e+03
-1.440000000000000000e+02
4.960000000000000000e+02
1.080000000000000000e+02
4.810000000000000000e+02
2.870000000000000000e+02
4.280000000000000000e+02
-1.350000000000000000e+02
-8.300000000000000000e+01
8.590000000000000000e+02
2.560000000000000000e+02
8.100000000000000000e+02
3.590000000000000000e+02
3.310000000000000000e+02
-9.000000000000000000e+00
3.640000000000000000e+02
9.870000000000000000e+02
7.450000000000000000e+02
0.000000000000000000e+00
4.400000000000000000e+02
-3.980000000000000000e+02
3.850000000000000000e+02
1.600000000000000000e+01
-2.770000000000000000e+02
3.090000000000000000e+02
7.100000000000000000e+01
9.140000000000000000e+02
-2.640000000000000000e+02
3.770000000000000000e+02
2.330000000000000000e+02
4.690000000000000000e+02
-1.250000000000000000e+02
4.320000000000000000e+02
4.090000000000000000e+02
6.090000000000000000e+02
9.810000000000000000e+02
3.533000000000000000e+03
1.180000000000000000e+03
-5.560000000000000000e+02
-5.710000000000000000e+02
1.930000000000000000e+02
-9.300000000000000000e+01
-1.480000000000000000e+02
1.900000000000000000e+01
0.000000000000000000e+00
4.440000000000000000e+02
-3.850000000000000000e+02
