1.263000000000000000e+03
1.291000000000000000e+03
-2.563000000000000000e+03
-4.375000000000000000e+03
1.549400000000000000e+04
1.770000000000000000e+03
3.575000000000000000e+03
-4.273000000000000000e+03
-7.830000000000000000e+02
3.922000000000000000e+03
1.598000000000000000e+03
-1.135000000000000000e+03
-1.280000000000000000e+02
-7.550000000000000000e+02
1.502000000000000000e+03
3.512000000000000000e+03
1.990000000000000000e+02
2.418000000000000000e+03
2.683000000000000000e+03
1.025000000000000000e+03
-7.545000000000000000e+03
-6.550000000000000000e+02
1.671000000000000000e+03
2.986000000000000000e+03
2.400000000000000000e+01
3.335000000000000000e+03
-8.880000000000000000e+02
7.070000000000000000e+03
-1.785000000000000000e+03
4.640000000000000000e+03
8.880000000000000000e+02
6.199000000000000000e+03
-2.950000000000000000e+02
4.419000000000000000e+03
3.181000000000000000e+03
-1.868000000000000000e+03
-1.063400000000000000e+04
4.855000000000000000e+03
-2.070000000000000000e+02
-4.180000000000000000e+02
1.647000000000000000e+03
-1.750000000000000000e+02
2.298000000000000000e+03
-2.810000000000000000e+03
6.502000000000000000e+03
-5.150000000000000000e+02
-1.897000000000000000e+03
-7.600000000000000000e+01
-3.090000000000000000e+02
-9.160000000000000000e+02
3.007000000000000000e+03
-4.929000000000000000e+03
1.962000000000000000e+03
-9.253000000000000000e+03
-3.310000000000000000e+03
-3.890000000000000000e+03
2.331000000000000000e+03
4.166000000000000000e+03
7.430000000000000000e+03
2.689000000000000000e+03
3.158000000000000000e+03
2.669000000000000000e+03
-6.230000000000000000e+02
9.253000000000000000e+03
-4.445000000000000000e+03
-2.193000000000000000e+03
-2.888000000000000000e+03
1.888000000000000000e+03
1.911000000000000000e+03
6.523000000000000000e+03
-2.653000000000000000e+03
-1.704000000000000000e+03
2.033000000000000000e+03
1.150000000000000000e+03
-1.041000000000000000e+03
5.176000000000000000e+03
4.400000000000000000e+01
3.107000000000000000e+03
-9.000000000000000000e+00
3.590000000000000000e+02
-6.500000000000000000e+01
-2.530000000000000000e+03
3.644000000000000000e+03
3.130000000000000000e+02
3.398000000000000000e+03
9.232000000000000000e+03
1.337900000000000000e+04
2.066000000000000000e+03
-1.526000000000000000e+03
-2.224000000000000000e+03
-7.697000000000000000e+03
2.855000000000000000e+03
-1.936000000000000000e+03
4.750000000000000000e+02
-2.068000000000000000e+03
-3.070000000000000000e+03
5.704000000000000000e+03
4.508000000000000000e+03
1.403000000000000000e+03
-6.463000000000000000e+03
-1.644000000000000000e+03
8.450000000000000000e+02
6.679000000000000000e+03
6.137000000000000000e+03
1.174100000000000000e+04
7.327000000000000000e+03
-5.623000000000000000e+03
-9.990000000000000000e+02
1.608000000000000000e+03
-2.153000000000000000e+03
3.496000000000000000e+03
-3.552000000000000000e+03
-6.930000000000000000e+02
3.642000000000000000e+03
1.543000000000000000e+03
4.840000000000000000e+02
-5.270000000000000000e+03
-9.590000000000000000e+02
1.870000000000000000e+03
-2.039000000000000000e+03
-5.860000000000000000e+02
-6.166000000000000000e+03
7.980000000000000000e+02
8.630000000000000000e+02
-2.472000000000000000e+03
-2.062000000000000000e+03
2.518000000000000000e+03
2.997000000000000000e+03
