-2.500000000000000000e+01
-6.420000000000000000e+02
1.045000000000000000e+03
7.870000000000000000e+02
2.630000000000000000e+02
-1.970000000000000000e+02
-3.370000000000000000e+02
-6.060000000000000000e+02
1.214000000000000000e+03
-1.597000000000000000e+03
-4.880000000000000000e+02
-2.850000000000000000e+02
-2.348000000000000000e+03
-7.100000000000000000e+01
-4.560000000000000000e+02
-8.710000000000000000e+02
-5.600000000000000000e+01
1.486000000000000000e+03
-3.115000000000000000e+03
-1.438000000000000000e+03
-1.791000000000000000e+03
3.200000000000000000e+02
3.570000000000000000e+02
-2.102000000000000000e+03
1.120000000000000000e+03
-3.000000000000000000e+02
5.100000000000000000e+01
8.600000000000000000e+01
4.200000000000000000e+02
4.210000000000000000e+02
-3.080000000000000000e+02
4.800000000000000000e+01
2.530000000000000000e+02
3.170000000000000000e+02
-7.300000000000000000e+02
7.430000000000000000e+02
-1.037000000000000000e+03
6.130000000000000000e+02
7.300000000000000000e+01
6.170000000000000000e+02
-1.981000000000000000e+03
4.690000000000000000e+02
3.950000000000000000e+02
-2.350000000000000000e+02
2.600000000000000000e+01
-2.550000000000000000e+02
-1.769000000000000000e+03
-8.510000000000000000e+02
-4.606000000000000000e+03
-1.132000000000000000e+03
-5.990000000000000000e+02
-2.548000000000000000e+03
2.470000000000000000e+02
-5.140000000000000000e+02
1.070000000000000000e+02
-1.567000000000000000e+03
-1.169000000000000000e+03
-8.430000000000000000e+02
-2.951000000000000000e+03
3.520000000000000000e+02
1.510000000000000000e+02
-3.520000000000000000e+02
-2.308000000000000000e+03
-1.943000000000000000e+03
1.231000000000000000e+03
-2.054000000000000000e+03
-4.610000000000000000e+02
4.780000000000000000e+02
-8.230000000000000000e+02
1.110000000000000000e+02
-9.910000000000000000e+02
-5.950000000000000000e+02
4.500000000000000000e+01
1.100000000000000000e+02
-5.720000000000000000e+02
1.660000000000000000e+02
-4.860000000000000000e+02
-2.921000000000000000e+03
-3.060000000000000000e+03
-5.800000000000000000e+01
2.890000000000000000e+02
1.340000000000000000e+02
-4.300000000000000000e+02
2.090000000000000000e+02
-1.696000000000000000e+03
-5.151000000000000000e+03
2.960000000000000000e+02
-1.214000000000000000e+03
-4.840000000000000000e+02
-5.770000000000000000e+02
-2.142000000000000000e+03
-4.340000000000000000e+02
-3.300000000000000000e+01
5.610000000000000000e+02
-1.310000000000000000e+02
-4.340000000000000000e+02
4.870000000000000000e+02
1.254000000000000000e+03
-2.520000000000000000e+02
3.490000000000000000e+02
-9.300000000000000000e+01
3.260000000000000000e+02
-6.150000000000000000e+02
-6.720000000000000000e+02
-6.250000000000000000e+02
-1.285000000000000000e+03
4.820000000000000000e+02
8.460000000000000000e+02
-4.120000000000000000e+02
9.820000000000000000e+02
5.050000000000000000e+02
-5.120000000000000000e+02
-1.800000000000000000e+02
-7.440000000000000000e+02
-1.221000000000000000e+03
6.300000000000000000e+01
-2.000000000000000000e+00
6.870000000000000000e+02
-5.810000000000000000e+02
-8.740000000000000000e+02
-2.610000000000000000e+02
7.060000000000000000e+02
-1.402000000000000000e+03
-1.025000000000000000e+03
7.600000000000000000e+01
7.070000000000000000e+02
-5.560000000000000000e+02
2.300000000000000000e+01
