-6.400000000000000000e+01
6.640000000000000000e+02
-1.240000000000000000e+02
8.240000000000000000e+02
8.110000000000000000e+02
-5.070000000000000000e+02
1.224000000000000000e+03
-5.880000000000000000e+02
1.104000000000000000e+03
1.881000000000000000e+03
-2.170000000000000000e+02
2.650000000000000000e+02
5.310000000000000000e+02
5.290000000000000000e+02
3.090000000000000000e+02
-3.040000000000000000e+02
-2.598000000000000000e+03
4.740000000000000000e+02
4.820000000000000000e+02
5.870000000000000000e+02
1.129000000000000000e+03
-5.300000000000000000e+01
4.600000000000000000e+01
6.950000000000000000e+02
-2.430000000000000000e+02
1.648000000000000000e+03
-8.570000000000000000e+02
1.800000000000000000e+01
5.390000000000000000e+02
-2.940000000000000000e+02
6.270000000000000000e+02
-8.770000000000000000e+02
2.790000000000000000e+02
-2.610000000000000000e+02
2.246000000000000000e+03
-1.440000000000000000e+02
2.221000000000000000e+03
5.920000000000000000e+02
7.710000000000000000e+02
-1.094000000000000000e+03
-6.130000000000000000e+02
-1.020000000000000000e+02
1.294000000000000000e+03
7.280000000000000000e+02
1.690000000000000000e+02
2.153000000000000000e+03
-1.146000000000000000e+03
-5.710000000000000000e+02
7.220000000000000000e+02
2.910000000000000000e+02
-4.900000000000000000e+01
2.894000000000000000e+03
8.830000000000000000e+02
2.080000000000000000e+02
3.030000000000000000e+02
5.990000000000000000e+02
3.300000000000000000e+02
-4.400000000000000000e+02
2.920000000000000000e+02
-5.600000000000000000e+01
1.572000000000000000e+03
-3.300000000000000000e+02
2.340000000000000000e+02
-2.400000000000000000e+01
6.300000000000000000e+01
-3.680000000000000000e+02
-8.160000000000000000e+02
-8.340000000000000000e+02
6.870000000000000000e+02
-6.500000000000000000e+01
-1.090000000000000000e+02
-7.150000000000000000e+02
1.037000000000000000e+03
6.300000000000000000e+02
-3.260000000000000000e+02
-6.380000000000000000e+02
-1.088000000000000000e+03
2.592000000000000000e+03
1.051000000000000000e+03
4.930000000000000000e+02
1.091000000000000000e+03
-2.360000000000000000e+02
-3.090000000000000000e+02
9.300000000000000000e+01
-1.800000000000000000e+01
-1.432000000000000000e+03
1.246000000000000000e+03
-2.357000000000000000e+03
-5.600000000000000000e+02
2.210000000000000000e+02
-1.090000000000000000e+02
-3.000000000000000000e+02
7.630000000000000000e+02
1.621000000000000000e+03
-3.330000000000000000e+02
-5.180000000000000000e+02
1.678000000000000000e+03
1.198000000000000000e+03
5.000000000000000000e+02
-1.162000000000000000e+03
-3.030000000000000000e+02
1.053000000000000000e+03
3.340000000000000000e+02
4.400000000000000000e+02
-1.790000000000000000e+02
-1.203000000000000000e+03
-4.350000000000000000e+02
1.068000000000000000e+03
8.340000000000000000e+02
3.080000000000000000e+02
2.350000000000000000e+02
5.610000000000000000e+02
2.920000000000000000e+02
2.140000000000000000e+02
2.164000000000000000e+03
1.648000000000000000e+03
-2.890000000000000000e+02
-9.600000000000000000e+01
8.850000000000000000e+02
-6.810000000000000000e+02
-3.270000000000000000e+02
9.100000000000000000e+02
1.070000000000000000e+03
4.990000000000000000e+02
1.039000000000000000e+03
2.620000000000000000e+02
-7.050000000000000000e+02
5.660000000000000000e+02
-1.290000000000000000e+02
3.020000000000000000e+02
7.350000000000000000e+02
-3.490000000000000000e+02
3.004000000000000000e+03
9.850000000000000000e+02
3.272000000000000000e+03
-1.201000000000000000e+03
-1.130000000000000000e+02
1.369000000000000000e+03
4.950000000000000000e+02
1.219000000000000000e+03
-7.320000000000000000e+02
-2.170000000000000000e+02
1.355000000000000000e+03
-1.085000000000000000e+03
-9.210000000000000000e+02
7.300000000000000000e+02
1.407000000000000000e+03
-1.540000000000000000e+02
-5.700000000000000000e+01
-3.263000000000000000e+03
1.787000000000000000e+03
3.330000000000000000e+02
1.910000000000000000e+02
2.900000000000000000e+01
4.140000000000000000e+02
3.900000000000000000e+01
7.340000000000000000e+02
4.170000000000000000e+02
9.910000000000000000e+02
6.500000000000000000e+01
-2.318000000000000000e+03
9.450000000000000000e+02
1.565000000000000000e+03
-3.040000000000000000e+02
7.080000000000000000e+02
4.580000000000000000e+02
-5.970000000000000000e+02
7.860000000000000000e+02
2.700000000000000000e+01
5.950000000000000000e+02
-1.310000000000000000e+02
-7.700000000000000000e+01
3.300000000000000000e+02
1.220000000000000000e+02
7.960000000000000000e+02
-3.390000000000000000e+02
1.407000000000000000e+03
-4.310000000000000000e+02
-9.570000000000000000e+02
-7.000000000000000000e+01
9.370000000000000000e+02
-8.140000000000000000e+02
9.320000000000000000e+02
1.357000000000000000e+03
-3.530000000000000000e+02
5.220000000000000000e+02
3.400000000000000000e+02
7.800000000000000000e+02
2.840000000000000000e+02
9.430000000000000000e+02
2.650000000000000000e+02
1.636000000000000000e+03
-4.420000000000000000e+02
1.972000000000000000e+03
4.870000000000000000e+02
7.130000000000000000e+02
-1.093000000000000000e+03
-9.100000000000000000e+01
1.230000000000000000e+02
6.070000000000000000e+02
2.330000000000000000e+02
-7.600000000000000000e+02
2.040000000000000000e+02
2.169000000000000000e+03
-5.560000000000000000e+02
2.260000000000000000e+02
2.693000000000000000e+03
-2.348000000000000000e+03
-4.280000000000000000e+02
-1.900000000000000000e+02
-8.150000000000000000e+02
7.930000000000000000e+02
-1.200000000000000000e+01
9.780000000000000000e+02
7.460000000000000000e+02
4.530000000000000000e+02
-1.297000000000000000e+03
-3.710000000000000000e+02
-2.771000000000000000e+03
-5.700000000000000000e+02
1.039000000000000000e+03
-1.175000000000000000e+03
-9.410000000000000000e+02
3.470000000000000000e+02
7.100000000000000000e+02
-2.790000000000000000e+02
-2.200000000000000000e+01
8.500000000000000000e+01
5.130000000000000000e+02
2.270000000000000000e+02
-4.870000000000000000e+02
3.840000000000000000e+02
-7.780000000000000000e+02
-8.730000000000000000e+02
3.890000000000000000e+02
6.250000000000000000e+02
2.160000000000000000e+02
2.211000000000000000e+03
-3.070000000000000000e+02
1.930000000000000000e+02
2.040000000000000000e+02
-7.460000000000000000e+02
1.778000000000000000e+03
4.600000000000000000e+01
-3.400000000000000000e+01
-2.890000000000000000e+02
1.220000000000000000e+02
4.640000000000000000e+02
-3.330000000000000000e+02
-1.111000000000000000e+03
-4.980000000000000000e+02
-1.086000000000000000e+03
9.030000000000000000e+02
1.820000000000000000e+02
-6.300000000000000000e+01
-6.960000000000000000e+02
-1.015000000000000000e+03
-1.564000000000000000e+03
1.640000000000000000e+02
-7.550000000000000000e+02
4.260000000000000000e+02
-3.940000000000000000e+02
8.300000000000000000e+02
2.049000000000000000e+03
-1.206000000000000000e+03
5.680000000000000000e+02
-1.833000000000000000e+03
1.143000000000000000e+03
9.700000000000000000e+01
4.710000000000000000e+02
-4.680000000000000000e+02
-1.030000000000000000e+02
1.225000000000000000e+03
6.270000000000000000e+02
5.960000000000000000e+02
-6.260000000000000000e+02
-7.900000000000000000e+02
2.096000000000000000e+03
4.700000000000000000e+01
7.550000000000000000e+02
7.810000000000000000e+02
-5.490000000000000000e+02
-2.220000000000000000e+02
6.980000000000000000e+02
8.470000000000000000e+02
-4.540000000000000000e+02
2.960000000000000000e+02
8.450000000000000000e+02
1.348000000000000000e+03
3.450000000000000000e+02
-4.160000000000000000e+02
8.700000000000000000e+01
7.180000000000000000e+02
-1.290000000000000000e+02
-5.600000000000000000e+01
4.100000000000000000e+02
-9.500000000000000000e+02
-1.687000000000000000e+03
1.922000000000000000e+03
-3.110000000000000000e+02
3.300000000000000000e+02
-6.340000000000000000e+02
1.428000000000000000e+03
-5.400000000000000000e+02
1.619000000000000000e+03
1.040000000000000000e+03
2.770000000000000000e+02
5.600000000000000000e+01
6.480000000000000000e+02
-9.430000000000000000e+02
2.139000000000000000e+03
-1.428000000000000000e+03
5.080000000000000000e+02
9.450000000000000000e+02
6.650000000000000000e+02
7.980000000000000000e+02
1.073000000000000000e+03
3.610000000000000000e+02
1.544000000000000000e+03
-3.580000000000000000e+02
1.815000000000000000e+03
-1.320000000000000000e+02
-1.233000000000000000e+03
3.770000000000000000e+02
6.740000000000000000e+02
2.627000000000000000e+03
-5.330000000000000000e+02
6.220000000000000000e+02
-7.950000000000000000e+02
2.037000000000000000e+03
3.980000000000000000e+02
-2.280000000000000000e+02
-1.292000000000000000e+03
-1.100000000000000000e+01
4.260000000000000000e+02
-1.103000000000000000e+03
1.041000000000000000e+03
1.649000000000000000e+03
-3.000000000000000000e+00
3.070000000000000000e+02
3.804000000000000000e+03
-5.980000000000000000e+02
-4.310000000000000000e+02
7.430000000000000000e+02
3.640000000000000000e+02
-6.210000000000000000e+02
-2.610000000000000000e+02
1.760000000000000000e+02
-1.249000000000000000e+03
-4.370000000000000000e+02
-3.460000000000000000e+02
-4.150000000000000000e+02
9.620000000000000000e+02
1.054000000000000000e+03
5.660000000000000000e+02
-9.350000000000000000e+02
-9.900000000000000000e+01
4.460000000000000000e+02
7.260000000000000000e+02
2.550000000000000000e+02
6.450000000000000000e+02
-1.690000000000000000e+02
-2.600000000000000000e+01
-2.190000000000000000e+02
-1.182000000000000000e+03
-5.110000000000000000e+02
-1.240000000000000000e+03
-1.074000000000000000e+03
-6.310000000000000000e+02
-5.110000000000000000e+02
4.800000000000000000e+01
1.245000000000000000e+03
-1.150000000000000000e+02
-1.151000000000000000e+03
8.830000000000000000e+02
8.090000000000000000e+02
-7.280000000000000000e+02
1.312000000000000000e+03
7.480000000000000000e+02
2.760000000000000000e+02
-8.800000000000000000e+01
-7.600000000000000000e+01
1.111000000000000000e+03
4.960000000000000000e+02
7.470000000000000000e+02
1.113000000000000000e+03
1.052000000000000000e+03
-9.310000000000000000e+02
1.280000000000000000e+02
1.380000000000000000e+02
-9.800000000000000000e+02
-2.037000000000000000e+03
-8.600000000000000000e+02
1.090000000000000000e+02
-5.800000000000000000e+01
2.150000000000000000e+02
5.090000000000000000e+02
6.060000000000000000e+02
-3.000000000000000000e+01
5.770000000000000000e+02
6.590000000000000000e+02
6.420000000000000000e+02
-1.014000000000000000e+03
-3.270000000000000000e+02
9.810000000000000000e+02
2.930000000000000000e+02
2.430000000000000000e+02
2.620000000000000000e+02
-1.357000000000000000e+03
8.910000000000000000e+02
-4.990000000000000000e+02
-1.318000000000000000e+03
-7.200000000000000000e+02
-2.050000000000000000e+02
9.080000000000000000e+02
-3.890000000000000000e+02
-4.469000000000000000e+03
-5.470000000000000000e+02
5.620000000000000000e+02
2.280000000000000000e+02
2.207000000000000000e+03
7.400000000000000000e+01
5.280000000000000000e+02
2.810000000000000000e+02
1.326000000000000000e+03
-4.640000000000000000e+02
7.450000000000000000e+02
1.506000000000000000e+03
-6.600000000000000000e+02
2.390000000000000000e+02
-3.700000000000000000e+02
7.140000000000000000e+02
7.100000000000000000e+02
-6.060000000000000000e+02
1.160000000000000000e+02
1.430000000000000000e+03
1.435000000000000000e+03
2.880000000000000000e+02
1.745000000000000000e+03
9.020000000000000000e+02
7.000000000000000000e+00
2.080000000000000000e+02
2.054000000000000000e+03
2.410000000000000000e+02
-4.520000000000000000e+02
-3.760000000000000000e+02
1.778000000000000000e+03
-7.710000000000000000e+02
-1.400000000000000000e+01
-3.740000000000000000e+02
3.803000000000000000e+03
-2.336000000000000000e+03
7.130000000000000000e+02
-2.158000000000000000e+03
-3.150000000000000000e+02
1.056000000000000000e+03
5.430000000000000000e+02
-3.040000000000000000e+02
-2.390000000000000000e+02
6.300000000000000000e+02
9.000000000000000000e+01
-3.160000000000000000e+02
-1.522000000000000000e+03
6.990000000000000000e+02
-1.223000000000000000e+03
-1.537000000000000000e+03
2.640000000000000000e+02
-1.691000000000000000e+03
-4.300000000000000000e+01
-8.020000000000000000e+02
-3.340000000000000000e+02
4.620000000000000000e+02
-6.420000000000000000e+02
6.890000000000000000e+02
1.600000000000000000e+02
1.213000000000000000e+03
-8.900000000000000000e+02
-1.720000000000000000e+02
-6.360000000000000000e+02
3.000000000000000000e+02
1.030000000000000000e+02
6.360000000000000000e+02
4.450000000000000000e+02
-4.670000000000000000e+02
5.980000000000000000e+02
1.702000000000000000e+03
2.093000000000000000e+03
-4.440000000000000000e+02
-2.425000000000000000e+03
5.200000000000000000e+01
7.900000000000000000e+01
-7.200000000000000000e+02
3.630000000000000000e+02
-1.500000000000000000e+02
-5.510000000000000000e+02
1.893000000000000000e+03
5.130000000000000000e+02
1.423000000000000000e+03
-2.430000000000000000e+02
1.130000000000000000e+02
1.178000000000000000e+03
2.600000000000000000e+01
1.859000000000000000e+03
2.800000000000000000e+02
-3.500000000000000000e+01
1.200000000000000000e+03
-1.839000000000000000e+03
6.210000000000000000e+02
-3.610000000000000000e+02
1.080000000000000000e+02
5.910000000000000000e+02
1.958000000000000000e+03
