-1.670000000000000000e+02
1.265000000000000000e+03
-2.507000000000000000e+03
-6.020000000000000000e+02
-1.213000000000000000e+03
2.591000000000000000e+03
9.850000000000000000e+02
-5.240000000000000000e+02
5.810000000000000000e+02
9.390000000000000000e+02
6.900000000000000000e+01
-8.000000000000000000e+02
4.640000000000000000e+02
8.220000000000000000e+02
-2.240000000000000000e+02
8.980000000000000000e+02
3.450000000000000000e+02
1.190000000000000000e+02
8.610000000000000000e+02
1.130000000000000000e+03
-5.580000000000000000e+02
-1.950000000000000000e+02
-9.160000000000000000e+02
3.460000000000000000e+02
1.085000000000000000e+03
7.090000000000000000e+02
4.320000000000000000e+02
5.010000000000000000e+02
3.610000000000000000e+02
1.454000000000000000e+03
7.060000000000000000e+02
-1.795000000000000000e+03
1.270000000000000000e+02
1.527000000000000000e+03
3.450000000000000000e+02
6.000000000000000000e+01
8.850000000000000000e+02
8.530000000000000000e+02
4.500000000000000000e+01
2.300000000000000000e+01
4.970000000000000000e+02
-1.700000000000000000e+02
-4.340000000000000000e+02
1.158000000000000000e+03
2.570000000000000000e+02
-4.350000000000000000e+02
-1.980000000000000000e+02
6.780000000000000000e+02
-6.860000000000000000e+02
8.090000000000000000e+02
8.200000000000000000e+01
2.580000000000000000e+02
3.600000000000000000e+02
5.800000000000000000e+02
8.180000000000000000e+02
1.410000000000000000e+02
7.800000000000000000e+01
4.520000000000000000e+02
2.610000000000000000e+02
6.960000000000000000e+02
8.370000000000000000e+02
-2.100000000000000000e+02
1.179000000000000000e+03
-4.960000000000000000e+02
4.450000000000000000e+02
-1.140000000000000000e+02
8.020000000000000000e+02
-1.279000000000000000e+03
2.060000000000000000e+02
-6.530000000000000000e+02
1.819000000000000000e+03
1.310000000000000000e+02
2.120000000000000000e+02
8.330000000000000000e+02
4.240000000000000000e+02
-4.110000000000000000e+02
3.310000000000000000e+02
1.563000000000000000e+03
5.020000000000000000e+02
-1.660000000000000000e+02
7.400000000000000000e+01
-5.300000000000000000e+02
1.231000000000000000e+03
-8.900000000000000000e+01
5.890000000000000000e+02
8.000000000000000000e+00
9.080000000000000000e+02
5.600000000000000000e+01
3.380000000000000000e+02
9.510000000000000000e+02
-7.060000000000000000e+02
5.480000000000000000e+02
4.260000000000000000e+02
1.100000000000000000e+01
-3.290000000000000000e+02
4.930000000000000000e+02
5.540000000000000000e+02
-2.140000000000000000e+02
1.485000000000000000e+03
1.382000000000000000e+03
-3.040000000000000000e+02
5.730000000000000000e+02
-8.000000000000000000e+02
4.360000000000000000e+02
-1.745000000000000000e+03
3.770000000000000000e+02
4.410000000000000000e+02
-3.280000000000000000e+02
8.250000000000000000e+02
2.413000000000000000e+03
-5.850000000000000000e+02
-5.010000000000000000e+02
9.940000000000000000e+02
1.531000000000000000e+03
-1.080000000000000000e+02
-5.420000000000000000e+02
-1.400000000000000000e+01
7.000000000000000000e+00
-2.400000000000000000e+02
3.750000000000000000e+02
8.720000000000000000e+02
2.270000000000000000e+02
-2.530000000000000000e+02
1.190000000000000000e+02
-3.160000000000000000e+02
1.182000000000000000e+03
1.044000000000000000e+03
8.700000000000000000e+02
-1.300000000000000000e+03
-1.970000000000000000e+02
-1.089000000000000000e+03
7.530000000000000000e+02
9.070000000000000000e+02
-6.220000000000000000e+02
4.150000000000000000e+02
3.330000000000000000e+02
1.370000000000000000e+02
-1.800000000000000000e+02
8.080000000000000000e+02
1.031000000000000000e+03
-6.150000000000000000e+02
-1.606000000000000000e+03
2.232000000000000000e+03
-2.180000000000000000e+02
1.210000000000000000e+02
6.750000000000000000e+02
-6.880000000000000000e+02
-2.390000000000000000e+02
-1.960000000000000000e+02
-3.369000000000000000e+03
1.710000000000000000e+03
-2.160000000000000000e+03
7.070000000000000000e+02
-5.230000000000000000e+02
-2.190000000000000000e+03
-1.190000000000000000e+03
-7.690000000000000000e+02
8.220000000000000000e+02
-4.150000000000000000e+02
5.130000000000000000e+02
1.102000000000000000e+03
7.630000000000000000e+02
8.160000000000000000e+02
2.630000000000000000e+02
-5.920000000000000000e+02
-9.600000000000000000e+02
2.610000000000000000e+02
4.670000000000000000e+02
-6.560000000000000000e+02
-1.450000000000000000e+02
-1.091000000000000000e+03
-1.060000000000000000e+02
-7.150000000000000000e+02
-6.190000000000000000e+02
4.110000000000000000e+02
1.383000000000000000e+03
3.750000000000000000e+02
-1.280000000000000000e+03
2.006000000000000000e+03
9.760000000000000000e+02
-9.070000000000000000e+02
-6.290000000000000000e+02
-3.540000000000000000e+02
-3.090000000000000000e+02
1.444000000000000000e+03
2.740000000000000000e+02
1.270000000000000000e+03
-3.310000000000000000e+02
1.253000000000000000e+03
2.068000000000000000e+03
-1.566000000000000000e+03
3.480000000000000000e+02
-2.520000000000000000e+02
-9.190000000000000000e+02
5.800000000000000000e+01
9.460000000000000000e+02
8.690000000000000000e+02
2.719000000000000000e+03
-1.100000000000000000e+03
-6.480000000000000000e+02
3.600000000000000000e+02
-2.703000000000000000e+03
-1.520000000000000000e+02
1.106000000000000000e+03
-8.970000000000000000e+02
1.031000000000000000e+03
6.290000000000000000e+02
1.615000000000000000e+03
-2.530000000000000000e+02
8.830000000000000000e+02
-3.474000000000000000e+03
2.520000000000000000e+02
2.210000000000000000e+02
2.070000000000000000e+02
1.135000000000000000e+03
-5.800000000000000000e+02
8.930000000000000000e+02
1.218000000000000000e+03
1.707000000000000000e+03
-6.020000000000000000e+02
-1.260000000000000000e+02
9.450000000000000000e+02
-1.300000000000000000e+02
-2.390000000000000000e+02
1.038000000000000000e+03
1.527000000000000000e+03
1.208000000000000000e+03
-9.900000000000000000e+01
-4.530000000000000000e+02
2.380000000000000000e+02
-5.960000000000000000e+02
1.322000000000000000e+03
-1.590000000000000000e+02
7.390000000000000000e+02
-4.980000000000000000e+02
-9.000000000000000000e+01
4.300000000000000000e+02
1.377000000000000000e+03
1.356000000000000000e+03
-5.720000000000000000e+02
4.700000000000000000e+02
1.309000000000000000e+03
1.458000000000000000e+03
8.600000000000000000e+01
4.690000000000000000e+02
1.085000000000000000e+03
5.770000000000000000e+02
2.800000000000000000e+01
-5.080000000000000000e+02
1.340000000000000000e+02
1.023000000000000000e+03
-2.000000000000000000e+00
1.718000000000000000e+03
1.059000000000000000e+03
7.010000000000000000e+02
2.290000000000000000e+02
