-2.440000000000000000e+02
-8.400000000000000000e+02
3.367000000000000000e+03
1.331000000000000000e+03
6.260000000000000000e+02
-8.970000000000000000e+02
-4.520000000000000000e+02
-8.620000000000000000e+02
8.500000000000000000e+01
-2.008000000000000000e+03
-4.820000000000000000e+02
-8.050000000000000000e+02
-3.880000000000000000e+02
9.310000000000000000e+02
6.090000000000000000e+02
5.010000000000000000e+02
-7.900000000000000000e+01
-2.300000000000000000e+02
1.250000000000000000e+02
-2.520000000000000000e+02
1.560000000000000000e+02
-8.600000000000000000e+02
7.310000000000000000e+02
3.700000000000000000e+01
-4.060000000000000000e+02
-7.240000000000000000e+02
-5.070000000000000000e+02
-6.730000000000000000e+02
1.210000000000000000e+02
-6.000000000000000000e+01
9.670000000000000000e+02
-1.504000000000000000e+03
3.230000000000000000e+02
8.800000000000000000e+01
-8.440000000000000000e+02
1.556000000000000000e+03
-9.970000000000000000e+02
1.170000000000000000e+03
-1.870000000000000000e+02
-1.100000000000000000e+03
-9.550000000000000000e+02
-7.180000000000000000e+02
-1.453000000000000000e+03
-5.380000000000000000e+02
-1.510000000000000000e+02
1.360000000000000000e+02
8.500000000000000000e+02
-5.730000000000000000e+02
-1.750000000000000000e+02
-1.930000000000000000e+02
7.550000000000000000e+02
8.900000000000000000e+01
8.000000000000000000e+02
-3.830000000000000000e+02
-1.023000000000000000e+03
-2.320000000000000000e+02
-1.096000000000000000e+03
-3.900000000000000000e+02
-2.930000000000000000e+02
8.380000000000000000e+02
-2.690000000000000000e+02
1.110000000000000000e+03
1.052000000000000000e+03
2.380000000000000000e+02
-6.560000000000000000e+02
-6.670000000000000000e+02
-2.380000000000000000e+02
2.800000000000000000e+02
-9.880000000000000000e+02
2.930000000000000000e+02
5.700000000000000000e+01
8.530000000000000000e+02
-5.000000000000000000e+02
-4.000000000000000000e+00
-6.570000000000000000e+02
1.390000000000000000e+03
8.100000000000000000e+02
1.100000000000000000e+01
-4.290000000000000000e+02
-9.510000000000000000e+02
-7.100000000000000000e+02
8.690000000000000000e+02
-3.900000000000000000e+02
-7.860000000000000000e+02
-9.800000000000000000e+01
-2.114000000000000000e+03
8.950000000000000000e+02
-1.319000000000000000e+03
-6.510000000000000000e+02
-7.190000000000000000e+02
-6.700000000000000000e+02
-3.200000000000000000e+02
5.430000000000000000e+02
-5.330000000000000000e+02
-4.250000000000000000e+02
1.630000000000000000e+02
-1.132000000000000000e+03
-2.510000000000000000e+02
1.823000000000000000e+03
8.100000000000000000e+01
-1.447000000000000000e+03
-5.400000000000000000e+01
-1.220000000000000000e+03
7.120000000000000000e+02
-2.220000000000000000e+02
9.140000000000000000e+02
1.011000000000000000e+03
-1.123000000000000000e+03
-3.900000000000000000e+01
7.820000000000000000e+02
8.060000000000000000e+02
-7.790000000000000000e+02
-8.530000000000000000e+02
-1.691000000000000000e+03
-2.940000000000000000e+02
6.900000000000000000e+02
1.423000000000000000e+03
-1.549000000000000000e+03
-9.580000000000000000e+02
-4.500000000000000000e+01
4.820000000000000000e+02
-1.623000000000000000e+03
-5.350000000000000000e+02
-2.380000000000000000e+02
-7.140000000000000000e+02
-9.160000000000000000e+02
-1.240000000000000000e+02
4.270000000000000000e+02
-8.310000000000000000e+02
-1.674000000000000000e+03
1.600000000000000000e+02
-2.272000000000000000e+03
1.920000000000000000e+02
-6.170000000000000000e+02
1.430000000000000000e+02
3.150000000000000000e+02
2.620000000000000000e+02
-1.000000000000000000e+00
4.130000000000000000e+02
-5.440000000000000000e+02
-6.030000000000000000e+02
1.094000000000000000e+03
7.710000000000000000e+02
-3.240000000000000000e+02
0.000000000000000000e+00
-9.950000000000000000e+02
1.264000000000000000e+03
-1.283000000000000000e+03
-1.237000000000000000e+03
8.200000000000000000e+01
-1.044000000000000000e+03
-6.090000000000000000e+02
-7.130000000000000000e+02
6.850000000000000000e+02
-8.300000000000000000e+01
1.230000000000000000e+02
-1.770000000000000000e+02
-6.420000000000000000e+02
-8.870000000000000000e+02
8.220000000000000000e+02
-6.080000000000000000e+02
-1.482000000000000000e+03
-9.480000000000000000e+02
-1.241000000000000000e+03
-5.640000000000000000e+02
-5.190000000000000000e+02
7.600000000000000000e+01
-5.310000000000000000e+02
-8.100000000000000000e+02
-4.040000000000000000e+02
-7.030000000000000000e+02
7.000000000000000000e+00
-1.121000000000000000e+03
6.240000000000000000e+02
4.300000000000000000e+01
-4.910000000000000000e+02
-6.400000000000000000e+01
2.630000000000000000e+02
1.354000000000000000e+03
-3.900000000000000000e+01
3.050000000000000000e+02
2.620000000000000000e+02
7.780000000000000000e+02
-2.240000000000000000e+02
-7.060000000000000000e+02
7.630000000000000000e+02
3.270000000000000000e+02
-1.772000000000000000e+03
7.220000000000000000e+02
1.370000000000000000e+02
-2.910000000000000000e+02
3.630000000000000000e+02
-5.810000000000000000e+02
-3.190000000000000000e+02
-1.797000000000000000e+03
7.100000000000000000e+01
-1.092000000000000000e+03
-7.970000000000000000e+02
-5.050000000000000000e+02
-1.510000000000000000e+02
-1.066000000000000000e+03
2.630000000000000000e+02
7.080000000000000000e+02
8.080000000000000000e+02
-5.790000000000000000e+02
-6.800000000000000000e+02
2.900000000000000000e+02
6.580000000000000000e+02
5.390000000000000000e+02
-1.101000000000000000e+03
1.225000000000000000e+03
-3.500000000000000000e+02
9.880000000000000000e+02
-8.370000000000000000e+02
-5.000000000000000000e+02
-1.404000000000000000e+03
-4.770000000000000000e+02
-1.087000000000000000e+03
4.950000000000000000e+02
-3.370000000000000000e+02
-9.420000000000000000e+02
-4.860000000000000000e+02
1.330000000000000000e+03
-6.360000000000000000e+02
-3.850000000000000000e+02
-2.211000000000000000e+03
-9.990000000000000000e+02
-6.180000000000000000e+02
-1.500000000000000000e+01
-9.700000000000000000e+02
-1.852000000000000000e+03
-2.590000000000000000e+02
6.000000000000000000e+01
-2.752000000000000000e+03
4.970000000000000000e+02
5.200000000000000000e+02
-6.860000000000000000e+02
-2.240000000000000000e+02
-1.611000000000000000e+03
-1.338000000000000000e+03
-2.410000000000000000e+02
-9.980000000000000000e+02
8.300000000000000000e+01
3.520000000000000000e+03
1.166000000000000000e+03
-3.820000000000000000e+02
-7.200000000000000000e+02
5.680000000000000000e+02
1.368000000000000000e+03
-3.930000000000000000e+02
1.200000000000000000e+01
-1.020000000000000000e+02
-7.430000000000000000e+02
4.800000000000000000e+02
-1.199000000000000000e+03
1.510000000000000000e+02
