9.040000000000000000e+02
-7.050000000000000000e+02
-2.561000000000000000e+03
-1.315000000000000000e+03
-1.680000000000000000e+02
1.091000000000000000e+03
3.200000000000000000e+01
-6.590000000000000000e+02
-9.310000000000000000e+02
9.490000000000000000e+02
5.000000000000000000e+01
1.058000000000000000e+03
-5.650000000000000000e+02
-3.430000000000000000e+02
-9.730000000000000000e+02
9.060000000000000000e+02
-1.019000000000000000e+03
1.200000000000000000e+02
-8.330000000000000000e+02
1.591000000000000000e+03
-1.318000000000000000e+03
5.670000000000000000e+02
2.025000000000000000e+03
3.070000000000000000e+02
-4.910000000000000000e+02
-1.430000000000000000e+02
2.725000000000000000e+03
-4.090000000000000000e+02
2.229000000000000000e+03
-3.000000000000000000e+02
2.010000000000000000e+02
5.690000000000000000e+02
9.140000000000000000e+02
1.633000000000000000e+03
-1.605000000000000000e+03
5.580000000000000000e+02
-1.680000000000000000e+02
4.960000000000000000e+02
2.718000000000000000e+03
-9.310000000000000000e+02
2.200000000000000000e+02
1.413000000000000000e+03
-1.939000000000000000e+03
-1.296000000000000000e+03
5.800000000000000000e+02
9.730000000000000000e+02
6.370000000000000000e+02
7.790000000000000000e+02
2.407000000000000000e+03
3.363000000000000000e+03
9.360000000000000000e+02
7.570000000000000000e+02
-9.140000000000000000e+02
-3.697000000000000000e+03
7.360000000000000000e+02
-1.403000000000000000e+03
-3.360000000000000000e+02
-9.360000000000000000e+02
1.843000000000000000e+03
1.783000000000000000e+03
-1.104000000000000000e+03
1.355000000000000000e+03
8.760000000000000000e+02
-1.715000000000000000e+03
8.130000000000000000e+02
-7.270000000000000000e+02
-3.315000000000000000e+03
-5.840000000000000000e+02
6.600000000000000000e+01
1.081000000000000000e+03
-9.160000000000000000e+02
6.310000000000000000e+02
1.020000000000000000e+02
1.400000000000000000e+02
-1.169000000000000000e+03
9.630000000000000000e+02
-1.509000000000000000e+03
2.050000000000000000e+02
-1.698000000000000000e+03
-4.400000000000000000e+02
1.856000000000000000e+03
1.104000000000000000e+03
3.870000000000000000e+02
1.322000000000000000e+03
6.830000000000000000e+02
-2.716000000000000000e+03
-5.580000000000000000e+02
-9.700000000000000000e+01
3.348000000000000000e+03
7.560000000000000000e+02
-2.340000000000000000e+02
1.163000000000000000e+03
-3.650000000000000000e+02
-2.749000000000000000e+03
-1.677000000000000000e+03
2.900000000000000000e+02
2.700000000000000000e+02
-3.830000000000000000e+02
-5.280000000000000000e+02
-4.570000000000000000e+02
-1.113000000000000000e+03
1.049000000000000000e+03
-1.437000000000000000e+03
1.401000000000000000e+03
-1.348000000000000000e+03
2.490000000000000000e+02
2.590000000000000000e+02
9.840000000000000000e+02
-1.527000000000000000e+03
3.020000000000000000e+02
-2.990000000000000000e+02
7.410000000000000000e+02
-1.030000000000000000e+03
-1.750000000000000000e+02
-6.040000000000000000e+02
7.200000000000000000e+02
-1.357000000000000000e+03
-2.250000000000000000e+02
-3.250000000000000000e+02
-2.660000000000000000e+02
7.640000000000000000e+02
-1.940000000000000000e+02
2.400000000000000000e+02
1.144000000000000000e+03
1.035000000000000000e+03
6.650000000000000000e+02
2.211000000000000000e+03
2.200000000000000000e+02
-3.930000000000000000e+02
5.570000000000000000e+02
-1.940000000000000000e+02
6.810000000000000000e+02
8.980000000000000000e+02
-3.730000000000000000e+02
-8.830000000000000000e+02
1.390000000000000000e+03
-3.360000000000000000e+02
1.924000000000000000e+03
1.880000000000000000e+02
-7.180000000000000000e+02
-1.054000000000000000e+03
-2.490000000000000000e+02
-3.050000000000000000e+02
6.400000000000000000e+01
-8.000000000000000000e+00
2.165000000000000000e+03
1.870000000000000000e+02
1.910000000000000000e+03
-2.630000000000000000e+02
-1.122000000000000000e+03
7.080000000000000000e+02
1.772000000000000000e+03
1.680000000000000000e+02
6.580000000000000000e+02
-2.418000000000000000e+03
-1.370000000000000000e+02
-1.262000000000000000e+03
1.361000000000000000e+03
-2.870000000000000000e+02
4.670000000000000000e+02
5.350000000000000000e+02
-8.000000000000000000e+00
-1.190000000000000000e+02
2.304000000000000000e+03
-3.600000000000000000e+01
1.875000000000000000e+03
-9.840000000000000000e+02
-2.530000000000000000e+02
-1.720000000000000000e+02
7.640000000000000000e+02
-9.590000000000000000e+02
6.590000000000000000e+02
-1.388000000000000000e+03
1.050000000000000000e+02
2.000000000000000000e+02
-4.300000000000000000e+02
1.070000000000000000e+02
1.317000000000000000e+03
-9.150000000000000000e+02
-5.360000000000000000e+02
6.370000000000000000e+02
-6.100000000000000000e+01
-1.290000000000000000e+02
-9.330000000000000000e+02
-9.480000000000000000e+02
-6.450000000000000000e+02
3.500000000000000000e+01
-4.100000000000000000e+01
-3.023000000000000000e+03
8.580000000000000000e+02
2.042000000000000000e+03
2.694000000000000000e+03
1.245000000000000000e+03
-9.080000000000000000e+02
-2.517000000000000000e+03
1.016000000000000000e+03
-3.500000000000000000e+01
-9.630000000000000000e+02
4.060000000000000000e+02
-3.300000000000000000e+01
3.300000000000000000e+01
-4.900000000000000000e+01
-1.374000000000000000e+03
-1.167000000000000000e+03
4.059000000000000000e+03
-6.910000000000000000e+02
2.800000000000000000e+02
2.143000000000000000e+03
0.000000000000000000e+00
1.660000000000000000e+02
-9.360000000000000000e+02
1.955000000000000000e+03
1.290000000000000000e+02
-6.470000000000000000e+02
-2.220000000000000000e+02
-2.538000000000000000e+03
-4.470000000000000000e+02
-4.170000000000000000e+02
1.214000000000000000e+03
8.440000000000000000e+02
1.744000000000000000e+03
-1.268000000000000000e+03
1.990000000000000000e+02
-8.560000000000000000e+02
-1.860000000000000000e+02
-2.240000000000000000e+02
2.343000000000000000e+03
-7.890000000000000000e+02
-1.460000000000000000e+02
1.930000000000000000e+02
-1.136000000000000000e+03
8.700000000000000000e+01
-2.770000000000000000e+02
1.186000000000000000e+03
-3.220000000000000000e+02
-4.080000000000000000e+02
3.450000000000000000e+02
5.930000000000000000e+02
2.760000000000000000e+02
-8.640000000000000000e+02
2.515000000000000000e+03
-2.177000000000000000e+03
2.678000000000000000e+03
-2.630000000000000000e+02
-6.940000000000000000e+02
-3.800000000000000000e+01
3.776000000000000000e+03
-3.730000000000000000e+02
-6.140000000000000000e+02
1.086000000000000000e+03
4.450000000000000000e+02
-2.242000000000000000e+03
8.160000000000000000e+02
-7.760000000000000000e+02
-2.800000000000000000e+02
-1.839000000000000000e+03
-5.920000000000000000e+02
1.055000000000000000e+03
1.737000000000000000e+03
-8.700000000000000000e+02
-6.480000000000000000e+02
-8.120000000000000000e+02
3.407000000000000000e+03
6.850000000000000000e+02
1.525000000000000000e+03
-2.868000000000000000e+03
6.990000000000000000e+02
5.970000000000000000e+02
-9.920000000000000000e+02
6.010000000000000000e+02
1.154000000000000000e+03
-8.000000000000000000e+01
7.300000000000000000e+01
1.870000000000000000e+02
-7.280000000000000000e+02
2.900000000000000000e+02
4.110000000000000000e+02
-5.660000000000000000e+02
1.380000000000000000e+02
1.914000000000000000e+03
-1.220000000000000000e+02
-2.780000000000000000e+02
1.653000000000000000e+03
1.200000000000000000e+03
2.553000000000000000e+03
6.000000000000000000e+02
-4.130000000000000000e+02
-1.194000000000000000e+03
-7.620000000000000000e+02
2.400000000000000000e+01
4.020000000000000000e+02
-9.300000000000000000e+01
-3.240000000000000000e+02
-1.869000000000000000e+03
1.429000000000000000e+03
-6.240000000000000000e+02
1.467000000000000000e+03
-1.952000000000000000e+03
7.620000000000000000e+02
-1.060000000000000000e+03
-1.014000000000000000e+03
2.930000000000000000e+02
-6.800000000000000000e+02
5.100000000000000000e+01
2.006000000000000000e+03
3.630000000000000000e+02
-2.162000000000000000e+03
-4.420000000000000000e+02
1.680000000000000000e+02
-1.050000000000000000e+02
-2.100000000000000000e+01
-1.838000000000000000e+03
-6.420000000000000000e+02
-5.520000000000000000e+02
-6.330000000000000000e+02
6.030000000000000000e+02
7.080000000000000000e+02
-4.980000000000000000e+02
-1.650000000000000000e+02
-1.237000000000000000e+03
-6.570000000000000000e+02
1.530000000000000000e+02
-4.800000000000000000e+02
4.200000000000000000e+02
-1.052000000000000000e+03
-9.670000000000000000e+02
-1.064000000000000000e+03
2.098000000000000000e+03
4.970000000000000000e+02
9.230000000000000000e+02
-1.133000000000000000e+03
8.340000000000000000e+02
-6.680000000000000000e+02
-9.330000000000000000e+02
3.480000000000000000e+02
-5.100000000000000000e+01
-4.460000000000000000e+02
-8.200000000000000000e+02
-5.120000000000000000e+02
2.200000000000000000e+02
6.700000000000000000e+01
2.903000000000000000e+03
-2.800000000000000000e+01
4.446000000000000000e+03
1.260000000000000000e+02
-4.990000000000000000e+02
-6.380000000000000000e+02
7.000000000000000000e+02
3.980000000000000000e+02
-9.550000000000000000e+02
7.290000000000000000e+02
1.190000000000000000e+02
-4.860000000000000000e+02
-6.290000000000000000e+02
-4.140000000000000000e+02
3.600000000000000000e+02
-1.400000000000000000e+01
-1.129000000000000000e+03
9.850000000000000000e+02
6.300000000000000000e+02
1.640000000000000000e+02
-2.476000000000000000e+03
-2.160000000000000000e+03
3.930000000000000000e+02
-2.660000000000000000e+02
-2.174000000000000000e+03
-1.420000000000000000e+02
-1.259000000000000000e+03
-5.460000000000000000e+02
-2.620000000000000000e+02
-6.980000000000000000e+02
-4.250000000000000000e+02
-1.672000000000000000e+03
-7.180000000000000000e+02
9.900000000000000000e+01
1.534000000000000000e+03
1.230000000000000000e+02
1.827000000000000000e+03
-1.581000000000000000e+03
-3.810000000000000000e+02
2.164000000000000000e+03
-8.560000000000000000e+02
6.030000000000000000e+02
3.546000000000000000e+03
-3.270000000000000000e+02
6.000000000000000000e+01
-3.250000000000000000e+02
-2.850000000000000000e+02
-3.424000000000000000e+03
1.806000000000000000e+03
-4.670000000000000000e+02
1.323000000000000000e+03
8.510000000000000000e+02
-4.080000000000000000e+02
6.510000000000000000e+02
1.284000000000000000e+03
-2.540000000000000000e+02
-6.970000000000000000e+02
1.031000000000000000e+03
3.530000000000000000e+02
-3.400000000000000000e+01
1.938000000000000000e+03
-1.303000000000000000e+03
-3.080000000000000000e+02
-4.360000000000000000e+02
-4.680000000000000000e+02
-1.344000000000000000e+03
-2.620000000000000000e+02
3.450000000000000000e+02
8.700000000000000000e+02
-1.935000000000000000e+03
2.429000000000000000e+03
1.103000000000000000e+03
2.170000000000000000e+02
7.200000000000000000e+02
6.870000000000000000e+02
-5.420000000000000000e+02
-2.098000000000000000e+03
-8.080000000000000000e+02
-4.300000000000000000e+01
-3.843000000000000000e+03
6.390000000000000000e+02
-5.120000000000000000e+02
-8.600000000000000000e+02
1.459000000000000000e+03
3.410000000000000000e+02
-9.130000000000000000e+02
-5.460000000000000000e+02
-5.300000000000000000e+01
-5.510000000000000000e+02
-1.517000000000000000e+03
-9.400000000000000000e+02
-4.670000000000000000e+02
2.480000000000000000e+02
1.902000000000000000e+03
7.920000000000000000e+02
1.179000000000000000e+03
-3.460000000000000000e+02
7.700000000000000000e+01
2.492000000000000000e+03
-1.510000000000000000e+02
7.700000000000000000e+01
-6.270000000000000000e+02
-6.800000000000000000e+01
4.740000000000000000e+02
7.380000000000000000e+02
5.900000000000000000e+01
1.410000000000000000e+03
1.460000000000000000e+02
4.210000000000000000e+02
-4.340000000000000000e+02
1.136000000000000000e+03
-3.580000000000000000e+02
-5.620000000000000000e+02
-2.050000000000000000e+02
-4.540000000000000000e+02
-3.900000000000000000e+01
1.236000000000000000e+03
2.950000000000000000e+02
2.499000000000000000e+03
8.060000000000000000e+02
8.610000000000000000e+02
2.490000000000000000e+02
-1.135000000000000000e+03
1.028000000000000000e+03
-1.260000000000000000e+02
1.980000000000000000e+03
5.840000000000000000e+02
1.359000000000000000e+03
1.205000000000000000e+03
-1.008000000000000000e+03
-2.610000000000000000e+02
1.196000000000000000e+03
-1.081000000000000000e+03
-6.800000000000000000e+02
5.910000000000000000e+02
1.244000000000000000e+03
1.707000000000000000e+03
-3.760000000000000000e+02
-1.070000000000000000e+03
2.390000000000000000e+02
2.197000000000000000e+03
-4.120000000000000000e+02
-1.590000000000000000e+02
8.560000000000000000e+02
7.470000000000000000e+02
1.963000000000000000e+03
-2.730000000000000000e+03
8.800000000000000000e+01
-3.360000000000000000e+03
1.790000000000000000e+02
5.000000000000000000e+01
-2.742000000000000000e+03
-7.810000000000000000e+02
9.180000000000000000e+02
1.870000000000000000e+02
-2.270000000000000000e+02
9.910000000000000000e+02
2.780000000000000000e+02
-9.930000000000000000e+02
2.291000000000000000e+03
8.200000000000000000e+01
8.470000000000000000e+02
1.767000000000000000e+03
-6.500000000000000000e+02
-9.130000000000000000e+02
-7.700000000000000000e+02
2.240000000000000000e+02
-9.300000000000000000e+01
-1.629000000000000000e+03
8.920000000000000000e+02
-1.520000000000000000e+02
-1.606000000000000000e+03
-2.277000000000000000e+03
-1.990000000000000000e+03
1.200000000000000000e+02
-9.330000000000000000e+02
6.800000000000000000e+01
3.170000000000000000e+02
-2.380000000000000000e+02
-8.110000000000000000e+02
-7.600000000000000000e+02
1.030000000000000000e+02
3.280000000000000000e+02
-1.257000000000000000e+03
-3.490000000000000000e+02
-5.330000000000000000e+02
-1.610000000000000000e+02
-1.130000000000000000e+03
-8.420000000000000000e+02
1.898000000000000000e+03
1.668000000000000000e+03
1.584000000000000000e+03
-5.990000000000000000e+02
4.750000000000000000e+02
1.213000000000000000e+03
2.440000000000000000e+02
-1.150000000000000000e+02
1.449000000000000000e+03
-1.850000000000000000e+02
1.198000000000000000e+03
1.980000000000000000e+03
1.180000000000000000e+03
-1.586000000000000000e+03
7.520000000000000000e+02
4.366000000000000000e+03
-3.470000000000000000e+02
-1.568000000000000000e+03
-5.900000000000000000e+01
-3.250000000000000000e+02
-4.370000000000000000e+02
1.560000000000000000e+02
2.320000000000000000e+02
7.430000000000000000e+02
4.700000000000000000e+02
1.098000000000000000e+03
-7.600000000000000000e+02
-2.575000000000000000e+03
3.700000000000000000e+02
2.730000000000000000e+03
6.000000000000000000e+00
7.310000000000000000e+02
3.250000000000000000e+02
1.190000000000000000e+02
7.990000000000000000e+02
-9.130000000000000000e+02
1.320000000000000000e+02
-9.100000000000000000e+02
1.880000000000000000e+03
1.755000000000000000e+03
-1.664000000000000000e+03
-8.550000000000000000e+02
-2.882000000000000000e+03
-1.095000000000000000e+03
4.270000000000000000e+02
-3.100000000000000000e+01
2.150000000000000000e+02
-1.500000000000000000e+01
-2.600000000000000000e+01
-1.330000000000000000e+02
-1.385000000000000000e+03
-1.859000000000000000e+03
-4.310000000000000000e+02
6.850000000000000000e+02
3.960000000000000000e+02
2.850000000000000000e+02
7.060000000000000000e+02
1.391000000000000000e+03
5.710000000000000000e+02
1.980000000000000000e+03
-1.362000000000000000e+03
2.790000000000000000e+02
-5.450000000000000000e+02
4.350000000000000000e+02
2.740000000000000000e+02
9.680000000000000000e+02
6.170000000000000000e+02
9.000000000000000000e+01
-1.110000000000000000e+02
-5.790000000000000000e+02
-8.200000000000000000e+01
3.800000000000000000e+01
-2.155000000000000000e+03
2.074000000000000000e+03
4.670000000000000000e+02
-8.050000000000000000e+02
1.214000000000000000e+03
3.670000000000000000e+02
-1.566000000000000000e+03
-1.410000000000000000e+02
1.161000000000000000e+03
9.360000000000000000e+02
5.240000000000000000e+02
1.082000000000000000e+03
-1.200000000000000000e+01
-1.970000000000000000e+02
-4.400000000000000000e+01
-1.412000000000000000e+03
-2.430000000000000000e+02
-8.280000000000000000e+02
1.257000000000000000e+03
-2.720000000000000000e+02
1.960000000000000000e+02
4.660000000000000000e+02
-4.170000000000000000e+02
-1.060000000000000000e+02
-3.463000000000000000e+03
1.102000000000000000e+03
8.620000000000000000e+02
-8.300000000000000000e+01
-1.900000000000000000e+02
1.400000000000000000e+02
-1.066000000000000000e+03
3.730000000000000000e+02
-1.293000000000000000e+03
-1.779000000000000000e+03
-2.020000000000000000e+02
-2.100000000000000000e+02
-5.710000000000000000e+02
3.394000000000000000e+03
5.300000000000000000e+02
-1.300000000000000000e+01
-1.573000000000000000e+03
1.303000000000000000e+03
9.080000000000000000e+02
3.370000000000000000e+02
-3.620000000000000000e+02
-9.780000000000000000e+02
-5.820000000000000000e+02
3.590000000000000000e+02
5.740000000000000000e+02
-8.900000000000000000e+02
7.940000000000000000e+02
2.057000000000000000e+03
-3.200000000000000000e+01
1.495000000000000000e+03
-3.080000000000000000e+02
5.990000000000000000e+02
3.483000000000000000e+03
-7.310000000000000000e+02
3.176000000000000000e+03
-6.450000000000000000e+02
5.560000000000000000e+02
-7.180000000000000000e+02
-2.170000000000000000e+03
6.200000000000000000e+01
7.980000000000000000e+02
-3.140000000000000000e+02
-4.230000000000000000e+02
-2.550000000000000000e+02
-1.340000000000000000e+02
7.700000000000000000e+01
-7.500000000000000000e+02
-2.360000000000000000e+02
-2.090000000000000000e+03
-4.560000000000000000e+02
5.220000000000000000e+02
7.640000000000000000e+02
-3.500000000000000000e+02
9.370000000000000000e+02
-1.403000000000000000e+03
-6.550000000000000000e+02
2.270000000000000000e+02
6.000000000000000000e+01
-3.290000000000000000e+02
-5.120000000000000000e+02
1.886000000000000000e+03
2.227000000000000000e+03
-1.259000000000000000e+03
-8.940000000000000000e+02
1.525000000000000000e+03
-2.180000000000000000e+03
-2.115000000000000000e+03
-2.300000000000000000e+01
1.426000000000000000e+03
-1.812000000000000000e+03
-1.442000000000000000e+03
-6.800000000000000000e+02
2.320000000000000000e+02
1.074000000000000000e+03
1.062000000000000000e+03
1.671000000000000000e+03
-6.350000000000000000e+02
-4.370000000000000000e+02
9.320000000000000000e+02
3.200000000000000000e+01
-2.105000000000000000e+03
-1.028000000000000000e+03
7.250000000000000000e+02
-6.120000000000000000e+02
6.370000000000000000e+02
-2.018000000000000000e+03
2.629000000000000000e+03
-1.029000000000000000e+03
-1.461000000000000000e+03
9.830000000000000000e+02
-6.700000000000000000e+01
2.038000000000000000e+03
-1.290000000000000000e+02
5.600000000000000000e+01
1.780000000000000000e+02
-5.960000000000000000e+02
1.397000000000000000e+03
-8.290000000000000000e+02
1.600000000000000000e+02
-5.750000000000000000e+02
-3.080000000000000000e+02
1.903000000000000000e+03
-6.100000000000000000e+01
1.705000000000000000e+03
1.391000000000000000e+03
-1.490000000000000000e+02
-1.130000000000000000e+03
1.010000000000000000e+02
2.061000000000000000e+03
1.640000000000000000e+02
9.670000000000000000e+02
-9.280000000000000000e+02
-8.850000000000000000e+02
1.005000000000000000e+03
-5.900000000000000000e+01
1.610000000000000000e+02
-3.650000000000000000e+02
1.493000000000000000e+03
-6.920000000000000000e+02
6.490000000000000000e+02
4.500000000000000000e+02
1.765000000000000000e+03
-3.100000000000000000e+01
-1.144000000000000000e+03
1.648000000000000000e+03
-1.330000000000000000e+03
7.420000000000000000e+02
-7.460000000000000000e+02
1.646000000000000000e+03
-2.020000000000000000e+03
4.370000000000000000e+02
5.210000000000000000e+02
3.832000000000000000e+03
2.620000000000000000e+02
6.950000000000000000e+02
5.680000000000000000e+02
-8.530000000000000000e+02
8.020000000000000000e+02
-2.749000000000000000e+03
-9.420000000000000000e+02
1.600000000000000000e+02
4.990000000000000000e+02
7.910000000000000000e+02
2.430000000000000000e+02
5.780000000000000000e+02
-9.840000000000000000e+02
-2.420000000000000000e+02
2.371000000000000000e+03
1.326000000000000000e+03
2.000000000000000000e+01
1.581000000000000000e+03
-6.210000000000000000e+02
-5.800000000000000000e+01
1.546000000000000000e+03
1.782000000000000000e+03
9.100000000000000000e+02
7.920000000000000000e+02
-1.034000000000000000e+03
2.270000000000000000e+02
1.394000000000000000e+03
-1.055000000000000000e+03
1.380000000000000000e+02
4.400000000000000000e+02
-7.030000000000000000e+02
-2.320000000000000000e+02
6.820000000000000000e+02
1.553000000000000000e+03
-9.320000000000000000e+02
-5.350000000000000000e+02
-8.800000000000000000e+02
-3.720000000000000000e+02
-4.890000000000000000e+02
1.600000000000000000e+01
2.019000000000000000e+03
5.300000000000000000e+02
-6.050000000000000000e+02
2.050000000000000000e+02
1.261000000000000000e+03
6.800000000000000000e+02
2.250000000000000000e+02
5.040000000000000000e+02
-1.470000000000000000e+02
6.770000000000000000e+02
-4.010000000000000000e+02
-2.120000000000000000e+02
-1.488000000000000000e+03
1.480000000000000000e+02
3.860000000000000000e+02
9.170000000000000000e+02
-7.560000000000000000e+02
2.909000000000000000e+03
1.291000000000000000e+03
-8.870000000000000000e+02
1.740000000000000000e+03
5.420000000000000000e+02
5.600000000000000000e+02
1.676000000000000000e+03
-1.017000000000000000e+03
1.640000000000000000e+02
-7.740000000000000000e+02
1.846000000000000000e+03
-4.130000000000000000e+02
7.920000000000000000e+02
-2.330000000000000000e+02
-6.720000000000000000e+02
-6.800000000000000000e+01
-2.218000000000000000e+03
-3.825000000000000000e+03
8.790000000000000000e+02
-2.972000000000000000e+03
-2.340000000000000000e+02
-7.850000000000000000e+02
1.960000000000000000e+02
3.860000000000000000e+02
-2.684000000000000000e+03
2.107000000000000000e+03
-1.240000000000000000e+03
1.750000000000000000e+02
-2.650000000000000000e+02
2.440000000000000000e+02
5.310000000000000000e+02
1.344000000000000000e+03
-2.220000000000000000e+02
-2.340000000000000000e+02
-3.000000000000000000e+01
-3.280000000000000000e+02
6.370000000000000000e+02
2.699000000000000000e+03
4.970000000000000000e+02
4.470000000000000000e+02
2.940000000000000000e+02
-4.590000000000000000e+02
4.540000000000000000e+02
-8.120000000000000000e+02
2.594000000000000000e+03
3.024000000000000000e+03
-1.870000000000000000e+02
-4.640000000000000000e+02
-6.960000000000000000e+02
4.470000000000000000e+02
1.493000000000000000e+03
-2.100000000000000000e+02
1.550000000000000000e+03
2.980000000000000000e+02
-1.230000000000000000e+02
7.360000000000000000e+02
8.590000000000000000e+02
5.400000000000000000e+01
2.100000000000000000e+01
1.530000000000000000e+02
-1.151000000000000000e+03
1.760000000000000000e+02
-7.610000000000000000e+02
2.094000000000000000e+03
-1.044000000000000000e+03
-1.030000000000000000e+02
2.265000000000000000e+03
4.640000000000000000e+02
-1.693000000000000000e+03
-2.552000000000000000e+03
-6.070000000000000000e+02
-2.367000000000000000e+03
-1.260000000000000000e+02
-2.723000000000000000e+03
1.108000000000000000e+03
-3.710000000000000000e+02
-7.530000000000000000e+02
-4.070000000000000000e+02
-5.480000000000000000e+02
-6.460000000000000000e+02
1.487000000000000000e+03
-2.880000000000000000e+02
2.268000000000000000e+03
-4.700000000000000000e+01
-2.910000000000000000e+02
-1.115000000000000000e+03
-9.400000000000000000e+02
8.830000000000000000e+02
-6.580000000000000000e+02
-4.390000000000000000e+02
-1.173000000000000000e+03
-7.960000000000000000e+02
1.509000000000000000e+03
1.901000000000000000e+03
3.236000000000000000e+03
6.570000000000000000e+02
7.570000000000000000e+02
3.170000000000000000e+02
5.770000000000000000e+02
2.180000000000000000e+02
3.630000000000000000e+02
1.886000000000000000e+03
-3.550000000000000000e+02
-1.137000000000000000e+03
-1.510000000000000000e+02
6.660000000000000000e+02
1.341000000000000000e+03
1.063000000000000000e+03
-2.561000000000000000e+03
-4.530000000000000000e+02
9.630000000000000000e+02
1.322000000000000000e+03
-4.690000000000000000e+02
-5.100000000000000000e+02
4.470000000000000000e+02
2.095000000000000000e+03
2.170000000000000000e+02
-1.300000000000000000e+03
-1.958000000000000000e+03
3.730000000000000000e+02
4.300000000000000000e+02
-1.472000000000000000e+03
-6.030000000000000000e+02
-3.890000000000000000e+02
-6.230000000000000000e+02
-1.499000000000000000e+03
-3.370000000000000000e+02
-9.760000000000000000e+02
-1.960000000000000000e+02
-2.710000000000000000e+02
1.137000000000000000e+03
2.790000000000000000e+02
-9.280000000000000000e+02
-1.064000000000000000e+03
-5.610000000000000000e+02
6.610000000000000000e+02
-2.111000000000000000e+03
-1.200000000000000000e+02
2.790000000000000000e+02
-2.753000000000000000e+03
7.990000000000000000e+02
5.190000000000000000e+02
3.080000000000000000e+02
-1.152000000000000000e+03
-5.510000000000000000e+02
-3.700000000000000000e+02
-5.900000000000000000e+02
2.470000000000000000e+02
4.540000000000000000e+02
3.340000000000000000e+02
3.770000000000000000e+02
-1.081000000000000000e+03
-2.876000000000000000e+03
-2.530000000000000000e+02
-8.300000000000000000e+01
1.334000000000000000e+03
1.540000000000000000e+03
4.120000000000000000e+02
-1.637000000000000000e+03
-5.520000000000000000e+02
1.023000000000000000e+03
2.358000000000000000e+03
1.982000000000000000e+03
3.490000000000000000e+02
-1.790000000000000000e+02
2.064000000000000000e+03
-6.960000000000000000e+02
-4.280000000000000000e+02
-1.563000000000000000e+03
-4.750000000000000000e+02
-1.178000000000000000e+03
4.060000000000000000e+02
8.250000000000000000e+02
-1.107000000000000000e+03
-9.380000000000000000e+02
2.857000000000000000e+03
1.292000000000000000e+03
1.042000000000000000e+03
-2.100000000000000000e+01
7.600000000000000000e+02
-1.866000000000000000e+03
5.650000000000000000e+02
-4.920000000000000000e+02
-1.210000000000000000e+02
-1.330000000000000000e+02
6.480000000000000000e+02
8.690000000000000000e+02
-1.102000000000000000e+03
1.485000000000000000e+03
4.310000000000000000e+02
-2.360000000000000000e+02
1.070000000000000000e+02
6.750000000000000000e+02
1.930000000000000000e+02
-1.016000000000000000e+03
1.435000000000000000e+03
-2.700000000000000000e+01
1.347000000000000000e+03
6.620000000000000000e+02
8.360000000000000000e+02
1.620000000000000000e+02
1.550000000000000000e+02
3.300000000000000000e+01
3.600000000000000000e+01
-1.076000000000000000e+03
2.122000000000000000e+03
-1.115000000000000000e+03
4.600000000000000000e+02
