9.470000000000000000e+02
-5.380000000000000000e+02
5.580000000000000000e+02
1.757000000000000000e+03
2.840000000000000000e+02
-2.730000000000000000e+02
1.603000000000000000e+03
4.478000000000000000e+03
9.260000000000000000e+02
-2.180000000000000000e+02
2.300000000000000000e+02
2.612000000000000000e+03
2.690000000000000000e+02
-2.600000000000000000e+02
6.680000000000000000e+02
9.810000000000000000e+02
6.910000000000000000e+02
-5.000000000000000000e+00
1.660000000000000000e+02
1.416000000000000000e+03
-7.310000000000000000e+02
2.891000000000000000e+03
1.366000000000000000e+03
1.930000000000000000e+03
4.370000000000000000e+02
4.970000000000000000e+02
-6.250000000000000000e+02
-6.600000000000000000e+02
9.470000000000000000e+02
-6.580000000000000000e+02
-1.010000000000000000e+03
5.280000000000000000e+02
3.330000000000000000e+02
-1.294000000000000000e+03
8.920000000000000000e+02
7.670000000000000000e+02
7.970000000000000000e+02
1.544000000000000000e+03
-1.330000000000000000e+02
1.160000000000000000e+02
-1.024000000000000000e+03
-7.880000000000000000e+02
2.467000000000000000e+03
2.231000000000000000e+03
1.050000000000000000e+02
2.430000000000000000e+02
-2.574000000000000000e+03
4.240000000000000000e+02
-8.760000000000000000e+02
5.100000000000000000e+02
-2.859000000000000000e+03
2.400000000000000000e+01
1.356000000000000000e+03
-9.900000000000000000e+01
-1.400000000000000000e+01
-6.800000000000000000e+02
-1.490000000000000000e+02
-3.040000000000000000e+02
-5.050000000000000000e+02
4.840000000000000000e+02
1.514000000000000000e+03
1.654000000000000000e+03
5.230000000000000000e+02
4.460000000000000000e+02
1.740000000000000000e+02
-2.022000000000000000e+03
-7.460000000000000000e+02
-3.460000000000000000e+02
-2.189000000000000000e+03
-9.450000000000000000e+02
-9.800000000000000000e+01
7.200000000000000000e+02
6.320000000000000000e+02
3.244000000000000000e+03
1.388000000000000000e+03
-2.390000000000000000e+02
6.230000000000000000e+02
3.830000000000000000e+02
7.120000000000000000e+02
1.984000000000000000e+03
5.680000000000000000e+02
6.700000000000000000e+01
1.290000000000000000e+03
1.087000000000000000e+03
-7.130000000000000000e+02
-3.120000000000000000e+02
2.800000000000000000e+01
1.010000000000000000e+02
-5.420000000000000000e+02
5.080000000000000000e+02
-1.914000000000000000e+03
1.679000000000000000e+03
-1.903000000000000000e+03
-4.440000000000000000e+02
-1.294000000000000000e+03
-5.400000000000000000e+02
-1.143000000000000000e+03
7.820000000000000000e+02
-7.350000000000000000e+02
-1.550000000000000000e+03
-9.000000000000000000e+01
-3.190000000000000000e+02
1.182000000000000000e+03
5.100000000000000000e+01
3.830000000000000000e+02
-8.410000000000000000e+02
-1.836000000000000000e+03
1.385000000000000000e+03
1.023000000000000000e+03
1.233000000000000000e+03
-9.500000000000000000e+01
-1.183000000000000000e+03
7.100000000000000000e+01
1.650000000000000000e+03
-5.610000000000000000e+02
1.297000000000000000e+03
1.600000000000000000e+01
-2.250000000000000000e+02
1.838000000000000000e+03
1.990000000000000000e+02
-2.343000000000000000e+03
-9.440000000000000000e+02
-2.420000000000000000e+02
2.571000000000000000e+03
-9.130000000000000000e+02
2.790000000000000000e+02
-8.720000000000000000e+02
-4.000000000000000000e+02
1.563000000000000000e+03
1.024000000000000000e+03
1.079000000000000000e+03
4.410000000000000000e+02
1.262000000000000000e+03
-1.132000000000000000e+03
-9.000000000000000000e+00
-1.033000000000000000e+03
3.576000000000000000e+03
1.147000000000000000e+03
-1.382000000000000000e+03
-2.560000000000000000e+02
3.540000000000000000e+02
-1.207000000000000000e+03
-3.840000000000000000e+02
6.350000000000000000e+02
8.500000000000000000e+02
9.600000000000000000e+02
8.490000000000000000e+02
6.510000000000000000e+02
6.470000000000000000e+02
-7.110000000000000000e+02
1.428000000000000000e+03
4.310000000000000000e+02
6.057000000000000000e+03
5.900000000000000000e+02
4.460000000000000000e+02
1.575000000000000000e+03
-6.260000000000000000e+02
-1.182000000000000000e+03
-1.770000000000000000e+02
1.788000000000000000e+03
-2.060000000000000000e+03
-9.910000000000000000e+02
1.810000000000000000e+02
-8.970000000000000000e+02
1.513000000000000000e+03
-1.004000000000000000e+03
-1.340000000000000000e+02
-6.000000000000000000e+00
4.910000000000000000e+02
-9.000000000000000000e+00
-1.100000000000000000e+02
8.680000000000000000e+02
-1.199000000000000000e+03
1.814000000000000000e+03
6.710000000000000000e+02
9.500000000000000000e+01
2.454000000000000000e+03
1.071000000000000000e+03
-2.150000000000000000e+02
-8.300000000000000000e+01
2.439000000000000000e+03
-3.090000000000000000e+02
1.587000000000000000e+03
8.000000000000000000e+01
7.060000000000000000e+02
4.850000000000000000e+02
-5.240000000000000000e+02
1.240000000000000000e+03
-5.900000000000000000e+01
3.910000000000000000e+02
-7.500000000000000000e+01
4.000000000000000000e+01
1.220000000000000000e+03
3.630000000000000000e+02
-3.480000000000000000e+02
3.100000000000000000e+01
-3.570000000000000000e+02
1.770000000000000000e+03
8.880000000000000000e+02
2.830000000000000000e+02
1.061000000000000000e+03
3.800000000000000000e+01
6.770000000000000000e+02
-1.397000000000000000e+03
1.161000000000000000e+03
-6.640000000000000000e+02
1.517000000000000000e+03
-1.002000000000000000e+03
-6.570000000000000000e+02
-4.470000000000000000e+02
-5.400000000000000000e+01
1.227000000000000000e+03
1.790000000000000000e+02
9.310000000000000000e+02
5.840000000000000000e+02
1.670000000000000000e+02
6.270000000000000000e+02
1.880000000000000000e+02
-1.645000000000000000e+03
4.680000000000000000e+02
-1.258000000000000000e+03
-2.650000000000000000e+02
-1.780000000000000000e+02
1.315000000000000000e+03
-3.060000000000000000e+02
8.180000000000000000e+02
9.100000000000000000e+01
-5.260000000000000000e+02
6.870000000000000000e+02
-5.800000000000000000e+01
1.545000000000000000e+03
-2.175000000000000000e+03
6.400000000000000000e+02
-4.300000000000000000e+01
1.074000000000000000e+03
-9.260000000000000000e+02
1.338000000000000000e+03
4.200000000000000000e+01
1.016000000000000000e+03
3.300000000000000000e+02
-1.022000000000000000e+03
4.770000000000000000e+02
2.498000000000000000e+03
9.880000000000000000e+02
4.270000000000000000e+02
-9.800000000000000000e+01
7.930000000000000000e+02
-1.926000000000000000e+03
-6.750000000000000000e+02
-6.620000000000000000e+02
-2.610000000000000000e+02
-4.660000000000000000e+02
-2.157000000000000000e+03
1.165000000000000000e+03
6.000000000000000000e+01
1.565000000000000000e+03
0.000000000000000000e+00
1.070000000000000000e+03
9.120000000000000000e+02
-3.846000000000000000e+03
1.061000000000000000e+03
9.800000000000000000e+01
-5.930000000000000000e+02
1.058000000000000000e+03
-9.770000000000000000e+02
2.083000000000000000e+03
4.240000000000000000e+02
-3.530000000000000000e+02
-3.680000000000000000e+02
-1.221000000000000000e+03
4.710000000000000000e+02
-7.800000000000000000e+01
-8.200000000000000000e+01
6.100000000000000000e+02
7.290000000000000000e+02
1.380000000000000000e+03
-2.540000000000000000e+02
-4.770000000000000000e+02
-3.220000000000000000e+02
6.110000000000000000e+02
7.800000000000000000e+01
3.740000000000000000e+02
-5.350000000000000000e+02
1.229000000000000000e+03
1.101000000000000000e+03
-1.191000000000000000e+03
1.740000000000000000e+02
-2.050000000000000000e+02
5.500000000000000000e+02
9.870000000000000000e+02
-1.550000000000000000e+02
-1.373000000000000000e+03
1.500000000000000000e+01
1.900000000000000000e+01
5.060000000000000000e+02
8.170000000000000000e+02
-1.126000000000000000e+03
1.944000000000000000e+03
1.210000000000000000e+02
8.820000000000000000e+02
3.800000000000000000e+01
-3.310000000000000000e+02
5.750000000000000000e+02
-7.230000000000000000e+02
2.014000000000000000e+03
1.955000000000000000e+03
1.030000000000000000e+03
1.380000000000000000e+02
-6.600000000000000000e+01
-1.590000000000000000e+02
-1.071000000000000000e+03
-2.000000000000000000e+00
-5.300000000000000000e+01
1.244000000000000000e+03
-2.930000000000000000e+02
1.282000000000000000e+03
-9.600000000000000000e+01
4.470000000000000000e+02
-7.400000000000000000e+01
-9.320000000000000000e+02
1.679000000000000000e+03
1.814000000000000000e+03
-2.390000000000000000e+02
1.520000000000000000e+02
-7.660000000000000000e+02
1.015000000000000000e+03
5.240000000000000000e+02
-6.630000000000000000e+02
-4.260000000000000000e+02
9.170000000000000000e+02
1.883000000000000000e+03
2.710000000000000000e+02
-1.134000000000000000e+03
-1.540000000000000000e+02
2.580000000000000000e+02
6.790000000000000000e+02
-8.840000000000000000e+02
7.240000000000000000e+02
1.062000000000000000e+03
1.605000000000000000e+03
1.630000000000000000e+02
-8.080000000000000000e+02
1.720000000000000000e+02
-4.500000000000000000e+02
2.277000000000000000e+03
5.250000000000000000e+02
1.709000000000000000e+03
-3.661000000000000000e+03
-3.490000000000000000e+02
-1.865000000000000000e+03
-1.960000000000000000e+02
-1.740000000000000000e+03
1.011000000000000000e+03
1.480000000000000000e+02
6.120000000000000000e+02
6.830000000000000000e+02
-1.000000000000000000e+01
-1.170000000000000000e+02
4.240000000000000000e+02
-5.890000000000000000e+02
-2.040000000000000000e+02
1.675000000000000000e+03
6.120000000000000000e+02
-5.000000000000000000e+00
-3.460000000000000000e+02
-7.060000000000000000e+02
1.350000000000000000e+02
-4.700000000000000000e+02
5.300000000000000000e+02
2.196000000000000000e+03
1.097000000000000000e+03
-6.870000000000000000e+02
3.900000000000000000e+01
-7.840000000000000000e+02
1.009000000000000000e+03
-7.490000000000000000e+02
2.544000000000000000e+03
-9.900000000000000000e+02
8.510000000000000000e+02
1.289000000000000000e+03
1.880000000000000000e+02
1.815000000000000000e+03
1.609000000000000000e+03
-1.010000000000000000e+02
2.330000000000000000e+02
2.617000000000000000e+03
-6.640000000000000000e+02
5.330000000000000000e+02
-1.900000000000000000e+02
5.350000000000000000e+02
9.630000000000000000e+02
2.213000000000000000e+03
1.776000000000000000e+03
1.081000000000000000e+03
2.705000000000000000e+03
1.700000000000000000e+02
3.201000000000000000e+03
-2.070000000000000000e+02
-3.070000000000000000e+02
1.211000000000000000e+03
1.670000000000000000e+02
1.448000000000000000e+03
1.706000000000000000e+03
2.838000000000000000e+03
2.670000000000000000e+03
2.392000000000000000e+03
2.500000000000000000e+02
1.162000000000000000e+03
2.910000000000000000e+02
-2.107000000000000000e+03
-7.200000000000000000e+02
-1.444000000000000000e+03
3.640000000000000000e+02
6.700000000000000000e+01
4.690000000000000000e+02
-1.856000000000000000e+03
-1.460000000000000000e+02
-5.520000000000000000e+02
-2.785000000000000000e+03
6.060000000000000000e+02
0.000000000000000000e+00
9.420000000000000000e+02
-4.000000000000000000e+02
5.310000000000000000e+02
1.960000000000000000e+02
-1.070000000000000000e+02
9.150000000000000000e+02
1.416000000000000000e+03
-2.700000000000000000e+02
-1.290000000000000000e+02
1.073000000000000000e+03
1.387000000000000000e+03
-3.640000000000000000e+02
9.770000000000000000e+02
-3.930000000000000000e+02
9.590000000000000000e+02
-1.140000000000000000e+02
-4.380000000000000000e+02
2.566000000000000000e+03
7.620000000000000000e+02
2.048000000000000000e+03
1.434000000000000000e+03
-1.800000000000000000e+03
3.800000000000000000e+02
-6.130000000000000000e+02
-1.380000000000000000e+02
1.193000000000000000e+03
-4.700000000000000000e+02
5.570000000000000000e+02
-8.000000000000000000e+00
5.930000000000000000e+02
9.940000000000000000e+02
6.900000000000000000e+02
5.900000000000000000e+01
-4.330000000000000000e+02
2.893000000000000000e+03
1.257000000000000000e+03
2.920000000000000000e+02
2.444000000000000000e+03
-9.000000000000000000e+01
8.010000000000000000e+02
-5.510000000000000000e+02
6.990000000000000000e+02
-1.240000000000000000e+02
-3.370000000000000000e+02
-2.540000000000000000e+02
1.947000000000000000e+03
-1.498000000000000000e+03
2.789000000000000000e+03
5.180000000000000000e+02
-5.110000000000000000e+02
1.910000000000000000e+02
-9.540000000000000000e+02
-1.880000000000000000e+02
8.270000000000000000e+02
5.010000000000000000e+02
7.990000000000000000e+02
8.930000000000000000e+02
2.780000000000000000e+02
1.801000000000000000e+03
1.830000000000000000e+02
3.460000000000000000e+02
1.001000000000000000e+03
4.030000000000000000e+02
2.120000000000000000e+03
3.400000000000000000e+02
-1.047000000000000000e+03
7.510000000000000000e+02
-3.750000000000000000e+02
1.321000000000000000e+03
-7.000000000000000000e+02
8.780000000000000000e+02
-5.720000000000000000e+02
-2.690000000000000000e+02
-1.475000000000000000e+03
5.150000000000000000e+02
1.025000000000000000e+03
5.180000000000000000e+02
-3.630000000000000000e+02
3.540000000000000000e+02
1.542000000000000000e+03
-1.162000000000000000e+03
2.320000000000000000e+03
2.500000000000000000e+01
-2.580000000000000000e+02
9.840000000000000000e+02
-3.100000000000000000e+01
1.545000000000000000e+03
1.320000000000000000e+02
-4.770000000000000000e+02
-1.300000000000000000e+01
8.490000000000000000e+02
