1.536000000000000000e+03
-8.470000000000000000e+02
7.990000000000000000e+02
7.310000000000000000e+02
8.410000000000000000e+02
3.450000000000000000e+02
3.690000000000000000e+02
5.380000000000000000e+02
5.620000000000000000e+02
9.140000000000000000e+02
2.110000000000000000e+02
1.569000000000000000e+03
-9.850000000000000000e+02
1.021000000000000000e+03
-1.242000000000000000e+03
7.300000000000000000e+02
-1.073000000000000000e+03
-3.460000000000000000e+02
-6.000000000000000000e+02
-1.161000000000000000e+03
2.650000000000000000e+03
6.750000000000000000e+02
1.064000000000000000e+03
5.020000000000000000e+02
1.015000000000000000e+03
1.945000000000000000e+03
3.670000000000000000e+02
3.610000000000000000e+02
6.860000000000000000e+02
1.751000000000000000e+03
1.073000000000000000e+03
6.580000000000000000e+02
-1.104000000000000000e+03
9.980000000000000000e+02
2.966000000000000000e+03
-8.870000000000000000e+02
1.677000000000000000e+03
9.210000000000000000e+02
-9.040000000000000000e+02
9.110000000000000000e+02
1.720000000000000000e+02
1.235000000000000000e+03
7.780000000000000000e+02
3.099000000000000000e+03
1.948000000000000000e+03
2.096000000000000000e+03
4.650000000000000000e+02
1.595000000000000000e+03
-9.710000000000000000e+02
4.820000000000000000e+02
7.800000000000000000e+01
2.196000000000000000e+03
-2.223000000000000000e+03
3.315000000000000000e+03
7.250000000000000000e+02
2.083000000000000000e+03
1.546000000000000000e+03
1.191000000000000000e+03
-8.410000000000000000e+02
6.670000000000000000e+02
3.500000000000000000e+01
-1.440000000000000000e+02
-7.780000000000000000e+02
-5.160000000000000000e+02
2.001000000000000000e+03
9.290000000000000000e+02
1.949000000000000000e+03
-8.080000000000000000e+02
1.631000000000000000e+03
-3.160000000000000000e+02
8.450000000000000000e+02
2.160000000000000000e+03
7.620000000000000000e+02
-1.049000000000000000e+03
1.054000000000000000e+03
-3.550000000000000000e+02
5.730000000000000000e+02
-1.130000000000000000e+02
-6.700000000000000000e+02
-2.390000000000000000e+02
1.484000000000000000e+03
-2.330000000000000000e+02
9.040000000000000000e+02
-1.830000000000000000e+02
-4.320000000000000000e+02
2.061000000000000000e+03
2.714000000000000000e+03
4.130000000000000000e+02
-5.880000000000000000e+02
9.830000000000000000e+02
1.170000000000000000e+03
1.017000000000000000e+03
-3.620000000000000000e+02
1.570000000000000000e+02
2.560000000000000000e+03
-1.076000000000000000e+03
4.390000000000000000e+02
8.820000000000000000e+02
-2.640000000000000000e+02
-1.384000000000000000e+03
7.680000000000000000e+02
-3.840000000000000000e+02
1.873000000000000000e+03
1.397000000000000000e+03
2.633000000000000000e+03
-8.250000000000000000e+02
-1.730000000000000000e+02
-1.155000000000000000e+03
1.336000000000000000e+03
-1.300000000000000000e+01
4.330000000000000000e+02
1.186000000000000000e+03
4.260000000000000000e+02
-7.310000000000000000e+02
-3.740000000000000000e+02
-5.130000000000000000e+02
5.620000000000000000e+02
-1.004000000000000000e+03
-2.750000000000000000e+02
-4.770000000000000000e+02
8.390000000000000000e+02
-5.630000000000000000e+02
1.804000000000000000e+03
2.240000000000000000e+02
6.000000000000000000e+01
2.186000000000000000e+03
5.120000000000000000e+02
9.130000000000000000e+02
