-1.392000000000000000e+03
6.232000000000000000e+03
7.570000000000000000e+03
5.710000000000000000e+02
-4.620000000000000000e+02
2.093000000000000000e+03
-2.090000000000000000e+02
-1.232000000000000000e+03
-1.011000000000000000e+03
9.400000000000000000e+02
-4.500000000000000000e+02
3.940000000000000000e+02
-1.457000000000000000e+03
-9.160000000000000000e+02
5.085000000000000000e+03
-9.920000000000000000e+02
-6.270000000000000000e+02
-1.300000000000000000e+01
-2.510000000000000000e+02
8.300000000000000000e+02
1.603000000000000000e+03
-1.474000000000000000e+03
1.368000000000000000e+03
-7.260000000000000000e+02
7.360000000000000000e+02
2.244000000000000000e+03
3.760000000000000000e+02
2.241000000000000000e+03
4.500000000000000000e+01
-1.500000000000000000e+03
-2.390000000000000000e+02
1.332000000000000000e+03
-4.800000000000000000e+02
-3.620000000000000000e+02
-4.670000000000000000e+02
-2.099000000000000000e+03
-8.270000000000000000e+02
-1.882000000000000000e+03
-6.190000000000000000e+02
1.760000000000000000e+03
-5.130000000000000000e+02
-4.560000000000000000e+02
-4.380000000000000000e+02
-7.450000000000000000e+02
-1.100000000000000000e+02
5.907000000000000000e+03
4.949000000000000000e+03
5.300000000000000000e+01
3.200000000000000000e+01
4.472000000000000000e+03
-1.373000000000000000e+03
-2.533000000000000000e+03
-1.528000000000000000e+03
6.940000000000000000e+02
-1.475000000000000000e+03
-1.409000000000000000e+03
-1.531000000000000000e+03
-8.350000000000000000e+02
8.890000000000000000e+02
-1.238000000000000000e+03
5.009000000000000000e+03
-5.190000000000000000e+02
-1.597000000000000000e+03
-1.780000000000000000e+02
