-7.300000000000000000e+01
-1.760000000000000000e+02
-5.320000000000000000e+02
-1.870000000000000000e+02
-7.500000000000000000e+01
3.550000000000000000e+02
-4.530000000000000000e+02
1.031000000000000000e+03
4.140000000000000000e+02
-9.500000000000000000e+01
-2.930000000000000000e+02
2.000000000000000000e+01
2.040000000000000000e+02
1.320000000000000000e+02
4.700000000000000000e+01
1.700000000000000000e+01
-4.620000000000000000e+02
-3.400000000000000000e+02
-3.900000000000000000e+01
-2.700000000000000000e+02
-1.310000000000000000e+02
-4.420000000000000000e+02
5.300000000000000000e+02
7.060000000000000000e+02
-7.370000000000000000e+02
-4.990000000000000000e+02
-8.340000000000000000e+02
-4.170000000000000000e+02
-6.910000000000000000e+02
-7.460000000000000000e+02
3.400000000000000000e+01
4.490000000000000000e+02
5.400000000000000000e+01
-6.370000000000000000e+02
8.700000000000000000e+01
-4.380000000000000000e+02
1.840000000000000000e+02
-3.440000000000000000e+02
-3.800000000000000000e+01
-1.560000000000000000e+02
-7.880000000000000000e+02
-4.040000000000000000e+02
-7.130000000000000000e+02
-6.960000000000000000e+02
-5.690000000000000000e+02
-5.590000000000000000e+02
6.670000000000000000e+02
-2.850000000000000000e+02
-2.400000000000000000e+02
4.280000000000000000e+02
7.820000000000000000e+02
-3.980000000000000000e+02
-1.320000000000000000e+02
1.200000000000000000e+01
-4.810000000000000000e+02
-2.410000000000000000e+02
3.700000000000000000e+01
-5.710000000000000000e+02
3.300000000000000000e+01
-4.780000000000000000e+02
3.150000000000000000e+02
-1.950000000000000000e+02
-3.400000000000000000e+01
-9.400000000000000000e+01
-6.590000000000000000e+02
4.600000000000000000e+01
-8.450000000000000000e+02
-1.790000000000000000e+02
-1.320000000000000000e+02
1.712000000000000000e+03
-2.100000000000000000e+02
-7.200000000000000000e+01
-9.920000000000000000e+02
1.800000000000000000e+01
-2.320000000000000000e+02
2.433000000000000000e+03
-2.000000000000000000e+01
-5.950000000000000000e+02
1.700000000000000000e+01
-5.400000000000000000e+02
-2.700000000000000000e+02
-3.290000000000000000e+02
-5.920000000000000000e+02
5.500000000000000000e+01
-4.530000000000000000e+02
-6.220000000000000000e+02
-6.300000000000000000e+01
-8.800000000000000000e+01
4.000000000000000000e+00
-2.430000000000000000e+02
3.000000000000000000e+00
1.610000000000000000e+02
-4.260000000000000000e+02
-4.920000000000000000e+02
-7.930000000000000000e+02
-5.580000000000000000e+02
-1.000000000000000000e+02
-1.590000000000000000e+02
-9.300000000000000000e+01
8.000000000000000000e+02
-6.240000000000000000e+02
-4.530000000000000000e+02
-2.000000000000000000e+00
-4.600000000000000000e+02
-5.490000000000000000e+02
8.740000000000000000e+02
4.200000000000000000e+02
7.000000000000000000e+00
2.600000000000000000e+01
-9.000000000000000000e+00
-2.020000000000000000e+02
-6.460000000000000000e+02
-1.750000000000000000e+02
-5.890000000000000000e+02
-6.730000000000000000e+02
-5.910000000000000000e+02
-3.430000000000000000e+02
9.600000000000000000e+01
7.000000000000000000e+00
6.860000000000000000e+02
-1.140000000000000000e+02
1.200000000000000000e+01
-9.960000000000000000e+02
-4.360000000000000000e+02
-3.640000000000000000e+02
1.940000000000000000e+02
-5.640000000000000000e+02
-6.730000000000000000e+02
9.300000000000000000e+01
5.900000000000000000e+01
4.820000000000000000e+02
9.000000000000000000e+00
-1.100000000000000000e+02
4.970000000000000000e+02
-5.030000000000000000e+02
-5.520000000000000000e+02
-8.200000000000000000e+01
-7.660000000000000000e+02
5.700000000000000000e+01
-5.590000000000000000e+02
-1.220000000000000000e+02
3.700000000000000000e+02
6.370000000000000000e+02
1.530000000000000000e+02
-9.870000000000000000e+02
1.900000000000000000e+01
-4.530000000000000000e+02
-1.850000000000000000e+02
-8.560000000000000000e+02
3.530000000000000000e+02
-1.470000000000000000e+02
-9.260000000000000000e+02
-3.370000000000000000e+02
-1.115000000000000000e+03
-6.840000000000000000e+02
8.000000000000000000e+00
-2.550000000000000000e+02
-1.600000000000000000e+01
-6.160000000000000000e+02
-9.910000000000000000e+02
-1.336000000000000000e+03
-7.330000000000000000e+02
-7.300000000000000000e+01
-3.210000000000000000e+02
1.010000000000000000e+02
5.170000000000000000e+02
-3.500000000000000000e+01
-7.900000000000000000e+01
-2.590000000000000000e+02
-1.027000000000000000e+03
-8.870000000000000000e+02
-3.410000000000000000e+02
-1.970000000000000000e+02
-4.820000000000000000e+02
6.700000000000000000e+01
-7.520000000000000000e+02
-5.150000000000000000e+02
-3.080000000000000000e+02
-1.250000000000000000e+02
-6.430000000000000000e+02
-8.000000000000000000e+00
-2.360000000000000000e+02
2.500000000000000000e+01
-1.098000000000000000e+03
-3.220000000000000000e+02
0.000000000000000000e+00
-2.560000000000000000e+02
7.400000000000000000e+02
8.450000000000000000e+02
5.260000000000000000e+02
-1.200000000000000000e+01
7.900000000000000000e+01
-1.530000000000000000e+02
-1.030000000000000000e+03
-7.710000000000000000e+02
2.700000000000000000e+01
-6.110000000000000000e+02
6.790000000000000000e+02
1.210000000000000000e+02
-7.520000000000000000e+02
-4.900000000000000000e+01
2.460000000000000000e+02
-5.900000000000000000e+01
-1.065000000000000000e+03
-1.900000000000000000e+02
-4.830000000000000000e+02
-7.180000000000000000e+02
-3.110000000000000000e+02
-2.420000000000000000e+02
-4.130000000000000000e+02
8.500000000000000000e+01
9.000000000000000000e+00
-5.240000000000000000e+02
-3.300000000000000000e+02
-2.530000000000000000e+02
1.580000000000000000e+02
-3.620000000000000000e+02
-3.400000000000000000e+01
-8.580000000000000000e+02
2.000000000000000000e+00
2.650000000000000000e+02
-4.730000000000000000e+02
-7.000000000000000000e+00
-1.053000000000000000e+03
-2.570000000000000000e+02
-4.280000000000000000e+02
-1.200000000000000000e+01
-5.610000000000000000e+02
1.170000000000000000e+02
3.500000000000000000e+01
-1.180000000000000000e+02
5.640000000000000000e+02
-2.720000000000000000e+02
-2.320000000000000000e+02
7.100000000000000000e+01
-1.030000000000000000e+02
-3.190000000000000000e+02
-1.310000000000000000e+02
-2.190000000000000000e+02
8.020000000000000000e+02
-9.670000000000000000e+02
-6.700000000000000000e+01
-4.760000000000000000e+02
2.600000000000000000e+02
4.970000000000000000e+02
9.500000000000000000e+01
-2.280000000000000000e+02
-5.270000000000000000e+02
-1.090000000000000000e+02
-5.100000000000000000e+02
-3.710000000000000000e+02
-3.540000000000000000e+02
1.736000000000000000e+03
-9.600000000000000000e+01
-2.660000000000000000e+02
-1.200000000000000000e+02
-1.260000000000000000e+02
-7.240000000000000000e+02
-2.190000000000000000e+02
-5.760000000000000000e+02
2.400000000000000000e+01
-2.030000000000000000e+02
1.430000000000000000e+02
-5.500000000000000000e+01
-2.560000000000000000e+02
-1.138000000000000000e+03
-7.180000000000000000e+02
8.950000000000000000e+02
-6.800000000000000000e+01
-2.150000000000000000e+02
-3.560000000000000000e+02
-1.089000000000000000e+03
-1.250000000000000000e+02
8.230000000000000000e+02
-7.130000000000000000e+02
-3.840000000000000000e+02
4.810000000000000000e+02
-2.180000000000000000e+02
-1.160000000000000000e+02
4.000000000000000000e+00
-8.900000000000000000e+02
6.000000000000000000e+02
-7.510000000000000000e+02
-2.920000000000000000e+02
-6.680000000000000000e+02
-4.100000000000000000e+02
-3.880000000000000000e+02
-8.700000000000000000e+01
1.270000000000000000e+02
2.000000000000000000e+01
-9.200000000000000000e+02
-5.440000000000000000e+02
7.660000000000000000e+02
-4.270000000000000000e+02
-3.040000000000000000e+02
3.530000000000000000e+02
-6.000000000000000000e+01
-1.090000000000000000e+02
-1.680000000000000000e+02
7.850000000000000000e+02
-4.700000000000000000e+01
-4.840000000000000000e+02
-2.990000000000000000e+02
-6.480000000000000000e+02
7.400000000000000000e+01
-7.300000000000000000e+01
-1.260000000000000000e+03
-1.000000000000000000e+01
-9.870000000000000000e+02
-2.850000000000000000e+02
-1.370000000000000000e+03
1.761000000000000000e+03
5.000000000000000000e+00
-8.290000000000000000e+02
-1.015000000000000000e+03
-6.310000000000000000e+02
1.840000000000000000e+02
-3.290000000000000000e+02
4.060000000000000000e+02
2.440000000000000000e+02
1.100000000000000000e+02
-6.600000000000000000e+01
-4.610000000000000000e+02
-4.430000000000000000e+02
-5.420000000000000000e+02
-7.170000000000000000e+02
-6.510000000000000000e+02
-7.540000000000000000e+02
-5.520000000000000000e+02
-7.740000000000000000e+02
1.720000000000000000e+02
-3.520000000000000000e+02
-3.910000000000000000e+02
-1.380000000000000000e+02
-1.020000000000000000e+02
-4.290000000000000000e+02
-4.080000000000000000e+02
3.420000000000000000e+02
-3.680000000000000000e+02
-3.830000000000000000e+02
-4.830000000000000000e+02
-1.690000000000000000e+02
6.640000000000000000e+02
-2.380000000000000000e+02
-1.120000000000000000e+02
-8.400000000000000000e+01
-8.500000000000000000e+01
1.000000000000000000e+01
-1.000000000000000000e+02
-4.470000000000000000e+02
-2.620000000000000000e+02
2.200000000000000000e+01
-2.350000000000000000e+02
-1.480000000000000000e+02
2.100000000000000000e+01
-2.170000000000000000e+02
-5.060000000000000000e+02
5.000000000000000000e+00
4.600000000000000000e+01
-6.960000000000000000e+02
6.100000000000000000e+01
1.051000000000000000e+03
-1.249000000000000000e+03
-3.840000000000000000e+02
-2.860000000000000000e+02
8.600000000000000000e+01
-2.200000000000000000e+01
-3.210000000000000000e+02
1.539000000000000000e+03
-1.550000000000000000e+02
-2.530000000000000000e+02
3.530000000000000000e+02
-5.200000000000000000e+01
-3.970000000000000000e+02
-5.990000000000000000e+02
4.680000000000000000e+02
-3.790000000000000000e+02
-4.940000000000000000e+02
-5.200000000000000000e+01
-6.700000000000000000e+02
-4.270000000000000000e+02
-2.950000000000000000e+02
-1.000000000000000000e+01
2.700000000000000000e+02
-3.410000000000000000e+02
-2.000000000000000000e+01
-1.400000000000000000e+02
-3.100000000000000000e+02
1.000000000000000000e+01
-4.200000000000000000e+02
-2.010000000000000000e+02
-5.650000000000000000e+02
-5.380000000000000000e+02
-5.570000000000000000e+02
-3.510000000000000000e+02
4.720000000000000000e+02
-3.050000000000000000e+02
7.800000000000000000e+01
-2.710000000000000000e+02
-8.770000000000000000e+02
-7.050000000000000000e+02
-4.190000000000000000e+02
-6.300000000000000000e+01
-2.840000000000000000e+02
-4.970000000000000000e+02
0.000000000000000000e+00
-3.790000000000000000e+02
7.000000000000000000e+00
1.165000000000000000e+03
-1.112000000000000000e+03
-4.710000000000000000e+02
-6.650000000000000000e+02
3.100000000000000000e+01
-5.220000000000000000e+02
-5.100000000000000000e+01
2.150000000000000000e+02
5.000000000000000000e+01
-3.630000000000000000e+02
-5.600000000000000000e+02
-5.520000000000000000e+02
-2.200000000000000000e+02
-4.200000000000000000e+02
0.000000000000000000e+00
-4.010000000000000000e+02
-2.630000000000000000e+02
-3.560000000000000000e+02
-8.550000000000000000e+02
-1.458000000000000000e+03
1.820000000000000000e+02
-3.960000000000000000e+02
3.600000000000000000e+01
6.300000000000000000e+01
-7.900000000000000000e+01
-3.550000000000000000e+02
-7.770000000000000000e+02
-2.790000000000000000e+02
-8.060000000000000000e+02
-7.730000000000000000e+02
1.620000000000000000e+02
2.400000000000000000e+02
-8.470000000000000000e+02
-1.940000000000000000e+02
3.300000000000000000e+02
8.610000000000000000e+02
-9.100000000000000000e+01
-2.590000000000000000e+02
-2.140000000000000000e+02
-2.180000000000000000e+02
2.580000000000000000e+02
-1.150000000000000000e+02
-3.880000000000000000e+02
-7.950000000000000000e+02
-1.070000000000000000e+03
-2.100000000000000000e+01
-3.690000000000000000e+02
-5.340000000000000000e+02
-1.090000000000000000e+02
1.256000000000000000e+03
7.900000000000000000e+01
-5.110000000000000000e+02
-5.220000000000000000e+02
-3.500000000000000000e+02
-3.060000000000000000e+02
8.950000000000000000e+02
-2.700000000000000000e+02
-8.780000000000000000e+02
2.180000000000000000e+02
6.420000000000000000e+02
-3.760000000000000000e+02
-3.610000000000000000e+02
-6.700000000000000000e+02
-1.110000000000000000e+02
9.210000000000000000e+02
5.270000000000000000e+02
1.800000000000000000e+01
-6.250000000000000000e+02
-2.120000000000000000e+02
-4.000000000000000000e+01
5.800000000000000000e+01
-2.240000000000000000e+02
4.100000000000000000e+01
-1.166000000000000000e+03
4.300000000000000000e+01
-2.100000000000000000e+01
-3.330000000000000000e+02
-8.300000000000000000e+02
-1.770000000000000000e+02
1.725000000000000000e+03
-7.690000000000000000e+02
2.510000000000000000e+02
-6.450000000000000000e+02
-4.400000000000000000e+02
-7.570000000000000000e+02
9.800000000000000000e+01
5.420000000000000000e+02
-4.040000000000000000e+02
7.600000000000000000e+01
-8.330000000000000000e+02
2.790000000000000000e+02
-1.500000000000000000e+01
6.000000000000000000e+00
3.800000000000000000e+02
-2.090000000000000000e+02
-5.660000000000000000e+02
-4.250000000000000000e+02
5.400000000000000000e+01
-4.840000000000000000e+02
-1.470000000000000000e+02
-2.980000000000000000e+02
-4.340000000000000000e+02
-8.650000000000000000e+02
1.300000000000000000e+02
