-3.132000000000000000e+03
-5.410000000000000000e+02
9.600000000000000000e+01
-6.530000000000000000e+02
-1.767000000000000000e+03
-4.280000000000000000e+02
2.126000000000000000e+03
-1.102000000000000000e+03
-2.911000000000000000e+03
-1.180000000000000000e+02
1.640000000000000000e+02
1.047000000000000000e+03
-6.900000000000000000e+01
-5.950000000000000000e+02
1.590000000000000000e+02
1.424000000000000000e+03
7.410000000000000000e+02
-4.600000000000000000e+01
-4.400000000000000000e+01
-9.790000000000000000e+02
1.118000000000000000e+03
-4.310000000000000000e+02
-1.050000000000000000e+02
9.800000000000000000e+01
6.000000000000000000e+00
2.490000000000000000e+02
1.600000000000000000e+01
3.400000000000000000e+02
4.490000000000000000e+02
-9.450000000000000000e+02
1.800000000000000000e+01
1.975000000000000000e+03
-1.268000000000000000e+03
2.000000000000000000e+02
-1.500000000000000000e+01
1.300000000000000000e+02
-1.980000000000000000e+02
-1.740000000000000000e+02
3.690000000000000000e+02
1.150000000000000000e+02
3.200000000000000000e+01
8.220000000000000000e+02
-1.542000000000000000e+03
-6.060000000000000000e+02
3.970000000000000000e+02
2.350000000000000000e+02
7.340000000000000000e+02
-9.210000000000000000e+02
9.300000000000000000e+01
-2.830000000000000000e+02
-4.200000000000000000e+02
-5.460000000000000000e+02
-3.556000000000000000e+03
2.353000000000000000e+03
-2.990000000000000000e+02
-1.650000000000000000e+02
4.700000000000000000e+01
1.062000000000000000e+03
2.765000000000000000e+03
3.350000000000000000e+02
-4.020000000000000000e+02
8.000000000000000000e+02
-1.059000000000000000e+03
9.250000000000000000e+02
5.500000000000000000e+01
2.670000000000000000e+02
1.400000000000000000e+01
-3.010000000000000000e+02
-1.154000000000000000e+03
3.870000000000000000e+02
-1.477000000000000000e+03
-4.426000000000000000e+03
8.710000000000000000e+02
-9.690000000000000000e+02
-4.600000000000000000e+01
-7.480000000000000000e+02
-1.612000000000000000e+03
5.300000000000000000e+01
9.900000000000000000e+01
9.000000000000000000e+00
6.700000000000000000e+01
-8.480000000000000000e+02
9.240000000000000000e+02
5.770000000000000000e+02
1.346000000000000000e+03
3.300000000000000000e+02
-4.410000000000000000e+02
5.970000000000000000e+02
7.360000000000000000e+02
3.129000000000000000e+03
1.560000000000000000e+02
2.680000000000000000e+02
6.900000000000000000e+01
-4.420000000000000000e+02
-6.000000000000000000e+01
8.830000000000000000e+02
3.920000000000000000e+03
-2.287000000000000000e+03
6.300000000000000000e+01
-1.035000000000000000e+03
1.298000000000000000e+03
1.319000000000000000e+03
6.460000000000000000e+02
-6.510000000000000000e+02
2.776000000000000000e+03
-1.668000000000000000e+03
1.843000000000000000e+03
8.400000000000000000e+01
-1.420000000000000000e+02
8.840000000000000000e+02
2.500000000000000000e+02
-1.070000000000000000e+02
-8.930000000000000000e+02
-2.190000000000000000e+02
-1.984000000000000000e+03
-4.392000000000000000e+03
3.510000000000000000e+02
-2.160000000000000000e+02
-3.210000000000000000e+02
-3.000000000000000000e+01
6.020000000000000000e+02
8.460000000000000000e+02
-6.960000000000000000e+02
2.400000000000000000e+02
6.800000000000000000e+01
-8.050000000000000000e+02
2.160000000000000000e+02
-2.390000000000000000e+02
6.360000000000000000e+02
7.600000000000000000e+01
1.552000000000000000e+03
1.080000000000000000e+02
-5.200000000000000000e+01
-3.000000000000000000e+00
2.333000000000000000e+03
7.900000000000000000e+01
-1.630000000000000000e+02
-1.770000000000000000e+02
-7.870000000000000000e+02
5.050000000000000000e+02
-2.554000000000000000e+03
3.135000000000000000e+03
-6.340000000000000000e+02
4.190000000000000000e+02
-1.026000000000000000e+03
2.620000000000000000e+02
1.469000000000000000e+03
-1.690000000000000000e+02
-5.900000000000000000e+01
-2.330000000000000000e+02
5.970000000000000000e+02
-9.560000000000000000e+02
-9.810000000000000000e+02
1.996000000000000000e+03
1.566000000000000000e+03
3.290000000000000000e+02
-2.194000000000000000e+03
4.372000000000000000e+03
1.310000000000000000e+02
-7.050000000000000000e+02
-7.150000000000000000e+02
1.950000000000000000e+02
3.230000000000000000e+02
-4.390000000000000000e+02
-6.400000000000000000e+01
-2.220000000000000000e+02
1.546000000000000000e+03
1.140000000000000000e+02
1.416000000000000000e+03
-5.400000000000000000e+01
-8.800000000000000000e+01
3.080000000000000000e+02
7.000000000000000000e+01
2.930000000000000000e+02
4.400000000000000000e+01
-8.100000000000000000e+02
-4.800000000000000000e+01
-3.150000000000000000e+02
-1.488000000000000000e+03
2.600000000000000000e+01
5.300000000000000000e+01
-1.117000000000000000e+03
1.800000000000000000e+01
-6.250000000000000000e+02
4.200000000000000000e+01
2.090000000000000000e+02
2.940000000000000000e+02
1.690000000000000000e+02
-3.018000000000000000e+03
5.560000000000000000e+02
-1.392000000000000000e+03
-5.330000000000000000e+02
-7.200000000000000000e+02
7.690000000000000000e+02
1.231000000000000000e+03
-4.970000000000000000e+02
3.029000000000000000e+03
-2.064000000000000000e+03
3.350000000000000000e+02
-1.664000000000000000e+03
9.390000000000000000e+02
1.190000000000000000e+02
8.880000000000000000e+02
1.142000000000000000e+03
-2.600000000000000000e+01
7.280000000000000000e+02
-3.210000000000000000e+02
5.710000000000000000e+02
-1.890000000000000000e+02
1.083000000000000000e+03
3.317000000000000000e+03
9.050000000000000000e+02
5.000000000000000000e+00
-5.410000000000000000e+02
1.790000000000000000e+02
-5.050000000000000000e+02
3.168000000000000000e+03
-4.560000000000000000e+02
-3.200000000000000000e+01
1.397000000000000000e+03
-3.230000000000000000e+02
-1.000000000000000000e+01
-3.300000000000000000e+01
-6.500000000000000000e+01
3.770000000000000000e+02
-1.444000000000000000e+03
2.080000000000000000e+02
2.644000000000000000e+03
2.404000000000000000e+03
1.877000000000000000e+03
-3.251000000000000000e+03
1.810000000000000000e+02
1.411000000000000000e+03
8.070000000000000000e+02
-1.241000000000000000e+03
2.520000000000000000e+02
-5.320000000000000000e+02
1.980000000000000000e+02
1.970000000000000000e+02
-1.270000000000000000e+03
1.421000000000000000e+03
-5.000000000000000000e+00
1.496000000000000000e+03
6.710000000000000000e+02
5.200000000000000000e+02
3.730000000000000000e+02
1.238000000000000000e+03
1.579000000000000000e+03
8.480000000000000000e+02
2.490000000000000000e+03
1.199000000000000000e+03
1.520000000000000000e+02
-6.630000000000000000e+02
-2.280000000000000000e+02
1.830000000000000000e+02
6.110000000000000000e+02
