-6.619000000000000000e+03
1.656000000000000000e+03
8.010000000000000000e+02
1.390300000000000000e+04
-7.334000000000000000e+03
2.622000000000000000e+03
-1.624000000000000000e+03
6.090000000000000000e+03
-7.890000000000000000e+02
1.949000000000000000e+03
-3.351000000000000000e+03
9.311000000000000000e+03
1.764000000000000000e+03
8.741000000000000000e+03
-6.008000000000000000e+03
6.602000000000000000e+03
8.450000000000000000e+02
-1.335000000000000000e+03
-2.360000000000000000e+02
-3.923000000000000000e+03
1.766700000000000000e+04
-6.640000000000000000e+03
6.160000000000000000e+03
-7.105000000000000000e+03
1.155500000000000000e+04
1.275100000000000000e+04
3.167000000000000000e+03
-7.760000000000000000e+02
1.995000000000000000e+03
4.733000000000000000e+03
2.967000000000000000e+03
6.765000000000000000e+03
6.665000000000000000e+03
-5.016000000000000000e+03
-8.233000000000000000e+03
-4.133000000000000000e+03
-8.940000000000000000e+02
4.700000000000000000e+01
-8.590000000000000000e+02
-5.944000000000000000e+03
-3.931000000000000000e+03
-9.150000000000000000e+02
1.600000000000000000e+02
-3.151000000000000000e+03
7.893000000000000000e+03
-2.545000000000000000e+03
1.126000000000000000e+03
-2.077000000000000000e+03
-8.070000000000000000e+02
1.658000000000000000e+03
7.044000000000000000e+03
4.959000000000000000e+03
3.758000000000000000e+03
1.130900000000000000e+04
1.465000000000000000e+04
-1.004000000000000000e+03
1.932000000000000000e+03
5.151000000000000000e+03
3.027000000000000000e+03
-4.560000000000000000e+02
-6.930000000000000000e+03
7.800000000000000000e+01
3.608000000000000000e+03
7.920000000000000000e+02
