-6.980000000000000000e+02
6.440000000000000000e+02
5.390000000000000000e+02
-1.201000000000000000e+03
-1.015000000000000000e+03
-6.830000000000000000e+02
1.070000000000000000e+02
5.920000000000000000e+02
4.930000000000000000e+02
-1.044000000000000000e+03
1.150000000000000000e+02
-1.600000000000000000e+02
-2.028000000000000000e+03
-2.477000000000000000e+03
-1.483000000000000000e+03
-1.973000000000000000e+03
1.770000000000000000e+03
2.700000000000000000e+01
-1.001000000000000000e+03
1.110000000000000000e+02
3.410000000000000000e+02
2.890000000000000000e+02
-3.650000000000000000e+02
-1.589000000000000000e+03
-7.990000000000000000e+02
-1.098000000000000000e+03
-7.640000000000000000e+02
-2.740000000000000000e+02
-1.340000000000000000e+02
3.650000000000000000e+02
9.140000000000000000e+02
-1.315000000000000000e+03
1.004000000000000000e+03
-6.800000000000000000e+01
1.458000000000000000e+03
-8.780000000000000000e+02
9.880000000000000000e+02
-3.151000000000000000e+03
7.750000000000000000e+02
6.830000000000000000e+02
1.380000000000000000e+02
2.179000000000000000e+03
-9.860000000000000000e+02
-6.130000000000000000e+02
-3.452000000000000000e+03
8.080000000000000000e+02
-2.237000000000000000e+03
-8.770000000000000000e+02
-4.900000000000000000e+01
-1.378000000000000000e+03
-6.030000000000000000e+02
-6.060000000000000000e+02
1.760000000000000000e+02
-1.202000000000000000e+03
-6.370000000000000000e+02
-5.080000000000000000e+02
-1.439000000000000000e+03
-1.532000000000000000e+03
-3.770000000000000000e+02
-2.180000000000000000e+02
-1.106000000000000000e+03
-1.017000000000000000e+03
-1.070000000000000000e+02
-1.027000000000000000e+03
-2.050000000000000000e+02
-1.238000000000000000e+03
-8.770000000000000000e+02
-1.692000000000000000e+03
1.472000000000000000e+03
1.310000000000000000e+02
-8.190000000000000000e+02
-2.130000000000000000e+02
9.660000000000000000e+02
-5.010000000000000000e+02
-1.096000000000000000e+03
1.195000000000000000e+03
-2.819000000000000000e+03
-5.940000000000000000e+02
-1.363000000000000000e+03
-1.660000000000000000e+02
-8.690000000000000000e+02
-1.759000000000000000e+03
-9.400000000000000000e+01
-6.990000000000000000e+02
-8.830000000000000000e+02
-3.690000000000000000e+02
-4.800000000000000000e+02
-2.309000000000000000e+03
-2.225000000000000000e+03
-3.081000000000000000e+03
-1.045000000000000000e+03
-8.920000000000000000e+02
-2.717000000000000000e+03
-1.149000000000000000e+03
-2.140000000000000000e+03
-1.223000000000000000e+03
-9.030000000000000000e+02
-1.062000000000000000e+03
2.062000000000000000e+03
-1.720000000000000000e+02
-1.688000000000000000e+03
8.080000000000000000e+02
1.056000000000000000e+03
-1.586000000000000000e+03
8.620000000000000000e+02
-1.159000000000000000e+03
-5.880000000000000000e+02
-3.840000000000000000e+02
-2.075000000000000000e+03
3.650000000000000000e+02
-6.900000000000000000e+02
-2.062000000000000000e+03
-1.187000000000000000e+03
-6.880000000000000000e+02
-1.640000000000000000e+02
4.750000000000000000e+02
-1.798000000000000000e+03
-1.868000000000000000e+03
-1.246000000000000000e+03
-9.290000000000000000e+02
-1.723000000000000000e+03
-8.390000000000000000e+02
1.577000000000000000e+03
-1.191000000000000000e+03
-1.795000000000000000e+03
-3.050000000000000000e+02
-6.360000000000000000e+02
-1.593000000000000000e+03
-3.334000000000000000e+03
2.430000000000000000e+02
-3.020000000000000000e+02
4.930000000000000000e+02
-1.251000000000000000e+03
-8.920000000000000000e+02
-2.700000000000000000e+02
-1.313000000000000000e+03
-2.586000000000000000e+03
2.480000000000000000e+02
-9.140000000000000000e+02
7.530000000000000000e+02
-2.610000000000000000e+02
-1.681000000000000000e+03
8.780000000000000000e+02
-1.277000000000000000e+03
-3.300000000000000000e+02
-1.360000000000000000e+03
-2.180000000000000000e+02
-1.712000000000000000e+03
8.620000000000000000e+02
5.280000000000000000e+02
-6.280000000000000000e+02
-9.130000000000000000e+02
-3.690000000000000000e+02
-2.671000000000000000e+03
9.340000000000000000e+02
7.400000000000000000e+02
7.050000000000000000e+02
-9.990000000000000000e+02
-1.078000000000000000e+03
3.870000000000000000e+02
-1.765000000000000000e+03
-5.410000000000000000e+02
-1.307000000000000000e+03
1.030000000000000000e+02
-1.512000000000000000e+03
1.995000000000000000e+03
-1.300000000000000000e+01
7.200000000000000000e+01
-1.810000000000000000e+02
-5.700000000000000000e+01
-4.377000000000000000e+03
1.063000000000000000e+03
4.080000000000000000e+02
2.900000000000000000e+01
-2.052000000000000000e+03
-4.000000000000000000e+00
-6.060000000000000000e+02
-1.311000000000000000e+03
1.400000000000000000e+01
-7.520000000000000000e+02
7.120000000000000000e+02
-1.289000000000000000e+03
1.006000000000000000e+03
-9.960000000000000000e+02
-6.500000000000000000e+02
4.200000000000000000e+02
-1.067000000000000000e+03
4.090000000000000000e+02
-1.623000000000000000e+03
-9.840000000000000000e+02
-9.600000000000000000e+01
-1.192000000000000000e+03
3.900000000000000000e+01
1.190000000000000000e+02
-1.013000000000000000e+03
-2.140000000000000000e+02
1.098000000000000000e+03
-5.050000000000000000e+02
-2.930000000000000000e+02
-4.410000000000000000e+02
-1.124000000000000000e+03
-1.158000000000000000e+03
1.850000000000000000e+02
-3.010000000000000000e+02
-2.040000000000000000e+02
-9.610000000000000000e+02
-1.800000000000000000e+01
-5.360000000000000000e+02
-1.899000000000000000e+03
2.880000000000000000e+02
-1.213000000000000000e+03
2.580000000000000000e+02
-3.620000000000000000e+02
-1.992000000000000000e+03
-1.256000000000000000e+03
1.170000000000000000e+03
4.890000000000000000e+02
-6.840000000000000000e+02
-5.160000000000000000e+02
-1.514000000000000000e+03
-1.270000000000000000e+02
-8.210000000000000000e+02
8.400000000000000000e+01
1.570000000000000000e+02
-4.200000000000000000e+02
7.130000000000000000e+02
-4.540000000000000000e+02
1.250000000000000000e+02
2.310000000000000000e+02
1.300000000000000000e+01
-2.971000000000000000e+03
1.209000000000000000e+03
1.730000000000000000e+02
-9.770000000000000000e+02
7.590000000000000000e+02
-2.027000000000000000e+03
-1.512000000000000000e+03
-5.870000000000000000e+02
1.652000000000000000e+03
-1.661000000000000000e+03
2.130000000000000000e+02
-1.168000000000000000e+03
-2.109000000000000000e+03
1.610000000000000000e+02
3.670000000000000000e+02
-5.270000000000000000e+02
2.142000000000000000e+03
-7.390000000000000000e+02
4.100000000000000000e+02
-2.031000000000000000e+03
2.390000000000000000e+02
-1.370000000000000000e+02
-1.280000000000000000e+02
-8.640000000000000000e+02
-6.620000000000000000e+02
-3.140000000000000000e+02
