1.273000000000000000e+03
6.460000000000000000e+02
9.410000000000000000e+02
7.170000000000000000e+02
2.519000000000000000e+03
1.363000000000000000e+03
-1.470000000000000000e+02
-3.280000000000000000e+02
2.116000000000000000e+03
-7.620000000000000000e+02
1.485000000000000000e+03
2.360000000000000000e+02
-1.190000000000000000e+02
3.240000000000000000e+02
1.000000000000000000e+00
-2.980000000000000000e+02
1.192000000000000000e+03
-7.890000000000000000e+02
-7.260000000000000000e+02
2.008000000000000000e+03
-1.720000000000000000e+03
-1.320000000000000000e+02
1.395000000000000000e+03
-3.330000000000000000e+02
6.630000000000000000e+02
6.370000000000000000e+02
6.740000000000000000e+02
6.549000000000000000e+03
-4.850000000000000000e+02
1.404000000000000000e+03
1.010000000000000000e+03
1.440000000000000000e+02
-2.140000000000000000e+02
-1.790000000000000000e+02
2.024000000000000000e+03
-3.940000000000000000e+02
-6.570000000000000000e+02
-2.670000000000000000e+02
-1.049000000000000000e+03
2.329000000000000000e+03
-5.260000000000000000e+02
1.563000000000000000e+03
-1.510000000000000000e+02
-2.169000000000000000e+03
-1.050000000000000000e+02
-8.130000000000000000e+02
1.215000000000000000e+03
-9.100000000000000000e+02
-4.510000000000000000e+02
2.040000000000000000e+03
1.463000000000000000e+03
1.448000000000000000e+03
3.150000000000000000e+02
1.711000000000000000e+03
2.025000000000000000e+03
9.380000000000000000e+02
1.250000000000000000e+03
4.380000000000000000e+02
3.970000000000000000e+02
1.444000000000000000e+03
-1.949000000000000000e+03
1.044000000000000000e+03
2.450000000000000000e+02
-2.946000000000000000e+03
1.053000000000000000e+03
6.750000000000000000e+02
9.640000000000000000e+02
-1.450000000000000000e+03
-2.490000000000000000e+03
9.090000000000000000e+02
-1.122000000000000000e+03
1.401000000000000000e+03
-6.680000000000000000e+02
-1.670000000000000000e+02
7.200000000000000000e+02
8.250000000000000000e+02
-2.585000000000000000e+03
2.550000000000000000e+02
2.270000000000000000e+02
9.650000000000000000e+02
5.460000000000000000e+02
-7.770000000000000000e+02
-1.104000000000000000e+03
2.190000000000000000e+02
-9.770000000000000000e+02
6.060000000000000000e+02
-1.903000000000000000e+03
5.950000000000000000e+02
-1.634000000000000000e+03
2.685000000000000000e+03
1.614000000000000000e+03
-7.043000000000000000e+03
-3.073000000000000000e+03
2.740000000000000000e+02
3.370000000000000000e+02
5.060000000000000000e+02
-2.129000000000000000e+03
1.490000000000000000e+02
-2.207000000000000000e+03
5.440000000000000000e+02
-9.500000000000000000e+01
-4.370000000000000000e+02
-3.140000000000000000e+03
5.480000000000000000e+02
-1.486000000000000000e+03
2.343000000000000000e+03
1.320000000000000000e+03
1.521000000000000000e+03
2.760000000000000000e+02
1.364000000000000000e+03
1.473000000000000000e+03
-1.233000000000000000e+03
1.880000000000000000e+02
6.120000000000000000e+02
-6.900000000000000000e+01
-1.328000000000000000e+03
8.570000000000000000e+02
-1.954000000000000000e+03
1.748000000000000000e+03
7.980000000000000000e+02
5.590000000000000000e+02
3.310000000000000000e+02
-4.600000000000000000e+02
1.812000000000000000e+03
1.197000000000000000e+03
-5.917000000000000000e+03
1.494000000000000000e+03
-1.127000000000000000e+03
1.326000000000000000e+03
1.344000000000000000e+03
1.482000000000000000e+03
-2.102000000000000000e+03
1.070000000000000000e+03
1.406000000000000000e+03
1.871000000000000000e+03
-1.540000000000000000e+02
8.080000000000000000e+02
6.400000000000000000e+01
4.200000000000000000e+01
-2.213000000000000000e+03
2.110000000000000000e+02
-1.607000000000000000e+03
2.020000000000000000e+03
-7.380000000000000000e+02
9.300000000000000000e+01
1.397000000000000000e+03
3.700000000000000000e+03
1.039000000000000000e+03
-1.147000000000000000e+03
-2.318000000000000000e+03
-5.640000000000000000e+03
1.288000000000000000e+03
-1.430000000000000000e+02
1.597000000000000000e+03
-1.513000000000000000e+03
-1.410000000000000000e+03
-6.840000000000000000e+02
1.844000000000000000e+03
-6.380000000000000000e+02
-1.835000000000000000e+03
3.720000000000000000e+02
-4.000000000000000000e+01
3.680000000000000000e+02
-1.298000000000000000e+03
4.920000000000000000e+02
-4.450000000000000000e+03
6.790000000000000000e+02
1.073000000000000000e+03
9.910000000000000000e+02
-1.376000000000000000e+03
1.940000000000000000e+02
1.766000000000000000e+03
1.160000000000000000e+03
1.668000000000000000e+03
1.512000000000000000e+03
-2.234000000000000000e+03
-1.182000000000000000e+03
6.040000000000000000e+02
-1.500000000000000000e+01
-3.670000000000000000e+03
2.470000000000000000e+02
2.875000000000000000e+03
1.625000000000000000e+03
1.321000000000000000e+03
1.549000000000000000e+03
6.440000000000000000e+02
1.539000000000000000e+03
-1.580000000000000000e+02
3.470000000000000000e+02
1.014000000000000000e+03
1.275000000000000000e+03
1.906000000000000000e+03
2.640000000000000000e+02
-3.740000000000000000e+02
6.800000000000000000e+01
2.960000000000000000e+02
9.720000000000000000e+02
-3.630000000000000000e+02
-8.200000000000000000e+02
-1.457000000000000000e+03
2.792000000000000000e+03
-2.153000000000000000e+03
1.098000000000000000e+03
2.296000000000000000e+03
1.652000000000000000e+03
7.700000000000000000e+02
5.630000000000000000e+02
9.280000000000000000e+02
-3.280000000000000000e+02
9.990000000000000000e+02
1.244000000000000000e+03
8.390000000000000000e+02
1.164000000000000000e+03
6.270000000000000000e+02
1.038000000000000000e+03
2.860000000000000000e+02
2.040000000000000000e+02
-3.000000000000000000e+01
-1.012000000000000000e+03
5.100000000000000000e+01
-1.840000000000000000e+03
1.130000000000000000e+02
7.070000000000000000e+02
1.860000000000000000e+02
9.010000000000000000e+02
9.540000000000000000e+02
-2.581000000000000000e+03
-1.767000000000000000e+03
1.010000000000000000e+02
-1.660000000000000000e+03
3.910000000000000000e+02
-2.638000000000000000e+03
-1.052000000000000000e+03
1.973000000000000000e+03
-3.170000000000000000e+02
3.699000000000000000e+03
2.711000000000000000e+03
4.940000000000000000e+02
-5.370000000000000000e+02
4.830000000000000000e+02
9.040000000000000000e+02
-3.330000000000000000e+02
1.900000000000000000e+01
4.590000000000000000e+02
6.110000000000000000e+02
-7.700000000000000000e+02
6.185000000000000000e+03
-2.194000000000000000e+03
-2.546000000000000000e+03
2.759000000000000000e+03
-1.002000000000000000e+03
9.900000000000000000e+01
-3.294000000000000000e+03
9.340000000000000000e+02
1.654000000000000000e+03
-1.864000000000000000e+03
2.180000000000000000e+02
-2.330000000000000000e+03
1.930000000000000000e+02
1.253000000000000000e+03
-3.000000000000000000e+00
-4.310000000000000000e+02
-2.002000000000000000e+03
1.888000000000000000e+03
-8.170000000000000000e+02
9.250000000000000000e+02
-2.049000000000000000e+03
1.635000000000000000e+03
-2.651000000000000000e+03
1.375000000000000000e+03
1.920000000000000000e+02
-3.790000000000000000e+02
-2.539000000000000000e+03
1.010000000000000000e+03
-4.800000000000000000e+01
1.177000000000000000e+03
-1.237000000000000000e+03
-1.867000000000000000e+03
-9.430000000000000000e+02
-8.210000000000000000e+02
1.578000000000000000e+03
-7.490000000000000000e+02
1.672000000000000000e+03
1.468000000000000000e+03
3.460000000000000000e+03
-2.317000000000000000e+03
-4.120000000000000000e+02
2.094000000000000000e+03
1.595000000000000000e+03
-9.350000000000000000e+02
-2.700000000000000000e+02
-3.430000000000000000e+02
1.895000000000000000e+03
1.456000000000000000e+03
4.610000000000000000e+02
-1.440000000000000000e+02
1.090000000000000000e+02
-6.760000000000000000e+02
3.400000000000000000e+01
-6.280000000000000000e+02
1.161000000000000000e+03
2.452000000000000000e+03
2.911000000000000000e+03
-1.220000000000000000e+02
6.340000000000000000e+02
2.100000000000000000e+02
9.790000000000000000e+02
7.100000000000000000e+01
-2.360000000000000000e+03
1.420000000000000000e+03
-2.287000000000000000e+03
1.530000000000000000e+03
2.683000000000000000e+03
1.474000000000000000e+03
-7.860000000000000000e+02
-3.046000000000000000e+03
-5.150000000000000000e+02
1.735000000000000000e+03
-2.121000000000000000e+03
2.000000000000000000e+00
-5.520000000000000000e+02
3.460000000000000000e+02
1.126000000000000000e+03
-1.601000000000000000e+03
1.055000000000000000e+03
9.760000000000000000e+02
7.420000000000000000e+02
1.648000000000000000e+03
1.886000000000000000e+03
9.160000000000000000e+02
-1.379000000000000000e+03
-3.266000000000000000e+03
1.038000000000000000e+03
-1.170000000000000000e+03
3.016000000000000000e+03
2.030000000000000000e+03
1.380000000000000000e+02
-8.290000000000000000e+02
1.707000000000000000e+03
-6.500000000000000000e+01
-2.827000000000000000e+03
8.720000000000000000e+02
1.162000000000000000e+03
6.100000000000000000e+02
-4.560000000000000000e+02
1.059000000000000000e+03
6.270000000000000000e+02
1.705000000000000000e+03
-1.084000000000000000e+03
-1.175000000000000000e+03
1.007000000000000000e+03
-3.980000000000000000e+02
1.764000000000000000e+03
1.104000000000000000e+03
-1.458000000000000000e+03
4.000000000000000000e+00
2.512000000000000000e+03
2.024000000000000000e+03
1.707000000000000000e+03
-5.928000000000000000e+03
9.480000000000000000e+02
-2.395000000000000000e+03
9.130000000000000000e+02
2.104000000000000000e+03
8.000000000000000000e+01
6.570000000000000000e+02
6.300000000000000000e+02
8.450000000000000000e+02
-7.680000000000000000e+02
-9.800000000000000000e+01
8.240000000000000000e+02
-1.054000000000000000e+03
1.618000000000000000e+03
6.040000000000000000e+02
7.780000000000000000e+02
-8.390000000000000000e+02
-2.782000000000000000e+03
-5.750000000000000000e+02
-2.800000000000000000e+01
-1.369000000000000000e+03
-2.340000000000000000e+02
8.990000000000000000e+02
-1.269000000000000000e+03
-7.260000000000000000e+02
-1.113000000000000000e+03
1.649000000000000000e+03
-2.245000000000000000e+03
6.470000000000000000e+02
-1.113000000000000000e+03
1.525000000000000000e+03
6.880000000000000000e+02
-6.110000000000000000e+02
3.509000000000000000e+03
5.980000000000000000e+02
-5.820000000000000000e+02
-4.580000000000000000e+02
1.941000000000000000e+03
1.090000000000000000e+02
1.886000000000000000e+03
-2.344000000000000000e+03
-1.795000000000000000e+03
2.667000000000000000e+03
-8.630000000000000000e+02
5.960000000000000000e+02
2.315000000000000000e+03
1.879000000000000000e+03
-3.390000000000000000e+03
2.320000000000000000e+02
-1.264000000000000000e+03
-1.400000000000000000e+02
1.844000000000000000e+03
9.300000000000000000e+02
3.174000000000000000e+03
1.912000000000000000e+03
-8.800000000000000000e+01
1.751000000000000000e+03
1.775000000000000000e+03
-1.563000000000000000e+03
-2.400000000000000000e+01
-7.250000000000000000e+02
3.240000000000000000e+02
8.550000000000000000e+02
-1.929000000000000000e+03
7.650000000000000000e+02
1.566000000000000000e+03
9.690000000000000000e+02
-5.290000000000000000e+02
2.020000000000000000e+03
-2.260000000000000000e+03
5.400000000000000000e+02
-6.440000000000000000e+02
-1.359000000000000000e+03
2.980000000000000000e+02
-5.120000000000000000e+02
-1.244000000000000000e+03
1.139000000000000000e+03
-5.230000000000000000e+02
-2.834000000000000000e+03
-9.290000000000000000e+02
9.140000000000000000e+02
4.220000000000000000e+02
-3.650000000000000000e+02
5.500000000000000000e+02
-8.180000000000000000e+02
5.200000000000000000e+01
-9.670000000000000000e+02
-1.562000000000000000e+03
-3.376000000000000000e+03
1.597000000000000000e+03
-2.060000000000000000e+02
1.465000000000000000e+03
1.102000000000000000e+03
1.699000000000000000e+03
1.260000000000000000e+03
-2.710000000000000000e+02
2.020000000000000000e+02
-4.400000000000000000e+01
-7.470000000000000000e+02
1.110000000000000000e+02
5.320000000000000000e+02
1.349000000000000000e+03
5.600000000000000000e+01
4.170000000000000000e+02
1.224000000000000000e+03
1.537000000000000000e+03
-2.522000000000000000e+03
7.905000000000000000e+03
5.200000000000000000e+01
1.856000000000000000e+03
-7.080000000000000000e+02
3.200000000000000000e+02
-1.594000000000000000e+03
-5.430000000000000000e+02
2.128000000000000000e+03
-3.920000000000000000e+02
-9.920000000000000000e+02
2.500000000000000000e+03
1.084000000000000000e+03
1.525000000000000000e+03
6.190000000000000000e+02
2.228000000000000000e+03
3.980000000000000000e+02
-1.477000000000000000e+03
2.106000000000000000e+03
2.300000000000000000e+03
-5.410000000000000000e+02
-1.010000000000000000e+02
1.321000000000000000e+03
1.924000000000000000e+03
-8.650000000000000000e+02
7.090000000000000000e+02
1.351000000000000000e+03
-4.100000000000000000e+03
2.630000000000000000e+02
3.220000000000000000e+02
-2.591000000000000000e+03
-9.700000000000000000e+02
1.937000000000000000e+03
2.499000000000000000e+03
4.370000000000000000e+02
1.232000000000000000e+03
6.760000000000000000e+02
1.053000000000000000e+03
9.460000000000000000e+02
2.645000000000000000e+03
-1.730000000000000000e+02
3.880000000000000000e+02
-2.248000000000000000e+03
3.197000000000000000e+03
-8.580000000000000000e+02
9.220000000000000000e+02
-7.100000000000000000e+02
