-5.790000000000000000e+02
-7.330000000000000000e+02
1.880000000000000000e+02
7.300000000000000000e+02
1.260000000000000000e+03
3.320000000000000000e+02
4.100000000000000000e+01
1.092000000000000000e+03
5.130000000000000000e+02
-1.663000000000000000e+03
5.930000000000000000e+02
-2.940000000000000000e+02
-6.610000000000000000e+02
3.470000000000000000e+02
-4.400000000000000000e+02
1.500000000000000000e+02
4.900000000000000000e+01
1.640000000000000000e+02
-3.200000000000000000e+01
-6.600000000000000000e+02
-6.530000000000000000e+02
6.510000000000000000e+02
-2.780000000000000000e+02
3.700000000000000000e+02
-2.700000000000000000e+01
-3.260000000000000000e+02
-7.520000000000000000e+02
-3.090000000000000000e+02
-1.550000000000000000e+03
2.616000000000000000e+03
9.230000000000000000e+02
-6.440000000000000000e+02
-4.530000000000000000e+02
-3.870000000000000000e+02
-1.729000000000000000e+03
9.160000000000000000e+02
-2.260000000000000000e+02
3.920000000000000000e+02
-1.685000000000000000e+03
2.560000000000000000e+02
2.610000000000000000e+02
2.420000000000000000e+02
1.910000000000000000e+02
-5.160000000000000000e+02
-6.490000000000000000e+02
1.230000000000000000e+02
-1.491000000000000000e+03
-6.220000000000000000e+02
3.100000000000000000e+01
-9.400000000000000000e+01
4.030000000000000000e+02
-1.330000000000000000e+02
-8.950000000000000000e+02
-5.820000000000000000e+02
3.600000000000000000e+01
-1.078000000000000000e+03
3.890000000000000000e+02
1.940000000000000000e+02
-4.480000000000000000e+02
-1.321000000000000000e+03
-9.100000000000000000e+01
-1.000000000000000000e+02
8.340000000000000000e+02
3.400000000000000000e+01
7.610000000000000000e+02
8.140000000000000000e+02
-7.400000000000000000e+01
-2.092000000000000000e+03
9.070000000000000000e+02
-4.490000000000000000e+02
6.400000000000000000e+01
1.037000000000000000e+03
1.360000000000000000e+03
-5.580000000000000000e+02
6.600000000000000000e+01
6.600000000000000000e+02
-7.860000000000000000e+02
4.360000000000000000e+02
-1.081000000000000000e+03
1.890000000000000000e+02
2.910000000000000000e+02
9.560000000000000000e+02
1.014000000000000000e+03
-2.390000000000000000e+02
8.010000000000000000e+02
9.650000000000000000e+02
-2.260000000000000000e+02
-2.710000000000000000e+02
-6.000000000000000000e+02
-1.660000000000000000e+02
1.230000000000000000e+03
-7.220000000000000000e+02
-1.073000000000000000e+03
7.600000000000000000e+01
-8.400000000000000000e+01
2.850000000000000000e+02
5.630000000000000000e+02
-6.670000000000000000e+02
1.332000000000000000e+03
2.100000000000000000e+01
-5.410000000000000000e+02
-5.000000000000000000e+01
-5.810000000000000000e+02
-6.200000000000000000e+01
4.500000000000000000e+01
1.170000000000000000e+02
-1.520000000000000000e+03
-1.077000000000000000e+03
3.370000000000000000e+02
-2.540000000000000000e+02
-4.480000000000000000e+02
1.376000000000000000e+03
-1.800000000000000000e+01
2.700000000000000000e+02
1.322000000000000000e+03
2.260000000000000000e+02
-8.300000000000000000e+01
2.000000000000000000e+02
1.230000000000000000e+02
-5.190000000000000000e+02
-3.100000000000000000e+01
2.700000000000000000e+02
-1.470000000000000000e+02
2.600000000000000000e+02
7.000000000000000000e+01
6.190000000000000000e+02
-1.039000000000000000e+03
5.680000000000000000e+02
-1.207000000000000000e+03
1.476000000000000000e+03
3.870000000000000000e+02
-1.580000000000000000e+02
5.830000000000000000e+02
1.087000000000000000e+03
2.310000000000000000e+02
4.180000000000000000e+02
2.500000000000000000e+01
-9.270000000000000000e+02
9.460000000000000000e+02
2.580000000000000000e+02
-1.245000000000000000e+03
-9.500000000000000000e+02
9.400000000000000000e+01
6.700000000000000000e+01
-9.800000000000000000e+02
-7.760000000000000000e+02
3.470000000000000000e+02
-5.400000000000000000e+02
-1.470000000000000000e+02
-5.130000000000000000e+02
-7.600000000000000000e+01
-9.450000000000000000e+02
1.560000000000000000e+02
-1.790000000000000000e+02
-7.940000000000000000e+02
-4.720000000000000000e+02
-1.830000000000000000e+02
7.520000000000000000e+02
1.010000000000000000e+02
-6.120000000000000000e+02
-4.410000000000000000e+02
-6.740000000000000000e+02
-8.600000000000000000e+02
-4.860000000000000000e+02
3.360000000000000000e+02
-7.030000000000000000e+02
-4.520000000000000000e+02
1.950000000000000000e+02
7.950000000000000000e+02
-1.100000000000000000e+03
-1.070000000000000000e+02
3.525000000000000000e+03
4.900000000000000000e+02
1.900000000000000000e+01
-2.280000000000000000e+02
-5.470000000000000000e+02
-1.707000000000000000e+03
-5.150000000000000000e+02
-1.802000000000000000e+03
-2.450000000000000000e+02
-1.016000000000000000e+03
-1.124000000000000000e+03
-7.280000000000000000e+02
-8.240000000000000000e+02
-2.400000000000000000e+02
5.710000000000000000e+02
-3.530000000000000000e+02
-4.800000000000000000e+01
1.926000000000000000e+03
-1.194000000000000000e+03
-5.480000000000000000e+02
1.190000000000000000e+02
-9.990000000000000000e+02
3.010000000000000000e+02
3.630000000000000000e+02
-1.246000000000000000e+03
-1.100000000000000000e+02
1.720000000000000000e+02
-4.680000000000000000e+02
-1.594000000000000000e+03
1.379000000000000000e+03
-2.020000000000000000e+02
3.200000000000000000e+02
1.700000000000000000e+02
-5.970000000000000000e+02
-5.100000000000000000e+02
7.600000000000000000e+02
-1.337000000000000000e+03
4.220000000000000000e+02
-8.600000000000000000e+01
-6.150000000000000000e+02
1.600000000000000000e+01
6.110000000000000000e+02
-1.750000000000000000e+03
-4.610000000000000000e+02
-1.303000000000000000e+03
1.058000000000000000e+03
-8.890000000000000000e+02
-8.390000000000000000e+02
1.430000000000000000e+02
-5.690000000000000000e+02
6.910000000000000000e+02
9.390000000000000000e+02
2.620000000000000000e+02
7.710000000000000000e+02
-3.750000000000000000e+02
5.240000000000000000e+02
9.000000000000000000e+00
-1.860000000000000000e+02
1.480000000000000000e+02
3.170000000000000000e+02
1.120000000000000000e+02
5.200000000000000000e+01
-2.530000000000000000e+02
8.780000000000000000e+02
3.384000000000000000e+03
6.210000000000000000e+02
8.460000000000000000e+02
9.900000000000000000e+01
-3.700000000000000000e+01
3.870000000000000000e+02
-3.230000000000000000e+02
-1.712000000000000000e+03
-7.420000000000000000e+02
-2.230000000000000000e+02
-6.590000000000000000e+02
-2.460000000000000000e+02
5.320000000000000000e+02
5.820000000000000000e+02
-2.420000000000000000e+02
8.310000000000000000e+02
1.550000000000000000e+02
-9.200000000000000000e+01
-1.249000000000000000e+03
-3.810000000000000000e+02
-3.020000000000000000e+02
4.020000000000000000e+02
5.020000000000000000e+02
-4.040000000000000000e+02
-1.130000000000000000e+02
3.760000000000000000e+02
-2.830000000000000000e+02
-8.160000000000000000e+02
2.000000000000000000e+00
1.964000000000000000e+03
-1.516000000000000000e+03
-4.730000000000000000e+02
1.690000000000000000e+02
-1.061000000000000000e+03
2.400000000000000000e+01
-1.460000000000000000e+03
5.020000000000000000e+02
2.620000000000000000e+02
1.880000000000000000e+02
-5.390000000000000000e+02
2.208000000000000000e+03
1.094000000000000000e+03
-4.230000000000000000e+02
-3.950000000000000000e+02
-2.940000000000000000e+02
-1.300000000000000000e+01
-5.860000000000000000e+02
-1.510000000000000000e+02
-1.357000000000000000e+03
-1.594000000000000000e+03
2.300000000000000000e+01
2.790000000000000000e+02
-1.540000000000000000e+03
1.140000000000000000e+02
6.100000000000000000e+02
5.850000000000000000e+02
-1.020000000000000000e+02
2.000000000000000000e+02
-1.546000000000000000e+03
-5.260000000000000000e+02
6.210000000000000000e+02
-8.580000000000000000e+02
-6.150000000000000000e+02
1.218000000000000000e+03
-1.220000000000000000e+02
-1.163000000000000000e+03
3.740000000000000000e+02
-7.600000000000000000e+01
-6.480000000000000000e+02
9.070000000000000000e+02
-6.190000000000000000e+02
-3.180000000000000000e+02
8.910000000000000000e+02
3.228000000000000000e+03
-2.590000000000000000e+02
-9.310000000000000000e+02
-2.890000000000000000e+02
-7.100000000000000000e+01
-4.120000000000000000e+02
-3.670000000000000000e+02
-1.674000000000000000e+03
4.000000000000000000e+00
7.600000000000000000e+01
1.862000000000000000e+03
-7.930000000000000000e+02
5.190000000000000000e+02
5.600000000000000000e+02
-4.460000000000000000e+02
-4.280000000000000000e+02
1.117000000000000000e+03
6.990000000000000000e+02
6.140000000000000000e+02
-2.930000000000000000e+02
-6.120000000000000000e+02
4.000000000000000000e+02
1.620000000000000000e+02
-1.600000000000000000e+01
3.720000000000000000e+02
-9.500000000000000000e+01
1.060000000000000000e+02
-9.390000000000000000e+02
-8.370000000000000000e+02
-1.172000000000000000e+03
-8.920000000000000000e+02
9.460000000000000000e+02
1.313000000000000000e+03
-2.200000000000000000e+01
3.800000000000000000e+01
-1.218000000000000000e+03
-6.000000000000000000e+02
1.380000000000000000e+02
-4.640000000000000000e+02
2.930000000000000000e+02
-2.200000000000000000e+02
1.130000000000000000e+02
5.700000000000000000e+02
-2.140000000000000000e+02
-8.180000000000000000e+02
-2.930000000000000000e+02
-1.000000000000000000e+00
2.390000000000000000e+02
-1.072000000000000000e+03
-8.530000000000000000e+02
-7.140000000000000000e+02
1.429000000000000000e+03
-2.790000000000000000e+02
-1.148000000000000000e+03
-6.390000000000000000e+02
-1.860000000000000000e+02
9.000000000000000000e+02
-3.300000000000000000e+01
-2.290000000000000000e+02
3.040000000000000000e+02
3.312000000000000000e+03
-1.280000000000000000e+02
3.740000000000000000e+02
-6.300000000000000000e+01
-1.050000000000000000e+03
2.290000000000000000e+02
-8.940000000000000000e+02
-1.471000000000000000e+03
-7.080000000000000000e+02
-6.910000000000000000e+02
-2.980000000000000000e+02
8.100000000000000000e+02
-4.800000000000000000e+01
-9.480000000000000000e+02
-4.500000000000000000e+02
-2.210000000000000000e+02
-9.570000000000000000e+02
-5.240000000000000000e+02
6.520000000000000000e+02
3.430000000000000000e+02
-7.420000000000000000e+02
2.160000000000000000e+02
2.460000000000000000e+02
1.560000000000000000e+02
-2.400000000000000000e+01
3.490000000000000000e+02
1.678000000000000000e+03
-4.710000000000000000e+02
4.090000000000000000e+02
-8.200000000000000000e+01
1.000000000000000000e+02
3.770000000000000000e+02
-1.200000000000000000e+01
-7.790000000000000000e+02
5.730000000000000000e+02
1.070000000000000000e+02
-4.630000000000000000e+02
-3.970000000000000000e+02
6.000000000000000000e+00
9.530000000000000000e+02
-4.190000000000000000e+02
1.050000000000000000e+02
-1.098000000000000000e+03
-8.660000000000000000e+02
-1.600000000000000000e+02
8.660000000000000000e+02
-7.000000000000000000e+02
-5.590000000000000000e+02
-2.180000000000000000e+02
-1.187000000000000000e+03
-4.200000000000000000e+01
-1.100000000000000000e+02
-8.330000000000000000e+02
6.160000000000000000e+02
-4.300000000000000000e+01
5.230000000000000000e+02
-7.100000000000000000e+02
-4.990000000000000000e+02
-1.060000000000000000e+02
9.070000000000000000e+02
-8.060000000000000000e+02
-6.560000000000000000e+02
-3.300000000000000000e+01
1.110000000000000000e+02
8.490000000000000000e+02
9.100000000000000000e+01
-8.770000000000000000e+02
7.100000000000000000e+01
-1.460000000000000000e+02
3.940000000000000000e+02
-4.770000000000000000e+02
-3.460000000000000000e+02
1.910000000000000000e+02
-3.550000000000000000e+02
-4.660000000000000000e+02
1.005000000000000000e+03
-5.740000000000000000e+02
4.220000000000000000e+02
-1.520000000000000000e+02
-1.387000000000000000e+03
-9.100000000000000000e+02
1.400000000000000000e+03
-6.740000000000000000e+02
4.730000000000000000e+02
6.390000000000000000e+02
1.033000000000000000e+03
3.150000000000000000e+02
-1.930000000000000000e+03
-8.600000000000000000e+02
2.430000000000000000e+02
-1.540000000000000000e+02
-2.790000000000000000e+02
-1.107000000000000000e+03
1.200000000000000000e+01
-1.070000000000000000e+02
-6.370000000000000000e+02
-2.000000000000000000e+00
3.900000000000000000e+01
-2.154000000000000000e+03
1.860000000000000000e+02
9.500000000000000000e+01
-6.000000000000000000e+02
-4.900000000000000000e+02
6.650000000000000000e+02
-3.460000000000000000e+02
6.600000000000000000e+01
2.490000000000000000e+02
-2.160000000000000000e+02
7.420000000000000000e+02
-2.880000000000000000e+02
-4.690000000000000000e+02
0.000000000000000000e+00
5.770000000000000000e+02
2.060000000000000000e+02
-6.630000000000000000e+02
5.300000000000000000e+02
1.410000000000000000e+02
-4.170000000000000000e+02
1.500000000000000000e+02
-4.230000000000000000e+02
-1.020000000000000000e+02
-3.610000000000000000e+02
-2.900000000000000000e+01
9.930000000000000000e+02
-6.300000000000000000e+01
1.870000000000000000e+02
7.760000000000000000e+02
5.100000000000000000e+01
5.700000000000000000e+01
-6.540000000000000000e+02
8.840000000000000000e+02
4.980000000000000000e+02
-9.570000000000000000e+02
8.430000000000000000e+02
4.090000000000000000e+02
-1.760000000000000000e+02
8.290000000000000000e+02
-8.300000000000000000e+01
-2.400000000000000000e+02
1.400000000000000000e+02
3.800000000000000000e+01
-4.730000000000000000e+02
-9.080000000000000000e+02
-5.600000000000000000e+01
1.485000000000000000e+03
-4.690000000000000000e+02
-9.780000000000000000e+02
-5.630000000000000000e+02
-1.660000000000000000e+02
4.080000000000000000e+02
8.630000000000000000e+02
-8.500000000000000000e+01
-7.280000000000000000e+02
5.540000000000000000e+02
-4.490000000000000000e+02
4.950000000000000000e+02
-4.090000000000000000e+02
-2.800000000000000000e+02
-3.910000000000000000e+02
1.845000000000000000e+03
-3.230000000000000000e+02
-2.910000000000000000e+02
2.900000000000000000e+02
-3.900000000000000000e+02
1.810000000000000000e+02
1.110000000000000000e+02
-1.070000000000000000e+02
1.480000000000000000e+02
8.930000000000000000e+02
1.257000000000000000e+03
5.800000000000000000e+01
-8.270000000000000000e+02
-4.900000000000000000e+02
-9.900000000000000000e+01
-2.670000000000000000e+02
-6.640000000000000000e+02
-2.110000000000000000e+02
5.210000000000000000e+02
1.115000000000000000e+03
-7.230000000000000000e+02
7.630000000000000000e+02
4.780000000000000000e+02
1.270000000000000000e+02
-6.690000000000000000e+02
9.230000000000000000e+02
-8.850000000000000000e+02
-3.290000000000000000e+02
-1.900000000000000000e+01
-6.620000000000000000e+02
-7.800000000000000000e+01
-4.240000000000000000e+02
-2.060000000000000000e+02
1.190000000000000000e+03
-2.500000000000000000e+01
-1.581000000000000000e+03
5.600000000000000000e+01
1.370000000000000000e+03
-1.034000000000000000e+03
-3.850000000000000000e+02
-1.049000000000000000e+03
-7.200000000000000000e+01
-4.410000000000000000e+02
-1.760000000000000000e+02
-5.770000000000000000e+02
-7.300000000000000000e+02
3.930000000000000000e+02
4.710000000000000000e+02
5.200000000000000000e+02
1.035000000000000000e+03
1.115000000000000000e+03
1.410000000000000000e+02
4.180000000000000000e+02
3.460000000000000000e+02
-9.230000000000000000e+02
1.790000000000000000e+02
-4.440000000000000000e+02
-6.190000000000000000e+02
1.710000000000000000e+02
2.770000000000000000e+02
-4.820000000000000000e+02
-4.470000000000000000e+02
-1.680000000000000000e+02
-2.190000000000000000e+02
-1.300000000000000000e+01
-2.160000000000000000e+02
-5.650000000000000000e+02
1.690000000000000000e+02
6.460000000000000000e+02
2.110000000000000000e+02
-1.620000000000000000e+02
-1.001000000000000000e+03
3.250000000000000000e+02
8.590000000000000000e+02
-5.390000000000000000e+02
6.730000000000000000e+02
6.600000000000000000e+01
-1.910000000000000000e+02
-5.200000000000000000e+01
-4.440000000000000000e+02
-2.270000000000000000e+02
1.190000000000000000e+02
5.690000000000000000e+02
-1.320000000000000000e+02
6.810000000000000000e+02
-5.260000000000000000e+02
-4.430000000000000000e+02
3.810000000000000000e+02
-3.090000000000000000e+02
8.050000000000000000e+02
-9.200000000000000000e+01
6.890000000000000000e+02
1.133000000000000000e+03
5.620000000000000000e+02
-3.750000000000000000e+02
5.400000000000000000e+02
-3.600000000000000000e+01
-4.220000000000000000e+02
-1.145000000000000000e+03
-6.700000000000000000e+02
1.770000000000000000e+02
-3.470000000000000000e+02
-2.740000000000000000e+02
-9.160000000000000000e+02
-6.000000000000000000e+00
5.150000000000000000e+02
2.836000000000000000e+03
-4.600000000000000000e+01
5.820000000000000000e+02
-6.400000000000000000e+01
-1.730000000000000000e+02
-6.660000000000000000e+02
2.940000000000000000e+02
8.450000000000000000e+02
7.260000000000000000e+02
9.910000000000000000e+02
-1.345000000000000000e+03
-7.710000000000000000e+02
9.400000000000000000e+01
-7.280000000000000000e+02
-6.220000000000000000e+02
8.770000000000000000e+02
-3.510000000000000000e+02
8.800000000000000000e+01
1.660000000000000000e+02
1.832000000000000000e+03
-7.880000000000000000e+02
4.910000000000000000e+02
-1.780000000000000000e+02
4.160000000000000000e+02
-1.960000000000000000e+03
-2.910000000000000000e+02
-9.300000000000000000e+02
-8.120000000000000000e+02
-1.490000000000000000e+02
1.377000000000000000e+03
9.570000000000000000e+02
-1.119000000000000000e+03
-9.380000000000000000e+02
8.540000000000000000e+02
6.430000000000000000e+02
-2.120000000000000000e+02
2.493000000000000000e+03
1.224000000000000000e+03
-1.440000000000000000e+02
-6.900000000000000000e+02
-1.499000000000000000e+03
-4.470000000000000000e+02
-8.000000000000000000e+01
9.440000000000000000e+02
-1.460000000000000000e+02
1.980000000000000000e+02
-9.260000000000000000e+02
-1.588000000000000000e+03
-5.000000000000000000e+01
-1.205000000000000000e+03
-6.160000000000000000e+02
1.750000000000000000e+02
4.700000000000000000e+01
8.830000000000000000e+02
4.010000000000000000e+02
-5.840000000000000000e+02
7.550000000000000000e+02
-9.620000000000000000e+02
3.310000000000000000e+02
-3.530000000000000000e+02
-3.740000000000000000e+02
-8.720000000000000000e+02
-9.650000000000000000e+02
-1.210000000000000000e+02
-1.470000000000000000e+02
7.110000000000000000e+02
-1.430000000000000000e+03
-6.420000000000000000e+02
-1.026000000000000000e+03
-3.100000000000000000e+01
-3.620000000000000000e+02
6.200000000000000000e+02
1.999000000000000000e+03
2.160000000000000000e+02
-4.180000000000000000e+02
-8.570000000000000000e+02
9.130000000000000000e+02
-1.085000000000000000e+03
-2.470000000000000000e+02
-3.190000000000000000e+02
6.220000000000000000e+02
-1.375000000000000000e+03
-7.400000000000000000e+01
-1.090000000000000000e+02
-2.120000000000000000e+02
2.320000000000000000e+02
-3.510000000000000000e+02
1.092000000000000000e+03
-3.550000000000000000e+02
1.256000000000000000e+03
-5.310000000000000000e+02
-1.290000000000000000e+02
1.110000000000000000e+02
-4.310000000000000000e+02
1.660000000000000000e+02
4.090000000000000000e+02
-1.330000000000000000e+02
-5.240000000000000000e+02
-2.420000000000000000e+02
-6.600000000000000000e+01
-7.600000000000000000e+02
-3.080000000000000000e+02
-6.810000000000000000e+02
-7.340000000000000000e+02
-5.260000000000000000e+02
-2.430000000000000000e+02
-7.260000000000000000e+02
-3.400000000000000000e+01
2.156000000000000000e+03
-7.400000000000000000e+02
1.200000000000000000e+02
-1.090000000000000000e+02
4.970000000000000000e+02
-6.240000000000000000e+02
-1.427000000000000000e+03
3.100000000000000000e+01
1.880000000000000000e+02
-3.700000000000000000e+02
-6.270000000000000000e+02
-3.470000000000000000e+02
-1.481000000000000000e+03
3.700000000000000000e+01
-3.550000000000000000e+02
-1.150000000000000000e+03
-6.810000000000000000e+02
-3.900000000000000000e+02
4.490000000000000000e+02
5.500000000000000000e+02
1.170000000000000000e+02
1.970000000000000000e+02
1.002000000000000000e+03
2.260000000000000000e+02
-1.700000000000000000e+01
6.540000000000000000e+02
-5.600000000000000000e+01
-1.180000000000000000e+02
4.100000000000000000e+01
-1.210000000000000000e+02
-8.570000000000000000e+02
4.890000000000000000e+02
-3.220000000000000000e+02
-3.400000000000000000e+01
-8.270000000000000000e+02
-2.330000000000000000e+02
7.800000000000000000e+02
1.370000000000000000e+02
2.700000000000000000e+02
-3.680000000000000000e+02
9.920000000000000000e+02
-3.900000000000000000e+02
2.690000000000000000e+02
8.950000000000000000e+02
3.300000000000000000e+01
-1.440000000000000000e+02
1.100000000000000000e+01
-1.900000000000000000e+01
-1.440000000000000000e+02
-1.625000000000000000e+03
1.960000000000000000e+02
6.050000000000000000e+02
-1.010000000000000000e+03
9.200000000000000000e+01
-8.400000000000000000e+02
-3.560000000000000000e+02
1.100000000000000000e+02
-1.418000000000000000e+03
-8.500000000000000000e+01
6.230000000000000000e+02
2.240000000000000000e+02
-6.810000000000000000e+02
-1.230000000000000000e+02
4.780000000000000000e+02
-9.700000000000000000e+01
-4.050000000000000000e+02
-8.300000000000000000e+02
-1.260000000000000000e+02
-6.940000000000000000e+02
-1.036000000000000000e+03
5.560000000000000000e+02
-1.026000000000000000e+03
7.600000000000000000e+01
2.090000000000000000e+02
-8.620000000000000000e+02
3.310000000000000000e+02
1.340000000000000000e+02
8.660000000000000000e+02
-1.106000000000000000e+03
2.018000000000000000e+03
1.560000000000000000e+02
4.770000000000000000e+02
-5.600000000000000000e+02
6.200000000000000000e+02
-8.340000000000000000e+02
1.350000000000000000e+02
1.206000000000000000e+03
-1.350000000000000000e+02
-4.720000000000000000e+02
9.000000000000000000e+01
1.222000000000000000e+03
3.560000000000000000e+02
-7.410000000000000000e+02
2.340000000000000000e+03
-8.500000000000000000e+01
6.730000000000000000e+02
1.641000000000000000e+03
1.830000000000000000e+02
-1.253000000000000000e+03
-3.120000000000000000e+02
-9.590000000000000000e+02
-1.990000000000000000e+02
-1.180000000000000000e+02
-3.240000000000000000e+02
-6.300000000000000000e+01
-5.030000000000000000e+02
1.882000000000000000e+03
-8.370000000000000000e+02
6.340000000000000000e+02
-5.230000000000000000e+02
-2.010000000000000000e+02
-2.770000000000000000e+02
-5.400000000000000000e+01
7.390000000000000000e+02
1.690000000000000000e+02
1.147000000000000000e+03
7.100000000000000000e+01
1.951000000000000000e+03
-8.930000000000000000e+02
-1.580000000000000000e+02
5.140000000000000000e+02
4.110000000000000000e+02
6.880000000000000000e+02
6.020000000000000000e+02
7.310000000000000000e+02
-5.100000000000000000e+01
-4.830000000000000000e+02
1.530000000000000000e+02
1.173000000000000000e+03
-4.880000000000000000e+02
5.710000000000000000e+02
1.287000000000000000e+03
2.110000000000000000e+02
1.180000000000000000e+03
9.210000000000000000e+02
5.560000000000000000e+02
-7.190000000000000000e+02
-2.380000000000000000e+02
8.100000000000000000e+01
-4.400000000000000000e+02
5.300000000000000000e+01
-5.350000000000000000e+02
4.140000000000000000e+02
-2.400000000000000000e+01
-4.230000000000000000e+02
-2.510000000000000000e+02
1.020000000000000000e+02
5.960000000000000000e+02
-6.780000000000000000e+02
-8.190000000000000000e+02
1.570000000000000000e+02
-2.580000000000000000e+02
-1.428000000000000000e+03
6.800000000000000000e+02
-7.570000000000000000e+02
-1.040000000000000000e+02
3.910000000000000000e+02
-6.340000000000000000e+02
-1.240000000000000000e+02
6.580000000000000000e+02
-5.580000000000000000e+02
-6.320000000000000000e+02
-2.790000000000000000e+02
4.880000000000000000e+02
1.254000000000000000e+03
-1.540000000000000000e+02
4.950000000000000000e+02
-1.050000000000000000e+03
-5.770000000000000000e+02
-2.630000000000000000e+02
-2.740000000000000000e+02
5.530000000000000000e+02
-1.770000000000000000e+02
-1.450000000000000000e+02
-5.080000000000000000e+02
-1.250000000000000000e+02
-7.800000000000000000e+01
-8.500000000000000000e+01
-1.082000000000000000e+03
1.890000000000000000e+02
-3.300000000000000000e+02
-9.200000000000000000e+01
-3.420000000000000000e+02
-1.462000000000000000e+03
-2.520000000000000000e+02
-1.153000000000000000e+03
-1.883000000000000000e+03
3.910000000000000000e+02
6.550000000000000000e+02
-3.060000000000000000e+02
-1.360000000000000000e+02
-3.950000000000000000e+02
-4.980000000000000000e+02
2.040000000000000000e+02
-1.650000000000000000e+02
-7.150000000000000000e+02
-2.280000000000000000e+02
-3.450000000000000000e+02
-1.208000000000000000e+03
-4.130000000000000000e+02
-6.720000000000000000e+02
-7.510000000000000000e+02
-6.010000000000000000e+02
-6.730000000000000000e+02
4.730000000000000000e+02
-5.750000000000000000e+02
2.510000000000000000e+02
-9.510000000000000000e+02
1.490000000000000000e+02
3.340000000000000000e+02
-8.250000000000000000e+02
-4.930000000000000000e+02
2.900000000000000000e+01
-8.890000000000000000e+02
-3.290000000000000000e+02
1.042000000000000000e+03
7.820000000000000000e+02
-1.640000000000000000e+02
-2.290000000000000000e+02
6.150000000000000000e+02
8.860000000000000000e+02
-2.940000000000000000e+02
2.740000000000000000e+02
-6.850000000000000000e+02
-6.700000000000000000e+02
1.350000000000000000e+02
-2.350000000000000000e+02
-8.160000000000000000e+02
-8.120000000000000000e+02
-2.950000000000000000e+02
-4.900000000000000000e+02
2.420000000000000000e+02
7.100000000000000000e+01
3.890000000000000000e+02
1.170000000000000000e+02
1.940000000000000000e+02
1.263000000000000000e+03
-5.280000000000000000e+02
-8.430000000000000000e+02
1.300000000000000000e+02
-8.700000000000000000e+01
3.110000000000000000e+02
3.040000000000000000e+02
-7.820000000000000000e+02
-7.200000000000000000e+01
-6.600000000000000000e+01
1.720000000000000000e+03
-7.640000000000000000e+02
-8.400000000000000000e+01
-2.580000000000000000e+02
-6.470000000000000000e+02
-1.080000000000000000e+02
3.140000000000000000e+02
2.003000000000000000e+03
1.940000000000000000e+02
-2.950000000000000000e+02
-2.490000000000000000e+02
5.000000000000000000e+00
-1.800000000000000000e+02
-1.260000000000000000e+02
1.256000000000000000e+03
4.480000000000000000e+02
-9.580000000000000000e+02
1.174000000000000000e+03
4.440000000000000000e+02
4.210000000000000000e+02
-1.267000000000000000e+03
5.140000000000000000e+02
2.230000000000000000e+02
1.150000000000000000e+02
-7.450000000000000000e+02
1.400000000000000000e+01
-5.090000000000000000e+02
1.158000000000000000e+03
-6.970000000000000000e+02
1.350000000000000000e+02
1.410000000000000000e+02
-1.440000000000000000e+02
8.690000000000000000e+02
-4.180000000000000000e+02
-4.330000000000000000e+02
1.098000000000000000e+03
7.160000000000000000e+02
