6.410000000000000000e+02
6.400000000000000000e+01
-1.208000000000000000e+03
5.770000000000000000e+02
3.050000000000000000e+02
-2.270000000000000000e+02
-2.590000000000000000e+02
-9.900000000000000000e+01
8.340000000000000000e+02
-7.600000000000000000e+01
4.280000000000000000e+02
1.380000000000000000e+02
1.104000000000000000e+03
5.200000000000000000e+01
4.110000000000000000e+02
6.790000000000000000e+02
5.230000000000000000e+02
-1.600000000000000000e+01
3.400000000000000000e+01
8.800000000000000000e+01
-6.630000000000000000e+02
2.900000000000000000e+01
-2.860000000000000000e+02
1.071000000000000000e+03
6.730000000000000000e+02
1.011000000000000000e+03
-5.900000000000000000e+01
3.650000000000000000e+02
-2.760000000000000000e+02
-7.890000000000000000e+02
2.540000000000000000e+02
-2.820000000000000000e+02
-7.850000000000000000e+02
8.670000000000000000e+02
1.000000000000000000e+01
3.620000000000000000e+02
2.800000000000000000e+02
1.353000000000000000e+03
7.870000000000000000e+02
2.230000000000000000e+02
2.200000000000000000e+01
7.400000000000000000e+01
-1.000000000000000000e+01
-1.900000000000000000e+02
1.406000000000000000e+03
-2.910000000000000000e+02
-1.850000000000000000e+02
1.274000000000000000e+03
6.130000000000000000e+02
8.520000000000000000e+02
-6.410000000000000000e+02
1.780000000000000000e+02
-1.001000000000000000e+03
8.400000000000000000e+02
-6.070000000000000000e+02
-5.110000000000000000e+02
-8.270000000000000000e+02
3.200000000000000000e+01
1.890000000000000000e+02
1.384000000000000000e+03
9.960000000000000000e+02
4.870000000000000000e+02
1.100000000000000000e+01
3.580000000000000000e+02
1.063000000000000000e+03
1.360000000000000000e+02
1.330000000000000000e+02
8.270000000000000000e+02
-2.960000000000000000e+02
1.750000000000000000e+02
-5.690000000000000000e+02
-1.300000000000000000e+01
4.000000000000000000e+00
2.820000000000000000e+02
2.850000000000000000e+02
7.600000000000000000e+02
6.930000000000000000e+02
7.030000000000000000e+02
2.530000000000000000e+02
7.880000000000000000e+02
-2.150000000000000000e+02
5.230000000000000000e+02
2.340000000000000000e+02
-1.770000000000000000e+02
1.220000000000000000e+02
1.090000000000000000e+03
1.007000000000000000e+03
5.020000000000000000e+02
5.350000000000000000e+02
1.120000000000000000e+03
5.610000000000000000e+02
-1.534000000000000000e+03
6.830000000000000000e+02
-5.610000000000000000e+02
-2.300000000000000000e+02
1.750000000000000000e+02
-2.200000000000000000e+01
6.860000000000000000e+02
3.170000000000000000e+02
2.930000000000000000e+02
5.230000000000000000e+02
2.850000000000000000e+02
-9.760000000000000000e+02
7.690000000000000000e+02
2.840000000000000000e+02
7.690000000000000000e+02
9.500000000000000000e+01
1.440000000000000000e+02
4.350000000000000000e+02
6.090000000000000000e+02
-6.412000000000000000e+03
3.060000000000000000e+02
-2.130000000000000000e+02
1.670000000000000000e+02
-4.870000000000000000e+02
6.830000000000000000e+02
5.230000000000000000e+02
-4.120000000000000000e+02
1.221000000000000000e+03
2.090000000000000000e+02
8.420000000000000000e+02
2.930000000000000000e+02
6.160000000000000000e+02
3.240000000000000000e+02
6.770000000000000000e+02
7.060000000000000000e+02
5.700000000000000000e+01
5.350000000000000000e+02
-2.650000000000000000e+02
4.390000000000000000e+02
-2.960000000000000000e+02
1.126000000000000000e+03
1.124000000000000000e+03
-1.650000000000000000e+02
-3.570000000000000000e+02
3.800000000000000000e+02
-4.260000000000000000e+02
-1.782000000000000000e+03
-4.000000000000000000e+00
1.360000000000000000e+02
-6.800000000000000000e+02
6.080000000000000000e+02
1.940000000000000000e+02
-8.200000000000000000e+01
-1.700000000000000000e+01
4.320000000000000000e+02
6.380000000000000000e+02
3.980000000000000000e+02
-5.800000000000000000e+01
8.080000000000000000e+02
8.400000000000000000e+01
-8.600000000000000000e+01
1.080000000000000000e+02
-9.200000000000000000e+01
-2.180000000000000000e+02
-1.900000000000000000e+02
-3.100000000000000000e+01
7.000000000000000000e+02
2.070000000000000000e+02
1.034000000000000000e+03
3.010000000000000000e+02
7.850000000000000000e+02
-4.720000000000000000e+02
-4.490000000000000000e+02
-6.430000000000000000e+02
1.003000000000000000e+03
1.860000000000000000e+02
6.800000000000000000e+02
5.150000000000000000e+02
-1.190000000000000000e+02
8.520000000000000000e+02
-1.770000000000000000e+02
3.500000000000000000e+01
1.102000000000000000e+03
8.160000000000000000e+02
5.050000000000000000e+02
6.150000000000000000e+02
8.200000000000000000e+01
1.401000000000000000e+03
3.169000000000000000e+03
3.620000000000000000e+02
3.210000000000000000e+02
4.740000000000000000e+02
-4.270000000000000000e+02
1.000000000000000000e+01
9.900000000000000000e+02
6.910000000000000000e+02
9.770000000000000000e+02
-1.910000000000000000e+02
-9.890000000000000000e+02
-6.990000000000000000e+02
3.330000000000000000e+02
6.150000000000000000e+02
5.960000000000000000e+02
-1.240000000000000000e+03
-3.140000000000000000e+02
6.850000000000000000e+02
-7.350000000000000000e+02
-2.430000000000000000e+02
2.520000000000000000e+02
6.540000000000000000e+02
-2.340000000000000000e+02
1.062000000000000000e+03
4.270000000000000000e+02
3.200000000000000000e+02
1.003000000000000000e+03
8.630000000000000000e+02
-7.970000000000000000e+02
3.020000000000000000e+02
2.500000000000000000e+02
-7.200000000000000000e+01
2.310000000000000000e+02
8.200000000000000000e+02
-1.125000000000000000e+03
3.780000000000000000e+02
2.050000000000000000e+02
4.310000000000000000e+02
3.300000000000000000e+02
5.300000000000000000e+02
6.390000000000000000e+02
-3.520000000000000000e+02
-1.940000000000000000e+02
-1.760000000000000000e+02
-5.990000000000000000e+02
3.800000000000000000e+02
2.960000000000000000e+02
3.680000000000000000e+02
1.430000000000000000e+02
7.590000000000000000e+02
-2.970000000000000000e+02
7.800000000000000000e+02
-4.300000000000000000e+02
-8.540000000000000000e+02
-1.690000000000000000e+02
7.700000000000000000e+02
5.400000000000000000e+02
5.020000000000000000e+02
2.520000000000000000e+02
-6.130000000000000000e+02
-1.279000000000000000e+03
2.720000000000000000e+02
1.420000000000000000e+02
4.090000000000000000e+02
7.940000000000000000e+02
-1.660000000000000000e+02
5.880000000000000000e+02
-1.630000000000000000e+02
1.300000000000000000e+01
5.170000000000000000e+02
8.070000000000000000e+02
-4.750000000000000000e+02
8.590000000000000000e+02
3.760000000000000000e+02
-2.600000000000000000e+01
7.900000000000000000e+02
1.170000000000000000e+02
-1.800000000000000000e+02
6.070000000000000000e+02
-3.790000000000000000e+02
3.480000000000000000e+02
3.200000000000000000e+01
7.000000000000000000e+01
-3.910000000000000000e+02
-1.000000000000000000e+01
8.800000000000000000e+02
-2.290000000000000000e+02
4.250000000000000000e+02
4.190000000000000000e+02
-1.869000000000000000e+03
1.433000000000000000e+03
-1.339000000000000000e+03
5.390000000000000000e+02
-2.250000000000000000e+02
4.100000000000000000e+01
-1.350000000000000000e+02
6.650000000000000000e+02
-4.300000000000000000e+01
5.700000000000000000e+02
-4.170000000000000000e+02
3.220000000000000000e+02
1.180000000000000000e+03
1.880000000000000000e+02
-1.040000000000000000e+02
-2.650000000000000000e+02
2.960000000000000000e+02
4.090000000000000000e+02
1.300000000000000000e+01
5.900000000000000000e+01
-2.310000000000000000e+02
-1.700000000000000000e+01
-6.660000000000000000e+02
6.280000000000000000e+02
-2.140000000000000000e+02
1.100000000000000000e+03
7.740000000000000000e+02
-6.870000000000000000e+02
-5.240000000000000000e+02
4.000000000000000000e+01
6.000000000000000000e+01
4.510000000000000000e+02
-1.030000000000000000e+02
4.700000000000000000e+01
-1.130000000000000000e+02
-7.350000000000000000e+02
-8.500000000000000000e+01
4.830000000000000000e+02
1.770000000000000000e+02
-9.200000000000000000e+01
2.970000000000000000e+02
6.410000000000000000e+02
-2.310000000000000000e+02
2.010000000000000000e+02
-5.050000000000000000e+02
7.810000000000000000e+02
1.780000000000000000e+02
-2.031000000000000000e+03
-2.240000000000000000e+02
1.230000000000000000e+02
1.529000000000000000e+03
-2.870000000000000000e+02
1.289000000000000000e+03
8.040000000000000000e+02
4.400000000000000000e+01
1.269000000000000000e+03
5.030000000000000000e+02
1.229000000000000000e+03
9.700000000000000000e+02
2.990000000000000000e+02
-6.770000000000000000e+02
2.720000000000000000e+02
4.680000000000000000e+02
5.890000000000000000e+02
4.130000000000000000e+02
6.640000000000000000e+02
-1.183000000000000000e+03
2.360000000000000000e+02
3.080000000000000000e+02
6.960000000000000000e+02
-2.350000000000000000e+02
5.810000000000000000e+02
8.910000000000000000e+02
-1.530000000000000000e+02
6.970000000000000000e+02
-2.370000000000000000e+02
8.200000000000000000e+02
9.900000000000000000e+01
1.000000000000000000e+02
6.960000000000000000e+02
4.640000000000000000e+02
1.680000000000000000e+02
5.300000000000000000e+02
-1.170000000000000000e+03
1.980000000000000000e+02
-2.490000000000000000e+02
-1.343000000000000000e+03
-8.550000000000000000e+02
1.163000000000000000e+03
-3.730000000000000000e+02
3.930000000000000000e+02
-1.384000000000000000e+03
-9.300000000000000000e+01
-7.700000000000000000e+01
5.700000000000000000e+02
3.170000000000000000e+02
-1.070000000000000000e+02
3.500000000000000000e+01
1.285000000000000000e+03
4.270000000000000000e+02
-9.600000000000000000e+02
-1.340000000000000000e+02
-5.800000000000000000e+01
-5.410000000000000000e+02
4.290000000000000000e+02
2.930000000000000000e+02
5.490000000000000000e+02
6.160000000000000000e+02
-5.780000000000000000e+02
4.890000000000000000e+02
-6.800000000000000000e+02
-5.780000000000000000e+02
4.130000000000000000e+02
-3.100000000000000000e+02
8.410000000000000000e+02
4.800000000000000000e+01
-3.000000000000000000e+01
8.340000000000000000e+02
4.850000000000000000e+02
1.440000000000000000e+02
4.690000000000000000e+02
5.140000000000000000e+02
8.490000000000000000e+02
2.268000000000000000e+03
-6.400000000000000000e+02
-4.920000000000000000e+02
-1.200000000000000000e+01
3.500000000000000000e+02
-2.750000000000000000e+02
6.080000000000000000e+02
-5.540000000000000000e+02
-1.650000000000000000e+02
1.450000000000000000e+02
9.700000000000000000e+01
5.800000000000000000e+01
3.450000000000000000e+02
7.600000000000000000e+01
4.000000000000000000e+02
7.240000000000000000e+02
-1.280000000000000000e+02
8.710000000000000000e+02
3.570000000000000000e+02
3.240000000000000000e+02
-3.420000000000000000e+02
8.430000000000000000e+02
-1.610000000000000000e+02
4.200000000000000000e+01
-3.250000000000000000e+02
-3.290000000000000000e+02
9.820000000000000000e+02
2.220000000000000000e+02
6.630000000000000000e+02
-5.000000000000000000e+00
6.390000000000000000e+02
3.680000000000000000e+02
2.300000000000000000e+01
6.400000000000000000e+01
-1.970000000000000000e+02
-3.270000000000000000e+02
3.630000000000000000e+02
-6.100000000000000000e+01
-4.710000000000000000e+02
-3.660000000000000000e+02
-2.400000000000000000e+01
5.720000000000000000e+02
1.010000000000000000e+02
1.545000000000000000e+03
4.900000000000000000e+02
4.820000000000000000e+02
1.499000000000000000e+03
-4.380000000000000000e+02
-5.000000000000000000e+00
5.890000000000000000e+02
6.390000000000000000e+02
2.990000000000000000e+02
-6.280000000000000000e+02
5.000000000000000000e+00
-4.290000000000000000e+02
1.400000000000000000e+02
3.480000000000000000e+02
8.340000000000000000e+02
-5.790000000000000000e+02
-1.250000000000000000e+02
2.350000000000000000e+02
8.420000000000000000e+02
1.730000000000000000e+02
2.970000000000000000e+02
-1.746000000000000000e+03
-2.300000000000000000e+02
1.890000000000000000e+02
-3.520000000000000000e+02
2.520000000000000000e+02
3.490000000000000000e+02
8.600000000000000000e+01
-1.180000000000000000e+02
3.800000000000000000e+01
-7.430000000000000000e+02
2.810000000000000000e+02
1.017000000000000000e+03
5.940000000000000000e+02
3.400000000000000000e+02
-3.050000000000000000e+02
4.100000000000000000e+02
5.920000000000000000e+02
-4.240000000000000000e+02
-7.600000000000000000e+02
3.300000000000000000e+02
-5.180000000000000000e+02
4.770000000000000000e+02
1.590000000000000000e+02
4.080000000000000000e+02
1.066000000000000000e+03
-3.400000000000000000e+02
1.100000000000000000e+01
2.000000000000000000e+01
1.960000000000000000e+02
2.500000000000000000e+01
7.920000000000000000e+02
-3.100000000000000000e+01
6.700000000000000000e+01
5.510000000000000000e+02
3.040000000000000000e+02
1.930000000000000000e+02
-1.640000000000000000e+02
6.520000000000000000e+02
5.840000000000000000e+02
1.430000000000000000e+02
2.000000000000000000e+01
9.570000000000000000e+02
-4.900000000000000000e+01
3.800000000000000000e+02
-1.650000000000000000e+02
-6.200000000000000000e+02
-3.760000000000000000e+02
-9.000000000000000000e+01
3.220000000000000000e+02
6.450000000000000000e+02
3.780000000000000000e+02
-4.270000000000000000e+02
7.900000000000000000e+01
-7.970000000000000000e+02
5.600000000000000000e+01
3.570000000000000000e+02
7.640000000000000000e+02
