2.317000000000000000e+03
1.958000000000000000e+03
-1.215000000000000000e+03
1.915000000000000000e+03
3.520000000000000000e+02
-6.340000000000000000e+02
2.140000000000000000e+02
4.970000000000000000e+02
-1.639000000000000000e+03
-1.071000000000000000e+03
-2.364000000000000000e+03
-2.910000000000000000e+02
2.425000000000000000e+03
-1.638000000000000000e+03
-3.788000000000000000e+03
2.530000000000000000e+02
-1.300000000000000000e+03
2.369000000000000000e+03
3.844000000000000000e+03
3.691000000000000000e+03
-2.630000000000000000e+02
1.043000000000000000e+03
-9.910000000000000000e+02
5.460000000000000000e+02
-6.820000000000000000e+02
-1.523000000000000000e+03
1.884000000000000000e+03
-1.659000000000000000e+03
5.840000000000000000e+02
1.032000000000000000e+03
2.464000000000000000e+03
-1.801000000000000000e+03
8.000000000000000000e+00
-1.525000000000000000e+03
-3.340000000000000000e+02
-1.234000000000000000e+03
-3.500000000000000000e+01
-7.800000000000000000e+02
-7.120000000000000000e+02
-2.012000000000000000e+03
2.300000000000000000e+01
-1.593000000000000000e+03
1.714000000000000000e+03
2.559000000000000000e+03
6.400000000000000000e+01
-4.341000000000000000e+03
-1.049000000000000000e+03
2.604000000000000000e+03
3.860000000000000000e+02
2.924000000000000000e+03
-7.130000000000000000e+02
1.060000000000000000e+03
2.228000000000000000e+03
-9.940000000000000000e+02
-8.770000000000000000e+02
1.800000000000000000e+01
5.300000000000000000e+02
-1.314000000000000000e+03
-1.962000000000000000e+03
1.545000000000000000e+03
4.950000000000000000e+02
-2.752000000000000000e+03
-2.900000000000000000e+02
6.271000000000000000e+03
-4.540000000000000000e+02
-1.660000000000000000e+02
1.740000000000000000e+02
-1.750000000000000000e+03
5.380000000000000000e+02
2.309000000000000000e+03
4.970000000000000000e+02
6.020000000000000000e+02
-2.293000000000000000e+03
-2.567000000000000000e+03
-5.540000000000000000e+02
-1.178000000000000000e+03
9.850000000000000000e+02
-1.137000000000000000e+03
2.479000000000000000e+03
-5.340000000000000000e+02
1.367000000000000000e+03
2.680000000000000000e+02
2.730000000000000000e+02
-8.310000000000000000e+02
2.480000000000000000e+02
-2.350000000000000000e+02
-2.520000000000000000e+02
-5.380000000000000000e+02
-2.334000000000000000e+03
1.629000000000000000e+03
9.790000000000000000e+02
1.910000000000000000e+03
-3.620000000000000000e+02
2.174000000000000000e+03
-7.900000000000000000e+02
-4.800000000000000000e+02
6.890000000000000000e+02
-3.800000000000000000e+02
-1.084000000000000000e+03
5.420000000000000000e+02
-3.471000000000000000e+03
-1.430000000000000000e+03
-1.631000000000000000e+03
-2.048000000000000000e+03
2.230000000000000000e+02
-1.130000000000000000e+02
-8.750000000000000000e+02
1.641000000000000000e+03
2.738000000000000000e+03
-2.615000000000000000e+03
1.238000000000000000e+03
3.764000000000000000e+03
-2.401000000000000000e+03
2.000000000000000000e+02
1.570000000000000000e+02
-8.340000000000000000e+02
-5.554000000000000000e+03
1.864000000000000000e+03
1.207000000000000000e+03
6.015000000000000000e+03
-8.330000000000000000e+02
6.250000000000000000e+02
3.201000000000000000e+03
1.760000000000000000e+02
-1.714000000000000000e+03
3.340000000000000000e+02
3.990000000000000000e+02
-7.720000000000000000e+02
-3.840000000000000000e+02
-3.650000000000000000e+03
1.952000000000000000e+03
-1.799000000000000000e+03
1.966000000000000000e+03
1.045000000000000000e+03
3.650000000000000000e+02
1.761000000000000000e+03
-3.490000000000000000e+02
9.780000000000000000e+02
-2.052000000000000000e+03
2.255000000000000000e+03
-7.830000000000000000e+02
-1.859000000000000000e+03
-3.570000000000000000e+02
2.380000000000000000e+02
-6.060000000000000000e+02
-1.241000000000000000e+03
-3.590000000000000000e+02
2.600000000000000000e+02
9.340000000000000000e+02
-1.127000000000000000e+03
-1.686000000000000000e+03
2.803000000000000000e+03
-7.210000000000000000e+02
-2.327000000000000000e+03
-1.842000000000000000e+03
1.153000000000000000e+03
1.889000000000000000e+03
1.712000000000000000e+03
-1.715000000000000000e+03
1.377000000000000000e+03
-6.680000000000000000e+02
-4.568000000000000000e+03
-4.340000000000000000e+02
-1.520000000000000000e+03
2.750000000000000000e+02
-5.430000000000000000e+02
-2.917000000000000000e+03
1.086000000000000000e+03
1.960000000000000000e+02
3.739000000000000000e+03
-1.265000000000000000e+03
6.410000000000000000e+02
-1.737000000000000000e+03
-1.202000000000000000e+03
1.720000000000000000e+02
-1.164000000000000000e+03
-4.019000000000000000e+03
-1.854000000000000000e+03
-7.660000000000000000e+02
-1.395000000000000000e+03
-4.848000000000000000e+03
-3.750000000000000000e+02
-5.480000000000000000e+02
8.460000000000000000e+02
-9.700000000000000000e+01
-3.200000000000000000e+02
-3.099000000000000000e+03
-2.110000000000000000e+02
-1.275000000000000000e+03
-3.880000000000000000e+02
-3.113000000000000000e+03
5.390000000000000000e+02
3.910000000000000000e+02
-8.270000000000000000e+02
-2.154000000000000000e+03
1.960000000000000000e+02
-2.601000000000000000e+03
-3.800000000000000000e+01
-3.223000000000000000e+03
-9.600000000000000000e+01
1.341000000000000000e+03
-5.050000000000000000e+02
-6.950000000000000000e+02
3.934000000000000000e+03
1.448000000000000000e+03
8.460000000000000000e+02
1.311000000000000000e+03
-2.272000000000000000e+03
8.840000000000000000e+02
1.847000000000000000e+03
-2.740000000000000000e+02
-5.890000000000000000e+02
-2.800000000000000000e+01
-2.040000000000000000e+02
-1.385000000000000000e+03
2.401000000000000000e+03
2.330000000000000000e+02
4.210000000000000000e+02
-2.460000000000000000e+02
-5.540000000000000000e+02
1.227000000000000000e+03
-1.347000000000000000e+03
1.013000000000000000e+03
-3.266000000000000000e+03
-2.740000000000000000e+03
-1.376000000000000000e+03
-3.540000000000000000e+02
-4.690000000000000000e+02
-3.346000000000000000e+03
-6.400000000000000000e+01
-7.180000000000000000e+02
-2.875000000000000000e+03
1.607000000000000000e+03
-1.366000000000000000e+03
-2.513000000000000000e+03
-9.000000000000000000e+02
4.440000000000000000e+02
-9.070000000000000000e+02
-8.790000000000000000e+02
2.840000000000000000e+03
4.890000000000000000e+02
-5.447000000000000000e+03
1.290000000000000000e+03
-6.940000000000000000e+02
-8.570000000000000000e+02
3.350000000000000000e+02
5.650000000000000000e+02
8.420000000000000000e+02
1.372000000000000000e+03
-1.470000000000000000e+03
-1.112000000000000000e+03
1.057000000000000000e+03
1.899000000000000000e+03
-2.195000000000000000e+03
1.539000000000000000e+03
5.562000000000000000e+03
