9.710000000000000000e+02
-1.532000000000000000e+03
1.328000000000000000e+03
3.152000000000000000e+03
-1.980000000000000000e+03
-1.942000000000000000e+03
4.289000000000000000e+03
1.702000000000000000e+03
-7.870000000000000000e+02
-2.021000000000000000e+03
1.236100000000000000e+04
-4.200000000000000000e+01
5.381000000000000000e+03
2.352000000000000000e+03
5.894000000000000000e+03
-1.678000000000000000e+03
1.346000000000000000e+03
2.296000000000000000e+03
5.514000000000000000e+03
3.904000000000000000e+03
2.366000000000000000e+03
-2.925000000000000000e+03
7.200000000000000000e+03
4.890000000000000000e+02
-3.010000000000000000e+03
3.193000000000000000e+03
1.030600000000000000e+04
2.860000000000000000e+02
-2.745000000000000000e+03
3.858000000000000000e+03
2.550000000000000000e+03
-5.300000000000000000e+01
-1.577000000000000000e+03
4.007000000000000000e+03
-5.141000000000000000e+03
1.432000000000000000e+03
5.880000000000000000e+02
1.270000000000000000e+03
-3.830000000000000000e+02
-5.120000000000000000e+02
-3.034000000000000000e+03
2.388000000000000000e+03
3.080000000000000000e+02
3.635000000000000000e+03
3.905000000000000000e+03
5.527000000000000000e+03
-1.597000000000000000e+03
-1.870000000000000000e+03
3.199000000000000000e+03
6.425000000000000000e+03
9.890000000000000000e+02
-1.080000000000000000e+02
-2.108000000000000000e+03
3.456000000000000000e+03
-1.741000000000000000e+03
-3.870000000000000000e+03
2.238000000000000000e+03
2.734000000000000000e+03
-1.840000000000000000e+02
-1.946000000000000000e+03
-2.578000000000000000e+03
2.818000000000000000e+03
-2.311000000000000000e+03
2.485000000000000000e+03
-2.084000000000000000e+03
9.787000000000000000e+03
1.978000000000000000e+03
2.926000000000000000e+03
-3.190000000000000000e+02
8.970000000000000000e+02
3.511000000000000000e+03
1.755000000000000000e+03
1.787000000000000000e+03
-5.270000000000000000e+02
-1.253000000000000000e+03
-9.610000000000000000e+02
-2.350000000000000000e+02
-1.245000000000000000e+03
7.700000000000000000e+02
-7.030000000000000000e+02
-4.980000000000000000e+02
-5.220000000000000000e+02
-2.114000000000000000e+03
3.843000000000000000e+03
-3.137000000000000000e+03
1.010000000000000000e+02
3.516000000000000000e+03
2.744000000000000000e+03
-9.070000000000000000e+02
3.885000000000000000e+03
8.900000000000000000e+01
-1.525000000000000000e+03
-2.361000000000000000e+03
-1.568000000000000000e+03
4.011000000000000000e+03
-9.390000000000000000e+02
-8.130000000000000000e+02
1.340000000000000000e+02
2.153000000000000000e+03
5.540000000000000000e+02
-6.278000000000000000e+03
4.984000000000000000e+03
2.921000000000000000e+03
-1.973000000000000000e+03
2.810000000000000000e+03
1.548000000000000000e+03
1.193000000000000000e+03
-2.140000000000000000e+02
1.470500000000000000e+04
-3.949000000000000000e+03
3.345000000000000000e+03
-7.780000000000000000e+02
-4.828000000000000000e+03
-3.351000000000000000e+03
2.418000000000000000e+03
-1.393000000000000000e+03
-6.009000000000000000e+03
5.880000000000000000e+02
-6.910000000000000000e+02
4.075000000000000000e+03
5.697000000000000000e+03
-5.012000000000000000e+03
-4.390000000000000000e+03
-2.880000000000000000e+02
-5.260000000000000000e+02
5.460000000000000000e+02
5.117000000000000000e+03
2.342000000000000000e+03
1.343000000000000000e+03
2.040000000000000000e+03
-1.380000000000000000e+02
-1.020000000000000000e+02
-2.796000000000000000e+03
-1.199000000000000000e+03
3.058000000000000000e+03
5.104000000000000000e+03
2.359000000000000000e+03
-5.970000000000000000e+02
1.056000000000000000e+03
4.572000000000000000e+03
8.810000000000000000e+02
-2.444000000000000000e+03
4.095000000000000000e+03
-4.235000000000000000e+03
7.401000000000000000e+03
2.391000000000000000e+03
-3.196000000000000000e+03
1.984000000000000000e+03
-3.235000000000000000e+03
6.650000000000000000e+02
-8.620000000000000000e+02
-2.406000000000000000e+03
3.089000000000000000e+03
-9.290000000000000000e+02
9.170000000000000000e+02
-2.396000000000000000e+03
-5.030000000000000000e+02
4.480000000000000000e+02
-3.754000000000000000e+03
-2.946000000000000000e+03
1.156000000000000000e+03
4.693000000000000000e+03
2.728000000000000000e+03
2.786000000000000000e+03
3.072000000000000000e+03
1.731000000000000000e+03
-1.174000000000000000e+03
2.210000000000000000e+02
-7.500000000000000000e+02
-4.190000000000000000e+02
-4.260000000000000000e+02
3.776000000000000000e+03
-1.217000000000000000e+03
-2.346000000000000000e+03
-2.087000000000000000e+03
-1.806000000000000000e+03
-5.159000000000000000e+03
3.019000000000000000e+03
2.152000000000000000e+03
-2.122000000000000000e+03
4.615000000000000000e+03
-1.034000000000000000e+03
1.553000000000000000e+03
-1.530000000000000000e+02
-1.937000000000000000e+03
-2.769000000000000000e+03
1.784000000000000000e+03
-6.856000000000000000e+03
-2.081000000000000000e+03
-1.279000000000000000e+03
3.351000000000000000e+03
4.414000000000000000e+03
1.898000000000000000e+03
1.008200000000000000e+04
-2.750000000000000000e+02
3.126000000000000000e+03
-1.113800000000000000e+04
1.796000000000000000e+03
-8.320000000000000000e+02
6.350000000000000000e+02
-1.160000000000000000e+02
-1.152000000000000000e+03
2.066000000000000000e+03
6.523000000000000000e+03
-2.650000000000000000e+03
-4.397000000000000000e+03
2.915000000000000000e+03
-1.269000000000000000e+03
8.785000000000000000e+03
2.259000000000000000e+03
-3.620000000000000000e+02
2.280000000000000000e+02
3.353000000000000000e+03
2.985000000000000000e+03
1.672000000000000000e+03
6.030000000000000000e+02
-3.576000000000000000e+03
5.534000000000000000e+03
-5.310000000000000000e+02
-7.800000000000000000e+02
1.250000000000000000e+03
-1.501000000000000000e+03
-3.000000000000000000e+00
2.300000000000000000e+03
-3.583000000000000000e+03
-1.299000000000000000e+03
3.473000000000000000e+03
1.536500000000000000e+04
-1.670000000000000000e+03
2.622000000000000000e+03
-1.277000000000000000e+03
-1.548300000000000000e+04
-3.387000000000000000e+03
-3.940000000000000000e+02
6.060000000000000000e+02
-5.200000000000000000e+01
-1.134000000000000000e+03
-4.700000000000000000e+02
1.763000000000000000e+03
-7.040000000000000000e+02
-3.080000000000000000e+02
-1.336000000000000000e+03
-1.010000000000000000e+03
-1.244000000000000000e+03
-1.624000000000000000e+03
8.560000000000000000e+02
8.795000000000000000e+03
2.570000000000000000e+02
-4.310000000000000000e+02
7.610000000000000000e+02
-2.648000000000000000e+03
6.000000000000000000e+00
1.570000000000000000e+03
5.603000000000000000e+03
1.133000000000000000e+03
-5.080000000000000000e+02
