7.000000000000000000e+01
1.381000000000000000e+03
2.400000000000000000e+01
-2.220000000000000000e+02
-1.111000000000000000e+03
0.000000000000000000e+00
6.400000000000000000e+01
3.106000000000000000e+03
-7.160000000000000000e+02
1.380000000000000000e+03
-1.400000000000000000e+02
9.330000000000000000e+02
0.000000000000000000e+00
8.000000000000000000e+00
-1.160000000000000000e+02
-2.600000000000000000e+02
1.071000000000000000e+03
6.580000000000000000e+02
9.680000000000000000e+02
6.390000000000000000e+02
3.520000000000000000e+02
2.900000000000000000e+01
1.843000000000000000e+03
-8.700000000000000000e+01
-3.000000000000000000e+00
2.800000000000000000e+01
1.300000000000000000e+01
-7.410000000000000000e+02
1.600000000000000000e+02
5.760000000000000000e+02
1.500000000000000000e+01
-3.640000000000000000e+02
6.440000000000000000e+02
5.100000000000000000e+01
-2.000000000000000000e+00
-6.000000000000000000e+01
-6.500000000000000000e+01
5.000000000000000000e+00
2.360000000000000000e+02
7.900000000000000000e+01
2.700000000000000000e+01
2.310000000000000000e+02
2.193000000000000000e+03
-2.540000000000000000e+02
-6.830000000000000000e+02
3.600000000000000000e+01
4.190000000000000000e+02
4.800000000000000000e+01
4.200000000000000000e+01
9.000000000000000000e+01
-6.650000000000000000e+02
1.634000000000000000e+03
-2.000000000000000000e+03
9.660000000000000000e+02
1.100000000000000000e+01
1.160000000000000000e+02
-2.900000000000000000e+01
1.075000000000000000e+03
7.690000000000000000e+02
8.200000000000000000e+02
2.370000000000000000e+02
-4.570000000000000000e+02
-3.630000000000000000e+02
-2.650000000000000000e+02
4.200000000000000000e+01
-4.000000000000000000e+00
1.500000000000000000e+02
3.200000000000000000e+01
5.700000000000000000e+02
1.517000000000000000e+03
-1.042000000000000000e+03
1.431000000000000000e+03
-3.570000000000000000e+02
7.800000000000000000e+01
2.329000000000000000e+03
2.729000000000000000e+03
-7.830000000000000000e+02
-9.000000000000000000e+00
-1.000000000000000000e+00
1.430000000000000000e+02
2.500000000000000000e+02
-5.250000000000000000e+02
5.110000000000000000e+02
-2.000000000000000000e+00
4.230000000000000000e+02
2.056000000000000000e+03
-6.500000000000000000e+02
1.600000000000000000e+01
1.790000000000000000e+02
1.820000000000000000e+03
1.000000000000000000e+00
-5.400000000000000000e+01
-4.300000000000000000e+01
-3.000000000000000000e+01
3.960000000000000000e+02
1.178000000000000000e+03
-8.450000000000000000e+02
-4.200000000000000000e+02
1.740000000000000000e+02
2.040000000000000000e+02
3.600000000000000000e+01
-2.280000000000000000e+02
-4.310000000000000000e+02
-1.070000000000000000e+02
1.353000000000000000e+03
1.104000000000000000e+03
1.923000000000000000e+03
2.130000000000000000e+02
1.275000000000000000e+03
2.513000000000000000e+03
2.863000000000000000e+03
-1.190000000000000000e+02
-1.389000000000000000e+03
6.060000000000000000e+02
1.217000000000000000e+03
4.650000000000000000e+02
4.600000000000000000e+01
1.518000000000000000e+03
-1.800000000000000000e+03
2.565000000000000000e+03
6.300000000000000000e+02
-1.170000000000000000e+02
-2.270000000000000000e+02
6.100000000000000000e+01
1.000000000000000000e+02
8.220000000000000000e+02
-8.000000000000000000e+00
1.920000000000000000e+02
-7.700000000000000000e+02
-1.100000000000000000e+01
3.820000000000000000e+02
-1.760000000000000000e+02
-3.800000000000000000e+01
7.100000000000000000e+01
6.510000000000000000e+02
-4.220000000000000000e+02
-2.700000000000000000e+01
-6.830000000000000000e+02
9.780000000000000000e+02
-4.570000000000000000e+02
4.330000000000000000e+02
3.450000000000000000e+02
8.630000000000000000e+02
-4.900000000000000000e+02
2.710000000000000000e+02
7.400000000000000000e+01
-1.900000000000000000e+01
1.900000000000000000e+01
3.329000000000000000e+03
-3.350000000000000000e+02
-4.870000000000000000e+02
1.196000000000000000e+03
3.360000000000000000e+02
-1.741000000000000000e+03
8.900000000000000000e+01
1.600000000000000000e+01
-2.190000000000000000e+02
-3.002000000000000000e+03
1.670000000000000000e+02
-5.650000000000000000e+02
-4.120000000000000000e+02
1.090000000000000000e+02
8.600000000000000000e+01
-4.610000000000000000e+02
2.500000000000000000e+01
2.500000000000000000e+01
-9.110000000000000000e+02
3.190000000000000000e+02
6.520000000000000000e+02
2.000000000000000000e+00
-5.350000000000000000e+02
3.600000000000000000e+01
2.243000000000000000e+03
1.900000000000000000e+02
6.000000000000000000e+00
3.690000000000000000e+02
5.800000000000000000e+01
-1.800000000000000000e+01
1.810000000000000000e+02
4.000000000000000000e+01
1.213000000000000000e+03
-4.190000000000000000e+02
1.680000000000000000e+02
1.633000000000000000e+03
1.400000000000000000e+01
-2.320000000000000000e+02
-8.200000000000000000e+01
-1.200000000000000000e+01
2.868000000000000000e+03
6.400000000000000000e+01
-2.240000000000000000e+02
7.600000000000000000e+01
-3.120000000000000000e+02
-6.500000000000000000e+01
-3.690000000000000000e+02
1.299000000000000000e+03
1.087000000000000000e+03
-4.500000000000000000e+01
4.560000000000000000e+02
-1.133000000000000000e+03
4.180000000000000000e+02
1.340000000000000000e+02
-5.490000000000000000e+02
3.690000000000000000e+02
1.000000000000000000e+00
1.145000000000000000e+03
9.900000000000000000e+01
3.690000000000000000e+02
2.030000000000000000e+02
7.380000000000000000e+02
-5.000000000000000000e+00
-6.930000000000000000e+02
1.080000000000000000e+02
-1.441000000000000000e+03
-5.000000000000000000e+01
3.900000000000000000e+01
2.830000000000000000e+02
5.460000000000000000e+02
-5.400000000000000000e+02
9.730000000000000000e+02
3.000000000000000000e+00
5.500000000000000000e+02
2.830000000000000000e+02
-9.000000000000000000e+00
-3.210000000000000000e+02
2.090000000000000000e+02
4.400000000000000000e+01
-1.162000000000000000e+03
-1.261000000000000000e+03
-2.100000000000000000e+01
-8.700000000000000000e+02
-2.650000000000000000e+02
7.590000000000000000e+02
5.050000000000000000e+02
-3.130000000000000000e+02
-5.900000000000000000e+01
3.600000000000000000e+01
-1.490000000000000000e+02
-6.000000000000000000e+01
2.590000000000000000e+02
-3.580000000000000000e+02
-1.713000000000000000e+03
-7.500000000000000000e+01
7.820000000000000000e+02
2.300000000000000000e+01
-1.090000000000000000e+02
-1.880000000000000000e+02
-1.430000000000000000e+03
-1.210000000000000000e+02
-4.450000000000000000e+02
-1.658000000000000000e+03
1.175000000000000000e+03
-1.652000000000000000e+03
7.070000000000000000e+02
-1.290000000000000000e+02
1.386000000000000000e+03
