3.668000000000000000e+03
2.520000000000000000e+02
-1.039000000000000000e+03
-6.350000000000000000e+02
1.656000000000000000e+03
1.426000000000000000e+03
2.231000000000000000e+03
-2.034000000000000000e+03
-8.810000000000000000e+02
3.670000000000000000e+02
3.169000000000000000e+03
-1.037000000000000000e+03
-1.399000000000000000e+03
1.000000000000000000e+03
-5.083000000000000000e+03
3.142000000000000000e+03
4.100000000000000000e+02
-1.561000000000000000e+03
4.050000000000000000e+02
2.373000000000000000e+03
-2.910000000000000000e+03
2.080000000000000000e+03
-4.780000000000000000e+02
-2.845000000000000000e+03
-6.180000000000000000e+02
-8.550000000000000000e+02
6.231000000000000000e+03
5.000000000000000000e+02
3.028000000000000000e+03
-1.273000000000000000e+03
-1.290000000000000000e+02
7.770000000000000000e+02
6.320000000000000000e+02
2.218000000000000000e+03
-7.450000000000000000e+02
1.308000000000000000e+03
2.450000000000000000e+02
1.966000000000000000e+03
-8.150000000000000000e+02
2.506000000000000000e+03
-4.280000000000000000e+02
4.800000000000000000e+01
6.720000000000000000e+02
4.400000000000000000e+01
2.002000000000000000e+03
1.945000000000000000e+03
-6.450000000000000000e+02
-1.210000000000000000e+02
-4.776000000000000000e+03
-6.860000000000000000e+02
-9.470000000000000000e+02
-3.020000000000000000e+02
2.744000000000000000e+03
2.494000000000000000e+03
-1.462000000000000000e+03
-4.770000000000000000e+02
4.900000000000000000e+02
2.628000000000000000e+03
1.116000000000000000e+03
9.350000000000000000e+02
-1.444000000000000000e+03
7.710000000000000000e+02
1.458000000000000000e+03
1.032000000000000000e+03
1.173000000000000000e+03
3.455000000000000000e+03
-6.670000000000000000e+02
3.050000000000000000e+02
-2.618000000000000000e+03
9.510000000000000000e+02
-4.830000000000000000e+02
9.080000000000000000e+02
4.310000000000000000e+02
7.610000000000000000e+02
1.485000000000000000e+03
7.830000000000000000e+02
-2.857000000000000000e+03
5.290000000000000000e+02
2.358000000000000000e+03
1.703000000000000000e+03
2.910000000000000000e+02
2.447000000000000000e+03
-1.666000000000000000e+03
2.151000000000000000e+03
2.222000000000000000e+03
4.350000000000000000e+02
-1.374000000000000000e+03
1.673000000000000000e+03
-3.414000000000000000e+03
6.680000000000000000e+02
1.202000000000000000e+03
1.652000000000000000e+03
3.811000000000000000e+03
-5.360000000000000000e+02
1.982000000000000000e+03
4.690000000000000000e+02
4.750000000000000000e+03
2.868000000000000000e+03
1.792000000000000000e+03
3.360000000000000000e+02
2.840000000000000000e+02
2.600000000000000000e+01
-2.798000000000000000e+03
-1.147000000000000000e+03
1.374000000000000000e+03
-6.250000000000000000e+02
6.930000000000000000e+02
-6.295000000000000000e+03
6.990000000000000000e+02
6.170000000000000000e+02
1.921000000000000000e+03
1.001000000000000000e+03
1.330000000000000000e+03
-4.490000000000000000e+02
-1.220000000000000000e+03
1.222000000000000000e+03
1.236000000000000000e+03
-2.530000000000000000e+02
-2.117000000000000000e+03
-2.340000000000000000e+03
-7.190000000000000000e+02
-2.942000000000000000e+03
1.228000000000000000e+03
1.270000000000000000e+03
-7.840000000000000000e+02
5.171000000000000000e+03
-4.630000000000000000e+02
-4.792000000000000000e+03
