3.903000000000000000e+03
1.122000000000000000e+03
-5.250000000000000000e+02
2.170000000000000000e+02
-4.398000000000000000e+03
1.028000000000000000e+03
8.760000000000000000e+02
-9.200000000000000000e+02
2.293000000000000000e+03
3.545000000000000000e+03
-8.990000000000000000e+02
1.927000000000000000e+03
4.850000000000000000e+02
-1.656000000000000000e+03
1.229000000000000000e+03
-1.430000000000000000e+02
1.566000000000000000e+03
2.273000000000000000e+03
-1.782000000000000000e+03
1.327000000000000000e+03
3.659000000000000000e+03
1.127000000000000000e+03
-3.450000000000000000e+03
1.406000000000000000e+03
-3.422000000000000000e+03
2.539000000000000000e+03
-1.560000000000000000e+02
2.270000000000000000e+03
3.298000000000000000e+03
4.990000000000000000e+02
-1.050000000000000000e+02
5.010000000000000000e+03
2.619000000000000000e+03
1.452000000000000000e+03
6.500000000000000000e+02
7.290000000000000000e+02
-1.370000000000000000e+02
6.080000000000000000e+02
-6.530000000000000000e+02
-8.560000000000000000e+02
1.325000000000000000e+03
-1.154000000000000000e+03
4.700000000000000000e+02
-1.186900000000000000e+04
-2.699000000000000000e+03
-2.654000000000000000e+03
1.860000000000000000e+02
-1.290000000000000000e+03
4.676000000000000000e+03
-1.893000000000000000e+03
-2.770000000000000000e+02
1.484000000000000000e+03
2.816000000000000000e+03
3.931000000000000000e+03
-1.033000000000000000e+03
-4.946000000000000000e+03
1.676000000000000000e+03
6.320000000000000000e+02
2.781000000000000000e+03
2.222000000000000000e+03
-4.345000000000000000e+03
9.800000000000000000e+01
2.208000000000000000e+03
-8.560000000000000000e+02
