6.100000000000000000e+02
9.060000000000000000e+02
-2.605000000000000000e+03
8.140000000000000000e+02
6.680000000000000000e+02
-1.610000000000000000e+02
8.440000000000000000e+02
6.560000000000000000e+02
7.720000000000000000e+02
-8.870000000000000000e+02
5.080000000000000000e+02
-1.594000000000000000e+03
5.900000000000000000e+02
9.190000000000000000e+02
-3.280000000000000000e+02
-1.190000000000000000e+03
5.830000000000000000e+02
-1.098000000000000000e+03
4.330000000000000000e+02
1.060000000000000000e+02
-5.150000000000000000e+02
-5.940000000000000000e+02
7.360000000000000000e+02
6.400000000000000000e+01
4.800000000000000000e+01
9.040000000000000000e+02
-2.980000000000000000e+02
8.400000000000000000e+02
1.800000000000000000e+01
4.510000000000000000e+02
1.610000000000000000e+02
-1.070000000000000000e+02
-2.570000000000000000e+02
2.020000000000000000e+02
-9.400000000000000000e+01
2.320000000000000000e+02
7.880000000000000000e+02
7.100000000000000000e+01
-9.500000000000000000e+01
4.030000000000000000e+02
-3.100000000000000000e+01
-5.270000000000000000e+02
3.510000000000000000e+02
2.690000000000000000e+02
-1.800000000000000000e+02
1.127000000000000000e+03
8.880000000000000000e+02
1.106000000000000000e+03
4.710000000000000000e+02
3.710000000000000000e+02
-4.280000000000000000e+02
-2.360000000000000000e+02
-1.585000000000000000e+03
3.100000000000000000e+01
2.150000000000000000e+02
9.100000000000000000e+01
1.086000000000000000e+03
6.970000000000000000e+02
1.000000000000000000e+02
-8.980000000000000000e+02
-3.070000000000000000e+02
7.200000000000000000e+02
-7.100000000000000000e+02
1.402000000000000000e+03
-5.100000000000000000e+01
1.271000000000000000e+03
-6.600000000000000000e+01
3.540000000000000000e+02
-3.530000000000000000e+02
-1.370000000000000000e+02
-7.120000000000000000e+02
1.262000000000000000e+03
6.980000000000000000e+02
-6.520000000000000000e+02
2.410000000000000000e+02
6.910000000000000000e+02
6.200000000000000000e+01
0.000000000000000000e+00
9.060000000000000000e+02
-5.100000000000000000e+01
6.220000000000000000e+02
3.870000000000000000e+02
6.280000000000000000e+02
-1.260000000000000000e+02
1.610000000000000000e+02
6.890000000000000000e+02
-1.490000000000000000e+02
2.040000000000000000e+02
-6.720000000000000000e+02
1.980000000000000000e+02
-9.120000000000000000e+02
-7.800000000000000000e+01
3.160000000000000000e+02
-9.750000000000000000e+02
7.700000000000000000e+02
1.950000000000000000e+02
9.810000000000000000e+02
2.870000000000000000e+02
-9.960000000000000000e+02
6.270000000000000000e+02
-2.283000000000000000e+03
7.750000000000000000e+02
-4.300000000000000000e+01
1.043000000000000000e+03
4.550000000000000000e+02
-1.028000000000000000e+03
-2.380000000000000000e+02
-4.790000000000000000e+02
-2.280000000000000000e+02
4.610000000000000000e+02
-6.800000000000000000e+01
-1.090000000000000000e+03
6.130000000000000000e+02
1.320000000000000000e+02
5.230000000000000000e+02
3.430000000000000000e+02
6.440000000000000000e+02
5.060000000000000000e+02
-1.440000000000000000e+02
-4.610000000000000000e+02
1.251000000000000000e+03
-2.200000000000000000e+02
5.280000000000000000e+02
3.950000000000000000e+02
2.200000000000000000e+02
4.650000000000000000e+02
-2.530000000000000000e+02
-2.020000000000000000e+02
-4.420000000000000000e+02
3.670000000000000000e+02
5.200000000000000000e+01
1.490000000000000000e+02
2.910000000000000000e+02
7.350000000000000000e+02
3.780000000000000000e+02
-1.356000000000000000e+03
8.900000000000000000e+01
8.600000000000000000e+02
-3.703000000000000000e+03
-8.800000000000000000e+01
1.092000000000000000e+03
-2.280000000000000000e+02
2.080000000000000000e+02
9.700000000000000000e+01
1.540000000000000000e+02
1.130000000000000000e+02
2.460000000000000000e+02
-1.590000000000000000e+02
4.100000000000000000e+02
2.730000000000000000e+02
7.340000000000000000e+02
4.070000000000000000e+02
5.980000000000000000e+02
6.900000000000000000e+01
8.210000000000000000e+02
-8.940000000000000000e+02
5.940000000000000000e+02
7.390000000000000000e+02
6.800000000000000000e+02
-6.580000000000000000e+02
5.000000000000000000e+01
-3.730000000000000000e+02
-4.100000000000000000e+01
-2.570000000000000000e+02
3.340000000000000000e+02
3.810000000000000000e+02
3.810000000000000000e+02
1.113000000000000000e+03
3.630000000000000000e+02
-5.300000000000000000e+01
3.000000000000000000e+02
5.100000000000000000e+01
9.300000000000000000e+01
-3.780000000000000000e+02
-6.290000000000000000e+02
2.420000000000000000e+02
1.600000000000000000e+01
5.260000000000000000e+02
1.750000000000000000e+02
4.960000000000000000e+02
4.060000000000000000e+02
9.000000000000000000e+00
-9.800000000000000000e+01
4.000000000000000000e+02
2.660000000000000000e+02
1.509000000000000000e+03
1.168000000000000000e+03
1.213000000000000000e+03
-9.580000000000000000e+02
-6.900000000000000000e+01
4.610000000000000000e+02
8.760000000000000000e+02
1.190000000000000000e+02
3.120000000000000000e+02
1.227000000000000000e+03
8.100000000000000000e+01
3.290000000000000000e+02
-1.840000000000000000e+02
2.040000000000000000e+02
-5.400000000000000000e+01
8.130000000000000000e+02
2.580000000000000000e+02
2.030000000000000000e+02
-1.080000000000000000e+02
7.290000000000000000e+02
-1.570000000000000000e+02
-3.500000000000000000e+01
5.710000000000000000e+02
6.880000000000000000e+02
-8.010000000000000000e+02
-1.018000000000000000e+03
4.570000000000000000e+02
4.470000000000000000e+02
4.210000000000000000e+02
-2.020000000000000000e+02
-2.600000000000000000e+01
1.020000000000000000e+02
-2.428000000000000000e+03
2.300000000000000000e+01
-3.940000000000000000e+02
-2.280000000000000000e+02
9.560000000000000000e+02
6.000000000000000000e+00
3.910000000000000000e+02
1.218000000000000000e+03
-2.330000000000000000e+02
2.430000000000000000e+02
1.013000000000000000e+03
4.250000000000000000e+02
-7.900000000000000000e+02
-6.910000000000000000e+02
1.134000000000000000e+03
2.800000000000000000e+02
3.100000000000000000e+02
-3.710000000000000000e+02
7.490000000000000000e+02
5.270000000000000000e+02
3.800000000000000000e+01
5.130000000000000000e+02
1.208000000000000000e+03
-2.257000000000000000e+03
6.870000000000000000e+02
-8.740000000000000000e+02
-2.190000000000000000e+02
-8.670000000000000000e+02
-3.900000000000000000e+01
6.000000000000000000e+00
7.250000000000000000e+02
-6.020000000000000000e+02
1.910000000000000000e+02
-2.694000000000000000e+03
6.640000000000000000e+02
6.090000000000000000e+02
6.830000000000000000e+02
1.159000000000000000e+03
5.920000000000000000e+02
