4.390000000000000000e+02
-1.305000000000000000e+03
8.450000000000000000e+02
7.660000000000000000e+02
-2.520000000000000000e+02
-8.750000000000000000e+02
-5.200000000000000000e+02
-5.170000000000000000e+02
-7.550000000000000000e+02
-2.850000000000000000e+02
4.450000000000000000e+02
4.150000000000000000e+02
-2.091000000000000000e+03
5.550000000000000000e+02
-3.160000000000000000e+02
-2.745000000000000000e+03
-7.020000000000000000e+02
-1.770000000000000000e+02
-6.840000000000000000e+02
8.830000000000000000e+02
1.139000000000000000e+03
-3.260000000000000000e+02
2.000000000000000000e+01
-1.010000000000000000e+02
4.950000000000000000e+02
-6.930000000000000000e+02
1.119000000000000000e+03
5.500000000000000000e+02
1.571000000000000000e+03
7.130000000000000000e+02
-2.000000000000000000e+01
8.050000000000000000e+02
1.180000000000000000e+02
1.124000000000000000e+03
-8.000000000000000000e+00
-2.810000000000000000e+02
1.020000000000000000e+03
-6.290000000000000000e+02
-1.410000000000000000e+02
8.430000000000000000e+02
-2.091000000000000000e+03
2.530000000000000000e+02
1.038000000000000000e+03
-1.235000000000000000e+03
6.570000000000000000e+02
4.890000000000000000e+02
5.040000000000000000e+02
1.770000000000000000e+02
-9.570000000000000000e+02
4.360000000000000000e+02
4.230000000000000000e+02
5.700000000000000000e+01
5.900000000000000000e+02
-2.000000000000000000e+01
5.170000000000000000e+02
2.060000000000000000e+02
-2.950000000000000000e+02
-4.120000000000000000e+02
1.820000000000000000e+02
1.335000000000000000e+03
-5.010000000000000000e+02
5.300000000000000000e+01
6.040000000000000000e+02
3.090000000000000000e+02
2.610000000000000000e+02
-2.403000000000000000e+03
5.740000000000000000e+02
-4.530000000000000000e+02
-2.720000000000000000e+02
-4.900000000000000000e+01
5.320000000000000000e+02
-6.480000000000000000e+02
4.970000000000000000e+02
-1.020000000000000000e+02
3.430000000000000000e+02
6.340000000000000000e+02
3.040000000000000000e+02
-8.600000000000000000e+01
-1.010000000000000000e+03
-3.350000000000000000e+02
-1.240000000000000000e+02
-3.580000000000000000e+02
-7.400000000000000000e+02
-1.470000000000000000e+02
-4.250000000000000000e+02
-1.053000000000000000e+03
1.301000000000000000e+03
-7.660000000000000000e+02
-1.750000000000000000e+02
-3.640000000000000000e+02
-1.600000000000000000e+01
7.010000000000000000e+02
-1.140000000000000000e+02
2.640000000000000000e+02
5.000000000000000000e+01
-5.690000000000000000e+02
2.870000000000000000e+02
5.310000000000000000e+02
3.720000000000000000e+02
-5.870000000000000000e+02
-1.480000000000000000e+02
-2.490000000000000000e+02
5.110000000000000000e+02
3.200000000000000000e+01
2.440000000000000000e+02
-2.280000000000000000e+02
1.840000000000000000e+02
1.106000000000000000e+03
3.810000000000000000e+02
-4.770000000000000000e+02
-6.410000000000000000e+02
1.854000000000000000e+03
-5.560000000000000000e+02
-1.260000000000000000e+02
9.100000000000000000e+01
9.060000000000000000e+02
-3.490000000000000000e+02
-3.200000000000000000e+02
5.740000000000000000e+02
3.240000000000000000e+02
-4.800000000000000000e+02
8.600000000000000000e+01
-1.472000000000000000e+03
9.500000000000000000e+02
-3.440000000000000000e+02
6.850000000000000000e+02
8.560000000000000000e+02
4.230000000000000000e+02
6.310000000000000000e+02
-6.050000000000000000e+02
-2.000000000000000000e+02
7.470000000000000000e+02
8.580000000000000000e+02
3.700000000000000000e+01
2.740000000000000000e+02
5.880000000000000000e+02
9.640000000000000000e+02
-2.310000000000000000e+02
-1.250000000000000000e+02
-5.310000000000000000e+02
5.040000000000000000e+02
2.220000000000000000e+02
5.860000000000000000e+02
-7.240000000000000000e+02
5.110000000000000000e+02
-1.655000000000000000e+03
-4.420000000000000000e+02
-3.470000000000000000e+02
-2.670000000000000000e+02
-1.614000000000000000e+03
5.190000000000000000e+02
-2.210000000000000000e+02
-3.600000000000000000e+01
3.850000000000000000e+02
-4.200000000000000000e+01
-1.720000000000000000e+02
1.940000000000000000e+02
5.620000000000000000e+02
-1.730000000000000000e+02
-2.670000000000000000e+02
-3.920000000000000000e+02
7.000000000000000000e+00
7.000000000000000000e+00
2.100000000000000000e+02
-1.764000000000000000e+03
-1.100000000000000000e+01
5.740000000000000000e+02
-1.452000000000000000e+03
1.095000000000000000e+03
1.070000000000000000e+02
-6.100000000000000000e+02
-3.890000000000000000e+02
6.500000000000000000e+01
1.024000000000000000e+03
8.400000000000000000e+01
3.180000000000000000e+02
-3.400000000000000000e+01
6.290000000000000000e+02
4.250000000000000000e+02
3.460000000000000000e+02
3.650000000000000000e+02
3.800000000000000000e+01
-2.560000000000000000e+02
-1.100000000000000000e+02
-1.370000000000000000e+02
2.780000000000000000e+02
-3.050000000000000000e+02
-2.030000000000000000e+02
1.320000000000000000e+02
-7.990000000000000000e+02
6.420000000000000000e+02
7.040000000000000000e+02
3.580000000000000000e+02
2.380000000000000000e+02
3.030000000000000000e+02
1.405000000000000000e+03
-3.170000000000000000e+02
7.830000000000000000e+02
6.300000000000000000e+02
1.459000000000000000e+03
-6.100000000000000000e+01
-3.460000000000000000e+02
-3.500000000000000000e+02
7.880000000000000000e+02
-4.100000000000000000e+02
5.280000000000000000e+02
9.560000000000000000e+02
3.290000000000000000e+02
-2.980000000000000000e+02
-4.880000000000000000e+02
2.010000000000000000e+02
-2.270000000000000000e+02
-5.300000000000000000e+02
-1.200000000000000000e+02
-1.400000000000000000e+01
-8.020000000000000000e+02
7.000000000000000000e+01
-1.660000000000000000e+02
1.067000000000000000e+03
6.830000000000000000e+02
7.280000000000000000e+02
8.130000000000000000e+02
-2.390000000000000000e+02
-1.670000000000000000e+02
3.030000000000000000e+02
-4.530000000000000000e+02
2.330000000000000000e+02
-3.060000000000000000e+02
5.220000000000000000e+02
-4.460000000000000000e+02
-2.800000000000000000e+02
-4.070000000000000000e+02
8.370000000000000000e+02
5.680000000000000000e+02
1.660000000000000000e+02
4.210000000000000000e+02
6.540000000000000000e+02
9.880000000000000000e+02
7.980000000000000000e+02
6.070000000000000000e+02
-4.600000000000000000e+01
6.190000000000000000e+02
1.029000000000000000e+03
-3.260000000000000000e+02
-7.800000000000000000e+02
3.550000000000000000e+02
-1.670000000000000000e+02
8.940000000000000000e+02
-2.400000000000000000e+02
7.210000000000000000e+02
4.200000000000000000e+01
-4.850000000000000000e+02
1.420000000000000000e+02
2.680000000000000000e+02
-4.100000000000000000e+02
-5.600000000000000000e+01
