-1.099000000000000000e+03
-3.860000000000000000e+03
1.455000000000000000e+03
-7.400000000000000000e+03
-5.028000000000000000e+03
2.543000000000000000e+03
1.953000000000000000e+03
3.502000000000000000e+03
-2.035000000000000000e+03
8.100000000000000000e+01
-1.751000000000000000e+03
-1.315000000000000000e+03
-2.800000000000000000e+01
-9.600000000000000000e+01
-1.962000000000000000e+03
-7.490000000000000000e+02
-1.272000000000000000e+03
1.320000000000000000e+03
-6.022000000000000000e+03
-5.860000000000000000e+02
-1.893000000000000000e+03
1.780000000000000000e+02
1.188000000000000000e+03
-1.319700000000000000e+04
-5.097000000000000000e+03
-4.578000000000000000e+03
-7.500000000000000000e+02
1.220000000000000000e+02
-1.246000000000000000e+03
9.470000000000000000e+02
1.029000000000000000e+03
-1.139000000000000000e+03
1.800000000000000000e+01
-1.370000000000000000e+03
-2.284000000000000000e+03
-5.044000000000000000e+03
3.379000000000000000e+03
1.143000000000000000e+03
1.564000000000000000e+03
3.533000000000000000e+03
8.060000000000000000e+02
2.346000000000000000e+03
-2.197000000000000000e+03
-4.529000000000000000e+03
-3.526000000000000000e+03
8.340000000000000000e+02
2.208000000000000000e+03
-1.511000000000000000e+03
-1.670000000000000000e+03
-5.500000000000000000e+02
1.333000000000000000e+03
2.431000000000000000e+03
7.960000000000000000e+02
1.502000000000000000e+03
-4.847000000000000000e+03
4.473000000000000000e+03
-1.912000000000000000e+03
-1.387000000000000000e+03
6.500000000000000000e+01
7.980000000000000000e+02
-3.861000000000000000e+03
-3.419000000000000000e+03
1.412000000000000000e+03
-1.272000000000000000e+03
-1.735000000000000000e+03
-3.724000000000000000e+03
3.192000000000000000e+03
1.650000000000000000e+02
-2.057000000000000000e+03
3.049000000000000000e+03
1.206000000000000000e+03
2.292000000000000000e+03
4.412000000000000000e+03
2.811000000000000000e+03
1.072000000000000000e+03
1.450000000000000000e+02
8.440000000000000000e+02
-1.176000000000000000e+03
3.490000000000000000e+02
2.014000000000000000e+03
1.499000000000000000e+03
-3.344000000000000000e+03
-6.497000000000000000e+03
3.581000000000000000e+03
-2.152000000000000000e+03
-9.820000000000000000e+02
1.137000000000000000e+03
-3.138000000000000000e+03
-6.650000000000000000e+02
3.765000000000000000e+03
7.650000000000000000e+02
-4.080000000000000000e+02
4.201000000000000000e+03
-1.205000000000000000e+03
-3.707000000000000000e+03
7.160000000000000000e+02
-5.900000000000000000e+02
1.623000000000000000e+03
-2.522000000000000000e+03
-4.043000000000000000e+03
-5.290000000000000000e+03
-3.301000000000000000e+03
2.623000000000000000e+03
-3.771000000000000000e+03
-5.077000000000000000e+03
1.705000000000000000e+03
-2.576000000000000000e+03
-3.357000000000000000e+03
-5.130000000000000000e+02
-3.865000000000000000e+03
4.900000000000000000e+01
-2.723000000000000000e+03
-1.536000000000000000e+03
5.611000000000000000e+03
-3.192000000000000000e+03
-9.458000000000000000e+03
1.707000000000000000e+03
9.940000000000000000e+02
2.665000000000000000e+03
2.180000000000000000e+02
2.180000000000000000e+02
6.800000000000000000e+01
1.054000000000000000e+03
7.670000000000000000e+02
1.997000000000000000e+03
2.223000000000000000e+03
-4.970000000000000000e+02
1.452000000000000000e+03
