-9.480000000000000000e+02
-8.900000000000000000e+01
2.319000000000000000e+03
-2.037000000000000000e+03
1.882000000000000000e+03
1.370000000000000000e+02
1.579000000000000000e+03
-7.760000000000000000e+02
-1.064000000000000000e+03
-4.950000000000000000e+02
1.607000000000000000e+03
-1.340000000000000000e+02
2.889000000000000000e+03
-1.502000000000000000e+03
1.213000000000000000e+03
1.803000000000000000e+03
6.050000000000000000e+02
-1.555000000000000000e+03
2.839000000000000000e+03
3.470000000000000000e+02
-1.004000000000000000e+03
-6.950000000000000000e+02
-6.910000000000000000e+02
2.245000000000000000e+03
5.410000000000000000e+02
8.290000000000000000e+02
-2.177000000000000000e+03
-9.500000000000000000e+02
-2.727000000000000000e+03
7.160000000000000000e+02
-2.892000000000000000e+03
-3.590000000000000000e+02
2.904000000000000000e+03
1.225000000000000000e+03
9.000000000000000000e+00
-4.140000000000000000e+02
5.040000000000000000e+02
-6.370000000000000000e+02
5.890000000000000000e+02
1.280000000000000000e+03
-1.097000000000000000e+03
2.195000000000000000e+03
1.616000000000000000e+03
-3.010000000000000000e+02
-9.470000000000000000e+02
3.220000000000000000e+02
1.788000000000000000e+03
3.430000000000000000e+02
2.186000000000000000e+03
-1.030000000000000000e+03
-8.030000000000000000e+02
-1.552000000000000000e+03
-1.877000000000000000e+03
1.415000000000000000e+03
1.291000000000000000e+03
2.140000000000000000e+02
1.560000000000000000e+03
2.730000000000000000e+02
-1.456000000000000000e+03
1.376000000000000000e+03
2.876000000000000000e+03
8.590000000000000000e+02
-5.340000000000000000e+02
-1.020000000000000000e+02
1.360000000000000000e+03
2.785000000000000000e+03
1.287000000000000000e+03
-3.979000000000000000e+03
-8.090000000000000000e+02
1.252000000000000000e+03
6.330000000000000000e+02
-1.430000000000000000e+02
-9.300000000000000000e+01
1.812000000000000000e+03
8.340000000000000000e+02
-9.560000000000000000e+02
-4.130000000000000000e+02
-7.880000000000000000e+02
3.340000000000000000e+02
-8.090000000000000000e+02
-2.210000000000000000e+02
-6.920000000000000000e+02
-9.110000000000000000e+02
-1.048000000000000000e+03
1.100000000000000000e+01
8.810000000000000000e+02
-4.050000000000000000e+02
1.145000000000000000e+03
1.494000000000000000e+03
-1.271000000000000000e+03
6.450000000000000000e+02
-4.730000000000000000e+02
2.294000000000000000e+03
3.170000000000000000e+02
-7.240000000000000000e+02
-1.120000000000000000e+02
3.150000000000000000e+02
-1.104000000000000000e+03
-1.059000000000000000e+03
-1.000000000000000000e+02
6.400000000000000000e+02
-2.640000000000000000e+02
-2.280000000000000000e+02
-8.200000000000000000e+01
3.370000000000000000e+02
-1.212000000000000000e+03
1.582000000000000000e+03
-2.449000000000000000e+03
4.050000000000000000e+02
7.860000000000000000e+02
1.730000000000000000e+02
-4.040000000000000000e+02
6.690000000000000000e+02
-3.000000000000000000e+00
-1.546000000000000000e+03
-6.700000000000000000e+02
-8.590000000000000000e+02
-1.130000000000000000e+02
9.660000000000000000e+02
-1.222000000000000000e+03
-1.296000000000000000e+03
2.520000000000000000e+02
-4.990000000000000000e+02
1.897000000000000000e+03
1.809000000000000000e+03
-2.900000000000000000e+01
-9.500000000000000000e+01
2.730000000000000000e+02
-3.400000000000000000e+01
-1.850000000000000000e+03
5.420000000000000000e+02
-1.712000000000000000e+03
-8.300000000000000000e+01
8.640000000000000000e+02
-4.920000000000000000e+02
4.400000000000000000e+02
-9.780000000000000000e+02
2.908000000000000000e+03
1.083000000000000000e+03
-6.780000000000000000e+02
-9.980000000000000000e+02
2.740000000000000000e+02
4.100000000000000000e+02
-5.830000000000000000e+02
3.808000000000000000e+03
-1.561000000000000000e+03
1.657000000000000000e+03
3.010000000000000000e+02
-2.767000000000000000e+03
-2.330000000000000000e+02
-2.120000000000000000e+02
-5.280000000000000000e+02
6.630000000000000000e+02
-4.070000000000000000e+02
-7.030000000000000000e+02
-3.310000000000000000e+02
9.700000000000000000e+01
-7.560000000000000000e+02
4.270000000000000000e+02
-1.745000000000000000e+03
-1.732000000000000000e+03
-8.300000000000000000e+01
1.246000000000000000e+03
1.506000000000000000e+03
2.133000000000000000e+03
-2.208000000000000000e+03
5.220000000000000000e+02
1.659000000000000000e+03
-5.700000000000000000e+02
2.924000000000000000e+03
-2.759000000000000000e+03
1.073000000000000000e+03
-1.616000000000000000e+03
9.620000000000000000e+02
8.200000000000000000e+01
-5.380000000000000000e+02
2.064000000000000000e+03
1.673000000000000000e+03
-1.240000000000000000e+02
-4.510000000000000000e+02
4.000000000000000000e+02
-1.586000000000000000e+03
-1.274000000000000000e+03
-5.300000000000000000e+02
-4.200000000000000000e+02
2.091000000000000000e+03
4.450000000000000000e+02
8.850000000000000000e+02
-8.990000000000000000e+02
-1.121000000000000000e+03
-8.370000000000000000e+02
2.614000000000000000e+03
-6.820000000000000000e+02
-9.030000000000000000e+02
-7.130000000000000000e+02
1.409000000000000000e+03
5.190000000000000000e+02
-9.860000000000000000e+02
-9.200000000000000000e+02
-1.477000000000000000e+03
-4.410000000000000000e+02
-3.555000000000000000e+03
-5.480000000000000000e+02
-4.320000000000000000e+02
-2.360000000000000000e+02
-1.058000000000000000e+03
-4.860000000000000000e+02
8.410000000000000000e+02
3.630000000000000000e+02
-1.900000000000000000e+01
-4.930000000000000000e+02
-1.530000000000000000e+02
6.510000000000000000e+02
-1.038000000000000000e+03
3.380000000000000000e+02
-8.250000000000000000e+02
-3.160000000000000000e+02
1.112000000000000000e+03
1.995000000000000000e+03
1.077000000000000000e+03
1.020000000000000000e+02
1.687000000000000000e+03
-1.256000000000000000e+03
-1.740000000000000000e+02
1.063000000000000000e+03
-6.000000000000000000e+00
-1.200000000000000000e+01
-1.785000000000000000e+03
1.485000000000000000e+03
-2.740000000000000000e+02
8.530000000000000000e+02
4.677000000000000000e+03
-3.000000000000000000e+01
-1.880000000000000000e+02
1.811000000000000000e+03
-5.120000000000000000e+02
-8.530000000000000000e+02
-1.507000000000000000e+03
-1.581000000000000000e+03
-2.019000000000000000e+03
1.931000000000000000e+03
-1.306000000000000000e+03
1.479000000000000000e+03
-6.840000000000000000e+02
3.440000000000000000e+02
3.081000000000000000e+03
5.650000000000000000e+02
7.600000000000000000e+01
-5.940000000000000000e+02
1.934000000000000000e+03
-3.270000000000000000e+02
6.000000000000000000e+00
-1.850000000000000000e+02
6.030000000000000000e+02
1.002000000000000000e+03
-2.790000000000000000e+02
