4.820000000000000000e+02
6.320000000000000000e+02
7.860000000000000000e+02
4.280000000000000000e+02
1.279000000000000000e+03
-1.047000000000000000e+03
6.074000000000000000e+03
-5.780000000000000000e+02
-2.008000000000000000e+03
1.410000000000000000e+02
-1.390000000000000000e+03
2.419000000000000000e+03
-1.690000000000000000e+03
3.366000000000000000e+03
-6.510000000000000000e+02
-2.382000000000000000e+03
-1.527000000000000000e+03
2.660000000000000000e+03
5.930000000000000000e+02
-1.800000000000000000e+01
2.770000000000000000e+02
-5.660000000000000000e+02
-9.260000000000000000e+02
-5.980000000000000000e+02
-1.239000000000000000e+03
9.690000000000000000e+02
-2.087000000000000000e+03
-3.645000000000000000e+03
9.090000000000000000e+02
1.365000000000000000e+03
1.239000000000000000e+03
9.280000000000000000e+02
-3.690000000000000000e+02
1.057000000000000000e+03
8.560000000000000000e+02
-2.320000000000000000e+02
1.515000000000000000e+03
-3.970000000000000000e+02
-2.177000000000000000e+03
-1.106000000000000000e+03
-2.860000000000000000e+02
7.800000000000000000e+02
-3.690000000000000000e+02
1.340000000000000000e+03
1.020000000000000000e+02
1.476000000000000000e+03
1.645000000000000000e+03
1.352000000000000000e+03
-1.501000000000000000e+03
7.500000000000000000e+01
6.050000000000000000e+02
-8.420000000000000000e+02
-3.550000000000000000e+02
-2.540000000000000000e+03
1.870000000000000000e+02
4.120000000000000000e+02
9.550000000000000000e+02
3.340000000000000000e+02
1.284000000000000000e+03
-1.040000000000000000e+02
1.070000000000000000e+02
-1.321000000000000000e+03
9.860000000000000000e+02
-1.549000000000000000e+03
