6.940000000000000000e+02
7.440000000000000000e+02
-4.320000000000000000e+02
-1.816000000000000000e+03
-1.787000000000000000e+03
-4.375000000000000000e+03
-8.880000000000000000e+02
-1.004000000000000000e+03
-6.660000000000000000e+02
-5.920000000000000000e+02
5.380000000000000000e+02
7.080000000000000000e+02
9.700000000000000000e+02
8.100000000000000000e+01
-3.655000000000000000e+03
-1.384000000000000000e+03
5.250000000000000000e+02
-2.025000000000000000e+03
-2.717000000000000000e+03
-3.211000000000000000e+03
1.599000000000000000e+03
1.518000000000000000e+03
-1.267000000000000000e+03
-1.645000000000000000e+03
-1.363000000000000000e+03
4.540000000000000000e+02
-7.200000000000000000e+02
1.432000000000000000e+03
-6.519000000000000000e+03
-9.280000000000000000e+02
-8.600000000000000000e+01
-8.730000000000000000e+02
-8.740000000000000000e+02
-9.090000000000000000e+02
-6.200000000000000000e+02
9.200000000000000000e+01
-9.900000000000000000e+02
-9.860000000000000000e+02
-2.143000000000000000e+03
4.840000000000000000e+02
-2.578000000000000000e+03
3.060000000000000000e+02
-2.331000000000000000e+03
-1.151000000000000000e+03
-1.517000000000000000e+03
-3.245000000000000000e+03
-4.204000000000000000e+03
3.860000000000000000e+02
-9.080000000000000000e+02
-9.610000000000000000e+02
-4.064000000000000000e+03
-3.207000000000000000e+03
1.615000000000000000e+03
7.570000000000000000e+02
-2.634000000000000000e+03
-1.500000000000000000e+03
-3.044000000000000000e+03
-8.130000000000000000e+02
-2.845000000000000000e+03
-1.594000000000000000e+03
-3.961000000000000000e+03
-5.850000000000000000e+02
1.570000000000000000e+02
-6.840000000000000000e+02
-1.031000000000000000e+03
-1.799000000000000000e+03
-1.896000000000000000e+03
-1.093000000000000000e+03
-7.190000000000000000e+02
-1.431000000000000000e+03
-5.800000000000000000e+01
-7.131000000000000000e+03
-3.071000000000000000e+03
-1.004000000000000000e+03
8.270000000000000000e+02
-3.330000000000000000e+02
-1.061000000000000000e+03
-1.170000000000000000e+03
-8.700000000000000000e+01
-3.961000000000000000e+03
4.310000000000000000e+02
-1.965000000000000000e+03
-3.606000000000000000e+03
-7.470000000000000000e+02
1.040000000000000000e+03
6.840000000000000000e+02
-1.807000000000000000e+03
-8.920000000000000000e+02
-2.952000000000000000e+03
-3.122000000000000000e+03
2.030000000000000000e+02
-2.988000000000000000e+03
-6.190000000000000000e+02
4.700000000000000000e+01
-6.080000000000000000e+02
5.220000000000000000e+02
-1.200000000000000000e+02
-2.346000000000000000e+03
-1.870000000000000000e+02
-2.332000000000000000e+03
-2.209000000000000000e+03
-2.414000000000000000e+03
-2.475000000000000000e+03
1.964000000000000000e+03
-1.662000000000000000e+03
1.624000000000000000e+03
-9.980000000000000000e+02
-2.081000000000000000e+03
-1.570000000000000000e+02
-1.802000000000000000e+03
-1.407000000000000000e+03
-1.490000000000000000e+03
3.290000000000000000e+02
-3.829000000000000000e+03
-3.440000000000000000e+02
1.689000000000000000e+03
7.450000000000000000e+02
9.500000000000000000e+02
-1.495000000000000000e+03
-5.580000000000000000e+02
-1.188000000000000000e+03
1.033000000000000000e+03
-9.100000000000000000e+02
-2.176000000000000000e+03
1.524000000000000000e+03
3.121000000000000000e+03
3.600000000000000000e+02
-2.793000000000000000e+03
1.530000000000000000e+03
-2.396000000000000000e+03
-1.414000000000000000e+03
-4.050000000000000000e+02
-2.230000000000000000e+03
-2.748000000000000000e+03
1.100000000000000000e+01
-2.985000000000000000e+03
-2.056000000000000000e+03
-7.430000000000000000e+02
-7.750000000000000000e+02
-2.061000000000000000e+03
-2.576000000000000000e+03
-1.598000000000000000e+03
-1.484000000000000000e+03
1.818000000000000000e+03
-1.126000000000000000e+03
4.330000000000000000e+02
-1.482000000000000000e+03
-1.081000000000000000e+03
-1.296000000000000000e+03
-1.197000000000000000e+03
-1.346000000000000000e+03
-6.390000000000000000e+02
-1.155000000000000000e+03
-1.372000000000000000e+03
-3.620000000000000000e+02
-8.440000000000000000e+02
-1.180000000000000000e+03
-2.155000000000000000e+03
-2.017000000000000000e+03
-5.410000000000000000e+02
6.800000000000000000e+01
-1.338000000000000000e+03
1.217000000000000000e+03
-1.254000000000000000e+03
-6.950000000000000000e+02
-1.693000000000000000e+03
-2.788000000000000000e+03
-1.170000000000000000e+03
8.850000000000000000e+02
-1.237000000000000000e+03
-2.145000000000000000e+03
-2.890000000000000000e+02
-2.105000000000000000e+03
1.277000000000000000e+03
-6.210000000000000000e+02
-1.691000000000000000e+03
1.000000000000000000e+01
-4.420000000000000000e+02
8.570000000000000000e+02
-5.830000000000000000e+02
6.650000000000000000e+02
-3.246000000000000000e+03
-2.957000000000000000e+03
-2.299000000000000000e+03
-3.205000000000000000e+03
-2.179000000000000000e+03
-9.320000000000000000e+02
-4.470000000000000000e+02
3.240000000000000000e+02
3.030000000000000000e+02
6.050000000000000000e+02
1.232000000000000000e+03
-2.090000000000000000e+02
-1.781000000000000000e+03
-1.010000000000000000e+03
-3.160000000000000000e+02
-2.212000000000000000e+03
-1.358000000000000000e+03
-2.002000000000000000e+03
2.982000000000000000e+03
-1.066000000000000000e+03
-4.637000000000000000e+03
-2.921000000000000000e+03
2.175000000000000000e+03
-1.419000000000000000e+03
7.980000000000000000e+02
-6.860000000000000000e+02
-1.150000000000000000e+03
-1.836000000000000000e+03
2.023000000000000000e+03
-1.473000000000000000e+03
-7.910000000000000000e+02
6.200000000000000000e+01
-2.740000000000000000e+02
1.686000000000000000e+03
-3.550000000000000000e+03
3.420000000000000000e+02
2.200000000000000000e+03
-6.420000000000000000e+02
-1.505000000000000000e+03
-3.025000000000000000e+03
1.550000000000000000e+03
-7.110000000000000000e+02
-8.500000000000000000e+02
-1.810000000000000000e+03
-7.400000000000000000e+01
-4.250000000000000000e+03
-1.973000000000000000e+03
-1.390000000000000000e+02
3.860000000000000000e+02
-8.040000000000000000e+02
-4.640000000000000000e+02
4.600000000000000000e+01
-1.321000000000000000e+03
-2.188000000000000000e+03
6.070000000000000000e+02
1.353000000000000000e+03
-1.442000000000000000e+03
-2.326000000000000000e+03
-4.850000000000000000e+02
2.720000000000000000e+02
-5.620000000000000000e+02
-1.403000000000000000e+03
3.950000000000000000e+02
-1.014000000000000000e+03
-6.740000000000000000e+02
-4.372000000000000000e+03
-1.007000000000000000e+03
-1.122000000000000000e+03
3.950000000000000000e+02
-7.930000000000000000e+02
-2.410000000000000000e+02
-2.005000000000000000e+03
-6.270000000000000000e+02
4.680000000000000000e+02
-1.668000000000000000e+03
