-1.067000000000000000e+03
-3.910000000000000000e+02
-5.630000000000000000e+02
-6.130000000000000000e+02
-2.290000000000000000e+02
-1.350000000000000000e+02
3.520000000000000000e+02
-2.610000000000000000e+02
-1.094000000000000000e+03
-1.000000000000000000e+00
-4.250000000000000000e+02
1.463000000000000000e+03
1.540000000000000000e+02
-1.730000000000000000e+02
2.240000000000000000e+03
-1.754000000000000000e+03
-1.210000000000000000e+03
-7.620000000000000000e+02
-6.550000000000000000e+02
-4.080000000000000000e+02
-7.740000000000000000e+02
-7.220000000000000000e+02
-5.650000000000000000e+02
1.300000000000000000e+01
2.600000000000000000e+01
-5.650000000000000000e+02
-4.460000000000000000e+02
-4.000000000000000000e+02
-5.150000000000000000e+02
-8.100000000000000000e+02
1.854000000000000000e+03
6.000000000000000000e+00
-1.290000000000000000e+02
-6.390000000000000000e+02
1.553000000000000000e+03
-3.760000000000000000e+02
-8.040000000000000000e+02
-1.489000000000000000e+03
-6.870000000000000000e+02
-8.190000000000000000e+02
-9.130000000000000000e+02
1.175000000000000000e+03
-3.250000000000000000e+02
-4.320000000000000000e+02
1.540000000000000000e+02
-2.010000000000000000e+02
-4.440000000000000000e+02
-7.060000000000000000e+02
1.730000000000000000e+02
-1.065000000000000000e+03
1.720000000000000000e+02
-2.040000000000000000e+02
1.100000000000000000e+01
6.150000000000000000e+02
1.460000000000000000e+02
-6.840000000000000000e+02
-8.820000000000000000e+02
2.820000000000000000e+02
3.270000000000000000e+02
-4.720000000000000000e+02
-1.694000000000000000e+03
3.990000000000000000e+02
-5.090000000000000000e+02
4.070000000000000000e+02
-1.170000000000000000e+02
-4.620000000000000000e+02
-1.559000000000000000e+03
-5.940000000000000000e+02
-6.680000000000000000e+02
-1.027000000000000000e+03
9.970000000000000000e+02
2.760000000000000000e+02
-5.140000000000000000e+02
-9.710000000000000000e+02
3.920000000000000000e+02
-1.054000000000000000e+03
9.000000000000000000e+00
-6.100000000000000000e+01
-5.560000000000000000e+02
-1.099000000000000000e+03
3.800000000000000000e+02
-5.500000000000000000e+01
-6.430000000000000000e+02
-2.070000000000000000e+02
-5.590000000000000000e+02
-9.450000000000000000e+02
1.750000000000000000e+02
-1.349000000000000000e+03
3.710000000000000000e+02
-7.600000000000000000e+02
-4.100000000000000000e+01
1.720000000000000000e+02
-5.390000000000000000e+02
-1.517000000000000000e+03
1.160000000000000000e+02
-3.112000000000000000e+03
-3.118000000000000000e+03
4.400000000000000000e+01
1.029000000000000000e+03
-2.230000000000000000e+02
-4.760000000000000000e+02
7.760000000000000000e+02
-4.300000000000000000e+02
-4.480000000000000000e+02
-8.590000000000000000e+02
1.640000000000000000e+02
7.530000000000000000e+02
-1.274000000000000000e+03
-8.000000000000000000e+01
8.440000000000000000e+02
7.330000000000000000e+02
-6.020000000000000000e+02
-1.994000000000000000e+03
-6.060000000000000000e+02
-1.150000000000000000e+02
-7.400000000000000000e+02
-1.174000000000000000e+03
-1.216000000000000000e+03
-5.200000000000000000e+01
8.600000000000000000e+01
-9.870000000000000000e+02
-3.950000000000000000e+02
3.460000000000000000e+02
-7.340000000000000000e+02
-1.212000000000000000e+03
-1.070000000000000000e+03
-5.200000000000000000e+02
5.990000000000000000e+02
